2 0.0615423 0.930224 0.0077492 0.00048376 3.52455e-07 0 0 0 0 0 
3 0.950484 0.0268231 0.0215769 0.00111401 2.11606e-06 0 0 0 0 0 
4 0.258622 0.740319 0.00105673 2.50045e-06 5.99745e-07 0 0 0 0 0 
5 0.323836 0.674067 0.00204899 4.68904e-05 1.33936e-06 0 0 0 0 0 
6 0.203915 0.795689 0.000313115 4.25948e-05 2.17413e-05 7.06323e-06 4.62435e-06 1.76144e-06 4.24388e-06 1.06271e-06 
7 0.41673 0.580733 0.00252931 6.34718e-06 1.01596e-06 0 0 0 0 0 
8 0.755299 0.23329 0.00924049 0.00216713 2.94371e-06 0 0 0 0 0 
9 0.470373 0.529568 5.37439e-05 4.00131e-06 2.08869e-06 0 0 0 0 0 
10 0.321228 0.675023 0.00372964 7.10353e-06 7.10387e-06 3.51484e-06 0 1.77088e-06 0 0 
11 0.380132 0.61787 0.00176815 0.000104517 6.13286e-05 1.58316e-05 2.01375e-05 7.42172e-06 1.00527e-05 9.99879e-06 
12 0.287064 0.712818 0.000110584 4.85721e-06 2.53546e-06 0 0 0 0 0 
13 0.268481 0.728986 0.00250953 8.68647e-06 8.68819e-06 4.29873e-06 0 2.16583e-06 0 0 
14 0.17013 0.829409 0.000293561 8.23731e-05 3.64774e-05 2.57892e-05 1.67881e-05 2.08867e-06 2.10412e-06 2.09797e-06 
15 0.503129 0.496706 0.00015749 5.09326e-06 2.65868e-06 0 0 0 0 0 
16 0.827772 0.172175 4.53949e-05 5.92069e-06 1.42468e-06 0 0 0 0 0 
17 0.139548 0.859446 0.000712465 0.000136518 7.67779e-05 3.72163e-05 1.82763e-05 8.48632e-06 1.13961e-05 4.97073e-06 
18 0.282816 0.713735 0.00341725 1.13639e-05 1.13662e-05 5.62375e-06 0 2.83341e-06 0 0 
19 0.254037 0.745698 0.000169534 5.08425e-05 2.23224e-05 1.27536e-05 0 3.18871e-06 3.18918e-06 3.18845e-06 
20 0.220008 0.777763 0.00169638 0.000248965 0.000128078 4.82989e-05 7.26307e-05 1.50052e-05 1.31881e-05 6.73766e-06 
21 0.246433 0.748632 0.00492436 7.09626e-06 3.70415e-06 0 0 0 0 0 
22 0.339915 0.201429 0.458054 0.000317193 0.000156929 6.36147e-05 2.59358e-05 1.28302e-05 1.75843e-05 8.4653e-06 
23 0.17984 0.819839 0.000205016 6.1392e-05 2.69541e-05 1.53999e-05 0 3.85034e-06 3.85092e-06 3.85003e-06 
24 0.358713 0.414188 0.226671 0.000204557 0.000109154 5.291e-05 2.59833e-05 1.20649e-05 1.62016e-05 7.06683e-06 
25 0.15948 0.117667 0.719724 9.20012e-05 0.00299642 3.7111e-05 0 3.6271e-06 0 0 
26 0.550227 0.448656 0.00110479 8.33301e-06 4.34983e-06 0 0 0 0 0 
27 0.23046 0.765737 0.00352289 0.000137724 6.09839e-05 4.31151e-05 2.80668e-05 3.4919e-06 3.51772e-06 3.50745e-06 
28 0.271521 0.727183 0.00084062 0.000241596 5.47891e-05 0.000123124 0 3.55718e-05 0 0 
29 0.619906 0.362307 0.0144596 7.30534e-05 3.09691e-05 0.0032108 0 4.26859e-06 4.26923e-06 4.26824e-06 
30 0.1342 0.864611 0.000576248 0.000269115 0.000123157 0.000136318 2.5662e-05 3.47617e-05 1.17685e-05 1.17077e-05 
31 0.123319 0.875563 0.000604752 0.000233852 0.00013722 3.54225e-05 4.50569e-05 1.66058e-05 2.24925e-05 2.23719e-05 
32 0.100126 0.899789 7.2236e-05 1.04412e-05 2.51244e-06 0 0 0 0 0 
33 0.558255 0.441428 0.0003026 9.56103e-06 4.99086e-06 0 0 0 0 0 
34 0.407041 0.580279 0.0126648 1.07069e-05 5.04395e-06 0 0 0 0 0 
35 0.143851 0.847524 0.00509086 0.00293766 0.000358352 0.000147106 2.76928e-05 3.75127e-05 1.26998e-05 1.26342e-05 
36 0.664215 0.300511 0.0352216 2.16116e-05 1.76946e-05 8.75492e-06 0 4.41098e-06 0 0 
37 0.39022 0.6091 0.000531673 7.8609e-05 3.45132e-05 1.97187e-05 0 4.93014e-06 4.93088e-06 4.92974e-06 
38 0.155136 0.835842 0.00900581 1.28642e-05 2.81698e-06 0 0 0 0 0 
39 0.213308 0.783662 0.0021285 0.000421157 0.000216661 8.17039e-05 0.000122864 2.53833e-05 2.23093e-05 1.13976e-05 
40 0.291256 0.70666 0.00119426 0.000483468 0.000222948 7.40234e-05 7.58003e-05 8.23426e-06 8.39674e-06 1.67929e-05 
41 0.66391 0.334898 0.000864061 0.000168287 8.58976e-05 2.79061e-05 1.82703e-05 6.95927e-06 1.67671e-05 4.19867e-06 
42 0.0850981 0.87995 0.0293809 0.000556928 0.000219515 0.00467976 3.50012e-05 4.74024e-05 1.60479e-05 1.5965e-05 
43 0.129305 0.866195 0.00386451 0.000295598 0.000166235 8.05786e-05 3.95708e-05 1.83741e-05 2.46741e-05 1.07623e-05 
44 0.0905844 0.907226 0.00154532 0.000299706 0.000168554 8.17029e-05 4.0123e-05 1.86304e-05 2.50184e-05 1.09125e-05 
45 0.208357 0.791121 0.000333537 0.000100014 4.39111e-05 2.50882e-05 0 6.27262e-06 6.27356e-06 6.27211e-06 
46 0.667579 0.33102 0.00104754 0.000181233 9.25052e-05 3.00527e-05 1.96757e-05 7.4946e-06 1.80569e-05 4.52164e-06 
47 0.143068 0.841892 0.0141699 0.000362872 0.000280559 0.000120356 7.07492e-05 1.78925e-05 1.78686e-05 0 
48 0.146061 0.851571 0.00138262 0.000535607 0.000246992 8.20063e-05 8.39748e-05 9.12226e-06 9.30227e-06 1.86039e-05 
49 0.125592 0.87225 0.0011535 0.000546319 0.000251931 8.36464e-05 8.56543e-05 9.30471e-06 9.48832e-06 1.8976e-05 
50 0.170266 0.823972 0.0053048 0.000225411 9.89839e-05 6.99808e-05 4.55556e-05 5.66776e-06 5.70967e-06 5.693e-06 
51 0.356077 0.635562 0.0071903 0.000616117 0.000305096 0.000123677 5.04234e-05 2.49439e-05 3.41868e-05 1.64579e-05 
52 0.132062 0.866554 0.000909932 0.000232888 0.00010313 7.2912e-05 4.74637e-05 5.90515e-06 5.94882e-06 5.93145e-06 
53 0.69211 0.307265 0.000411137 0.00011392 5.00164e-05 2.85764e-05 0 7.14475e-06 7.14582e-06 7.14417e-06 
54 0.640446 0.31028 0.0479898 0.00109237 0.000102893 3.34276e-05 2.18853e-05 8.33624e-06 2.00847e-05 5.02942e-06 
55 0.308084 0.691296 0.000396032 0.000119011 5.22518e-05 2.98535e-05 0 7.46407e-06 7.46519e-06 7.46346e-06 
56 0.085288 0.912066 0.00186676 0.000362004 0.000203591 9.86861e-05 4.84632e-05 2.25031e-05 3.02188e-05 1.31808e-05 
57 0.150846 0.84661 0.00246721 2.79171e-05 2.79227e-05 1.38156e-05 0 6.96068e-06 0 0 
58 0.389928 0.609811 0.000236951 1.58424e-05 8.26974e-06 0 0 0 0 0 
59 0.202894 0.791895 0.00386191 0.000709794 0.000351485 0.000142482 5.80902e-05 2.87366e-05 3.93848e-05 1.89603e-05 
60 0.133754 0.864243 0.00107884 0.000421215 0.000247162 6.38031e-05 8.11567e-05 2.99104e-05 4.05136e-05 4.02963e-05 
61 0.278348 0.721403 0.000224107 1.66152e-05 8.67314e-06 0 0 0 0 0 
62 0.478934 0.520377 0.000443469 0.000130693 5.73808e-05 3.27839e-05 0 8.19674e-06 8.19797e-06 8.19607e-06 
63 0.101477 0.884409 0.0140323 2.96922e-05 2.96358e-05 1.46631e-05 0 7.38772e-06 0 0 
64 0.48392 0.514435 0.00118264 0.000237084 0.000121013 3.93142e-05 2.57393e-05 9.80426e-06 2.36216e-05 5.9151e-06 
65 0.182113 0.43408 0.383335 0.000245098 0.000121779 3.95631e-05 2.59022e-05 9.86631e-06 2.37711e-05 5.95254e-06 
66 0.957222 0.0347397 0.00120073 0.000240104 0.00242996 0.00410013 2.77725e-05 9.92915e-06 2.39225e-05 5.99046e-06 
67 0.233109 0.766125 0.000500904 0.00014108 6.19409e-05 3.53892e-05 0 8.84813e-06 8.84946e-06 8.84741e-06 
68 0.195992 0.801134 0.00151545 0.000738269 0.000340448 0.000113036 0.000115749 1.25739e-05 1.28221e-05 2.56432e-05 
69 0.127075 0.861714 0.010242 0.000450607 0.000253421 0.00012284 6.03248e-05 2.80108e-05 3.7615e-05 1.64069e-05 
70 0.664982 0.225223 0.073849 0.000462257 0.02102 0.000334929 6.03248e-05 0.000411798 0.0136398 1.64704e-05 
71 0.315085 0.674781 0.00887755 0.000523863 0.000405032 0.000173753 0.000102138 2.58307e-05 2.57961e-05 0 
72 0.407436 0.560313 0.0305787 0.000891826 0.000429314 0.000174032 7.0953e-05 3.50997e-05 4.81057e-05 2.31586e-05 
73 0.553757 0.381818 0.0493986 0.00746089 0.00737574 0.00010019 6.52199e-05 8.11427e-06 8.17427e-06 8.15041e-06 
74 0.391875 0.510948 0.0968863 0.00015459 6.77759e-05 3.8723e-05 0 9.68166e-06 9.6831e-06 9.68087e-06 
75 0.528216 0.45478 0.0017645 0.0149768 0.000141503 4.5963e-05 3.00923e-05 1.14623e-05 2.76164e-05 6.91545e-06 
76 0.378966 0.610627 0.00986146 0.00028092 0.000142526 4.63034e-05 3.03152e-05 1.15472e-05 2.7821e-05 6.96668e-06 
77 0.143139 0.856039 0.000525101 0.0001578 6.9282e-05 3.95835e-05 0 9.8968e-06 9.89828e-06 9.896e-06 
78 0.400829 0.587213 0.00292202 0.000511403 0.000317561 0.00804147 7.2961e-05 3.17901e-05 4.26901e-05 1.86205e-05 
79 0.240752 0.756117 0.00197333 0.000614619 0.000139383 0.000313227 0 9.04946e-05 0 0 
80 0.281841 0.710084 0.00662414 0.000604785 0.000467598 0.000200593 0.000117915 2.98208e-05 2.97809e-05 0 
81 0.685024 0.314622 0.000320044 2.23352e-05 1.1659e-05 0 0 0 0 0 
82 0.25943 0.738512 0.00130996 0.000367616 0.000162792 0.000115092 7.4922e-05 9.32135e-06 9.39028e-06 9.36287e-06 
83 0.460268 0.100862 0.428873 0.00912966 0.000479288 0.000205608 0.000120863 3.05663e-05 3.05254e-05 0 
84 0.151486 0.84642 0.00133276 0.000373794 0.000165528 0.000117027 7.61812e-05 9.47801e-06 9.5481e-06 9.52022e-06 
85 0.740613 0.106416 0.0289584 0.0919359 0.0316565 0.000211981 8.34741e-05 4.12937e-05 5.6595e-05 2.72455e-05 
86 0.456632 0.476452 0.0649611 0.00102869 0.000509355 0.000206478 8.41815e-05 4.16437e-05 5.70746e-05 2.74764e-05 
87 0.272095 0.262691 0.445626 0.0100084 0.00917478 0.000214547 0.000126118 3.18953e-05 3.18526e-05 0 
88 0.295389 0.478529 0.225932 7.5047e-05 4.2749e-05 2.11513e-05 0 1.06566e-05 0 0 
89 0.632151 0.319145 0.00213296 0.0424429 0.00374194 9.62847e-05 0.000122473 4.51376e-05 6.11387e-05 6.08108e-05 
90 0.25697 0.739121 0.00206482 0.00100242 0.00046226 0.00015348 0.000157164 1.70729e-05 1.74098e-05 3.48183e-05 
91 0.414046 0.566505 0.0194052 3.10464e-05 1.31703e-05 0 0 0 0 0 
92 0.137126 0.854676 0.00606247 0.00112384 0.000556518 0.000225596 9.19761e-05 4.54996e-05 6.23593e-05 3.00205e-05 
93 0.43793 0.549302 0.0113463 0.000648887 0.000379897 9.80678e-05 0.000124741 4.59734e-05 6.22709e-05 6.1937e-05 
94 0.380357 0.578236 0.0288793 0.0117211 0.0004024 0.00010087 0.000128305 4.7287e-05 6.40501e-05 6.37066e-05 
95 0.355309 0.6366 0.00661573 0.000672324 0.000394508 0.00010184 0.000129539 4.77417e-05 6.4666e-05 6.43192e-05 
96 0.173584 0.814763 0.010782 0.000427712 0.000189402 0.000133906 8.71689e-05 1.0845e-05 1.09252e-05 1.08933e-05 
97 0.354968 0.639916 0.00440157 0.000365984 0.000186807 6.0689e-05 3.97335e-05 1.51347e-05 3.64644e-05 9.13108e-06 
98 0.559894 0.397106 0.0291491 0.0131228 0.000355625 0.000172217 8.4573e-05 3.92701e-05 5.27348e-05 2.30018e-05 
99 0.283743 0.702848 0.0126773 0.000376998 0.000190506 6.18907e-05 4.05203e-05 1.54344e-05 3.71864e-05 9.3119e-06 
100 0.402381 0.584922 0.0119362 0.00040295 0.000192411 6.25097e-05 4.09255e-05 1.55888e-05 3.75583e-05 9.40501e-06 
101 0.867703 0.128269 0.00389509 4.82967e-05 4.83063e-05 2.39009e-05 0 1.2042e-05 0 0 
102 0.194851 0.719159 0.0845889 0.000651708 0.000366053 0.000177436 8.71358e-05 4.04601e-05 5.43328e-05 2.36989e-05 
103 0.312677 0.673278 0.0130921 0.000468227 0.000207345 0.000146591 9.5427e-05 1.18725e-05 1.19603e-05 1.19253e-05 
104 0.583354 0.232471 0.0916064 0.088959 0.00333181 0.000146613 9.5427e-05 1.18725e-05 1.19602e-05 1.19253e-05 
105 0.172624 0.706277 0.120952 5.37497e-05 5.36737e-05 2.65566e-05 0 1.338e-05 0 0 
106 0.730352 0.168257 0.0691728 0.0309669 0.000692547 0.000276868 0.00011288 5.58404e-05 7.65319e-05 3.68433e-05 
107 0.231932 0.764377 0.00280593 0.000454173 0.00023182 7.53128e-05 4.93079e-05 1.87817e-05 4.5251e-05 1.13313e-05 
108 0.368816 0.472509 0.156194 0.0013623 0.000614467 0.000204016 0.000208913 2.26944e-05 2.31422e-05 4.62828e-05 
109 0.21599 0.769043 0.013833 0.000572126 0.000240217 0.000169832 0.000110556 1.37547e-05 1.38564e-05 1.38159e-05 
110 0.400568 0.135961 0.434405 0.0281221 0.000469577 0.000219577 0.000107831 5.00693e-05 6.72368e-05 2.93273e-05 
111 0.244582 0.678214 0.0762767 0.0004797 0.000240513 7.81371e-05 5.11569e-05 1.9486e-05 4.69479e-05 1.17563e-05 
112 0.245389 0.319676 0.431921 0.00163008 0.000760809 0.00030841 0.000125739 6.2202e-05 8.52507e-05 4.10406e-05 
113 0.697708 0.148977 0.13871 0.000855532 0.0132621 0.000225211 0.000110595 5.13532e-05 6.89608e-05 3.00793e-05 
114 0.207629 0.153724 0.631188 0.00606111 0.000630539 0.000237779 0.000357567 7.38719e-05 6.49259e-05 3.317e-05 
115 0.466044 0.419058 0.111901 0.00157814 0.000780571 0.000316421 0.000129005 6.38176e-05 8.7465e-05 4.21066e-05 
116 0.288561 0.69501 0.0152371 0.000585319 0.000259181 0.000183239 0.000119284 1.48406e-05 1.49503e-05 1.49067e-05 
117 0.170817 0.146102 0.680717 0.000995566 0.00075677 0.000324644 0.000190837 4.82626e-05 4.81981e-05 0 
118 0.481643 0.514799 0.00257777 0.000502618 0.000256548 8.33462e-05 5.45674e-05 2.0785e-05 5.00777e-05 1.254e-05 
119 0.347522 0.649157 0.0021134 0.000593087 0.000262637 0.000185682 0.000120874 1.50385e-05 1.51496e-05 1.51054e-05 
120 0.431728 0.514216 0.0387608 0.000965305 0.000725193 0.0134337 0.000124507 1.54505e-05 1.55647e-05 1.55193e-05 
121 0.339273 0.657094 0.00261241 0.000523561 0.000267237 8.6819e-05 5.6841e-05 2.16511e-05 5.21643e-05 1.30625e-05 
122 0.578427 0.35593 0.0627668 0.00160093 0.000699809 0.000232351 0.000237929 2.58464e-05 2.63564e-05 5.2711e-05 
123 0.335747 0.640404 0.0071236 0.0151898 0.000692752 0.000261222 0.00039282 8.1155e-05 7.1327e-05 3.64403e-05 
124 0.158526 0.837587 0.00259348 0.00063545 0.000281397 0.000198945 0.000129508 1.61126e-05 1.62318e-05 1.61844e-05 
125 0.260894 0.737511 0.00102292 0.000304329 0.000133615 7.63397e-05 0 1.90867e-05 1.90895e-05 1.90851e-05 
126 0.418544 0.577811 0.00235068 0.00063545 0.000281397 0.000198945 0.000129508 1.61126e-05 1.62318e-05 1.61844e-05 
127 0.344167 0.645441 0.00981214 0.00030874 0.000135552 7.74461e-05 0 1.93633e-05 1.93662e-05 1.93617e-05 
128 0.327887 0.650795 0.00481728 0.000934035 0.0150032 0.0002692 0.000125021 5.80514e-05 7.79558e-05 3.40027e-05 
129 0.140591 0.855617 0.00272611 0.000546324 0.000278856 9.05937e-05 5.93124e-05 2.25924e-05 5.44323e-05 1.36305e-05 
130 0.430031 0.566226 0.00241033 0.00065414 0.000289673 0.000204797 0.000133317 1.65865e-05 1.67092e-05 1.66604e-05 
131 0.15726 0.836508 0.0060344 7.20846e-05 7.2099e-05 3.5673e-05 0 1.79731e-05 0 0 
132 0.760263 0.18049 0.0591653 6.02682e-05 2.12298e-05 0 0 0 0 0 
133 0.552552 0.209645 0.20916 0.0270888 0.000860341 0.000368253 0.000216471 5.47456e-05 5.46724e-05 0 
134 0.212037 0.78387 0.00294361 0.000589006 0.000300642 9.76713e-05 6.39462e-05 2.43574e-05 5.86848e-05 1.46953e-05 
135 0.372986 0.22821 0.394763 0.00233328 0.000939124 0.000380694 0.00015521 7.67805e-05 0.000105231 5.06595e-05 
136 0.251294 0.744814 0.00247715 0.000695023 0.000307778 0.000217597 0.000141649 1.76232e-05 1.77535e-05 1.77017e-05 
137 0.412952 0.499597 0.0411559 0.028984 0.0165426 0.000380694 0.00015521 7.67805e-05 0.000105231 5.06595e-05 
138 0.675482 0.0786365 0.0284861 0.215754 0.00104966 0.000274471 0.000134788 6.25867e-05 8.4046e-05 3.66592e-05 
139 0.471578 0.521607 0.00362396 0.00173435 0.000799782 0.000265544 0.000271919 2.95388e-05 3.01216e-05 6.02412e-05 
140 0.367295 0.62815 0.0033691 0.000608006 0.00031034 0.000100822 6.60089e-05 2.51432e-05 6.05779e-05 1.51694e-05 
141 0.233319 0.759723 0.00549713 0.000717444 0.000317706 0.000224616 0.000146219 1.81917e-05 1.83262e-05 1.82727e-05 
142 0.671656 0.304132 0.0230254 0.000608027 0.00031034 0.000100822 6.60089e-05 2.51432e-05 6.05779e-05 1.51694e-05 
143 0.677395 0.298243 0.00569657 0.0174498 0.000594086 0.000287969 0.000141417 6.56647e-05 8.81795e-05 3.84621e-05 
144 0.0649586 0.923496 0.00903082 0.00114626 0.000672604 0.000173628 0.000220853 8.13956e-05 0.00011025 0.000109659 
145 0.472048 0.42619 0.0979038 0.00203631 0.00100173 0.000406074 0.000165557 8.18992e-05 0.000112247 5.40368e-05 
146 0.171301 0.777883 0.0505949 8.10128e-05 8.05105e-05 3.98349e-05 0 2.007e-05 0 0 
147 0.232112 0.745598 0.00712631 0.0145567 0.000326262 0.000105949 6.93653e-05 2.64216e-05 6.36581e-05 1.59407e-05 
148 0.377811 0.570079 0.0472995 0.00289295 0.00105445 0.000427446 0.00017427 8.62097e-05 0.000118154 5.68809e-05 
149 0.266109 0.719575 0.0107263 0.00167724 0.000862843 0.000325382 0.000489302 0.000101088 8.88459e-05 4.53906e-05 
150 0.326889 0.612153 0.0584886 0.00116795 0.000635776 0.000308178 0.000151341 7.02728e-05 9.43675e-05 4.11612e-05 
151 0.3509 0.450667 0.197709 0.0003904 0.000167019 9.54246e-05 0 2.38584e-05 2.38619e-05 2.38564e-05 
152 0.467752 0.318229 0.0429066 0.150447 0.00128581 0.018882 0.000179839 0.000189609 6.41917e-05 6.386e-05 
153 0.333964 0.637761 0.0280292 8.94383e-05 8.94561e-05 4.4261e-05 0 2.23e-05 0 0 
154 0.267689 0.661407 0.0692239 0.000825988 0.000364774 0.000257892 0.000167881 2.08867e-05 2.10412e-05 2.09798e-05 
155 0.345058 0.620074 0.0168802 0.0171337 0.000365519 0.000257892 0.000167881 2.08867e-05 2.10412e-05 2.09798e-05 
156 0.363822 0.631478 0.00299184 0.000839274 0.000371656 0.000262758 0.000171048 2.12808e-05 2.14382e-05 2.13756e-05 
157 0.229565 0.404825 0.35724 0.0062736 0.000945808 0.000356669 0.00053635 0.000110808 9.73888e-05 4.97551e-05 
158 0.381929 0.608769 0.00663627 0.00123917 0.000696908 0.00033781 0.000165893 7.70298e-05 0.000103441 4.5119e-05 
159 0.387343 0.604479 0.00431082 0.00210123 0.000968967 0.000321717 0.00032944 3.57873e-05 3.64935e-05 7.29845e-05 
160 0.688907 0.239248 0.0679032 0.00184502 0.000945809 0.000356669 0.00053635 0.000110808 9.73888e-05 4.97551e-05 
161 0.295457 0.551308 0.128594 0.0228055 0.00100781 0.000334586 0.000342617 3.72188e-05 3.79533e-05 7.59039e-05 
162 0.410888 0.583879 0.00376203 0.000753927 0.000384821 0.000125019 8.18511e-05 3.11775e-05 7.51166e-05 1.881e-05 
163 0.227535 0.767034 0.00358276 0.000907786 0.000401996 0.000284208 0.000185011 2.3018e-05 2.31882e-05 2.31205e-05 
164 0.48286 0.261572 0.254032 0.000788874 0.000400856 0.000130228 8.52615e-05 3.24766e-05 7.82465e-05 1.95938e-05 
165 0.322957 0.660899 0.00582015 0.00337933 0.00196074 0.00236197 0.00262258 0 0 0 
166 0.138067 0.795527 0.0630524 0.00157762 0.000872954 0.000225347 0.000286638 0.000105641 0.000143091 0.000142323 
167 0.607997 0.386433 0.00400543 0.00080205 0.000409384 0.000132999 8.70756e-05 3.31676e-05 7.99113e-05 2.00107e-05 
168 0.0884711 0.687955 0.221452 0.00112054 0.000428213 0.000302743 0.000197077 2.45192e-05 2.47005e-05 2.46284e-05 
169 0.424576 0.573012 0.00154307 0.000463109 0.000203328 0.000116169 0 2.9045e-05 2.90493e-05 2.90426e-05 
170 0.32763 0.194011 0.475209 0.0016745 0.000378759 0.000851161 0 0.000245909 0 0 
171 0.278769 0.715414 0.0041835 0.000837697 0.000427579 0.00013891 9.09456e-05 3.46417e-05 8.34629e-05 2.09e-05 
172 0.351421 0.648001 0.000493256 6.868e-05 1.65263e-05 0 0 0 0 0 
173 0.220745 0.746862 0.0289033 0.00184159 0.000805316 0.000390358 0.000191699 8.90122e-05 0.000119532 5.21375e-05 
174 0.589815 0.328365 0.0369424 0.0431913 0.000824302 0.00039923 0.000196056 9.10352e-05 0.000122249 5.33224e-05 
175 0.111312 0.412411 0.410066 0.0603352 0.00481927 0.000560748 0.000329627 8.33626e-05 8.32512e-05 0 
176 0.323059 0.669385 0.00407016 0.00158913 0.000932474 0.000240712 0.000306182 0.000112844 0.000152847 0.000152027 
177 0.412151 0.444189 0.0453947 0.0755968 0.0210442 0.000900007 0.000306182 0.000112844 0.000152847 0.000152027 
178 0.432892 0.539122 0.0262403 0.000912613 0.000447467 0.000145371 9.51757e-05 3.62529e-05 8.73449e-05 2.18721e-05 
179 0.405326 0.583707 0.00629146 0.00254102 0.00117177 0.000389053 0.000398392 4.32777e-05 4.41317e-05 8.82603e-05 
180 0.58844 0.213721 0.168921 0.0031275 0.00114377 0.000516267 0.0238192 0.000134279 0.000117772 6.01689e-05 
181 0.234677 0.729976 0.0336365 0.000876667 0.000447467 0.000145371 9.51757e-05 3.62529e-05 8.73449e-05 2.18721e-05 
182 0.118315 0.881122 0.000471368 7.35858e-05 1.77067e-05 0 0 0 0 0 
183 0.288657 0.431378 0.278164 0.000947655 0.000458121 0.000148832 9.74418e-05 3.71161e-05 8.94245e-05 2.23929e-05 
184 0.118314 0.833572 0.0480221 7.36393e-05 1.77067e-05 0 0 0 0 0 
185 0.465751 0.533259 0.000889462 6.64608e-05 3.46926e-05 0 0 0 0 0 
186 0.264162 0.726465 0.0058434 0.00187384 0.000424949 0.000954961 0 0.000275898 0 0 
187 0.671653 0.085232 0.237311 0.00307113 0.0015026 0.00060911 0.000248335 0.000122849 0.00016837 8.10553e-05 
188 0.340902 0.401629 0.251968 0.0029255 0.000923675 0.00102239 0.000192465 0.000260713 8.82636e-05 8.78075e-05 
189 0.175084 0.800221 0.0202345 0.00185971 0.00143786 0.000616823 0.00036259 9.16989e-05 9.15763e-05 0 
190 0.668159 0.277922 0.0535871 0.000120807 0.000120766 5.97523e-05 0 3.0105e-05 0 0 
191 0.485768 0.440652 0.0700318 0.00169463 0.00090598 0.000439153 0.000215661 0.000100139 0.000134474 5.86547e-05 
192 0.274231 0.725178 0.000494936 7.7265e-05 1.85921e-05 0 0 0 0 0 
193 0.499502 0.472309 0.0271636 0.000546241 0.000239822 0.00013702 0 3.42582e-05 3.42633e-05 3.42554e-05 
194 0.376949 0.108763 0.449222 0.0366111 0.00127909 0.000475559 0.000715134 0.000147744 0.000138678 0.0256985 
195 0.618791 0.226205 0.120393 0.0336917 0.000493361 0.000160281 0.000104937 3.99712e-05 9.63033e-05 2.41154e-05 
196 0.261418 0.726511 0.00851761 0.00165222 0.00092921 0.000450413 0.000221191 0.000102706 0.000137922 6.01586e-05 
197 0.366995 0.573795 0.0581845 0.000546247 0.000239822 0.00013702 0 3.42582e-05 3.42633e-05 3.42554e-05 
198 0.315191 0.644419 0.0363523 0.0018405 0.00107971 0.000278719 0.000354527 0.000130661 0.000176981 0.000176031 
199 0.406898 0.476644 0.111166 0.00287536 0.00132595 0.000440245 0.000450812 4.89722e-05 4.99385e-05 9.98735e-05 
200 0.119755 0.847005 0.00512137 0.0271712 0.000510084 0.000164499 0.000107699 4.10231e-05 9.88376e-05 2.475e-05 
201 0.123963 0.841027 0.0301656 0.0021329 0.000972289 0.0010762 0.000202595 0.000274435 9.29091e-05 9.2429e-05 
202 0.60223 0.281859 0.110754 0.00237319 0.000998568 0.00110528 0.00020807 0.000281852 9.54201e-05 9.49271e-05 
203 0.24284 0.748174 0.00484022 0.00188978 0.00110889 0.000286252 0.000364108 0.000134193 0.000181764 0.000180789 
204 0.448459 0.398833 0.146729 0.00391935 0.00100664 0.000487948 0.000239623 0.000111265 0.000149415 6.51719e-05 
205 0.30936 0.629383 0.0300469 0.0288909 0.00113996 0.000294203 0.000374222 0.00013792 0.000186813 0.000185811 
206 0.199441 0.0652859 0.731423 0.00178993 0.00100664 0.000487948 0.000239623 0.000111265 0.000149415 6.51719e-05 
207 0.403195 0.552548 0.0131197 0.0246055 0.00577775 0.000397891 0.000259016 3.22252e-05 3.24635e-05 3.23688e-05 
208 0.470912 0.214212 0.31118 0.00267221 0.000549745 0.000178599 0.00011693 4.45393e-05 0.000107309 2.68715e-05 
209 0.485995 0.347604 0.0135175 0.114933 0.0365978 0.000625725 0.000503849 5.47336e-05 5.58136e-05 0.000111623 
210 0.619598 0.261536 0.11453 0.00233869 0.000512439 0.00115157 1.12855e-07 0.000332701 0 0 
211 0.678295 0.106416 0.152543 0.0308828 0.0306154 0.000311774 0.000396235 0.000146033 0.000197802 0.000196741 
212 0.571295 0.384851 0.0370692 0.00356984 0.00176776 0.0007166 0.000292159 0.000144528 0.000198082 9.53591e-05 
213 0.428753 0.560959 0.00812513 0.00110872 0.000565914 0.000183852 0.000120369 4.58493e-05 0.000110466 2.76618e-05 
214 0.61122 0.253079 0.0118603 0.0881398 0.0345473 0.000536738 0.000261407 0.00012138 0.000162998 7.10966e-05 
215 0.181874 0.294642 0.481301 0.0388667 0.00150316 0.000562024 0.000845158 0.000174606 0.000153461 7.84019e-05 
216 0.395031 0.365962 0.0209481 0.193898 0.022671 0.000738316 0.000301013 0.000148908 0.000204085 9.82488e-05 
217 0.0929285 0.899524 0.00480317 0.00134792 0.000596903 0.000422006 0.000274714 3.41783e-05 3.4431e-05 3.43305e-05 
218 0.440275 0.135709 0.380197 0.0403596 0.00158884 0.000579587 0.000871569 0.000180063 0.000158257 8.0852e-05 
219 0.567572 0.334466 0.0292482 0.0347912 0.0326278 0.000523082 0.00053534 5.81544e-05 5.9302e-05 0.0001186 
220 0.105792 0.852543 0.00569858 0.0333585 0.00128216 0.000330979 0.000421 0.00015516 0.000210164 0.000209037 
221 0.443606 0.472238 0.0798239 0.00201365 0.00113248 0.000548941 0.000269576 0.000125173 0.000168092 7.33183e-05 
222 0.222918 0.666526 0.0321819 0.0747494 0.00233058 0.00052279 0.00053534 5.81544e-05 5.9302e-05 0.0001186 
223 0.317351 0.640442 0.00970718 0.00066572 0.0315422 0.000167026 0 4.17521e-05 4.17584e-05 4.17487e-05 
224 0.322008 0.608751 0.0629581 0.00341449 0.00157457 0.00052279 0.00053534 5.81544e-05 5.9302e-05 0.0001186 
225 0.563814 0.428007 0.0058815 0.00117801 0.000601284 0.000195343 0.000127892 4.87149e-05 0.00011737 2.93907e-05 
226 0.230301 0.722083 0.0431444 0.0020786 0.00116901 0.000566649 0.000278272 0.000129211 0.000173514 7.56834e-05 
227 0.32359 0.55367 0.104176 0.00780947 0.00303598 0.00365724 0.00406077 0 0 0 
228 0.428559 0.461893 0.0767996 0.0324724 0.000159501 7.70997e-05 0 3.88451e-05 0 0 
229 0.44588 0.541514 0.0121788 0.000155796 0.000155827 7.70997e-05 0 3.88451e-05 0 0 
230 0.740097 0.204269 0.0189048 0.00207861 0.00116901 0.00057256 0.0325303 0.000129283 0.000173514 7.56835e-05 
231 0.197562 0.794403 0.00511402 0.00143489 0.000635413 0.000449232 0.000292437 3.63833e-05 3.66524e-05 3.65454e-05 
232 0.436255 0.326101 0.198073 0.0360224 0.00196073 0.000785949 0.000320433 0.000158515 0.000217252 0.000104587 
233 0.102589 0.841957 0.0488518 0.0030846 0.00158652 0.000598283 0.000899684 0.000185871 0.000163362 8.34601e-05 
234 0.268242 0.565868 0.163507 0.00122644 0.00062068 0.000201644 0.000132018 5.02863e-05 0.000121156 3.03388e-05 
235 0.262881 0.682624 0.0156351 0.00308396 0.00158675 0.0327532 0.00100257 0.000185871 0.000163362 8.34601e-05 
236 0.445195 0.541088 0.0072317 0.00352464 0.00162536 0.000539655 0.000552609 6.00304e-05 6.1215e-05 0.000122426 
237 0.200633 0.723935 0.0695371 0.00320223 0.00132351 0.000341655 0.000434581 0.000160166 0.000216944 0.00021578 
238 0.30937 0.673817 0.0121939 0.00214789 0.00120797 0.000585538 0.000287548 0.000133518 0.000179298 7.82062e-05 
239 0.118468 0.517781 0.363751 0 0 0 0 0 0 0 
240 0.101465 0.885535 0.0125588 0.000160989 0.000161021 7.96697e-05 0 4.01399e-05 0 0 
241 0.211783 0.741029 0.046746 0.000161027 0.000161021 7.96697e-05 0 4.01399e-05 0 0 
242 0.186529 0.80427 0.00674897 0.00125655 0.000641369 0.000208366 0.000136418 5.19626e-05 0.000125194 3.135e-05 
243 0.210868 0.557548 0.214706 0.0132351 0.00200346 0.000812147 0.000331114 0.000163798 0.000224493 0.000108074 
244 0.0998553 0.82411 0.0692863 0.0036883 0.00167954 0.000557643 0.000571029 6.20314e-05 6.32554e-05 0.000126506 
245 0.548993 0.436343 0.00772984 0.00376772 0.00173746 0.000576872 0.00059072 6.41704e-05 6.54367e-05 0.000130869 
246 0.316623 0.565261 0.0150416 0.0650551 0.0365153 0.00065292 0.00059072 6.41704e-05 6.54367e-05 0.000130869 
247 0.536953 0.414413 0.0484907 9.40093e-05 4.90481e-05 0 0 0 0 0 
248 0.274702 0.606925 0.01012 0.104697 0.00212768 0.000576872 0.00059072 6.41704e-05 6.54367e-05 0.000130869 
249 0.208096 0.689586 0.0676015 0.00021051 0.0345061 0 0 0 0 0 
250 0.212646 0.736887 0.0109939 0.00264922 0.00060079 0.00135012 2.24902e-05 0.0348504 0 0 
251 0.291802 0.660569 0.0331479 0.0115009 0.00146532 0.000378261 0.000481143 0.000177326 0.000240188 0.0002389 
252 0.497829 0.402422 0.0957728 0.00397707 0 0 0 0 0 0 
253 0.566058 0.429689 0.00282443 0.000760823 0.000334038 0.000190849 0 4.77167e-05 4.77239e-05 4.77128e-05 
254 0.538751 0.329583 0.124321 0.00345139 0.0017565 0.000662385 0.000996079 0.000205786 0.000180865 9.24023e-05 
255 0.264399 0.29676 0.345527 0.0916669 0.000704794 0.000497364 0.00032377 4.02816e-05 4.05794e-05 4.0461e-05 
256 0.546715 0.213503 0.223182 0.0133208 0.00179951 0.000597475 0.000611817 6.64622e-05 6.77737e-05 0.000135543 
257 0.248388 0.619483 0.127179 0.00230174 0.00129426 0.000627362 0.000308087 0.000143055 0.000192105 8.37924e-05 
258 0.179022 0.465272 0.303393 0.0444652 0.00618732 0.000881176 0.000517985 0.000130998 0.000130823 0 
259 0.193286 0.694081 0.078878 0.0330871 0.00033405 0.000190849 0 4.77167e-05 4.77239e-05 4.77128e-05 
260 0.60487 0.208114 0.0425243 0.142838 0.000710485 0.000497364 0.00032377 4.02816e-05 4.05794e-05 4.0461e-05 
261 0.503726 0.482475 0.00863045 0.00274384 0.000622247 0.00139834 1.37038e-07 0.000403994 0 0 
262 0.470056 0.341658 0.110794 0.0757729 0.000775716 0.000497364 0.00032377 4.02816e-05 4.05794e-05 4.0461e-05 
263 0.430002 0.449796 0.118815 0.00108552 0.000172523 8.53604e-05 0 4.30071e-05 0 0 
264 0.471879 0.283056 0.123992 0.0921851 0.0271309 0.000870162 0.000354765 0.000175498 0.000240529 0.000115793 
265 0.229423 0.753141 0.0123032 0.00238655 0.00134219 0.000650597 0.000319498 0.000148354 0.00019922 8.68958e-05 
266 0.447652 0.499504 0.0124524 0.038684 0.0007296 0.000515785 0.000335762 4.17735e-05 4.20824e-05 4.19595e-05 
267 0.34174 0.508896 0.146641 0.00139646 0.000712632 0.000231517 0.000151576 5.77362e-05 0.000139105 3.48334e-05 
268 0.225683 0.748897 0.0178405 0.00354084 0.00182156 0.000686918 0.00103297 0.000213408 0.000187564 9.58246e-05 
269 0.308961 0.638096 0.00845979 0.00405251 0.0373362 0.00218083 0.000634477 6.89238e-05 7.02838e-05 0.000140563 
270 0.0832124 0.289454 0.430686 0.0996362 0.0954396 0.000392271 0.000498963 0.000183894 0.000249084 0.000247748 
271 0.223857 0.343883 0.342156 0.0865731 0.00193793 0.000643434 0.00065888 7.15747e-05 7.29871e-05 0.000145969 
272 0.313143 0.555791 0.123321 0.00421381 0.00193793 0.000643434 0.00065888 7.15747e-05 7.29871e-05 0.000145969 
273 0.267809 0.56838 0.083404 0.00171087 0.000768732 0.0774469 0.000349377 4.33801e-05 4.37009e-05 4.35733e-05 
274 0.411514 0.43928 0.140326 0.00467614 0.00231169 0.000937093 0.000382054 0.000188998 0.000259031 0.0001247 
275 0.31527 0.569867 0.0695485 0.0413133 0.00221224 0.000948959 0.00055783 0.000141075 0.000140887 0 
276 0.274645 0.145861 0.393993 0.182889 0.000670138 0.0015059 1.4758e-07 0.00043507 0 0 
277 0.367198 0.312389 0.238203 0.0808316 0.000740253 0.000240422 0.000157406 5.99568e-05 0.000144455 3.61731e-05 
278 0.428769 0.507254 0.0178749 0.0404018 0.00400257 0.000423653 0.00053888 0.000198605 0.000269011 0.000267568 
279 0.246239 0.734928 0.0132881 0.00257747 0.00144957 0.000702645 0.000345058 0.000160222 0.000215158 9.38475e-05 
280 0.30879 0.689471 0.00157335 0.000108996 5.68958e-05 0 0 0 0 0 
281 0.491906 0.406898 0.0931292 0.00439472 0.00201545 0.000669172 0.000685235 7.44377e-05 7.59065e-05 0.000151808 
282 0.401498 0.531048 0.0192687 0.00384598 0.0419454 0.000741871 0.00111561 0.00023048 0.000202569 0.000103491 
283 0.27687 0.707325 0.0152748 0.000193187 0.000193225 9.56037e-05 0 4.81679e-05 0 0 
284 0.163715 0.808832 0.0192675 0.00382411 0.00196728 0.000741871 0.00111561 0.00023048 0.000202569 0.000103491 
285 0.217215 0.772027 0.00698457 0.0018534 0.000820741 0.000580258 0.000377732 4.69952e-05 4.73427e-05 4.72045e-05 
286 0.150441 0.735814 0.07353 0.0398281 0.000237061 9.95872e-05 0 5.01749e-05 0 0 
287 0.266546 0.555215 0.0477792 0.128966 0.000801816 0.000260457 0.000170523 6.49532e-05 0.000156493 3.91876e-05 
288 0.297031 0.601687 0.0426388 0.0548085 0.00210853 0.000697054 0.000713786 7.75392e-05 7.90693e-05 0.000158133 
289 0.448558 0.25108 0.250306 0.0045667 0.0437647 0.000697054 0.000713786 7.75392e-05 7.90693e-05 0.000158133 
290 0.333631 0.313733 0.218745 0.0462739 0.0520647 0.0345035 0.000320789 0.000434522 0.000147106 0.000146346 
291 0.611828 0.249483 0.0456222 0.00546341 0.0846722 0.00188234 0.000320775 0.000434522 0.000147106 0.000146346 
292 0.34962 0.401976 0.0699211 0.164592 0.00392219 0.00472393 0.00524516 0 0 0 
293 0.0450888 0.943883 0.00725483 0.0018534 0.000820741 0.000580258 0.000377732 4.69952e-05 4.73426e-05 4.72044e-05 
294 0.296815 0.511159 0.112034 0.0745492 0.00475119 0.000260457 0.000170523 6.49532e-05 0.000156493 3.91876e-05 
295 0.522327 0.22651 0.238347 0.00933902 0.00170954 0.000441305 0.000561334 0.000206881 0.000280219 0.000278716 
296 0.416505 0.563295 0.0118227 0.00455266 0.00209943 0.000697054 0.000713786 7.75392e-05 7.90693e-05 0.000158133 
297 0.128875 0.842528 0.0200703 0.00398345 0.00204925 0.000772783 0.00116209 0.000240084 0.000211009 0.000107803 
298 0.30226 0.550983 0.0972289 0.00282568 0.00157562 0.0136364 0.0309711 0.000183718 0.000233867 0.000102008 
299 0.181037 0.796306 0.0166304 0.0028016 0.00157562 0.000763745 0.000375063 0.000174154 0.000233867 0.000102008 
300 0.116219 0.818431 0.0593248 0.0028016 0.00157562 0.000763745 0.000375063 0.000174154 0.000233867 0.000102008 
301 0.253727 0.728877 0.0111028 0.00334032 0.000757518 0.00170232 1.66829e-07 0.000491818 0 0 
302 0.388999 0.599112 0.00854723 0.00171347 0.000874594 0.000284135 0.000186025 7.0858e-05 0.00017072 4.27501e-05 
303 0.405663 0.486088 0.0558135 0.00326326 0.0471949 0.00052882 0.000612364 0.000225688 0.000305694 0.000304054 
304 0.417246 0.339209 0.191723 0.0484504 0.00164726 0.00079846 0.000392111 0.00018207 0.000244498 0.000106645 
305 0.211177 0.596743 0.136133 0.00552519 0.00273352 0.0465589 0.000453055 0.000223362 0.000306127 0.000147373 
306 0.365575 0.260582 0.369719 0.00202955 0.000895354 0.000633008 0.000412071 5.12674e-05 5.16465e-05 5.14958e-05 
307 0.169122 0.687667 0.139524 0.0020589 0.000874594 0.000284135 0.000186025 7.0858e-05 0.00017072 4.27501e-05 
308 0.0984061 0.701893 0.195388 0.00211822 0.00093799 0.000663152 0.000431693 5.37087e-05 5.41059e-05 5.39479e-05 
309 0.30365 0.632514 0.0119042 0.00211817 0.00093799 0.000663152 0.000431693 5.37087e-05 5.55612e-05 0.0476715 
310 0.404776 0.58971 0.00360922 0.00101443 0.000445384 0.000254466 0 6.36223e-05 6.36318e-05 6.36171e-05 
311 0.20209 0.779178 0.0181 0.000229984 0.00023003 0.000113814 0 5.73428e-05 0 0 
312 0.211898 0.698491 0.0786259 0.00578088 0.00286209 0.00116021 0.00047302 0.000233998 0.000320705 0.000154391 
313 0.406022 0.540795 0.00365871 0.0486334 0.0004454 0.000254466 0 6.36223e-05 6.36318e-05 6.36171e-05 
314 0.383406 0.459386 0.0610186 0.0939948 0.000938073 0.000663152 0.000431693 5.37087e-05 5.41059e-05 5.39479e-05 
315 0.265213 0.612921 0.115252 0.00308234 0.00172568 0.000836482 0.000410783 0.00019074 0.00025614 0.000111723 
316 0.332626 0.647674 0.0161983 0.00179507 0.000916241 0.000297665 0.000194884 7.42322e-05 0.000178849 4.47858e-05 
317 0.58704 0.351939 0.0566323 0.00219407 0.00093799 0.000663152 0.000431693 5.37088e-05 5.41059e-05 5.39479e-05 
318 0.394028 0.498873 0.007548 0.00213553 0.096152 0.000669833 0.000431693 5.37087e-05 5.41059e-05 5.39479e-05 
319 0.334565 0.558131 0.00802213 0.0970873 0.00093799 0.000663152 0.000431693 5.37087e-05 5.41059e-05 5.39479e-05 
320 0.286138 0.275395 0.0347408 0.101459 0.301436 0.000313058 0.000204628 7.79438e-05 0.000187792 4.70251e-05 
321 0.313912 0.326312 0.298206 0.0560966 0.00301407 0.00121822 0.000496671 0.000245698 0.00033674 0.00016211 
322 0.570444 0.2558 0.116826 0.00395337 0.0510804 0.000878311 0.000431322 0.000200277 0.000268947 0.000117309 
323 0.565827 0.326624 0.103871 0.00188542 0.000962053 0.000312548 0.000204628 7.79438e-05 0.000187792 4.70251e-05 
324 0.148462 0.850357 0.000989872 0.00015453 3.71842e-05 0 0 0 0 0 
325 0.25466 0.631986 0.108825 0.00222408 0.00098489 0.000696309 0.000453278 5.63942e-05 5.68112e-05 5.66453e-05 
326 0.148462 0.850357 0.000989872 0.00015453 3.71842e-05 0 0 0 0 0 
327 0.201742 0.641868 0.10186 0.00222549 0.0509521 0.000729023 0.000453278 5.63942e-05 5.68112e-05 5.66453e-05 
328 0.432468 0.31221 0.188903 0.0606659 0.0031646 0.00128234 0.000522811 0.000258629 0.000354463 0.000170643 
329 0.325781 0.649435 0.0174894 0.00339141 0.00190733 0.000924533 0.000454023 0.000210818 0.000283102 0.000123484 
330 0.31905 0.564212 0.111972 0.00234122 0.00103673 0.000732957 0.000477135 5.93623e-05 5.98012e-05 5.96267e-05 
331 0.419459 0.380164 0.189607 0.00503202 0.00258853 0.000976146 0.00146791 0.000303263 0.000266538 0.000136172 
332 0.397153 0.53645 0.0625266 0.00198402 0.00101269 0.000328998 0.000215398 8.20461e-05 0.000197675 4.95001e-05 
333 0.441218 0.36503 0.0778906 0.057478 0.00319419 0.0538812 0.00052469 0.000258629 0.000354463 0.000170643 
334 0.424329 0.562559 0.00834505 0.00234113 0.00103673 0.000732957 0.000477135 5.93623e-05 5.98012e-05 5.96267e-05 
335 0.166421 0.568974 0.252613 0.00715976 0.00265191 0.000880489 0.000901625 9.79443e-05 9.9877e-05 0.000199747 
336 0.217962 0.596457 0.0213373 0.106098 0.00333411 0.0524347 0.0019789 9.79443e-05 9.9877e-05 0.000199747 
337 0.162057 0.78602 0.0425331 0.00391519 0.00302708 0.00129858 0.000763347 0.00019305 0.000192792 0 
338 0.0843846 0.898119 0.00782585 0.00424919 0.00194458 0.00215239 0.000405189 0.00054887 0.000185818 0.000184858 
339 0.256028 0.609527 0.123857 0.0057563 0.00265191 0.000880489 0.000901625 9.79443e-05 9.9877e-05 0.000199747 
340 0.734122 0.136434 0.0653659 0.00388483 0.00227938 0.000588407 0.000748445 0.000275841 0.000373626 0.0559272 
341 0.338146 0.401498 0.248982 0.00531782 0.00273234 0.00103038 0.00154946 0.000320111 0.000281345 0.000143737 
342 0.17444 0.746064 0.0683242 0.00607177 0.00279924 0.000929405 0.000951715 0.000103386 0.000105426 0.000210844 
343 0.340388 0.57905 0.0798263 0.000268315 0.000268368 0.000132783 0 6.68999e-05 0 0 
344 0.482713 0.447824 0.0197968 0.0471044 0.00109558 0.000773677 0.000503642 6.26602e-05 6.31235e-05 6.29393e-05 
345 0.0699412 0.909922 0.0116145 0.00388454 0.00227938 0.000588407 0.000748445 0.000275841 0.000373626 0.000371622 
346 0.281752 0.451861 0.254948 0.00538148 0.00273234 0.00103038 0.00154946 0.000320111 0.000281345 0.000143737 
347 0.358741 0.571017 0.010601 0.00209441 0.0566227 0.000348852 0.000227364 8.66043e-05 0.000208657 5.22501e-05 
348 0.227503 0.567437 0.0831888 0.0602576 0.0027324 0.00110288 0.0570325 0.000320134 0.000281345 0.000143737 
349 0.563901 0.253448 0.0638232 0.0591472 0.00201795 0.0103561 0.0466546 0.00022253 0.00029883 0.000130344 
350 0.24821 0.702806 0.0361692 0.00674304 0.00333911 0.00135358 0.000551856 0.000272997 0.000374156 0.000180123 
351 0.259579 0.692558 0.0437538 0.00211818 0.00106895 0.000347276 0.000227364 8.66043e-05 0.000208657 5.22501e-05 
352 0.398436 0.33107 0.262793 0.0035804 0.00201329 0.000975896 0.000479247 0.00022253 0.00029883 0.000130344 
353 0.499383 0.361966 0.0731997 0.0600853 0.00306491 0.000929405 0.000951715 0.000103386 0.000105426 0.000210844 
354 0.560255 0.265804 0.107017 0.00533935 0.0582598 0.00103065 0.00154946 0.000320111 0.000281345 0.000143737 
355 0.678658 0.247315 0.00994907 0.00389515 0.0578243 0.000588427 0.000748445 0.000275841 0.000373626 0.000371622 
356 0.37291 0.497725 0.119157 0.00448528 0.00205261 0.00227197 0.0004277 0.000579362 0.000196141 0.000195128 
357 0.395479 0.387462 0.156471 0.00247172 0.00109744 0.0562965 0.000533222 6.26602e-05 6.31235e-05 6.29393e-05 
358 0.3088 0.616983 0.0686982 0.00341097 0.00113183 0.000367704 0.000240738 9.16986e-05 0.000220931 5.53236e-05 
359 0.376904 0.122544 0.484807 0.00931538 0.00353553 0.0014332 0.000584319 0.000289056 0.000396165 0.000190718 
360 0.123131 0.836497 0.0283346 0.00562369 0.00289306 0.00109099 0.0016406 0.000338941 0.000297895 0.000152192 
361 0.49679 0.384675 0.0492162 0.00437579 0.00340555 0.0602136 0.000892066 0.000215762 0.000215474 0 
362 0.0691418 0.859503 0.0660269 0.00261696 0.00115869 0.000819187 0.000533268 6.63461e-05 6.68367e-05 6.66416e-05 
363 0.655642 0.152669 0.128539 0.00221783 0.00113183 0.000367704 0.000240738 9.17707e-05 0.0590444 5.53236e-05 
364 0.229285 0.669489 0.0361164 0.0586955 0.00289306 0.00109099 0.0016406 0.000338941 0.000297895 0.000152192 
365 0.157824 0.580207 0.253796 0.00381021 0.00213172 0.0010333 0.000507438 0.00023562 0.000316409 0.000138011 
366 0.586573 0.209219 0.0784067 0.00409466 0.0606442 0.00104102 0.000508527 0.059052 0.000322482 0.000138011 
367 0.655268 0.319065 0.0138404 0.00642728 0.0029639 0.000984076 0.0010077 0.000109467 0.000111627 0.000223247 
368 0.383822 0.307456 0.229518 0.077096 0.00113188 0.000367704 0.000240739 9.16986e-05 0.000220931 5.53236e-05 
369 0.179104 0.72566 0.033103 0.057203 0.00243358 0.000623019 0.000792471 0.000292067 0.000395604 0.000393482 
370 0.473942 0.277274 0.184632 0.00261687 0.0599716 0.000829822 0.000533268 6.63461e-05 6.68367e-05 6.66416e-05 
371 0.329393 0.595467 0.0119916 0.00221743 0.0014322 0.0588898 0.00024173 9.16986e-05 0.000220931 5.53236e-05 
372 0.6792 0.192059 0.124415 0.00221759 0.00113183 0.000367704 0.000240738 9.16986e-05 0.000220931 5.53236e-05 
373 0.0850768 0.098621 0.21091 0.598887 0.00361221 0.0014332 0.000584319 0.000289056 0.000396165 0.000190718 
374 0.435199 0.394735 0.161355 0.00407602 0.00226495 0.00109788 0.000539153 0.000250347 0.000336184 0.000146637 
375 0.504048 0.417572 0.0102249 0.0652484 0.00125691 0.000870386 0.000566598 7.04927e-05 7.1014e-05 7.08067e-05 
376 0.18819 0.733164 0.072985 0.00278011 0.00123111 0.000870386 0.000566598 7.04927e-05 7.1014e-05 7.08067e-05 
377 0.576385 0.40282 0.0112078 0.00437011 0.0025643 0.000661957 0.000842 0.000310321 0.000420329 0.000418074 
378 0.377309 0.343214 0.145525 0.00457206 0.127007 0.00110118 0.000539153 0.000250347 0.000336184 0.000146637 
379 0.414373 0.569279 0.0117516 0.00235602 0.00120257 0.000390685 0.000255785 9.74298e-05 0.000234739 5.87813e-05 
380 0.402585 0.417232 0.103266 0.00758608 0.0300519 0.0376985 0.000649686 0.000307122 0.000420925 0.000202638 
381 0.272255 0.352167 0.307418 0.00278009 0.0012344 0.0633671 0.000566598 7.04927e-05 7.1014e-05 7.08067e-05 
382 0.3481 0.485763 0.159382 0.00558709 0.000584567 0.000333986 0 8.35043e-05 8.35168e-05 8.34975e-05 
383 0.508686 0.279271 0.074529 0.0691732 0.0657518 0.00104568 0.00107068 0.000116309 0.000118604 0.0002372 
384 0.224337 0.759316 0.0117511 0.00235602 0.00120257 0.000390685 0.000255785 9.74298e-05 0.000234739 5.87813e-05 
385 0.384075 0.225408 0.240418 0.0222277 0.042179 0.0848998 0.000580537 7.04927e-05 7.1014e-05 7.08067e-05 
386 0.399262 0.529583 0.0686539 0.00133144 0.000584567 0.000333986 0 8.35043e-05 8.35168e-05 8.34975e-05 
387 0.279062 0.637649 0.0737017 0.00437044 0.0025643 0.000661957 0.000842001 0.000310321 0.000420329 0.000418074 
388 0.200977 0.590768 0.198097 0.00494062 0.0025643 0.000661957 0.000842 0.000310321 0.000420329 0.000418074 
389 0.388628 0.335022 0.0763585 0.194193 0.00320952 0.00104558 0.00107068 0.000116309 0.000118604 0.0002372 
390 0.305489 0.266438 0.0982651 0.0127908 0.17863 0.0807196 0.0569347 0.000250508 0.000336184 0.000146637 
391 0.385138 0.463238 0.0349368 0.110938 0.003161 0.00104558 0.00107068 0.000116309 0.000118604 0.0002372 
392 0.321076 0.461752 0.208509 0.00402785 0.00226495 0.00109788 0.000539153 0.000250347 0.000336184 0.000146637 
393 0.600702 0.315406 0.0782317 0.00278015 0.00123111 0.000870386 0.000566598 7.04927e-05 7.1014e-05 7.08067e-05 
394 0.319285 0.416568 0.255436 0.00407594 0.00226495 0.00109788 0.000539153 0.000250347 0.000336184 0.000146637 
395 0.28433 0.699323 0.0117512 0.00235602 0.00120257 0.000390685 0.000255785 9.74298e-05 0.000234739 5.87813e-05 
396 0.579323 0.393114 0.0149968 0.00682899 0.00314914 0.00104558 0.00107068 0.000116309 0.000118604 0.0002372 
397 0.542775 0.322488 0.121663 0.00626031 0.00307388 0.00115917 0.00174314 0.000360125 0.000316514 0.000161704 
398 0.399196 0.406308 0.0629891 0.0678362 0.0630766 0.000343324 0 8.35043e-05 8.35168e-05 8.34975e-05 
399 0.2323 0.747078 0.00913782 0.00504591 0.00230919 0.00255597 0.000481162 0.000651782 0.000220659 0.000219519 
400 0.351683 0.530684 0.103209 0.00759309 0.0037565 0.00152278 0.000620838 0.000307122 0.000420925 0.000202638 
401 0.560713 0.250297 0.00176951 0.187174 4.64802e-05 0 0 0 0 0 
402 0.50834 0.150402 0.207596 0.00402737 0.00226495 0.00109788 0.000543714 0.0852115 0.0403652 0.000151928 
403 0.417126 0.415739 0.0377657 0.0645446 0.0637563 0.000422039 0.000255785 9.74298e-05 0.000234739 5.87813e-05 
404 0.440756 0.543639 0.00994433 0.00278009 0.00123111 0.000870386 0.000566598 7.04927e-05 7.1014e-05 7.08067e-05 
405 0.299067 0.577343 0.108849 0.00791059 0.0037565 0.00152278 0.000620838 0.000307122 0.000420925 0.000202638 
406 0.34527 0.349622 0.040691 0.00767262 0.253392 0.00180018 0.000620839 0.000307122 0.000420925 0.000202638 
407 0.0710729 0.912322 0.0105675 0.00296543 0.00131319 0.000928412 0.000604371 7.51922e-05 7.57482e-05 7.55271e-05 
408 0.219886 0.41455 0.0334438 0.264332 0.0652611 0.00117115 0.000575096 0.000267036 0.000358597 0.000156412 
409 0.104258 0.877755 0.0130851 0.00251309 0.00128274 0.000416731 0.000272837 0.000103925 0.000250389 6.27001e-05 
410 0.27887 0.299165 0.310046 0.102136 0.00650335 0.00162429 0.000662228 0.000327597 0.000448987 0.000216147 
411 0.607131 0.233822 0.0160663 0.0051219 0.0679456 0.0691594 2.55805e-07 0.000754121 0 0 
412 0.303008 0.212964 0.213233 0.135058 0.00129669 0.000481231 0.0902782 0.0433673 0.000250497 6.27001e-05 
413 0.384852 0.448009 0.0850925 0.00809345 0.00547247 0.0668254 0.000662231 0.000327597 0.000448987 0.000216147 
414 0.211888 0.629158 0.14927 0.0051573 0.00116153 0.00261023 2.55805e-07 0.000754121 0 0 
415 0.543652 0.239744 0.0110399 0.135826 0.0013132 0.000947568 0.0672519 7.51922e-05 7.57482e-05 7.55271e-05 
416 0.236077 0.740384 0.018637 0.00251309 0.00128274 0.000416731 0.000272837 0.000103925 0.000250389 6.27001e-05 
417 0.141243 0.355286 0.497429 0.00296819 0.00131319 0.000928412 0.000604371 7.51922e-05 7.57482e-05 7.55271e-05 
418 0.276244 0.573757 0.0106283 0.00296543 0.00131319 0.000928412 0.133938 7.52697e-05 7.57482e-05 7.55271e-05 
419 0.247492 0.553257 0.184877 0.00750643 0.00246313 0.00272636 0.00051324 0.000695235 0.00023537 0.000234153 
420 0.247312 0.475416 0.121417 0.147939 0.00440254 0.00174031 0.00070953 0.000350997 0.000481057 0.000231586 
421 0.224419 0.602004 0.0877881 0.0792323 0.00359909 0.00119495 0.00122363 0.000132924 0.000135547 0.000271085 
422 0.285002 0.681146 0.0239522 0.00460263 0.00258851 0.00125472 0.000616175 0.000286111 0.00038421 0.000167585 
423 0.588076 0.393229 0.0134421 0.0026926 0.00137436 0.000446497 0.000292325 0.000111348 0.000268274 6.71787e-05 
424 0.174859 0.556383 0.180959 0.079992 0.00429338 0.00174031 0.00070953 0.000350997 0.000481057 0.000231586 
425 0.0812005 0.819159 0.0188159 0.0759751 0.00124449 0.00279667 2.74077e-07 0.000807987 0 0 
426 0.29055 0.691659 0.0113218 0.00317725 0.00140698 0.000994727 0.00064754 8.05631e-05 8.11588e-05 8.09219e-05 
427 0.391051 0.444299 0.0767455 0.00866962 0.00429314 0.00174031 0.000866907 0.0715659 0.000537313 0.000231586 
428 0.292341 0.301455 0.391553 0.00686338 0.003513 0.00132477 0.00199216 0.000411572 0.00036173 0.000184805 
429 0.302903 0.376338 0.112213 0.13182 0.00280422 0.0724676 0.00061618 0.000286111 0.00038421 0.000167585 
430 0.0853787 0.880994 0.0237276 0.00460263 0.00258851 0.00125472 0.000616175 0.000286111 0.00038421 0.000167585 
431 0.371095 0.316826 0.302177 0.00460436 0.00258852 0.00125472 0.000616175 0.000286111 0.000384211 0.000167585 
432 0.462902 0.298641 0.229372 0.00652528 0.00137436 0.000446497 0.000292325 0.000111348 0.000268274 6.71787e-05 
433 0.487436 0.172225 0.332404 0.00793461 0 0 0 0 0 0 
434 0.173327 0.617733 0.121045 0.0800868 0.00429468 0.00174031 0.00070953 0.000350997 0.000481057 0.000231586 
435 0.43354 0.457116 0.0949699 0.0078167 0.00359902 0.00119495 0.00122363 0.000132924 0.000135547 0.000271085 
436 0.172686 0.792683 0.0202697 0.00780456 0.00359902 0.00119495 0.00122363 0.000132924 0.000135547 0.000271085 
437 0.519493 0.318967 0.0215006 0.0659546 0.0728732 0.000472508 0.000292325 0.000111348 0.000268274 6.71787e-05 
438 0.6097 0.157334 0.156285 0.00269295 0.00140203 0.0718474 0.000292325 0.000111348 0.000268274 6.71787e-05 
439 0.228231 0.577625 0.184045 0.00480279 0.00258852 0.00125472 0.000616175 0.000286111 0.000384211 0.000167585 
440 0.156761 0.674709 0.158629 0.0046031 0.00258851 0.00125472 0.000616175 0.000286111 0.00038421 0.000167585 
441 0.520711 0.263319 0.215674 0.000195152 0.0001016 0 0 0 0 0 
442 0.402842 0.409515 0.109689 0.00038273 0.000375709 0.0771028 0 9.26306e-05 0 0 
443 0.264382 0.620191 0.0879091 0.0191303 0.00378323 0.00142668 0.0021454 0.000443231 0.000389555 0.00019902 
444 0.606827 0.171503 0.0500806 0.0093409 0.145164 0.0151757 0.000764109 0.000377996 0.000518062 0.000249401 
445 0.16065 0.809723 0.0226602 0.00342165 0.00151521 0.00107124 0.000697351 8.67603e-05 8.74018e-05 8.71467e-05 
446 0.380725 0.509646 0.0941625 0.00840491 0.00387587 0.00128687 0.00131776 0.000143149 0.000145974 0.000291938 
447 0.186275 0.28687 0.349958 0.0170751 0.154564 0.00334779 0.000764109 0.000377996 0.000518062 0.000249401 
448 0.264976 0.590275 0.0501359 0.0862055 0.00462338 0.00187419 0.000764109 0.000377996 0.000518062 0.000249401 
449 0.248254 0.72175 0.0289763 0.000371513 0.000371587 0.000183853 0 9.26307e-05 0 0 
450 0.168847 0.71774 0.102752 0.00495667 0.00278763 0.00135124 0.000663573 0.000308119 0.000413765 0.000180476 
451 0.42639 0.399738 0.168215 0.00289973 0.00148008 0.000480843 0.000314812 0.000119914 0.00028891 7.23462e-05 
452 0.37369 0.553847 0.066803 0.00290315 0.00148008 0.000480843 0.000314812 0.000119914 0.00028891 7.23462e-05 
453 0.28683 0.457018 0.0141348 0.226657 0.0102773 0.0031458 0.0005922 0.000802194 0.00027158 0.000270177 
454 0.332891 0.291576 0.127279 0.239244 0.00522644 0.00187419 0.000764109 0.000377996 0.000518062 0.000249401 
455 0.322692 0.284851 0.381788 0.00496365 0.00278763 0.00135124 0.000663573 0.000308119 0.000413765 0.000180476 
456 0.238488 0.299441 0.447595 0.00647404 0.00442419 0.00189792 0.00111566 0.00028215 0.000281773 0 
457 0.166511 0.617996 0.131603 0.00342173 0.00151521 0.00143161 0.07726 8.67603e-05 8.74018e-05 8.71467e-05 
458 0.310569 0.271769 0.247619 0.00901048 0.148498 0.00935818 0.0021454 0.000443231 0.000389555 0.00019902 
459 0.47658 0.196727 0.161047 0.00539443 0.0800063 0.000996771 0.0778343 0.000381933 0.000517328 0.000514553 
460 0.372425 0.497006 0.0379053 0.00739552 0.0806583 0.00143324 0.0021454 0.000443231 0.000389555 0.00019902 
461 0.342559 0.589527 0.0501701 0.00933652 0.00462338 0.00187419 0.000764109 0.000377996 0.000518062 0.000249401 
462 0.272832 0.553752 0.162813 0.00784646 0.00148008 0.000480843 0.000314812 0.000119914 0.00028891 7.23462e-05 
463 0.170646 0.651721 0.165263 0.00594907 0.00315607 0.000814717 0.00103631 0.000381933 0.000517328 0.000514553 
464 0.487325 0.492556 0.0144629 0.00289972 0.00148008 0.000480843 0.000314812 0.000119914 0.00028891 7.23462e-05 
465 0.0551012 0.919518 0.0112465 0.00621035 0.00284208 0.0031458 0.0005922 0.000802194 0.00027158 0.000270177 
466 0.427817 0.551967 0.014559 0.00289972 0.00148008 0.000480843 0.000314812 0.000119914 0.00028891 7.23462e-05 
467 0.240209 0.567095 0.0283975 0.136448 0.0249335 0.00135124 0.000663573 0.000308119 0.000413765 0.000180476 
468 0.0935064 0.26821 0.561928 0.0699343 0.00315607 0.000814717 0.00103631 0.000381933 0.000517328 0.000514553 
469 0.241682 0.571392 0.0176134 0.161357 0.00477003 0.00128687 0.00131776 0.000143149 0.000145974 0.000291938 
470 0.156993 0.61332 0.215964 0.0057222 0.00442419 0.00189792 0.00111566 0.00028215 0.000281773 0 
471 0.190858 0.501947 0.0401416 0.00796689 0.00487431 0.25077 0.0023242 0.000480167 0.000422018 0.000215605 
472 0.267965 0.620996 0.0974958 0.00658729 0.00341907 0.00088261 0.00112267 0.000413761 0.000560438 0.000557433 
473 0.183815 0.547427 0.177875 0.00370886 0.00297207 0.0831632 0.000755463 9.39903e-05 9.46853e-05 9.44089e-05 
474 0.0933219 0.802543 0.0132955 0.0869994 0.00164148 0.00116052 0.000755463 9.39903e-05 9.46853e-05 9.44089e-05 
475 0.181586 0.278758 0.269461 0.097308 0.0049805 0.166208 0.000722097 0.000333796 0.000448246 0.000195516 
476 0.101302 0.30036 0.418873 0.0933946 0.0825331 0.00088261 0.00112267 0.000413761 0.000560438 0.000557433 
477 0.481474 0.331103 0.0132087 0.00370706 0.0849745 0.00116052 0.000888545 0.0830552 0.000333718 9.44089e-05 
478 0.0593702 0.913134 0.0121837 0.00672788 0.00307892 0.00340795 0.00064155 0.000869043 0.000294212 0.000292692 
479 0.203856 0.472673 0.137533 0.17659 0.00524827 0.00203037 0.000827785 0.000409496 0.000561234 0.000270184 
480 0.286099 0.473755 0.219345 0.0116939 0.00500866 0.00203037 0.000827785 0.000409496 0.000561234 0.000270184 
481 0.0867452 0.744223 0.154165 0.00619913 0.00479288 0.00205608 0.00120863 0.000305663 0.000305254 0 
482 0.194091 0.574455 0.128898 0.0101696 0.0882877 0.00203039 0.000827785 0.000409496 0.000561234 0.000270184 
483 0.348178 0.421793 0.105397 0.0135177 0.00784295 0.010945 0.0923265 0 0 0 
484 0.376354 0.434643 0.0995886 0.0864278 0.00160342 0.000520914 0.000341046 0.000129906 0.000312986 7.83751e-05 
485 0.261823 0.619405 0.102017 0.00910532 0.00419886 0.00139411 0.00142757 0.000155078 0.000158139 0.000316266 
486 0.221993 0.750488 0.012207 0.00672788 0.00307892 0.00340796 0.00064155 0.000869043 0.000294212 0.000292692 
487 0.18493 0.502408 0.129391 0.1752 0.00461955 0.00139411 0.00142757 0.000155078 0.000158139 0.000316266 
488 0.186154 0.664454 0.049006 0.00797514 0.0874236 0.00154557 0.00232418 0.000480167 0.000422018 0.000215605 
489 0.407748 0.393578 0.180743 0.00884497 0.0040985 0.00154557 0.00232418 0.000480167 0.000422018 0.000215605 
490 0.21248 0.682096 0.0159664 0.086471 0.00160342 0.000520914 0.000341046 0.000129906 0.000312986 7.83751e-05 
491 0.18262 0.66012 0.0547074 0.0934445 0.00500907 0.00203037 0.000827785 0.000409496 0.000561234 0.000270184 
492 0.327876 0.235705 0.169326 0.00904631 0.166356 0.00696829 0.0836008 0.000485064 0.000422018 0.000215605 
493 0.140707 0.564834 0.287762 0.00343915 0.00174919 0.000568269 0.00037205 0.000141716 0.000341439 8.55001e-05 
494 0.0881126 0.909739 0.00179977 0.000280964 6.76076e-05 0 0 0 0 0 
495 0.393876 0.472416 0.0301988 0.096767 0.00329447 0.00159692 0.000784222 0.000364141 0.000488995 0.00021329 
496 0.553898 0.292797 0.043793 0.00869116 0.00447109 0.00169915 0.0750903 0.018865 0.000460383 0.000235206 
497 0.161907 0.716933 0.0163063 0.00635863 0.0811511 0.0144486 0.00122473 0.000451376 0.000611387 0.000608108 
498 0.142495 0.651909 0.0556316 0.146706 0.00174919 0.000568269 0.00037205 0.000141716 0.000341439 8.55001e-05 
499 0.199607 0.575776 0.0301998 0.187672 0.00329873 0.00159692 0.000784222 0.000364141 0.000488995 0.00021329 
500 0.0884855 0.818543 0.079739 0.0131648 6.76076e-05 0 0 0 0 0 
501 0.367352 0.179373 0.0734199 0.00676259 0.00522859 0.00623961 0.270098 0.0911935 0.000333005 0 
502 0.245053 0.492958 0.149374 0.102679 0.00546408 0.00221495 0.000903038 0.000446723 0.000612255 0.000294746 
503 0.450416 0.30547 0.134632 0.0995686 0.00447146 0.00168607 0.00253547 0.000523819 0.000460383 0.000235206 
504 0.188133 0.698311 0.0144134 0.00404511 0.0926836 0.00128089 0.000824142 0.000102535 0.000103293 0.000102992 
505 0.464075 0.36486 0.059186 0.0110341 0.00546399 0.00221495 0.000903038 0.000446723 0.000629812 0.0911862 
506 0.3403 0.234279 0.238563 0.174229 0.00718847 0.00168607 0.00253547 0.000523819 0.000460383 0.000235206 
507 0.117843 0.760392 0.10782 0.00635652 0.0037299 0.000962847 0.00122473 0.000451376 0.000611387 0.000608108 
508 0.404209 0.257065 0.317756 0.0110341 0.00546399 0.00221495 0.000903038 0.000446723 0.000612255 0.000294746 
509 0.404323 0.423696 0.0601018 0.0110341 0.00849274 0.0900624 0.000935897 0.000446723 0.000612255 0.000294746 
510 0.43007 0.345146 0.059304 0.158736 0.0032966 0.00159692 0.000784222 0.000364141 0.000488995 0.00021329 
511 0.140827 0.744559 0.10793 0.00342694 0.00174919 0.000568269 0.00037205 0.000141716 0.000341439 8.55001e-05 
512 0.194715 0.325259 0.240511 0.141515 0.0941675 0.0015883 0.00155735 0.000169177 0.000172515 0.000345018 
513 0.595566 0.289747 0.0170929 0.00345223 0.092633 0.000568269 0.00037205 0.000141716 0.000341439 8.55001e-05 
514 0.278285 0.339574 0.282998 0.00407027 0.0926732 0.00126605 0.000824142 0.000102535 0.000103293 0.000102992 
515 0.237363 0.672321 0.0740967 0.00676259 0.00522859 0.00224299 0.00131851 0.00033345 0.000333005 0 
516 0.0647675 0.442658 0.203142 0.00748949 0.185696 0.0939535 0.000703769 0.000948047 0.000320959 0.0003193 
517 0.383207 0.313841 0.106562 0.00707798 0.185426 0.000990793 0.00122473 0.000451376 0.000611387 0.000608108 
518 0.459729 0.244928 0.287032 0.00412123 0.00179071 0.00126602 0.000824142 0.000102535 0.000103293 0.000102992 
519 0.318952 0.433966 0.133187 0.00647848 0.00362392 0.101757 0.000862644 0.000400555 0.000537895 0.000234619 
520 0.214126 0.543353 0.122413 0.0113669 0.1046 0.00167293 0.00171309 0.000186094 0.000189766 0.000379519 
521 0.114524 0.742706 0.022677 0.110913 0.00503863 0.00167293 0.00171309 0.000186094 0.000189766 0.000379519 
522 0.378572 0.58818 0.0179088 0.00699217 0.00410289 0.00105913 0.0013472 0.000496513 0.000672526 0.000668919 
523 0.321316 0.246205 0.416243 0.00788859 0.00410288 0.00105913 0.0013472 0.000496513 0.000672526 0.000668919 
524 0.314186 0.443291 0.222416 0.0109264 0.00503863 0.00167293 0.00171309 0.000186094 0.000189766 0.000379519 
525 0.222718 0.634752 0.0224339 0.110907 0.00504713 0.00167293 0.00171309 0.000186094 0.000189766 0.000379519 
526 0.53947 0.349565 0.106964 0.0021303 0.000935308 0.000534378 0 0.000133607 0.000133627 0.000133596 
527 0.354385 0.619085 0.0191767 0.00376964 0.00192411 0.000625096 0.000409255 0.000155888 0.000375583 9.40501e-05 
528 0.309304 0.415276 0.0673095 0.0972684 0.103521 0.00319105 0.00278902 0.0005762 0.000506422 0.000258726 
529 0.444663 0.467165 0.0651046 0.0121375 0.00601039 0.00243644 0.000993341 0.000491395 0.00067348 0.000324221 
530 0.104091 0.597304 0.0807662 0.107437 0.00575157 0.00260871 0.101309 0.000367161 0.000366305 0 
531 0.0712444 0.795758 0.0146227 0.00807435 0.103694 0.00408955 0.00076986 0.00104285 0.000353054 0.00035123 
532 0.114216 0.659049 0.206606 0.0109485 0.00503863 0.00167293 0.00171309 0.000186094 0.000189766 0.000379519 
533 0.21416 0.443365 0.222367 0.0109275 0.00504004 0.101671 0.0017131 0.000186094 0.000189766 0.000379519 
534 0.251317 0.537456 0.188159 0.0121385 0.00601039 0.00243644 0.000993341 0.000491395 0.00067348 0.000324221 
535 0.110528 0.420612 0.0560784 0.201793 0.00500258 0.00823776 0.196405 0.000577565 0.000506422 0.000258726 
536 0.213561 0.646298 0.0256696 0.00768274 0.00174334 0.103914 3.83708e-07 0.00113118 0 0 
537 0.121626 0.446337 0.416693 0.00699617 0.00410289 0.00105913 0.0013472 0.000496513 0.000672526 0.000668919 
538 0.106608 0.868485 0.0158504 0.00444815 0.00196978 0.00139262 0.000906556 0.000112788 0.000113622 0.000113291 
539 0.220324 0.646261 0.11807 0.00699814 0.00410288 0.00105913 0.0013472 0.000496513 0.000672526 0.000668919 
540 0.114186 0.643184 0.222515 0.010935 0.00503863 0.00167293 0.00171309 0.000186094 0.000189766 0.000379519 
541 0.324391 0.441141 0.019129 0.00699217 0.00410288 0.00106183 0.101336 0.000586475 0.10059 0.000669989 
542 0.071247 0.595622 0.0147602 0.301548 0.0102169 0.00408955 0.00076986 0.00104285 0.000353054 0.00035123 
543 0.387449 0.388626 0.165667 0.0490781 0.00503863 0.00167293 0.00171309 0.000186094 0.000189766 0.000379519 
544 0.21772 0.435178 0.225135 0.0145513 0.00362392 0.00590928 0.0967099 0.000400562 0.000537895 0.000234619 
545 0.171103 0.695863 0.0146596 0.108073 0.0036947 0.00408955 0.00076986 0.00104285 0.000353054 0.00035123 
546 0.393291 0.601566 0.00472768 0.000272489 0.000142239 0 0 0 0 0 
547 0.154928 0.718848 0.0188702 0.00377217 0.101922 0.000625096 0.000409255 0.000155888 0.000375583 9.40501e-05 
548 0.254778 0.553425 0.0844425 0.10377 0.00192411 0.000625096 0.000409255 0.000155888 0.000375583 9.40501e-05 
549 0.454777 0.32376 0.114108 0.00380352 0.101892 0.000625096 0.000409255 0.000155888 0.000375583 9.40501e-05 
550 0.299399 0.317441 0.134487 0.237699 0.00605438 0.00243644 0.000993342 0.000491395 0.00067348 0.000324221 
551 0.219512 0.533411 0.13326 0.1064 0.00362397 0.00175661 0.000862644 0.000400555 0.000537895 0.000234619 
552 0.333355 0.364763 0.278815 0.0121375 0.00601039 0.00243644 0.000993341 0.000491395 0.00067348 0.000324221 
553 0.121888 0.540949 0.321823 0.00699256 0.00410289 0.00105913 0.0013472 0.000496513 0.000672526 0.000668919 
554 0.244612 0.567216 0.0651049 0.112137 0.00601039 0.00243644 0.000993342 0.000491395 0.00067348 0.000324221 
555 0.521136 0.345616 0.0179087 0.00703694 0.104055 0.00106193 0.0013472 0.000496513 0.000672526 0.000668919 
556 0.41953 0.433199 0.133411 0.00644368 0.00362392 0.00175661 0.000862644 0.000400555 0.000537895 0.000234619 
557 0.244258 0.461045 0.270919 0.012849 0.00601039 0.00243644 0.000993342 0.000491395 0.00067348 0.000324221 
558 0.124001 0.338782 0.295165 0.00914055 0.22744 0.00304473 0.00161151 0.000407551 0.000407006 0 
559 0.393579 0.364022 0.20112 0.037297 0.0021379 0.000694552 0.000454728 0.000173209 0.000417314 0.0001045 
560 0.237887 0.603754 0.0249072 0.0121404 0.00559847 0.00185886 0.113014 0.000206837 0.000210851 0.000421688 
561 0.133536 0.48692 0.246084 0.0121491 0.116702 0.00186596 0.00190343 0.000206771 0.000210852 0.000421688 
562 0.257705 0.482994 0.0200348 0.00777047 0.22678 0.00117681 0.00149689 0.000551681 0.000747251 0.000743243 
563 0.505309 0.354519 0.0208909 0.00418848 0.0021379 0.111806 0.000454728 0.000173209 0.000417314 0.0001045 
564 0.359442 0.342081 0.163731 0.0115198 0.116576 0.00206075 0.00309891 0.000640223 0.000562691 0.000287474 
565 0.226352 0.224179 0.198627 0.117962 0.227703 0.00275117 0.00161151 0.000407551 0.000407006 0 
566 0.143921 0.708021 0.130693 0.00809158 0.00455876 0.00117681 0.00149689 0.000551681 0.000747251 0.000743243 
567 0.351764 0.400175 0.126887 0.00508057 0.113158 0.00155059 0.00100728 0.00012532 0.000126247 0.000125879 
568 0.237894 0.506698 0.121654 0.123554 0.00559848 0.00185881 0.00190343 0.000206771 0.000210852 0.000421688 
569 0.490753 0.189122 0.294495 0.0134861 0.00667821 0.00270716 0.00110371 0.000545995 0.000748311 0.000360245 
570 0.121454 0.791859 0.0639503 0.0106225 0.00546467 0.00206075 0.00309891 0.000640223 0.000562691 0.000287474 
571 0.12781 0.713849 0.135999 0.0121416 0.00559847 0.00185881 0.00190343 0.000206771 0.000210851 0.000421688 
572 0.160701 0.741331 0.0723384 0.0134861 0.00667821 0.00270716 0.00110371 0.000545995 0.000748311 0.000360245 
573 0.340675 0.318552 0.23483 0.0993006 0.00371013 0.00154735 0.00100728 0.00012532 0.000126247 0.000125879 
574 0.466404 0.496651 0.0199015 0.00776908 0.00455876 0.00117681 0.00149689 0.000551681 0.000747251 0.000743243 
575 0.135066 0.596157 0.0312348 0.228253 0.00457352 0.00117681 0.00149689 0.000551681 0.000747251 0.000743243 
576 0.247177 0.59819 0.0423588 0.111338 0.000537631 0.000265566 0 0.0001338 0 0 
577 0.238046 0.381508 0.246994 0.0121404 0.0208142 0.0977541 0.00190343 0.000206771 0.000210852 0.000421688 
578 0.13621 0.709162 0.0420747 0.111617 0.000536737 0.000265566 0 0.0001338 0 0 
579 0.266421 0.505889 0.111349 0.00315198 0.11215 0.000593784 0 0.000148452 0.000148474 0.00014844 
580 0.494034 0.296887 0.0723602 0.124576 0.00667821 0.00270716 0.00110371 0.000545995 0.000748311 0.000360245 
581 0.394189 0.354527 0.0208909 0.0052942 0.223254 0.000694649 0.000454728 0.000173208 0.000417314 0.0001045 
582 0.343871 0.406151 0.0206318 0.224188 0.00222584 0.00154735 0.00100728 0.00012532 0.000126247 0.000125879 
583 0.382922 0.40516 0.075177 0.0134861 0.00667821 0.00270716 0.00110371 0.000546061 0.111814 0.000405966 
584 0.468395 0.274468 0.240091 0.00777073 0.00455876 0.00117681 0.00149689 0.000551681 0.000747251 0.000743243 
585 0.0791603 0.884178 0.0162453 0.00897051 0.00410522 0.00454394 0.0008554 0.00115872 0.000392283 0.000390256 
586 0.246183 0.494911 0.230316 0.0193156 0.00455876 0.00117681 0.00149689 0.000551681 0.000747251 0.000743243 
587 0.464442 0.372137 0.0369097 0.0176762 0.104621 0.00195179 0.000958494 0.000445061 0.000597661 0.000260687 
588 0.178438 0.659616 0.123677 0.0300288 0.00402658 0.00195179 0.000958494 0.000445061 0.000597661 0.000260687 
589 0.241865 0.23636 0.244488 0.0180231 0.0104573 0.0460166 0.20279 1.23572e-07 0 0 
590 0.177506 0.681157 0.0220561 0.115299 0.0021379 0.000694552 0.000454728 0.000173208 0.000417314 0.0001045 
591 0.361058 0.429311 0.0728907 0.0134861 0.00667821 0.00270716 0.00110432 0.107905 0.00450015 0.000360246 
592 0.238008 0.381301 0.0260375 0.233338 0.116644 0.00192803 0.00190343 0.000206771 0.000210852 0.000421688 
593 0.250345 0.712713 0.019898 0.00776908 0.00455876 0.00117681 0.00149689 0.000551681 0.000747251 0.000743243 
594 0.121446 0.689193 0.0555919 0.121638 0.00548082 0.00206075 0.00309891 0.000640223 0.000562691 0.000287474 
595 0.230884 0.518448 0.129493 0.00500277 0.113239 0.00154735 0.00100728 0.00012532 0.000126247 0.000125879 
596 0.23256 0.579373 0.0608455 0.115107 0.00546467 0.00206075 0.00309891 0.000640223 0.000562691 0.000287474 
597 0.266078 0.610489 0.118988 0.002367 0.00103923 0.000593753 0 0.000148452 0.000148474 0.00014844 
598 0.131235 0.599105 0.0251489 0.234311 0.00559848 0.00185881 0.00190343 0.000206771 0.000210852 0.000421688 
599 0.345272 0.506675 0.019898 0.00776908 0.00455876 0.112288 0.0014969 0.000551681 0.000747251 0.000743243 
600 0.154967 0.610489 0.00831736 0.224106 0.00108126 0.000593753 0 0.000148452 0.000148474 0.00014844 
601 0.487086 0.397292 0.00405043 0.000302766 0.111269 0 0 0 0 0 
602 0.562382 0.298832 0.0176122 0.114604 0.00363755 0.00154735 0.00100728 0.00012532 0.000126247 0.000125879 
603 0.278185 0.298202 0.421956 0.000603708 0.000603829 0.000298761 0 0.000150525 0 0 
604 0.133277 0.684668 0.170734 0.00556019 0.00246222 0.00174077 0.0011332 0.000140985 0.000142028 0.000141613 
605 0.25826 0.585606 0.144812 0.00556059 0.00246222 0.00174077 0.0011332 0.000140985 0.000142028 0.000141613 
606 0.398102 0.41805 0.0415687 0.133002 0.00453677 0.00219577 0.00107831 0.000500693 0.000672368 0.000293273 
607 0.154298 0.661793 0.166585 0.00805459 0.0045299 0.00219577 0.00107831 0.000500693 0.000672368 0.000293273 
608 0.269241 0.552606 0.0280203 0.013658 0.131141 0.00224873 0.00214136 0.000232618 0.000237208 0.000474399 
609 0.260573 0.310633 0.278178 0.0119945 0.13114 0.00231859 0.00348628 0.000720251 0.000633027 0.000323408 
610 0.401947 0.306494 0.02242 0.258695 0.00513853 0.00132391 0.001684 0.000620641 0.000840658 0.000836149 
611 0.30579 0.347264 0.286064 0.0472206 0.00751299 0.00304555 0.00124168 0.000614244 0.00084185 0.000405276 
612 0.142733 0.677858 0.154276 0.013658 0.00629828 0.00209116 0.00214136 0.000232618 0.000237208 0.000474399 
613 0.274413 0.302233 0.377882 0.0362028 0.0045299 0.00219577 0.00107831 0.000500693 0.000672368 0.000293273 
614 0.415672 0.455836 0.127973 0.000341291 0.000177799 0 0 0 0 0 
615 0.193472 0.773833 0.0235023 0.00471204 0.00240513 0.00078137 0.000511569 0.00019486 0.000469479 0.000117563 
616 0.523832 0.309608 0.0223852 0.00874021 0.00521099 0.126241 0.00168449 0.000620641 0.000840658 0.000836149 
617 0.136626 0.534606 0.178188 0.136951 0.00614785 0.00231835 0.00348628 0.000720251 0.000633027 0.000323408 
618 0.142742 0.666726 0.16522 0.013837 0.00629828 0.00209116 0.00214136 0.000232618 0.000237208 0.000474399 
619 0.392733 0.304114 0.0280204 0.138658 0.00629828 0.00209116 0.00214136 0.000232618 0.000237208 0.125474 
620 0.258259 0.336022 0.394387 0.0055716 0.00246222 0.00174077 0.0011332 0.000140985 0.000142028 0.000141613 
621 0.180788 0.583997 0.206381 0.0151718 0.00751299 0.00304555 0.00124168 0.000614244 0.00084185 0.000405276 
622 0.399413 0.292135 0.166127 0.0080549 0.129529 0.00219691 0.00107831 0.000500693 0.000672368 0.000293273 
623 0.305782 0.209483 0.330892 0.0151818 0.00956499 0.125994 0.00124168 0.000614244 0.00084185 0.000405276 
624 0.266865 0.555475 0.15957 0.00960342 0.00217787 0.00489417 4.79634e-07 0.00141398 0 0 
625 0.392733 0.304114 0.27802 0.013658 0.00629828 0.00209116 0.00214136 0.000232618 0.000237208 0.000474399 
626 0.151948 0.431493 0.397385 0.00874021 0.00512861 0.00132391 0.001684 0.000620641 0.000840658 0.000836149 
627 0.147267 0.631196 0.0345889 0.020276 0.0117644 0.0142317 0.140676 0 0 0 
628 0.561175 0.281131 0.0235023 0.00471205 0.00240513 0.000781371 0.000511569 0.00019486 0.00051557 0.125071 
629 0.392736 0.429111 0.0280203 0.138658 0.00629828 0.00209116 0.00214136 0.000232618 0.000237208 0.000474399 
630 0.261569 0.277663 0.435188 0.0119513 0.00614776 0.00231835 0.00348628 0.000720251 0.000633027 0.000323408 
631 0.318447 0.398292 0.274068 0.00471324 0.00240513 0.00078137 0.000511569 0.00019486 0.000469479 0.000117563 
632 0.149413 0.542502 0.29076 0.00805476 0.0045299 0.00219577 0.00107831 0.000500693 0.000672368 0.000293273 
633 0.400619 0.432815 0.14738 0.00875134 0.00512861 0.00132391 0.001684 0.000620641 0.000840658 0.000836149 
634 0.225562 0.607686 0.145287 0.0110309 0.00512861 0.00132391 0.001684 0.000620641 0.000840658 0.000836149 
635 0.142733 0.804114 0.0280203 0.013658 0.00629828 0.00209116 0.00214136 0.000232618 0.000237208 0.000474399 
636 0.274413 0.416739 0.0415234 0.00861352 0.248533 0.00763351 0.00107831 0.000500693 0.000672368 0.000293273 
637 0.443388 0.398098 0.0243219 0.00471205 0.00240513 0.000781371 0.000511569 0.000195169 0.125469 0.000117563 
638 0.267778 0.67906 0.0280289 0.013658 0.00629828 0.00209116 0.00214136 0.000232618 0.000237208 0.000474399 
639 0.365396 0.353585 0.144698 0.00556019 0.00270484 0.125878 0.00175345 0.000140985 0.000142028 0.000141613 
640 0.488511 0.388234 0.100953 0.00929856 0.00718931 0.00308412 0.00181295 0.000458494 0.000457882 0 
641 0.26651 0.387061 0.0344817 0.0203966 0.114422 0.156335 0.0207939 0 0 0 
642 0.274295 0.434145 0.0223854 0.00875014 0.130034 0.00140855 0.00589778 0.121405 0.000842043 0.000836149 
643 0.274406 0.666746 0.0415234 0.00805459 0.0045299 0.00219577 0.00107831 0.000500693 0.000672368 0.000293273 
644 0.19415 0.773147 0.0235102 0.00471204 0.00240513 0.00078137 0.000511569 0.00019486 0.000469479 0.000117563 
645 0.318472 0.398833 0.0235253 0.254689 0.0024052 0.00078137 0.000511569 0.00019486 0.000469479 0.000117563 
646 0.176616 0.644177 0.153983 0.0137493 0.00629828 0.00209116 0.00214136 0.000232618 0.000237208 0.000474399 
647 0.267733 0.409724 0.0474136 0.140211 0.129741 0.00209176 0.00214136 0.000232618 0.000237208 0.000474399 
648 0.299338 0.4368 0.00887104 0.252647 0.0011758 0.000667972 0 0.000167009 0.000167034 0.000166995 
649 0.142733 0.320104 0.239305 0.286106 0.00657533 0.00209116 0.00214136 0.000232618 0.000237208 0.000474399 
650 0.266849 0.314322 0.161416 0.123927 0.00218233 0.12989 4.79634e-07 0.00141398 0 0 
651 0.399413 0.291743 0.166519 0.00805534 0.0045299 0.00219763 0.126076 0.000500693 0.000672368 0.000293273 
652 0.383294 0.461623 0.143762 0.00556019 0.00246222 0.00174077 0.0011332 0.000140985 0.000142028 0.000141613 
653 0.142734 0.654544 0.152168 0.0390796 0.00629828 0.00209116 0.00214136 0.000232618 0.000237208 0.000474399 
654 0.149414 0.66614 0.167121 0.00805461 0.0045299 0.00219577 0.00107831 0.000500693 0.000672368 0.000293273 
655 0.26774 0.422491 0.284636 0.013658 0.00629828 0.00209116 0.00214136 0.000232618 0.000237208 0.000474399 
656 0.318467 0.648839 0.0235023 0.00471204 0.00240513 0.00078137 0.000511569 0.00019486 0.000469479 0.000117563 
657 0.318472 0.386094 0.286242 0.00471204 0.00240513 0.00078137 0.000511569 0.00019486 0.000469479 0.000117563 
658 0.431229 0.333543 0.0813952 0.0151718 0.00760804 0.12795 0.00124177 0.000614244 0.00084185 0.000405276 
659 0.350422 0.37052 0.269843 0.00473427 0.00240513 0.00078137 0.000511569 0.00019486 0.000469479 0.000117563 
660 0.274412 0.416742 0.291522 0.00805475 0.0045299 0.00219577 0.00107831 0.000500693 0.000672368 0.000293273 
661 0.152297 0.669264 0.0226435 0.00635456 0.145664 0.00199677 0.00129508 0.000161126 0.000162318 0.000161844 
662 0.221111 0.324473 0.443911 0.0053852 0.00274872 0.000892995 0.00058465 0.000222697 0.000536547 0.000134357 
663 0.156143 0.330535 0.478684 0.0190619 0.00702601 0.00264954 0.00398431 0.000823143 0.000723459 0.000369609 
664 0.156143 0.460096 0.211669 0.0136578 0.00702601 0.00264975 0.146841 0.000823143 0.000723459 0.000369609 
665 0.463564 0.244922 0.00520738 0.0498936 0.236413 0 0 0 0 0 
666 0.476645 0.517555 0.00520738 0.00038927 0.000203199 0 0 0 0 0 
667 0.31651 0.493136 0.0255909 0.152838 0.00586128 0.00151305 0.00192457 0.000709304 0.000960752 0.000955598 
668 0.156143 0.555586 0.11618 0.156004 0.00753655 0.00264954 0.00398431 0.000823143 0.000723459 0.000369609 
669 0.156143 0.745811 0.0688125 0.0136575 0.00702601 0.00264954 0.00398431 0.000823143 0.000723459 0.000369609 
670 0.170757 0.761988 0.0474553 0.00920525 0.00517703 0.00250945 0.00123235 0.000572221 0.000768421 0.00033517 
671 0.173655 0.633449 0.0281255 0.00998882 0.00592924 0.144302 0.0019246 0.000709305 0.000960752 0.000955599 
672 0.183431 0.6128 0.0321884 0.0156091 0.0072076 0.145237 0.00244727 0.000265849 0.000271095 0.00054217 
673 0.173655 0.452829 0.310231 0.0513603 0.00586126 0.00151305 0.00192457 0.000709304 0.000960752 0.000955598 
674 0.294185 0.670203 0.0226742 0.0063545 0.00281397 0.00198945 0.00129508 0.000161126 0.000162318 0.000161844 
675 0.295082 0.383622 0.19826 0.086254 0.033012 0.00198945 0.00129508 0.000161126 0.000162318 0.000161844 
676 0.31359 0.349018 0.174734 0.00920598 0.148034 0.00250945 0.00123235 0.000572221 0.000768421 0.00033517 
677 0.173857 0.778647 0.0255831 0.00998882 0.00586126 0.00151305 0.00192457 0.000709304 0.000960751 0.000955598 
678 0.163123 0.633272 0.0320244 0.0156091 0.00719804 0.00239784 0.145296 0.000265849 0.000271095 0.00054217 
679 0.349472 0.238855 0.0954859 0.300574 0.00858638 0.00348063 0.00141906 0.000701993 0.000962115 0.000463173 
680 0.305031 0.491247 0.0321409 0.0156153 0.150049 0.00238991 0.00244727 0.000265849 0.000271095 0.00054217 
681 0.148701 0.326829 0.356125 0.0107794 0.150714 0.00373209 0.00207194 0.000523994 0.000523293 0 
682 0.349472 0.380478 0.237079 0.017357 0.00858628 0.00348063 0.00141906 0.000701993 0.000962115 0.000463173 
683 0.430318 0.328779 0.0688125 0.0136575 0.00702601 0.00264954 0.0060217 0.141643 0.000723459 0.000369609 
684 0.423567 0.335535 0.211665 0.0136575 0.00702601 0.00264954 0.00398431 0.000823143 0.000723459 0.000369609 
685 0.207949 0.65499 0.104108 0.0173392 0.00858628 0.00348063 0.00141906 0.000701993 0.000962115 0.000463173 
686 0.170853 0.619019 0.0474714 0.0092075 0.148028 0.00251343 0.00123235 0.000572221 0.000768421 0.00033517 
687 0.16462 0.488925 0.317731 0.0156093 0.00719804 0.0023899 0.00244727 0.000265849 0.000271095 0.00054217 
688 0.295151 0.383553 0.0226435 0.0063545 0.00281402 0.287672 0.00132645 0.000161126 0.000162318 0.000161844 
689 0.156143 0.745811 0.0688125 0.0136575 0.00702601 0.00264954 0.00398432 0.000823144 0.000723459 0.000369609 
690 0.31355 0.333497 0.333153 0.00920552 0.00517703 0.00250945 0.00123235 0.000572221 0.000768421 0.00033517 
691 0.363968 0.312955 0.312559 0.00539687 0.00274872 0.000892995 0.000584651 0.000222697 0.000536547 0.000134357 
692 0.313582 0.333535 0.190196 0.00926713 0.130831 0.0196807 0.00123235 0.000572221 0.000768421 0.00033517 
693 0.199243 0.4992 0.0101404 0.288745 0.00133615 0.000763397 0 0.000190867 0.000190895 0.000190851 
694 0.349464 0.381718 0.0930078 0.0173392 0.00886939 0.146043 0.00143058 0.000701993 0.000962115 0.000463173 
695 0.156143 0.486245 0.186178 0.155845 0.00703831 0.00264954 0.00398431 0.000823143 0.000723459 0.000369609 
696 0.206615 0.381634 0.0930839 0.0201963 0.291422 0.0035019 0.00141906 0.000701993 0.000962115 0.000463173 
697 0.221821 0.455098 0.312576 0.00538556 0.00274872 0.000892995 0.000584651 0.000222697 0.000536547 0.000134357 
698 0.364677 0.455101 0.0268604 0.148241 0.00274902 0.000892995 0.00058465 0.000222697 0.000536547 0.000134357 
699 0.221111 0.741524 0.0268597 0.00538519 0.00274872 0.000892995 0.00058465 0.000222697 0.000536547 0.000134357 
700 0.170839 0.761905 0.0474555 0.00920525 0.00517703 0.00250945 0.00123235 0.000572221 0.000768421 0.00033517 
701 0.532444 0.431975 0.0226435 0.0063545 0.00281397 0.00198945 0.00129508 0.000161126 0.000162318 0.000161844 
702 0.300771 0.410964 0.127702 0.144986 0.00702622 0.00264954 0.00398432 0.000823144 0.000723459 0.000369609 
703 0.162115 0.782945 0.0342663 0.0109753 0.00248899 0.00559334 5.48154e-07 0.00161597 0 0 
704 0.484957 0.356344 0.010127 0.00304334 0.144193 0.000763397 0 0.000190867 0.000190895 0.000190851 
705 0.226998 0.735637 0.0268597 0.00538519 0.00274872 0.000892995 0.00058465 0.000222697 0.000536547 0.000134357 
706 0.156324 0.459926 0.163117 0.0622004 0.00702601 0.00264954 0.00399268 0.143672 0.000723459 0.000369609 
707 0.34947 0.381714 0.0951126 0.156366 0.0103102 0.00348063 0.00141906 0.000701993 0.000962115 0.000463173 
708 0.313614 0.334665 0.189747 0.15138 0.00517703 0.00250945 0.00123235 0.000572221 0.000768421 0.00033517 
709 0.441857 0.317239 0.0688125 0.0149799 0.148561 0.00264954 0.00398431 0.000823143 0.000723459 0.000369609 
710 0.175302 0.612406 0.0496351 0.00920525 0.00693648 0.143607 0.00123272 0.000572221 0.000768421 0.00033517 
711 0.148758 0.424446 0.115612 0.294595 0.00994505 0.0035247 0.00207194 0.000523994 0.000523293 0 
712 0.363964 0.367321 0.115318 0.00541999 0.00274872 0.000892995 0.000588212 0.143076 0.000536547 0.000134357 
713 0.156143 0.459974 0.0689348 0.0136575 0.00702601 0.00264954 0.00398432 0.00666508 0.280465 0.000500487 
714 0.313614 0.476272 0.190314 0.00920525 0.00517703 0.00250945 0.00123235 0.000572221 0.000768421 0.00033517 
715 0.156143 0.4601 0.211666 0.156515 0.00702601 0.00264954 0.00398432 0.000823144 0.000723459 0.000369609 
716 0.168537 0.578406 0.0394708 0.16565 0.013756 0.0161963 0.0179834 0 0 0 
717 0.441854 0.317243 0.21167 0.0136575 0.00702601 0.00264954 0.00398431 0.000823143 0.000723459 0.000369609 
718 0.347743 0.240597 0.378706 0.0173402 0.00858628 0.00348063 0.00141906 0.000701993 0.000962115 0.000463173 
719 0.199258 0.638213 0.0139558 0.00308192 0.144155 0.000763397 0 0.000190867 0.000190895 0.000190851 
720 0.170757 0.470317 0.337088 0.0112434 0.00517703 0.00250945 0.00123235 0.000572221 0.000768421 0.00033517 
721 0.215632 0.633413 0.145225 0.00305758 0.00133615 0.000763397 0 0.000190867 0.000190895 0.000190851 
722 0.35969 0.317233 0.169714 0.00538622 0.145606 0.000892995 0.00058465 0.000222697 0.000536547 0.000134357 
723 0.384829 0.577806 0.0268597 0.00538519 0.00274872 0.000892995 0.00058465 0.000222697 0.000536547 0.000134357 
724 0.148726 0.566428 0.259359 0.010627 0.00821636 0.0035247 0.00207194 0.000523994 0.000523293 0 
725 0.171807 0.61807 0.0474663 0.00920525 0.00517703 0.00250945 0.00123307 0.143429 0.000768471 0.00033517 
726 0.313613 0.458819 0.207657 0.009316 0.00517703 0.00250945 0.00123235 0.000572221 0.000768421 0.00033517 
727 0.315977 0.350818 0.168396 0.152886 0.00586127 0.00151305 0.00192457 0.000709304 0.000960752 0.000955598 
728 0.173655 0.354895 0.335557 0.123968 0.00586126 0.00151305 0.00192457 0.000709304 0.000960751 0.000955598 
729 0.19419 0.615456 0.0255831 0.152653 0.00605454 0.00151305 0.00192457 0.000709304 0.000960752 0.000955598 
730 0.305973 0.347566 0.0320232 0.0395414 0.26898 0.00238991 0.00244727 0.000265849 0.000271095 0.00054217 
731 0.170758 0.761986 0.0474555 0.00920525 0.00517703 0.00250945 0.00123235 0.000572221 0.000768421 0.00033517 
732 0.363958 0.455781 0.0268994 0.00538519 0.145606 0.000892995 0.00058465 0.000222697 0.000536547 0.000134357 
733 0.342098 0.356345 0.0101293 0.145897 0.00133676 0.000763397 0 0.000190867 0.143048 0.000190851 
734 0.163123 0.490406 0.0320975 0.158401 0.150056 0.0023899 0.00244727 0.000265849 0.000271095 0.00054217 
735 0.148701 0.281866 0.11948 0.143029 0.300276 0.00352898 0.00207194 0.000523994 0.000523293 0 
736 0.313614 0.619131 0.0474553 0.00920525 0.00517703 0.00250945 0.00123235 0.000572221 0.000768421 0.00033517 
737 0.306819 0.489577 0.0320232 0.0156197 0.150045 0.0023899 0.00244727 0.000265849 0.000271095 0.00054217 
738 0.448772 0.347625 0.0322201 0.158269 0.00719804 0.0023899 0.00244727 0.000265849 0.000271095 0.00054217 
739 0.492329 0.238855 0.0930065 0.0173392 0.00858628 0.00348063 0.00141906 0.00157121 0.14295 0.000463223 
740 0.299 0.460095 0.0688144 0.156515 0.00702601 0.00264954 0.00398431 0.000823143 0.000723459 0.000369609 
741 0.363965 0.315617 0.205244 0.110054 0.00274908 0.000892995 0.00058465 0.000222697 0.000536547 0.000134357 
742 0.375521 0.587039 0.0269343 0.00538519 0.00274872 0.000892995 0.00058465 0.000222697 0.000536547 0.000134357 
743 0.206615 0.667426 0.0930065 0.0173392 0.00858628 0.00348063 0.00141906 0.000701993 0.000962115 0.000463173 
744 0.17522 0.617904 0.204881 0.000791208 0.00069009 0.000341442 0 0.000172028 0 0 
745 0.240014 0.427136 0.0210738 0.154203 0.00527826 0.00584221 0.0010998 0.00148979 0.000867436 0.142996 
746 0.156825 0.745129 0.0688125 0.0136575 0.00702601 0.00264954 0.00398432 0.000823144 0.000723459 0.000369609 
747 0.363965 0.455814 0.169716 0.00538519 0.00274872 0.000892995 0.00058465 0.000222697 0.000536547 0.000134357 
748 0.459344 0.350302 0.0255831 0.00998882 0.00586126 0.00151305 0.00192457 0.000709315 0.143818 0.000955603 
749 0.152297 0.669262 0.0265349 0.145241 0.00289551 0.00198945 0.00129508 0.000161126 0.000162318 0.000161844 
750 0.173656 0.671282 0.133149 0.00998882 0.00586126 0.00151305 0.00192457 0.000709304 0.000960752 0.000955598 
751 0.316504 0.350286 0.0257688 0.152506 0.0060153 0.0015263 0.144768 0.000709305 0.000960752 0.000955599 
752 0.206615 0.238855 0.0930065 0.0180838 0.413924 0.0259698 0.00141906 0.000701993 0.000962115 0.000463173 
753 0.442914 0.458936 0.0689166 0.0136575 0.00702601 0.00264954 0.00398431 0.000823143 0.000723459 0.000369609 
754 0.492125 0.239059 0.0930065 0.0218381 0.146944 0.00348068 0.00141906 0.000701993 0.000962115 0.000463173 
755 0.163731 0.775518 0.0320269 0.0156091 0.00719804 0.0023899 0.00244727 0.000265849 0.000271095 0.00054217 
756 0.17402 0.494626 0.15273 0.0300918 0.142469 0.00151305 0.00192457 0.000709304 0.000960752 0.000955598 
757 0.448676 0.34772 0.0320232 0.0156091 0.0198818 0.132563 0.00244733 0.000265849 0.000271095 0.00054217 
758 0.163166 0.776088 0.0320232 0.0156091 0.00719804 0.0023899 0.00244727 0.000265849 0.000271095 0.00054217 
759 0.317984 0.340816 0.339306 0.000689953 0.00069009 0.000341442 0 0.000172028 0 0 
760 0.3421 0.499138 0.0126797 0.143411 0.00133636 0.000763397 0 0.000190867 0.000190895 0.000190851 
761 0.205169 0.572752 0.0298469 0.0116536 0.00683814 0.00176522 0.00224533 0.000986816 0.167628 0.00111498 
762 0.340151 0.328844 0.134603 0.0123981 0.00959829 0.170766 0.00241734 0.000611326 0.000610509 0 
763 0.199217 0.54521 0.232474 0.0107395 0.00603987 0.00292769 0.00143774 0.000667591 0.000896491 0.000391031 
764 0.194927 0.763561 0.0264174 0.00741358 0.00328296 0.00232103 0.00151093 0.000187981 0.000189371 0.000188818 
765 0.232566 0.581957 0.0238962 0.158463 0.00155885 0.00089063 0 0.000222678 0.000222711 0.00022266 
766 0.182167 0.536779 0.0802887 0.182593 0.00819708 0.00309113 0.00464837 0.000960334 0.000844036 0.000431211 
767 0.356977 0.405485 0.0373604 0.0187941 0.174481 0.00278821 0.00285514 0.000310157 0.000316277 0.000632532 
768 0.369264 0.432016 0.173154 0.0116536 0.00683814 0.00176522 0.00224533 0.000827522 0.00112088 0.00111486 
769 0.173484 0.495511 0.134603 0.0123981 0.00959738 0.170767 0.00241726 0.000611326 0.000610509 0 
770 0.17768 0.614141 0.0264174 0.00741477 0.169948 0.00232103 0.00151093 0.000187981 0.000189371 0.000188818 
771 0.241051 0.278667 0.275171 0.186016 0.0108975 0.00406073 0.00165557 0.000818992 0.00112247 0.000540368 
772 0.215865 0.562027 0.029876 0.0116536 0.00683814 0.00176522 0.00420185 0.165537 0.00112128 0.00111486 
773 0.241051 0.379808 0.174475 0.164285 0.0321829 0.00406073 0.00165557 0.000818992 0.00112247 0.000540368 
774 0.19031 0.405509 0.204003 0.0182106 0.00839771 0.00325071 0.169059 0.000310157 0.000316277 0.000632532 
775 0.257963 0.370033 0.359748 0.00628273 0.00320684 0.00104183 0.000682092 0.000259813 0.000625972 0.00015675 
776 0.189134 0.592719 0.193885 0.0129464 0.00290382 0.00652556 6.39513e-07 0.0018853 0 0 
777 0.17768 0.614192 0.193033 0.00741358 0.00328296 0.00232103 0.00151093 0.000187981 0.000189371 0.000188818 
778 0.257963 0.365111 0.0316804 0.339272 0.00320693 0.00104183 0.000682092 0.000259813 0.000625972 0.00015675 
779 0.192207 0.736921 0.0373604 0.0182106 0.00839771 0.00278821 0.00285514 0.000310157 0.000316277 0.000632532 
780 0.199217 0.555652 0.0553645 0.0107395 0.00603987 0.169594 0.00143774 0.000667591 0.000896491 0.000391031 
781 0.370706 0.397636 0.062782 0.000809882 0.167466 0.000398618 0 0.0002007 0 0 
782 0.257964 0.532011 0.197769 0.00628273 0.00320684 0.00104183 0.000682092 0.000259813 0.000625972 0.00015675 
783 0.118757 0.659585 0.0243673 0.0135183 0.172762 0.00681596 0.0012831 0.00173809 0.000588424 0.000585383 
784 0.17768 0.614099 0.185564 0.0149752 0.00328296 0.00232103 0.00151093 0.000187981 0.000189371 0.000188818 
785 0.257963 0.531778 0.0313364 0.172949 0.00320762 0.00104183 0.000682092 0.000259813 0.000625972 0.00015675 
786 0.387505 0.605729 0.00607528 0.000454149 0.000237066 0 0 0 0 0 
787 0.19031 0.573043 0.203135 0.0182109 0.00839771 0.00278821 0.00285514 0.000310157 0.000316277 0.000632532 
788 0.241051 0.470359 0.248908 0.0214671 0.0100173 0.00406073 0.00165557 0.000818992 0.00112247 0.000540368 
789 0.207481 0.736272 0.0306813 0.0116536 0.00683814 0.00176522 0.00224533 0.000827522 0.00112088 0.00111486 
790 0.190321 0.738808 0.0373604 0.0182106 0.00839771 0.00278821 0.00285514 0.000310157 0.000316277 0.000632532 
791 0.241051 0.445329 0.108509 0.0202291 0.0100173 0.00406073 0.00168421 0.16745 0.00112917 0.000540368 
792 0.241051 0.44533 0.116181 0.179221 0.0100182 0.00406073 0.00165557 0.000818992 0.00112247 0.000540368 
793 0.189134 0.580157 0.0401944 0.179153 0.00295058 0.00652556 6.39513e-07 0.0018853 0 0 
794 0.42463 0.365111 0.0313364 0.00628273 0.00320684 0.00104183 0.000682092 0.00154488 0.166008 0.00015675 
795 0.42463 0.531778 0.0313364 0.00628273 0.00320684 0.00104183 0.000682092 0.000259813 0.000625972 0.00015675 
796 0.241051 0.444741 0.109097 0.0202291 0.176678 0.00406641 0.00165557 0.000818992 0.00112247 0.000540368 
797 0.202705 0.741881 0.0298486 0.0116536 0.00683814 0.00176522 0.00224533 0.000827522 0.00112088 0.00111486 
798 0.199217 0.588983 0.1887 0.0107396 0.00603987 0.00292769 0.00143774 0.000667591 0.000896491 0.000391031 
799 0.232454 0.582397 0.0118148 0.00355051 0.00156007 0.167556 0 0.000222678 0.000222711 0.00022266 
800 0.316947 0.401999 0.0807248 0.182157 0.00819707 0.00309113 0.00464837 0.000960334 0.000844036 0.000431211 
801 0.182167 0.370112 0.0804553 0.182426 0.00820319 0.169634 0.00476578 0.000960334 0.000844036 0.000431211 
802 0.348819 0.370127 0.101503 0.161369 0.0082069 0.00309113 0.00464837 0.000960334 0.000844036 0.000431211 
803 0.173484 0.328844 0.134612 0.345714 0.00959455 0.00411215 0.00241726 0.000611326 0.000610509 0 
804 0.395597 0.394144 0.0313364 0.172905 0.00325084 0.00104183 0.000682092 0.000259813 0.000625972 0.00015675 
805 0.42463 0.531778 0.0313364 0.00628273 0.00320684 0.00104183 0.000682092 0.000259813 0.000625972 0.00015675 
806 0.11874 0.659601 0.0243675 0.180122 0.00615783 0.00681591 0.0012831 0.00173809 0.000588424 0.000585383 
807 0.23245 0.415734 0.345148 0.0035505 0.00155885 0.00089063 0 0.000222678 0.000222711 0.00022266 
808 0.17768 0.780808 0.0264174 0.00741358 0.00328296 0.00232103 0.00151093 0.000187981 0.000189371 0.000188818 
809 0.202597 0.575324 0.0298469 0.0116536 0.173505 0.00176522 0.00224533 0.000827522 0.00112088 0.00111486 
810 0.206185 0.562158 0.062782 0.00150928 0.166767 0.000398349 0 0.0002007 0 0 
811 0.328675 0.439667 0.062782 0.000804945 0.167376 0.000493726 0 0.0002007 0 0 
812 0.11874 0.659601 0.0243673 0.0134558 0.172824 0.00681592 0.0012831 0.00173809 0.000588424 0.000585383 
813 0.23245 0.582401 0.0118454 0.17013 0.00161567 0.00089063 0 0.000222678 0.000222711 0.00022266 
814 0.17768 0.780808 0.0264174 0.00741358 0.00328296 0.00232103 0.00151093 0.000187981 0.000189371 0.000188818 
815 0.23245 0.749067 0.0118148 0.0035505 0.00155885 0.00089063 0 0.000222678 0.000222711 0.00022266 
816 0.23245 0.42318 0.171036 0.00355055 0.00155885 0.167557 0 0.000222678 0.000222711 0.00022266 
817 0.241051 0.278664 0.108508 0.0205803 0.342998 0.0040622 0.00165557 0.000818992 0.00112247 0.000540368 
818 0.202597 0.575324 0.0298579 0.178309 0.00683814 0.00176522 0.00224533 0.000827522 0.00112088 0.00111486 
819 0.173484 0.394428 0.402352 0.0123981 0.00958575 0.00411215 0.00241726 0.000611326 0.000610509 0 
820 0.367846 0.613672 0.0118148 0.0035505 0.00155885 0.00089063 0 0.000222678 0.000222711 0.00022266 
821 0.199217 0.389731 0.387952 0.0107399 0.00603987 0.00292769 0.00143774 0.000667591 0.000896491 0.000391031 
822 0.192152 0.568947 0.20539 0.0182106 0.00839771 0.00278821 0.00285514 0.000310157 0.000316277 0.000632532 
823 0.344347 0.447744 0.192603 0.00762604 0.00328296 0.00232103 0.00151093 0.000187981 0.000189371 0.000188818 
824 0.182167 0.536804 0.246923 0.0159338 0.00819701 0.00309113 0.00464837 0.000960334 0.000844036 0.000431211 
825 0.199217 0.388993 0.22971 0.169719 0.00603987 0.00292769 0.00143774 0.000667591 0.000896491 0.000391031 
826 0.369264 0.408657 0.196513 0.0116536 0.00683814 0.00176522 0.00224533 0.000827522 0.00112088 0.00111486 
827 0.182167 0.53675 0.0803103 0.0159338 0.00819701 0.00329578 0.17111 0.000960334 0.000844036 0.000431211 
828 0.241051 0.445228 0.10861 0.0202291 0.0100173 0.00407054 0.168312 0.000818992 0.00112247 0.000540368 
829 0.19031 0.405485 0.0416417 0.324442 0.0312188 0.00278821 0.00285514 0.000310157 0.000316277 0.000632532 
830 0.348834 0.425037 0.191876 0.0160818 0.00819701 0.00309113 0.00464837 0.000960334 0.000844036 0.000431211 
831 0.118741 0.659601 0.0243673 0.0134558 0.00615783 0.00681591 0.0012831 0.168405 0.000588424 0.000585383 
832 0.340151 0.328844 0.134603 0.0123981 0.00995904 0.170405 0.00241726 0.000611326 0.000610509 0 
833 0.19031 0.738815 0.0373639 0.0182106 0.00839771 0.00278821 0.00285514 0.000310157 0.000316277 0.000632532 
834 0.173484 0.49551 0.134604 0.0125358 0.166911 0.0133162 0.00241726 0.000611326 0.000610509 0 
835 0.202598 0.57532 0.0298501 0.0116536 0.00683814 0.00176522 0.00225284 0.167487 0.00112088 0.00111486 
836 0.356977 0.405485 0.0571371 0.165101 0.00839771 0.00278821 0.00285514 0.000310157 0.000316277 0.000632532 
837 0.365883 0.388986 0.0553645 0.0107483 0.172698 0.00292769 0.00143774 0.000667591 0.000896491 0.000391031 
838 0.199217 0.395773 0.215244 0.012656 0.17079 0.00292769 0.00143774 0.000667591 0.000896491 0.000391031 
839 0.17768 0.447722 0.35726 0.00965653 0.00328296 0.00232103 0.00151093 0.000187981 0.000189371 0.000188818 
840 0.356976 0.405486 0.0373604 0.0182106 0.00839771 0.00279069 0.169519 0.000310157 0.000316277 0.000632532 
841 0.190455 0.73865 0.0373845 0.0182106 0.00839771 0.00278821 0.00285514 0.000310157 0.000316277 0.000632532 
842 0.241051 0.278664 0.275174 0.0202293 0.0100173 0.00406073 0.00165557 0.000818992 0.00799311 0.160336 
843 0.407717 0.278664 0.275174 0.0202295 0.0100173 0.00406073 0.00165557 0.000818992 0.00112247 0.000540368 
844 0.23245 0.476689 0.284193 0.0035505 0.00155885 0.00089063 0 0.000222678 0.000222711 0.00022266 
845 0.206369 0.5485 0.0553645 0.0107438 0.172702 0.00292769 0.00143774 0.000667591 0.000896491 0.000391031 
846 0.237608 0.577903 0.177819 0.00355242 0.00155885 0.00089063 0 0.000222678 0.000222711 0.00022266 
847 0.407717 0.279086 0.274753 0.0202291 0.0100173 0.00406073 0.00165557 0.000818992 0.00112247 0.000540368 
848 0.241051 0.319733 0.231092 0.0232415 0.0100173 0.00407594 0.168302 0.000824404 0.00112247 0.000540368 
849 0.189134 0.413491 0.0399231 0.346137 0.00290398 0.00652556 6.39513e-07 0.0018853 0 0 
850 0.367421 0.410499 0.029847 0.17832 0.00683814 0.00176522 0.00224533 0.000827522 0.00112088 0.00111486 
851 0.189134 0.580158 0.206588 0.0128046 0.00290382 0.00652556 6.39513e-07 0.0018853 0 0 
852 0.173898 0.661747 0.13462 0.0123981 0.00958575 0.00411215 0.00241726 0.000611326 0.000610509 0 
853 0.365883 0.388986 0.0553645 0.0107395 0.00603987 0.00292769 0.00143774 0.000667591 0.000907374 0.167047 
854 0.173943 0.45414 0.175516 0.0125217 0.176129 0.00411215 0.00241726 0.000611326 0.000610509 0 
855 0.196355 0.341746 0.212635 0.0270348 0.0156913 0.185557 0.0209807 0 0 0 
856 0.257988 0.698417 0.0313389 0.00628273 0.00320684 0.00104183 0.000682092 0.000259813 0.000625972 0.00015675 
857 0.182167 0.392802 0.224258 0.0159338 0.00826431 0.158522 0.0158166 0.000960334 0.000844036 0.000431211 
858 0.182167 0.370112 0.0807199 0.348828 0.00819701 0.00309113 0.00464837 0.000960334 0.000844036 0.000431211 
859 0.17768 0.614139 0.0264194 0.00741358 0.00328296 0.00232185 0.168177 0.000187981 0.000189371 0.000188818 
860 0.194683 0.596693 0.19353 0.00741369 0.00328296 0.00232103 0.00151093 0.000187981 0.000189371 0.000188818 
861 0.173484 0.328853 0.467927 0.0123986 0.00958575 0.00411215 0.00241726 0.000611326 0.000610509 0 
862 0.407717 0.278665 0.108508 0.0202291 0.0100173 0.00406073 0.00165557 0.000823721 0.167779 0.000545591 
863 0.369264 0.408657 0.0298469 0.0116536 0.00683814 0.00176522 0.00224533 0.000827522 0.00112105 0.167781 
864 0.177686 0.614136 0.0264174 0.00741358 0.16995 0.00232103 0.00151093 0.000187981 0.000189371 0.000188818 
865 0.242337 0.610703 0.108516 0.0202291 0.0100173 0.00406073 0.00165557 0.000818992 0.00112247 0.000540368 
866 0.202597 0.575324 0.0298543 0.178312 0.00683852 0.00176522 0.00224533 0.000827522 0.00112088 0.00111486 
867 0.189134 0.578433 0.0416471 0.0128803 0.169491 0.00652969 6.39513e-07 0.0018853 0 0 
868 0.23245 0.415734 0.178481 0.00355108 0.168225 0.00089063 0 0.000222678 0.000222711 0.00022266 
869 0.369264 0.408657 0.0299748 0.178192 0.00683814 0.00176522 0.00224533 0.000827522 0.00112088 0.00111486 
870 0.267507 0.510835 0.0243673 0.0134558 0.00615793 0.173482 0.0012831 0.00173809 0.000588424 0.000585383 
871 0.182167 0.370112 0.0839465 0.178934 0.00819819 0.00333126 0.171075 0.000960334 0.000844036 0.000431211 
872 0.199217 0.556207 0.221476 0.0107395 0.00603987 0.00292769 0.00143774 0.000667591 0.000896491 0.000391031 
873 0.365883 0.388986 0.0553652 0.177405 0.00603987 0.00292769 0.00143774 0.000667591 0.000896491 0.000391031 
874 0.365883 0.388986 0.0553645 0.0107395 0.00603987 0.00292769 0.00143774 0.000669383 0.167561 0.000391031 
875 0.365874 0.388995 0.0553645 0.0107395 0.00603987 0.00959248 0.16144 0.000667591 0.000896491 0.000391031 
876 0.348833 0.370113 0.0802813 0.0159338 0.00819701 0.00311009 0.171296 0.000960335 0.000844036 0.000431211 
877 0.173484 0.340257 0.456521 0.0124014 0.00958575 0.00411215 0.00241726 0.000611326 0.000610509 0 
878 0.173484 0.328844 0.30127 0.0123981 0.0715494 0.108815 0.00241726 0.000611326 0.000610509 0 
879 0.202601 0.575226 0.0321521 0.176109 0.00683814 0.00176522 0.00224533 0.000827522 0.00112088 0.00111486 
880 0.257963 0.531778 0.0313364 0.00628273 0.169873 0.00104183 0.000682092 0.000259813 0.000625972 0.00015675 
881 0.369093 0.575491 0.0298502 0.0116536 0.00683814 0.00176522 0.00224533 0.000827522 0.00112088 0.00111486 
882 0.344345 0.447476 0.0264174 0.00741358 0.00328323 0.168987 0.00151093 0.000187981 0.000189371 0.000188818 
883 0.11874 0.492935 0.0243681 0.180121 0.00615812 0.00681591 0.0012831 0.168357 0.000635621 0.000585383 
884 0.355751 0.41354 0.0399251 0.179469 0.00290382 0.00652556 6.39513e-07 0.0018853 0 0 
885 0.17768 0.447482 0.193077 0.00949152 0.167872 0.00232103 0.00151093 0.000187981 0.000189371 0.000188818 
886 0.241051 0.282833 0.437672 0.0202291 0.0100173 0.00406073 0.00165557 0.000818992 0.00112247 0.000540368 
887 0.19031 0.405485 0.370694 0.0182106 0.00839771 0.00278821 0.00285514 0.000310157 0.000316277 0.000632532 
888 0.17768 0.447475 0.35975 0.00741358 0.00328296 0.00232103 0.00151093 0.000187981 0.000189371 0.000188818 
889 0.11874 0.492943 0.357676 0.0134718 0.00615783 0.00681591 0.0012831 0.00173809 0.000588424 0.000585383 
890 0.173597 0.495446 0.301221 0.0123981 0.00958575 0.00411215 0.00241726 0.000611326 0.000610509 0 
891 0.19031 0.602199 0.173979 0.0182121 0.00839771 0.00278821 0.00285514 0.000310157 0.000316277 0.000632532 
892 0.11874 0.659464 0.191171 0.0134558 0.00615783 0.00681591 0.0012831 0.00173809 0.000588424 0.000585383 
893 0.356977 0.405501 0.204011 0.0182107 0.00839771 0.00278821 0.00285514 0.000310157 0.000316277 0.000632532 
894 0.199217 0.564652 0.213031 0.0107395 0.00603987 0.00292769 0.00143774 0.000667591 0.000896491 0.000391031 
895 0.367398 0.410523 0.0298469 0.0116931 0.173465 0.00176522 0.00224533 0.000827522 0.00112088 0.00111486 
896 0.348831 0.370116 0.0843631 0.178519 0.00819701 0.00309113 0.00464837 0.000960334 0.000844036 0.000431211 
897 0.257963 0.531778 0.198003 0.00628273 0.00320684 0.00104183 0.000682092 0.000259813 0.000625972 0.00015675 
898 0.189655 0.604285 0.185661 0.012718 0.00328296 0.00232103 0.00151093 0.000187981 0.000189371 0.000188818 
899 0.241051 0.445165 0.108673 0.0202291 0.176684 0.00406073 0.00165557 0.000818992 0.00112247 0.000540368 
900 0.309556 0.438133 0.0413241 0.203819 0.00384821 0.00125019 0.000818511 0.000311775 0.000751166 0.0001881 
901 0.309556 0.438133 0.0376036 0.00753927 0.00384821 0.20125 0.000818511 0.000311775 0.000751166 0.0001881 
902 0.309556 0.438133 0.237604 0.00753927 0.00384821 0.00125019 0.000818511 0.000311775 0.000751166 0.0001881 
903 0.216251 0.733935 0.0317008 0.0088963 0.00393956 0.00278524 0.00181311 0.000225577 0.000227245 0.000226581 
904 0.243117 0.564636 0.161568 0.0139843 0.00820577 0.00211826 0.0026944 0.000993026 0.00134505 0.00133784 
905 0.317892 0.505765 0.130209 0.0242749 0.0120208 0.00487288 0.00198668 0.000982791 0.00134696 0.000648442 
906 0.23906 0.466783 0.0664374 0.0128916 0.207244 0.00351323 0.00172529 0.000801109 0.00107579 0.000469237 
907 0.23906 0.666783 0.0664375 0.0128874 0.00724784 0.00351323 0.00172529 0.000801109 0.00107579 0.000469237 
908 0.213216 0.734664 0.0340061 0.0088963 0.00393956 0.00278524 0.00181311 0.000225577 0.000227245 0.000226581 
909 0.22696 0.496189 0.047907 0.0153655 0.0180579 0.193257 7.67415e-07 0.00226236 0 0 
910 0.22696 0.496189 0.047907 0.0153655 0.00444183 0.206873 7.67415e-07 0.00226236 0 0 
911 0.243117 0.490388 0.235816 0.0139843 0.00820577 0.00211826 0.0026944 0.000993026 0.00134505 0.00133784 
912 0.228373 0.486582 0.0537304 0.212955 0.0100775 0.00334586 0.00342617 0.000372188 0.000379533 0.000759039 
913 0.218601 0.644135 0.0963375 0.0191205 0.00983641 0.00370936 0.00557804 0.0011524 0.00101284 0.000517453 
914 0.230519 0.683687 0.0455811 0.0218528 0.0100773 0.00334586 0.00342617 0.000372188 0.000379533 0.000759038 
915 0.213244 0.736942 0.0317008 0.0088963 0.00393956 0.00278524 0.00181311 0.000225577 0.000227245 0.000226581 
916 0.289261 0.334396 0.130209 0.224252 0.0120437 0.00487288 0.00198668 0.000982791 0.00134696 0.000648442 
917 0.243117 0.490388 0.0358163 0.0139843 0.00820577 0.00211826 0.0026944 0.000993026 0.0036753 0.199008 
918 0.309556 0.438133 0.0376036 0.00753927 0.00406191 0.201036 0.000818511 0.000311775 0.000751166 0.0001881 
919 0.243117 0.490388 0.0358164 0.213984 0.00820577 0.00211826 0.0026944 0.000993026 0.00134505 0.00133784 
920 0.23906 0.466783 0.0664374 0.0128873 0.0072497 0.203511 0.00172601 0.000801109 0.00107579 0.000469237 
921 0.257145 0.676316 0.0358603 0.0139843 0.00820577 0.00211826 0.0026944 0.000993026 0.00134505 0.00133784 
922 0.289261 0.334396 0.130209 0.0242749 0.0120208 0.00487288 0.00198668 0.000986166 0.201344 0.000648442 
923 0.228373 0.486582 0.0448325 0.0218528 0.0100773 0.0036614 0.203111 0.000372188 0.000379533 0.000759039 
924 0.228373 0.486582 0.0448325 0.0218528 0.0100773 0.00334586 0.00731409 0.196484 0.000379533 0.000759039 
925 0.218601 0.445909 0.274783 0.0389012 0.00983641 0.00370936 0.00557804 0.0011524 0.00101284 0.000517453 
926 0.228373 0.486582 0.0448325 0.0218528 0.0100773 0.00334586 0.00342617 0.000372251 0.200379 0.00075904 
927 0.23906 0.466783 0.066443 0.212809 0.00732033 0.00351323 0.00172529 0.000801109 0.00107579 0.000469237 
928 0.289261 0.336432 0.328174 0.0242749 0.0120208 0.00487288 0.00198668 0.000982791 0.00134696 0.000648442 
929 0.309556 0.438133 0.037604 0.207539 0.00384821 0.00125019 0.000818511 0.000311775 0.000751166 0.0001881 
930 0.208181 0.394613 0.161525 0.214876 0.011503 0.00493458 0.00290072 0.000733591 0.00073261 0 
931 0.23906 0.466783 0.0664374 0.013044 0.207084 0.00352 0.00172529 0.000801109 0.00107579 0.000469237 
932 0.289261 0.334396 0.130226 0.224258 0.0120208 0.00487288 0.00198668 0.000982791 0.00134696 0.000648442 
933 0.213452 0.736734 0.0317008 0.0088963 0.00393956 0.00278524 0.00181311 0.000225577 0.000227245 0.000226581 
934 0.208181 0.413257 0.342879 0.0148779 0.0115029 0.00493458 0.00290072 0.000733591 0.00073261 0 
935 0.228373 0.686581 0.0448326 0.0218528 0.0100773 0.00334586 0.00342617 0.000372188 0.000379533 0.000759038 
936 0.243117 0.490388 0.0358163 0.0139844 0.208205 0.00211847 0.0026944 0.000993026 0.00134505 0.00133784 
937 0.309556 0.438133 0.0376036 0.00753927 0.00384821 0.00125019 0.000818511 0.000376522 0.200686 0.0001881 
938 0.228469 0.686482 0.044836 0.0218528 0.0100773 0.00334586 0.00342617 0.000372188 0.000379533 0.000759038 
