1 1 100 1 1
2 0 100 7 0.209455
3 0 100 7 0.671193
4 0 100 7 0.119352
2 1 100 7 0.499858
3 1 100 7 0.500142
1 2 100 7 0.999603
3 2 100 7 0.000397359
1 3 100 7 0.998845
2 3 100 7 0.00115517
1 4 100 7 0.407202
2 4 100 7 0.592798
3 5 100 7 0.4999
4 5 100 7 0.5001
4 6 100 7 0.499962
6 6 100 7 0.500038
5 7 100 7 1
3 8 100 7 2.05603e-05
7 8 100 7 0.999979
6 9 100 7 0.999957
7 9 100 7 4.26772e-05
2 10 100 7 0.605311
7 10 100 7 0.394689
1 11 100 7 0.102459
7 11 100 7 0.897541
1 12 100 7 0.000334018
2 12 100 7 0.0139511
3 12 100 7 0.975758
4 12 100 7 0.00995695
7 13 100 7 1
2 14 100 7 2.22718e-06
3 14 100 7 4.36836e-06
4 14 100 7 2.70596e-06
7 14 100 7 0.999991
2 0 100 8 0.0335298
4 0 100 8 0.00486629
5 0 100 8 0.00555973
6 0 100 8 0.18635
7 0 100 8 0.0367766
8 0 100 8 0.732918
1 1 100 8 0.501803
6 1 100 8 0.498197
1 2 100 8 7.92457e-05
3 2 100 8 0.996242
6 2 100 8 0.00367889
1 3 100 8 0.250158
3 3 100 8 0.250122
4 3 100 8 0.499719
2 4 100 8 4.97257e-05
4 4 100 8 0.000550985
5 4 100 8 0.997762
7 4 100 8 0.00163687
6 5 100 8 0.736005
7 5 100 8 0.263995
2 6 100 8 0.499435
6 6 100 8 0.000577226
7 6 100 8 0.499988
1 7 100 8 0.259113
2 7 100 8 0.018129
3 7 100 8 0.0214755
4 7 100 8 0.196152
8 7 100 8 0.505131
4 8 100 8 0.885593
6 8 100 8 0.114407
1 9 100 8 0.199932
4 9 100 8 0.199998
5 9 100 8 0.199998
7 9 100 8 0.200002
8 9 100 8 0.20007
1 10 100 8 9.77288e-05
2 10 100 8 0.276056
3 10 100 8 0.276374
4 10 100 8 0.00110121
5 10 100 8 0.000182136
6 10 100 8 0.273794
7 10 100 8 0.169648
8 10 100 8 0.00274713
1 11 100 8 0.650169
2 11 100 8 0.00213084
3 11 100 8 0.150217
4 11 100 8 0.0132761
5 11 100 8 0.0079677
6 11 100 8 0.00522428
7 11 100 8 0.140127
8 11 100 8 0.0308881
2 12 100 8 0.000237384
3 12 100 8 0.342658
4 12 100 8 7.93506e-05
5 12 100 8 0.592462
6 12 100 8 0.0467656
7 12 100 8 0.0174309
8 12 100 8 0.000366419
2 13 100 8 6.8684e-07
3 13 100 8 0.038275
4 13 100 8 0.335069
5 13 100 8 0.0113946
6 13 100 8 0.00414821
7 13 100 8 0.334736
8 13 100 8 0.276377
1 14 100 8 9.1436e-06
2 14 100 8 0.986418
3 14 100 8 0.00184405
4 14 100 8 2.37681e-05
5 14 100 8 0.000108341
6 14 100 8 0.0113865
8 14 100 8 0.000209986
2 15 100 8 0.989091
5 15 100 8 0.0108651
6 15 100 8 3.58499e-05
8 15 100 8 8.39286e-06
5 16 100 8 0.00051444
6 16 100 8 0.000110082
8 16 100 8 0.999375
4 17 100 8 0.000356866
5 17 100 8 0.12222
6 17 100 8 0.87618
7 17 100 8 3.45901e-05
8 17 100 8 0.00120878
2 18 100 8 0.00407373
5 18 100 8 0.00906648
6 18 100 8 0.984817
8 18 100 8 0.00204277
5 19 100 8 0.00451781
6 19 100 8 0.992262
7 19 100 8 0.00035733
8 19 100 8 0.0028633
2 20 100 8 5.57084e-06
5 20 100 8 0.999917
6 20 100 8 3.62896e-05
8 20 100 8 4.12478e-05
8 22 100 8 1
1 0 100 9 4.68698e-05
2 0 100 9 0.00602661
3 0 100 9 0.299733
4 0 100 9 0.606208
5 0 100 9 0.00050987
6 0 100 9 0.0147682
7 0 100 9 0.0528879
8 0 100 9 0.0196087
9 0 100 9 0.000210592
1 1 100 9 0.235144
2 1 100 9 0.351707
3 1 100 9 0.0144935
4 1 100 9 0.148765
5 1 100 9 0.235125
6 1 100 9 0.000636864
7 1 100 9 0.0141287
1 2 100 9 0.141781
2 2 100 9 0.288677
3 2 100 9 0.141324
4 2 100 9 9.12724e-06
5 2 100 9 4.22388e-05
6 2 100 9 0.288348
7 2 100 9 1.72799e-05
8 2 100 9 0.139801
1 3 100 9 0.329319
2 3 100 9 0.00028063
3 3 100 9 0.166896
4 3 100 9 0.00678063
5 3 100 9 0.165537
7 3 100 9 0.331045
8 3 100 9 0.000120051
9 3 100 9 2.1819e-05
1 4 100 9 0.196478
2 4 100 9 0.0934741
3 4 100 9 0.321764
4 4 100 9 0.0977922
5 4 100 9 8.93748e-06
6 4 100 9 0.0968189
8 4 100 9 0.193664
2 5 100 9 0.170057
3 5 100 9 0.271268
4 5 100 9 0.253255
5 5 100 9 0.0855162
6 5 100 9 0.0849472
7 5 100 9 0.134906
9 5 100 9 5.06577e-05
1 6 100 9 0.120562
2 6 100 9 0.122387
3 6 100 9 0.122351
4 6 100 9 0.272832
5 6 100 9 0.241101
6 6 100 9 5.86914e-05
7 6 100 9 0.120536
8 6 100 9 0.000172394
1 7 100 9 4.35467e-06
2 7 100 9 0.0054446
3 7 100 9 0.0529736
4 7 100 9 0.319891
5 7 100 9 0.152032
6 7 100 9 0.156229
7 7 100 9 9.85167e-06
8 7 100 9 0.313411
9 7 100 9 5.41876e-06
2 8 100 9 0.13547
3 8 100 9 0.144416
4 8 100 9 5.146e-05
5 8 100 9 0.14511
6 8 100 9 0.28475
7 8 100 9 0.145053
8 8 100 9 0.145088
9 8 100 9 6.12297e-05
1 9 100 9 0.138191
2 9 100 9 4.24938e-06
3 9 100 9 0.139678
4 9 100 9 0.207099
5 9 100 9 0.208852
6 9 100 9 0.139953
7 9 100 9 0.166222
8 9 100 9 2.39239e-06
1 10 100 9 0.222815
2 10 100 9 0.21982
3 10 100 9 0.000615308
4 10 100 9 0.000529641
5 10 100 9 0.00024162
6 10 100 9 0.221943
7 10 100 9 0.111366
8 10 100 9 0.222663
9 10 100 9 6.18335e-06
1 11 100 9 0.144205
2 11 100 9 0.137415
3 11 100 9 5.13611e-05
4 11 100 9 0.000296997
5 11 100 9 0.138335
6 11 100 9 0.0980113
7 11 100 9 0.273312
8 11 100 9 0.187592
9 11 100 9 0.0207804
1 12 100 9 1.86655e-05
2 12 100 9 0.128034
3 12 100 9 0.204551
4 12 100 9 0.0015018
5 12 100 9 0.125024
6 12 100 9 0.136675
7 12 100 9 0.000237397
8 12 100 9 0.26923
9 12 100 9 0.134728
1 13 100 9 0.000249393
2 13 100 9 0.000132888
3 13 100 9 0.00624604
4 13 100 9 0.00429648
5 13 100 9 0.154491
6 13 100 9 0.0111661
7 13 100 9 0.191074
8 13 100 9 0.191109
9 13 100 9 0.441236
1 14 100 9 0.00222533
2 14 100 9 0.115233
3 14 100 9 0.00595002
4 14 100 9 0.302567
5 14 100 9 0.130864
6 14 100 9 0.00454401
7 14 100 9 7.98923e-05
8 14 100 9 0.219687
9 14 100 9 0.21885
1 15 100 9 3.33251e-06
2 15 100 9 0.00216331
3 15 100 9 0.00484654
4 15 100 9 0.0157885
5 15 100 9 0.000831312
6 15 100 9 0.40654
7 15 100 9 0.569457
8 15 100 9 4.15181e-05
9 15 100 9 0.000328137
1 16 100 9 0.336024
2 16 100 9 0.000199473
3 16 100 9 0.000192596
4 16 100 9 0.000126643
5 16 100 9 0.00112918
6 16 100 9 2.75226e-06
7 16 100 9 0.0630125
8 16 100 9 2.46761e-06
9 16 100 9 0.59931
2 17 100 9 0.245659
3 17 100 9 0.000187244
4 17 100 9 0.00296337
5 17 100 9 0.000109708
6 17 100 9 3.775e-05
7 17 100 9 0.0010532
8 17 100 9 0.249967
9 17 100 9 0.500023
1 18 100 9 0.000369933
2 18 100 9 0.000773461
3 18 100 9 2.61334e-05
4 18 100 9 0.000643557
5 18 100 9 0.343612
7 18 100 9 9.98698e-06
9 18 100 9 0.654564
4 19 100 9 0.000121985
5 19 100 9 0.00829673
6 19 100 9 0.985281
7 19 100 9 0.00594141
9 19 100 9 0.000359391
2 20 100 9 6.83291e-06
4 20 100 9 2.97033e-05
5 20 100 9 0.000386826
6 20 100 9 0.000332898
7 20 100 9 0.550961
8 20 100 9 0.000576633
9 20 100 9 0.447707
4 21 100 9 1.04777e-05
5 21 100 9 0.000101848
6 21 100 9 0.000137683
7 21 100 9 0.00188027
8 21 100 9 0.99787
2 22 100 9 2.07058e-06
3 22 100 9 0.000152749
4 22 100 9 0.000397717
5 22 100 9 5.05137e-05
9 22 100 9 0.999397
4 23 100 9 2.98292e-06
8 23 100 9 3.44891e-06
9 23 100 9 0.999994
5 25 100 9 0.999646
7 25 100 9 0.000171924
9 25 100 9 0.000182039
8 26 100 9 1
5 27 100 9 2.75523e-06
9 27 100 9 0.999997
1 0 100 10 0.0471355
2 0 100 10 0.0182033
3 0 100 10 0.0444729
4 0 100 10 0.00254349
5 0 100 10 0.175878
6 0 100 10 0.00030796
7 0 100 10 0.305415
8 0 100 10 0.00530159
9 0 100 10 0.399665
10 0 100 10 0.00107687
1 1 100 10 0.26751
2 1 100 10 0.397951
4 1 100 10 0.204972
5 1 100 10 0.000232717
7 1 100 10 0.12933
8 1 100 10 2.75671e-06
9 1 100 10 1.79325e-06
1 2 100 10 0.819837
2 2 100 10 0.174734
3 2 100 10 0.000429383
4 2 100 10 1.84014e-05
6 2 100 10 0.00021633
7 2 100 10 0.00367536
8 2 100 10 0.000499906
9 2 100 10 0.000554787
10 2 100 10 3.49357e-05
1 3 100 10 0.365178
2 3 100 10 0.184007
3 3 100 10 0.18162
4 3 100 10 0.0863238
5 3 100 10 0.182584
6 3 100 10 0.00021751
7 3 100 10 1.36493e-05
8 3 100 10 5.19693e-05
9 3 100 10 3.35877e-06
1 4 100 10 0.00340653
2 4 100 10 0.145934
3 4 100 10 0.566559
5 4 100 10 0.142102
6 4 100 10 0.141999
1 5 100 10 7.38694e-06
2 5 100 10 0.111975
3 5 100 10 0.111957
5 5 100 10 0.110325
6 5 100 10 0.335867
7 5 100 10 0.110483
8 5 100 10 0.11165
9 5 100 10 0.107737
1 6 100 10 0.0386324
2 6 100 10 0.137241
3 6 100 10 0.13736
4 6 100 10 0.274712
5 6 100 10 1.63214e-05
6 6 100 10 8.20386e-06
7 6 100 10 0.411922
8 6 100 10 0.000108567
1 7 100 10 0.000346127
3 7 100 10 0.168052
5 7 100 10 0.499913
8 7 100 10 0.331649
9 7 100 10 2.83675e-05
10 7 100 10 1.19456e-05
2 8 100 10 1.48669e-05
3 8 100 10 2.09388e-06
4 8 100 10 0.155812
5 8 100 10 0.155792
6 8 100 10 0.155824
8 8 100 10 0.224267
9 8 100 10 0.308288
1 9 100 10 1.05137e-05
4 9 100 10 0.14255
5 9 100 10 0.00564581
6 9 100 10 0.281993
7 9 100 10 8.06059e-06
8 9 100 10 0.000178562
9 9 100 10 0.284552
10 9 100 10 0.285062
6 10 100 10 0.267114
7 10 100 10 0.519673
8 10 100 10 0.209514
9 10 100 10 0.00365201
10 10 100 10 4.7316e-05
1 11 100 10 5.19143e-06
4 11 100 10 0.382878
5 11 100 10 0.000169605
7 11 100 10 0.0131098
8 11 100 10 0.595753
9 11 100 10 0.0080781
10 11 100 10 6.42455e-06
3 12 100 10 0.00403058
4 12 100 10 0.196059
5 12 100 10 1.53186e-05
6 12 100 10 0.00520314
7 12 100 10 0.196457
8 12 100 10 0.0544313
9 12 100 10 0.347264
10 12 100 10 0.19654
1 13 100 10 4.05664e-06
2 13 100 10 0.000120007
3 13 100 10 0.0008692
4 13 100 10 0.00170205
5 13 100 10 0.976955
6 13 100 10 0.0155877
7 13 100 10 8.34298e-05
8 13 100 10 0.000125724
9 13 100 10 0.00446885
10 13 100 10 8.39137e-05
1 14 100 10 2.32384e-06
2 14 100 10 9.00984e-06
3 14 100 10 3.09382e-06
4 14 100 10 1.37183e-05
5 14 100 10 0.00013746
6 14 100 10 0.00334312
7 14 100 10 0.000764417
8 14 100 10 0.453442
9 14 100 10 0.213747
10 14 100 10 0.328539
2 15 100 10 1.71522e-05
3 15 100 10 8.64731e-05
4 15 100 10 7.64402e-05
5 15 100 10 9.85151e-05
6 15 100 10 0.0174017
7 15 100 10 0.00113942
8 15 100 10 0.11481
9 15 100 10 0.866335
10 15 100 10 3.51409e-05
3 16 100 10 1.94898e-06
4 16 100 10 1.18683e-06
5 16 100 10 0.494195
6 16 100 10 2.1358e-05
7 16 100 10 5.30104e-06
8 16 100 10 0.000440152
9 16 100 10 0.000138406
10 16 100 10 0.505197
2 17 100 10 0.200035
3 17 100 10 0.200095
4 17 100 10 0.200077
5 17 100 10 2.46798e-06
6 17 100 10 0.200439
7 17 100 10 0.198068
8 17 100 10 0.000750955
9 17 100 10 0.000531173
10 17 100 10 2.28407e-06
5 18 100 10 4.33006e-05
6 18 100 10 6.01956e-06
7 18 100 10 0.00416209
8 18 100 10 0.494872
9 18 100 10 0.000119459
10 18 100 10 0.500798
3 19 100 10 1.08547e-06
6 19 100 10 8.64527e-07
8 19 100 10 8.36048e-06
9 19 100 10 6.98973e-05
10 19 100 10 0.99992
5 20 100 10 0.967253
9 20 100 10 0.0327466
2 21 100 10 0.00102719
5 21 100 10 0.00107772
7 21 100 10 0.000694119
8 21 100 10 0.000203019
9 21 100 10 0.996825
10 21 100 10 0.000172742
5 22 100 10 0.00151474
8 22 100 10 0.56316
9 22 100 10 0.00144176
10 22 100 10 0.433884
5 23 100 10 0.0136977
9 23 100 10 0.986302
1 24 100 10 0.960603
9 24 100 10 0.0393967
5 25 100 10 0.0013521
9 25 100 10 0.998648
9 26 100 10 1.05797e-05
10 26 100 10 0.999989
1 0 100 11 0.000748895
2 0 100 11 0.00172143
3 0 100 11 0.0250097
4 0 100 11 0.0042389
5 0 100 11 0.578021
6 0 100 11 0.0480755
7 0 100 11 0.0561612
8 0 100 11 0.0180869
9 0 100 11 0.00095955
10 0 100 11 0.266726
11 0 100 11 0.000250633
1 1 100 11 0.254036
2 1 100 11 0.257732
3 1 100 11 0.000359705
4 1 100 11 0.254166
5 1 100 11 0.000390797
7 1 100 11 0.233316
1 2 100 11 0.475001
2 2 100 11 0.111981
3 2 100 11 0.188836
5 2 100 11 0.000524133
6 2 100 11 1.47848e-05
7 2 100 11 1.86961e-05
8 2 100 11 0.223624
2 3 100 11 0.000231444
3 3 100 11 0.248063
4 3 100 11 6.9683e-06
5 3 100 11 0.248064
6 3 100 11 0.00583355
7 3 100 11 7.43644e-05
8 3 100 11 4.5229e-05
9 3 100 11 0.372894
10 3 100 11 0.124787
1 4 100 11 1.18377e-05
2 4 100 11 0.10726
3 4 100 11 8.28622e-05
4 4 100 11 0.10709
5 4 100 11 6.86306e-06
6 4 100 11 0.39702
8 4 100 11 1.36433e-05
9 4 100 11 0.0640832
10 4 100 11 0.324424
11 4 100 11 7.785e-06
1 5 100 11 0.145059
2 5 100 11 0.280519
3 5 100 11 0.145293
4 5 100 11 0.0656548
5 5 100 11 0.0744757
6 5 100 11 1.39702e-05
7 5 100 11 0.216026
9 5 100 11 0.000180381
10 5 100 11 1.75358e-05
11 5 100 11 0.07276
1 6 100 11 0.0805847
2 6 100 11 2.42435e-05
3 6 100 11 0.243878
4 6 100 11 0.243651
5 6 100 11 0.028018
6 6 100 11 0.0685379
7 6 100 11 1.02228e-05
8 6 100 11 0.244822
9 6 100 11 0.0886437
10 6 100 11 0.00183
2 7 100 11 0.013477
3 7 100 11 0.121684
4 7 100 11 0.245218
5 7 100 11 0.121712
6 7 100 11 0.121759
7 7 100 11 0.00435454
8 7 100 11 1.44825e-05
9 7 100 11 0.365138
10 7 100 11 0.00662557
11 7 100 11 1.78533e-05
1 8 100 11 0.0996873
3 8 100 11 1.81203e-05
4 8 100 11 0.00979072
5 8 100 11 0.194357
6 8 100 11 1.35062e-06
7 8 100 11 0.198285
8 8 100 11 0.198748
9 8 100 11 7.61911e-06
10 8 100 11 0.299105
1 9 100 11 0.000664553
2 9 100 11 0.156017
3 9 100 11 0.0810581
4 9 100 11 0.0830643
5 9 100 11 0.00418016
6 9 100 11 0.330603
7 9 100 11 0.0839664
8 9 100 11 1.04232e-05
9 9 100 11 0.166158
10 9 100 11 0.0942788
1 10 100 11 0.166049
3 10 100 11 0.1189
4 10 100 11 0.200752
5 10 100 11 7.07176e-05
6 10 100 11 0.0139412
7 10 100 11 0.100569
8 10 100 11 0.164374
9 10 100 11 0.0301041
10 10 100 11 0.205227
11 10 100 11 1.38884e-05
2 11 100 11 0.0318877
3 11 100 11 0.125001
4 11 100 11 0.116761
5 11 100 11 0.217735
6 11 100 11 0.00145186
7 11 100 11 0.0199947
8 11 100 11 0.136893
9 11 100 11 0.116726
10 11 100 11 0.11679
11 11 100 11 0.11676
1 12 100 11 0.000597323
2 12 100 11 0.076462
3 12 100 11 0.0796816
4 12 100 11 3.90851e-06
5 12 100 11 0.0886645
6 12 100 11 0.0867197
7 12 100 11 0.244742
8 12 100 11 0.0709188
9 12 100 11 0.174677
10 12 100 11 0.0888792
11 12 100 11 0.0886543
1 13 100 11 0.048396
2 13 100 11 0.152053
3 13 100 11 0.166507
4 13 100 11 0.00594559
5 13 100 11 0.000234123
6 13 100 11 0.348208
7 13 100 11 0.0086873
8 13 100 11 0.118115
9 13 100 11 0.15164
10 13 100 11 0.000206318
11 13 100 11 7.67221e-06
1 14 100 11 3.78606e-06
2 14 100 11 0.000385054
3 14 100 11 0.0349922
4 14 100 11 0.108128
5 14 100 11 0.00278234
6 14 100 11 0.0148526
7 14 100 11 0.206118
8 14 100 11 0.216147
9 14 100 11 0.208449
10 14 100 11 0.208124
11 14 100 11 1.88879e-05
1 15 100 11 0.112885
2 15 100 11 0.00285629
3 15 100 11 1.85658e-06
4 15 100 11 0.00113011
5 15 100 11 0.364212
6 15 100 11 0.160394
7 15 100 11 0.000161733
8 15 100 11 0.0125048
9 15 100 11 0.0853039
10 15 100 11 0.130095
11 15 100 11 0.130455
1 16 100 11 0.0567719
2 16 100 11 0.000515713
3 16 100 11 1.11458e-05
4 16 100 11 0.55057
5 16 100 11 0.000858181
6 16 100 11 0.34056
7 16 100 11 0.00623141
8 16 100 11 0.000547278
9 16 100 11 2.03791e-05
10 16 100 11 0.000683964
11 16 100 11 0.0432302
2 17 100 11 0.00659049
3 17 100 11 1.43082e-06
4 17 100 11 0.000272866
5 17 100 11 0.00112892
6 17 100 11 0.017741
7 17 100 11 0.624327
8 17 100 11 0.00434078
9 17 100 11 0.00203362
10 17 100 11 0.000572554
11 17 100 11 0.342992
1 18 100 11 0.224729
2 18 100 11 0.148565
3 18 100 11 0.000130715
4 18 100 11 0.00116903
5 18 100 11 0.000149593
6 18 100 11 0.00105723
7 18 100 11 0.000523493
8 18 100 11 0.398718
9 18 100 11 3.60838e-05
10 18 100 11 0.00041512
11 18 100 11 0.224506
1 19 100 11 9.25462e-05
2 19 100 11 0.243489
3 19 100 11 0.258579
4 19 100 11 0.000182612
5 19 100 11 0.00939641
6 19 100 11 2.50855e-05
8 19 100 11 5.33911e-06
9 19 100 11 1.41525e-05
10 19 100 11 9.28813e-07
11 19 100 11 0.488216
1 20 100 11 0.00513862
2 20 100 11 0.297994
3 20 100 11 0.00019788
4 20 100 11 0.000156252
5 20 100 11 0.000563634
6 20 100 11 0.000645722
7 20 100 11 0.000928815
8 20 100 11 0.000303299
9 20 100 11 6.80518e-06
10 20 100 11 0.00835931
11 20 100 11 0.685706
1 21 100 11 0.726991
2 21 100 11 6.74282e-05
4 21 100 11 0.000497009
5 21 100 11 9.88074e-05
6 21 100 11 3.6435e-05
7 21 100 11 1.4214e-05
8 21 100 11 0.0127293
9 21 100 11 0.244623
10 21 100 11 0.0149423
1 22 100 11 1.23666e-05
2 22 100 11 0.0750019
4 22 100 11 0.0185766
5 22 100 11 0.835823
6 22 100 11 0.00125179
7 22 100 11 0.000103883
8 22 100 11 4.49564e-05
9 22 100 11 0.000328698
10 22 100 11 0.0688349
11 22 100 11 2.16836e-05
2 23 100 11 0.943434
5 23 100 11 3.75174e-06
6 23 100 11 0.045504
7 23 100 11 2.54891e-05
8 23 100 11 0.00106338
9 23 100 11 0.0097479
10 23 100 11 1.94777e-05
11 23 100 11 0.000202003
2 24 100 11 2.03878e-06
3 24 100 11 0.00137152
4 24 100 11 0.0029907
5 24 100 11 0.00190546
6 24 100 11 0.0149822
7 24 100 11 0.000486113
8 24 100 11 3.97244e-06
9 24 100 11 0.00249296
10 24 100 11 0.000142736
11 24 100 11 0.975622
2 25 100 11 0.000122314
3 25 100 11 7.39739e-07
4 25 100 11 3.53175e-05
5 25 100 11 3.54484e-06
6 25 100 11 0.0422267
7 25 100 11 0.000543063
8 25 100 11 0.319264
9 25 100 11 0.00060366
10 25 100 11 0.318702
11 25 100 11 0.318499
3 26 100 11 0.998788
4 26 100 11 1.11131e-05
5 26 100 11 0.000136017
7 26 100 11 1.0661e-05
9 26 100 11 0.00104992
11 26 100 11 4.69965e-06
2 27 100 11 0.00025383
3 27 100 11 8.35474e-05
4 27 100 11 0.973414
5 27 100 11 0.0262481
3 28 100 11 0.000910449
4 28 100 11 0.00557669
5 28 100 11 0.000434109
6 28 100 11 0.91503
7 28 100 11 0.0615297
9 28 100 11 0.0165192
6 29 100 11 0.398123
7 29 100 11 0.60187
9 29 100 11 6.21924e-06
3 30 100 11 0.00193535
4 30 100 11 1.34978e-05
5 30 100 11 0.0401837
7 30 100 11 1.85838e-06
9 30 100 11 6.30884e-05
11 30 100 11 0.957802
11 31 100 11 1
11 32 100 11 1
1 0 100 12 0.000178216
2 0 100 12 0.0347385
3 0 100 12 0.00278377
4 0 100 12 0.0046471
5 0 100 12 0.0262943
6 0 100 12 0.807053
7 0 100 12 0.045837
8 0 100 12 0.0308352
9 0 100 12 0.0320684
10 0 100 12 0.0017305
11 0 100 12 0.0113115
12 0 100 12 0.0025225
1 1 100 12 0.800654
2 1 100 12 0.118106
3 1 100 12 0.0394534
5 1 100 12 0.0414793
7 1 100 12 0.000146015
9 1 100 12 3.51084e-05
10 1 100 12 0.000118059
12 1 100 12 7.74373e-06
1 2 100 12 0.389314
2 2 100 12 0.467368
3 2 100 12 0.0778151
4 2 100 12 0.0650245
5 2 100 12 0.00019247
6 2 100 12 8.22252e-05
7 2 100 12 5.76192e-05
9 2 100 12 3.55506e-05
12 2 100 12 0.000110594
1 3 100 12 0.180736
2 3 100 12 0.0919304
3 3 100 12 0.454557
4 3 100 12 0.272539
5 3 100 12 7.27033e-05
6 3 100 12 1.15169e-05
8 3 100 12 2.68929e-05
10 3 100 12 0.000114683
11 3 100 12 4.05679e-06
12 3 100 12 8.39652e-06
1 4 100 12 0.250758
2 4 100 12 0.480395
4 4 100 12 0.137465
5 4 100 12 0.0873494
6 4 100 12 0.0437419
7 4 100 12 8.80782e-07
8 4 100 12 3.17689e-06
9 4 100 12 9.98247e-07
11 4 100 12 0.0002841
12 4 100 12 7.51381e-07
2 5 100 12 0.152096
3 5 100 12 0.42625
4 5 100 12 0.327361
5 5 100 12 0.0305668
6 5 100 12 0.0304434
7 5 100 12 0.0304346
8 5 100 12 0.000146113
9 5 100 12 0.00270282
1 6 100 12 0.0442228
2 6 100 12 0.0747754
3 6 100 12 0.149359
4 6 100 12 0.202227
5 6 100 12 0.270793
6 6 100 12 0.0385462
7 6 100 12 0.0739613
8 6 100 12 0.0359608
9 6 100 12 3.42186e-05
10 6 100 12 0.0371769
11 6 100 12 0.0372522
12 6 100 12 0.0356915
1 7 100 12 0.0444845
2 7 100 12 0.177779
3 7 100 12 0.177652
4 7 100 12 0.088883
5 7 100 12 0.0888599
6 7 100 12 0.0939805
7 7 100 12 0.0888727
8 7 100 12 0.175915
9 7 100 12 0.0633805
10 7 100 12 0.000185573
12 7 100 12 6.85847e-06
1 8 100 12 0.0396881
2 8 100 12 0.0810071
3 8 100 12 0.202836
4 8 100 12 0.184851
5 8 100 12 0.040607
6 8 100 12 0.0405827
7 8 100 12 0.162069
8 8 100 12 0.0412282
9 8 100 12 0.125988
10 8 100 12 0.040572
11 8 100 12 0.0405695
12 8 100 12 2.25202e-06
2 9 100 12 0.0353021
3 9 100 12 0.0707395
4 9 100 12 0.176841
5 9 100 12 0.30628
6 9 100 12 0.106201
7 9 100 12 0.0707306
8 9 100 12 0.057134
9 9 100 12 0.0353664
10 9 100 12 0.106039
11 9 100 12 0.0353671
2 10 100 12 4.13222e-07
3 10 100 12 0.0348972
4 10 100 12 0.0348972
5 10 100 12 0.209359
6 10 100 12 0.104726
7 10 100 12 0.110772
8 10 100 12 0.172013
9 10 100 12 0.159119
11 10 100 12 0.174217
1 11 100 12 4.58475e-06
2 11 100 12 1.63029e-05
4 11 100 12 0.0107911
5 11 100 12 0.113442
6 11 100 12 0.0369973
7 11 100 12 0.151619
8 11 100 12 0.320775
9 11 100 12 0.29253
10 11 100 12 0.0368697
11 11 100 12 0.0369517
12 11 100 12 3.32328e-06
2 12 100 12 0.00204075
3 12 100 12 2.61382e-06
4 12 100 12 0.0427475
5 12 100 12 0.125947
6 12 100 12 0.172885
7 12 100 12 0.0426358
8 12 100 12 0.0446153
9 12 100 12 0.172442
10 12 100 12 0.304985
11 12 100 12 0.0912356
12 12 100 12 0.00046445
1 13 100 12 2.61258e-06
2 13 100 12 0.000233964
3 13 100 12 4.68073e-06
4 13 100 12 1.13801e-06
5 13 100 12 4.57548e-05
6 13 100 12 0.134201
7 13 100 12 0.166625
8 13 100 12 0.089964
9 13 100 12 0.0440362
10 13 100 12 0.215232
11 13 100 12 0.216758
12 13 100 12 0.132894
1 14 100 12 1.96581e-05
2 14 100 12 2.9758e-06
3 14 100 12 4.50056e-05
4 14 100 12 0.000291325
5 14 100 12 0.0513904
6 14 100 12 0.177734
7 14 100 12 0.218053
8 14 100 12 0.128897
9 14 100 12 0.0963021
10 14 100 12 0.101759
11 14 100 12 0.177131
12 14 100 12 0.0483748
1 15 100 12 0.000369017
2 15 100 12 1.25636e-05
3 15 100 12 4.10667e-05
4 15 100 12 0.0002263
5 15 100 12 7.73089e-05
6 15 100 12 0.158465
7 15 100 12 0.112191
8 15 100 12 0.232269
9 15 100 12 0.0536554
10 15 100 12 0.108768
11 15 100 12 0.168354
12 15 100 12 0.16557
1 16 100 12 0.00138688
2 16 100 12 0.000149814
3 16 100 12 0.000615721
4 16 100 12 0.00825298
5 16 100 12 0.00817697
6 16 100 12 0.102217
7 16 100 12 0.000261843
8 16 100 12 0.103452
9 16 100 12 0.387368
10 16 100 12 0.0918844
11 16 100 12 0.186735
12 16 100 12 0.109499
1 17 100 12 3.38368e-06
2 17 100 12 5.20166e-05
3 17 100 12 4.62703e-05
4 17 100 12 2.70259e-05
5 17 100 12 0.00225783
6 17 100 12 0.221726
7 17 100 12 0.250608
8 17 100 12 0.00176927
9 17 100 12 0.000294967
10 17 100 12 0.408903
11 17 100 12 0.0301742
12 17 100 12 0.0841377
1 18 100 12 0.000479341
2 18 100 12 1.52704e-07
3 18 100 12 3.01208e-07
4 18 100 12 1.92217e-05
5 18 100 12 0.0425547
6 18 100 12 0.215
7 18 100 12 0.1176
8 18 100 12 0.209166
9 18 100 12 0.067565
10 18 100 12 0.065931
11 18 100 12 0.199915
12 18 100 12 0.0817694
3 19 100 12 1.01346e-05
4 19 100 12 2.72602e-05
5 19 100 12 0.000203761
6 19 100 12 0.0715298
7 19 100 12 0.142752
8 19 100 12 0.00166109
9 19 100 12 0.243936
10 19 100 12 0.0838725
11 19 100 12 0.0268389
12 19 100 12 0.429168
1 20 100 12 5.02829e-05
3 20 100 12 3.71484e-06
4 20 100 12 4.82118e-06
5 20 100 12 0.000202936
6 20 100 12 5.20301e-05
7 20 100 12 0.00648
8 20 100 12 0.000418857
9 20 100 12 0.241529
10 20 100 12 0.152883
11 20 100 12 0.298379
12 20 100 12 0.299996
1 21 100 12 4.87848e-06
2 21 100 12 6.31392e-05
3 21 100 12 6.83738e-05
4 21 100 12 3.49867e-05
5 21 100 12 0.00012512
6 21 100 12 5.32677e-05
7 21 100 12 3.92003e-05
8 21 100 12 0.103713
9 21 100 12 0.000480667
10 21 100 12 0.318158
11 21 100 12 0.278665
12 21 100 12 0.298594
1 22 100 12 2.66542e-06
2 22 100 12 0.126332
3 22 100 12 0.0022249
4 22 100 12 4.78579e-05
5 22 100 12 2.23409e-06
6 22 100 12 4.70516e-05
7 22 100 12 4.10289e-05
8 22 100 12 0.00983293
9 22 100 12 0.129773
10 22 100 12 0.216406
11 22 100 12 0.361864
12 22 100 12 0.153427
1 23 100 12 0.138784
2 23 100 12 5.73378e-05
3 23 100 12 0.000618576
5 23 100 12 0.000157314
6 23 100 12 0.153248
7 23 100 12 4.45638e-05
8 23 100 12 0.00180186
9 23 100 12 0.00157481
10 23 100 12 0.000374432
11 23 100 12 0.000147057
12 23 100 12 0.703192
2 24 100 12 0.176736
4 24 100 12 2.1881e-06
5 24 100 12 0.00786803
6 24 100 12 0.00691657
7 24 100 12 0.428035
8 24 100 12 0.000447804
9 24 100 12 2.20418e-05
10 24 100 12 0.000382875
11 24 100 12 0.371937
12 24 100 12 0.0076521
1 25 100 12 2.53747e-05
2 25 100 12 1.00313e-05
3 25 100 12 1.63981e-06
4 25 100 12 3.53344e-06
5 25 100 12 0.000966876
6 25 100 12 1.57952e-06
7 25 100 12 4.48386e-06
8 25 100 12 0.010302
9 25 100 12 0.00446612
10 25 100 12 0.000463593
11 25 100 12 1.21188e-05
12 25 100 12 0.983743
1 26 100 12 0.000116497
2 26 100 12 0.000381499
3 26 100 12 0.000552859
4 26 100 12 0.000987848
5 26 100 12 0.00126496
6 26 100 12 4.37135e-06
8 26 100 12 0.866946
9 26 100 12 0.0763744
10 26 100 12 0.0509456
11 26 100 12 0.000453325
12 26 100 12 0.00197322
2 27 100 12 4.79951e-07
3 27 100 12 3.37225e-06
4 27 100 12 5.47953e-06
5 27 100 12 0.00258227
6 27 100 12 1.15389e-06
9 27 100 12 9.45032e-06
10 27 100 12 0.160462
11 27 100 12 5.89746e-05
12 27 100 12 0.836877
5 28 100 12 3.32221e-06
7 28 100 12 0.000101587
8 28 100 12 0.000173604
9 28 100 12 5.91e-06
10 28 100 12 3.03797e-06
11 28 100 12 1.61397e-05
12 28 100 12 0.999696
1 29 100 12 0.00580532
6 29 100 12 0.0023158
7 29 100 12 0.664466
9 29 100 12 0.0115204
11 29 100 12 0.00304908
12 29 100 12 0.312843
7 30 100 12 0.995681
9 30 100 12 0.00176217
12 30 100 12 0.0025573
5 31 100 12 7.01662e-06
7 31 100 12 4.84497e-05
8 31 100 12 2.78351e-05
9 31 100 12 1.22789e-05
10 31 100 12 6.31184e-06
11 31 100 12 2.13342e-05
12 31 100 12 0.999877
7 32 100 12 0.998711
9 32 100 12 0.00128936
7 33 100 12 0.998167
9 33 100 12 0.00183259
8 34 100 12 0.999955
9 34 100 12 4.51611e-05
9 35 100 12 0.981343
10 35 100 12 0.00348274
12 35 100 12 0.0151741
12 36 100 12 1
1 0 100 13 2.21299e-05
2 0 100 13 0.146656
3 0 100 13 0.0110284
4 0 100 13 0.167965
5 0 100 13 0.100335
6 0 100 13 0.000598684
7 0 100 13 0.00331742
8 0 100 13 0.241873
9 0 100 13 0.145379
10 0 100 13 0.146388
11 0 100 13 0.00764208
12 0 100 13 0.028671
13 0 100 13 0.000124139
1 1 100 13 0.320479
2 1 100 13 0.354121
3 1 100 13 0.0543583
4 1 100 13 0.0357888
5 1 100 13 1.85516e-05
6 1 100 13 3.08162e-06
8 1 100 13 1.53637e-06
9 1 100 13 0.0644951
10 1 100 13 0.0989714
11 1 100 13 0.0717499
12 1 100 13 1.41728e-05
1 2 100 13 0.37293
2 2 100 13 0.1583
3 2 100 13 0.249493
4 2 100 13 0.0523472
5 2 100 13 3.67408e-05
6 2 100 13 0.0105859
7 2 100 13 0.0499201
8 2 100 13 0.000108847
9 2 100 13 0.000303141
10 2 100 13 0.000173576
11 2 100 13 0.0535042
12 2 100 13 0.0522977
1 3 100 13 0.247374
2 3 100 13 0.15062
3 3 100 13 0.241912
4 3 100 13 0.106113
5 3 100 13 0.0687913
6 3 100 13 0.00811718
7 3 100 13 0.0373736
8 3 100 13 0.0694439
9 3 100 13 0.000245217
10 3 100 13 3.19753e-05
11 3 100 13 5.05943e-05
12 3 100 13 0.0699272
13 3 100 13 5.94569e-07
1 4 100 13 0.0413904
2 4 100 13 0.186532
3 4 100 13 0.233601
4 4 100 13 0.229636
5 4 100 13 0.141937
6 4 100 13 0.0377313
7 4 100 13 0.037635
8 4 100 13 0.000339251
9 4 100 13 0.00340175
10 4 100 13 0.000895487
11 4 100 13 0.0757235
12 4 100 13 0.0111767
13 4 100 13 5.82767e-07
1 5 100 13 0.128457
2 5 100 13 0.0861636
3 5 100 13 0.0860377
4 5 100 13 0.171857
5 5 100 13 0.226215
6 5 100 13 0.126595
7 5 100 13 0.044638
8 5 100 13 0.0429884
9 5 100 13 0.0429091
10 5 100 13 0.0440935
11 5 100 13 1.50047e-06
12 5 100 13 4.41819e-05
1 6 100 13 0.104084
2 6 100 13 0.108059
3 6 100 13 0.164338
4 6 100 13 0.0822283
5 6 100 13 0.118506
6 6 100 13 0.185567
7 6 100 13 0.0548706
8 6 100 13 0.0454082
9 6 100 13 0.0272811
10 6 100 13 0.027392
11 6 100 13 0.0274177
12 6 100 13 0.054847
1 7 100 13 5.06927e-05
2 7 100 13 0.0438731
3 7 100 13 0.0487878
4 7 100 13 0.0440543
5 7 100 13 0.0439229
6 7 100 13 0.175514
7 7 100 13 0.219245
8 7 100 13 0.105408
9 7 100 13 0.087702
10 7 100 13 0.099656
11 7 100 13 0.0877314
12 7 100 13 0.0438663
13 7 100 13 0.000188545
1 8 100 13 0.0370122
2 8 100 13 0.0260364
3 8 100 13 0.0726414
4 8 100 13 0.0683502
5 8 100 13 0.104231
6 8 100 13 0.0816361
7 8 100 13 0.108551
8 8 100 13 0.224689
9 8 100 13 0.0912963
10 8 100 13 0.000386272
11 8 100 13 0.073454
12 8 100 13 0.110675
13 8 100 13 0.0010404
1 9 100 13 0.0381157
2 9 100 13 0.0367452
3 9 100 13 0.000261595
4 9 100 13 0.0365711
5 9 100 13 0.254015
6 9 100 13 0.0672057
7 9 100 13 0.145879
8 9 100 13 0.0902778
9 9 100 13 0.146785
10 9 100 13 0.0366911
11 9 100 13 0.0395052
12 9 100 13 0.107938
13 9 100 13 8.29749e-06
1 10 100 13 0.0359271
2 10 100 13 0.0783855
3 10 100 13 0.0393094
4 10 100 13 0.1175
5 10 100 13 0.0391837
6 10 100 13 0.0783299
7 10 100 13 0.0391641
8 10 100 13 0.048679
9 10 100 13 0.18224
10 10 100 13 0.18454
11 10 100 13 0.0783415
12 10 100 13 0.039213
13 10 100 13 0.0391864
1 11 100 13 0.0494083
2 11 100 13 0.000214467
3 11 100 13 0.0495356
4 11 100 13 0.00109751
5 11 100 13 0.019128
6 11 100 13 0.138563
7 11 100 13 0.318676
8 11 100 13 0.0561717
9 11 100 13 0.0382246
10 11 100 13 0.148294
11 11 100 13 0.0495371
12 11 100 13 0.131146
13 11 100 13 3.25739e-06
1 12 100 13 1.70861e-06
2 12 100 13 0.00130932
3 12 100 13 2.64025e-06
4 12 100 13 0.0615622
5 12 100 13 0.0409335
6 12 100 13 0.0814077
7 12 100 13 0.146006
8 12 100 13 0.273432
9 12 100 13 0.0806993
10 12 100 13 0.109306
11 12 100 13 0.163711
12 12 100 13 6.64848e-05
13 12 100 13 0.0415624
1 13 100 13 0.0488592
2 13 100 13 0.0490214
3 13 100 13 0.0478289
4 13 100 13 0.138133
5 13 100 13 0.0368534
6 13 100 13 0.0489333
7 13 100 13 0.0489028
8 13 100 13 0.0463998
9 13 100 13 0.000347636
10 13 100 13 0.195446
11 13 100 13 0.0948128
12 13 100 13 0.146718
13 13 100 13 0.0977427
2 14 100 13 4.70779e-06
3 14 100 13 0.0427001
4 14 100 13 0.0872178
5 14 100 13 0.124391
6 14 100 13 0.123721
7 14 100 13 0.0412585
8 14 100 13 0.122361
9 14 100 13 0.250417
10 14 100 13 0.0417486
11 14 100 13 0.0825071
12 14 100 13 0.0424161
13 14 100 13 0.0412571
1 15 100 13 0.0307465
2 15 100 13 0.0598061
3 15 100 13 0.0456714
4 15 100 13 0.0330103
5 15 100 13 0.000229749
6 15 100 13 0.091685
7 15 100 13 0.105087
8 15 100 13 0.113961
9 15 100 13 0.143368
10 15 100 13 0.143621
11 15 100 13 0.0793356
12 15 100 13 0.0619829
13 15 100 13 0.0914947
1 16 100 13 0.0594084
2 16 100 13 0.081028
3 16 100 13 0.0218432
4 16 100 13 0.00325101
5 16 100 13 0.0445249
6 16 100 13 0.0232278
7 16 100 13 0.0743336
8 16 100 13 0.074657
9 16 100 13 0.0487689
10 16 100 13 0.137887
11 16 100 13 0.160571
12 16 100 13 0.134455
13 16 100 13 0.136045
1 17 100 13 0.000516285
2 17 100 13 0.000239642
3 17 100 13 0.0999319
4 17 100 13 0.01809
5 17 100 13 0.0428299
6 17 100 13 0.0591745
7 17 100 13 0.00121487
8 17 100 13 0.0615318
9 17 100 13 0.0561605
10 17 100 13 0.0250812
11 17 100 13 0.231376
12 17 100 13 0.167145
13 17 100 13 0.236708
1 18 100 13 1.88998e-05
2 18 100 13 5.93169e-05
3 18 100 13 3.79797e-05
4 18 100 13 0.0734409
5 18 100 13 0.0292903
6 18 100 13 0.168919
7 18 100 13 0.00275554
8 18 100 13 0.00138378
9 18 100 13 0.112939
10 18 100 13 0.0903491
11 18 100 13 0.0682517
12 18 100 13 0.27285
13 18 100 13 0.179704
1 19 100 13 0.0658759
2 19 100 13 0.0672148
3 19 100 13 0.0666367
4 19 100 13 0.0690301
5 19 100 13 0.0979769
6 19 100 13 0.000397382
7 19 100 13 0.0407787
8 19 100 13 0.000111948
9 19 100 13 0.00260517
10 19 100 13 0.0491179
11 19 100 13 0.0261697
12 19 100 13 0.162371
13 19 100 13 0.351714
1 20 100 13 4.33905e-05
2 20 100 13 0.00604432
3 20 100 13 0.131574
4 20 100 13 0.122013
5 20 100 13 0.139218
6 20 100 13 0.138153
7 20 100 13 1.82474e-05
8 20 100 13 0.0114559
9 20 100 13 0.260359
10 20 100 13 0.0466545
11 20 100 13 0.00439378
12 20 100 13 0.00178209
13 20 100 13 0.13829
1 21 100 13 0.000314026
2 21 100 13 1.96498e-05
3 21 100 13 0.00894231
4 21 100 13 0.22093
5 21 100 13 0.0137095
6 21 100 13 0.116544
7 21 100 13 0.112585
8 21 100 13 0.00618147
9 21 100 13 0.0326656
10 21 100 13 0.03976
11 21 100 13 0.22313
12 21 100 13 0.112335
13 21 100 13 0.112882
1 22 100 13 3.92207e-06
2 22 100 13 0.000907426
3 22 100 13 0.000195716
4 22 100 13 0.000275713
5 22 100 13 7.41843e-05
6 22 100 13 0.000217842
7 22 100 13 4.93445e-05
8 22 100 13 0.249042
9 22 100 13 0.00100586
10 22 100 13 0.285143
11 22 100 13 0.065616
12 22 100 13 0.00291264
13 22 100 13 0.394556
1 23 100 13 7.70395e-06
2 23 100 13 2.68195e-05
3 23 100 13 0.000775126
4 23 100 13 0.321075
5 23 100 13 0.238384
6 23 100 13 0.000194395
7 23 100 13 0.117491
8 23 100 13 0.00106444
9 23 100 13 0.000292321
10 23 100 13 0.0824097
11 23 100 13 3.57099e-05
12 23 100 13 0.000280283
13 23 100 13 0.237963
2 24 100 13 0.000134475
3 24 100 13 0.000366209
4 24 100 13 1.21517e-05
5 24 100 13 0.19861
6 24 100 13 6.10668e-07
7 24 100 13 0.0558463
8 24 100 13 0.000179942
9 24 100 13 0.0026704
10 24 100 13 0.00623377
11 24 100 13 0.325619
12 24 100 13 6.62759e-05
13 24 100 13 0.41026
1 25 100 13 3.50548e-07
2 25 100 13 0.000685673
3 25 100 13 0.000440543
4 25 100 13 0.00486132
5 25 100 13 0.00089874
6 25 100 13 0.00102194
7 25 100 13 0.153315
8 25 100 13 0.00181722
9 25 100 13 0.224265
10 25 100 13 0.152803
11 25 100 13 0.0473648
12 25 100 13 0.412456
13 25 100 13 7.04674e-05
1 26 100 13 0.108346
2 26 100 13 0.000669785
3 26 100 13 0.156896
4 26 100 13 0.10624
5 26 100 13 0.00134203
6 26 100 13 0.107874
7 26 100 13 1.28254e-05
8 26 100 13 0.157355
9 26 100 13 0.000605863
10 26 100 13 0.0750926
11 26 100 13 0.260493
12 26 100 13 0.0250707
13 26 100 13 1.95958e-06
2 27 100 13 9.93512e-06
3 27 100 13 1.50593e-05
4 27 100 13 0.000151103
5 27 100 13 9.9774e-06
6 27 100 13 0.127998
7 27 100 13 0.00021549
8 27 100 13 0.0017405
9 27 100 13 0.126723
10 27 100 13 1.54687e-05
11 27 100 13 0.118802
12 27 100 13 0.315915
13 27 100 13 0.308405
1 28 100 13 1.20423e-06
2 28 100 13 1.10353e-05
3 28 100 13 1.74582e-06
4 28 100 13 6.75552e-06
5 28 100 13 0.00193497
6 28 100 13 3.35466e-05
7 28 100 13 1.4497e-06
8 28 100 13 0.0137767
9 28 100 13 0.00231608
10 28 100 13 1.58631e-05
11 28 100 13 0.000462199
12 28 100 13 0.155477
13 28 100 13 0.825962
1 29 100 13 0.00306417
4 29 100 13 1.01901e-06
6 29 100 13 0.000262871
7 29 100 13 0.496072
8 29 100 13 0.000223762
9 29 100 13 0.471485
11 29 100 13 0.000785729
12 29 100 13 0.0277115
13 29 100 13 0.000394524
1 30 100 13 2.01268e-05
5 30 100 13 2.70777e-06
6 30 100 13 1.91031e-05
8 30 100 13 0.236446
9 30 100 13 0.00679017
10 30 100 13 0.754887
11 30 100 13 0.000558762
12 30 100 13 0.00124933
13 30 100 13 2.64497e-05
4 31 100 13 1.84352e-05
7 31 100 13 0.00131995
8 31 100 13 1.04758e-05
9 31 100 13 0.00158036
10 31 100 13 0.00208428
11 31 100 13 0.211141
12 31 100 13 0.006369
13 31 100 13 0.777477
5 32 100 13 0.000489045
6 32 100 13 0.239721
7 32 100 13 2.31347e-05
8 32 100 13 0.294282
9 32 100 13 0.420566
10 32 100 13 0.00035774
11 32 100 13 0.0064509
12 32 100 13 0.0380061
13 32 100 13 0.000104641
4 33 100 13 1.30477e-06
8 33 100 13 3.20262e-06
9 33 100 13 1.31379e-05
11 33 100 13 1.07739e-06
12 33 100 13 2.54943e-06
13 33 100 13 0.999979
8 34 100 13 1.04346e-05
9 34 100 13 3.10348e-05
11 34 100 13 2.54505e-06
12 34 100 13 6.02238e-06
13 34 100 13 0.99995
6 35 100 13 1
6 36 100 13 0.714716
13 36 100 13 0.285284
6 38 100 13 3.16181e-06
8 38 100 13 4.55248e-06
13 38 100 13 0.999992
1 0 100 14 0.0103914
2 0 100 14 0.0024395
3 0 100 14 0.000458304
4 0 100 14 0.133808
5 0 100 14 0.0011076
6 0 100 14 0.15026
7 0 100 14 0.0817302
8 0 100 14 0.292533
9 0 100 14 0.0244394
10 0 100 14 0.0123784
11 0 100 14 0.131718
12 0 100 14 0.13896
13 0 100 14 0.000640221
14 0 100 14 0.0191363
1 1 100 14 0.56638
2 1 100 14 0.171333
3 1 100 14 0.0284593
4 1 100 14 0.056483
5 1 100 14 0.0563509
6 1 100 14 0.0853662
7 1 100 14 0.0299549
8 1 100 14 5.15049e-07
9 1 100 14 9.6698e-06
10 1 100 14 4.61252e-05
11 1 100 14 0.00550779
12 1 100 14 0.000107056
13 1 100 14 1.69856e-06
1 2 100 14 0.161933
2 2 100 14 0.261497
3 2 100 14 0.313475
4 2 100 14 0.0522591
5 2 100 14 0.0522344
6 2 100 14 3.06956e-06
7 2 100 14 0.106239
8 2 100 14 0.0522443
10 2 100 14 1.24116e-06
11 2 100 14 2.37919e-05
12 2 100 14 8.94559e-05
1 3 100 14 0.037653
2 3 100 14 0.144156
3 3 100 14 0.191748
4 3 100 14 0.335312
5 3 100 14 0.14382
6 3 100 14 0.0502849
7 3 100 14 0.0485664
8 3 100 14 0.0483866
10 3 100 14 5.51893e-05
12 3 100 14 1.40669e-05
14 3 100 14 3.19407e-06
1 4 100 14 0.0516802
2 4 100 14 0.270344
3 4 100 14 0.180304
4 4 100 14 0.098981
5 4 100 14 0.135051
6 4 100 14 0.0648625
7 4 100 14 0.0656284
8 4 100 14 0.0900176
9 4 100 14 0.000190239
10 4 100 14 2.39297e-05
11 4 100 14 4.46624e-05
12 4 100 14 0.0428729
1 5 100 14 0.0855366
2 5 100 14 0.129386
3 5 100 14 0.135417
4 5 100 14 0.163887
5 5 100 14 0.0966829
6 5 100 14 0.0863355
7 5 100 14 0.0873753
8 5 100 14 0.0431498
9 5 100 14 0.0430444
10 5 100 14 0.042977
11 5 100 14 0.0430893
12 5 100 14 1.41995e-06
13 5 100 14 0.0431164
14 5 100 14 1.267e-06
1 6 100 14 0.113173
2 6 100 14 0.0285618
3 6 100 14 0.199876
4 6 100 14 0.146825
5 6 100 14 0.140497
6 6 100 14 0.0571203
7 6 100 14 0.028512
8 6 100 14 0.085097
9 6 100 14 0.113666
10 6 100 14 0.0288831
11 6 100 14 0.0577851
13 6 100 14 3.37461e-07
14 6 100 14 2.7606e-06
1 7 100 14 0.000260296
2 7 100 14 0.0809852
3 7 100 14 3.59549e-06
4 7 100 14 0.085512
5 7 100 14 0.200134
6 7 100 14 0.213621
7 7 100 14 0.160624
8 7 100 14 0.00101008
9 7 100 14 0.0427159
10 7 100 14 0.0850432
11 7 100 14 0.0427589
12 7 100 14 0.0426557
13 7 100 14 0.0446766
1 8 100 14 1.44347e-05
2 8 100 14 0.044392
3 8 100 14 7.07938e-06
4 8 100 14 0.0897521
5 8 100 14 0.282602
6 8 100 14 0.0447155
7 8 100 14 0.0887909
8 8 100 14 0.0491319
9 8 100 14 0.132159
10 8 100 14 0.0888006
11 8 100 14 0.0468624
12 8 100 14 0.0883864
13 8 100 14 0.0443744
14 8 100 14 1.05017e-05
1 9 100 14 0.0662479
2 9 100 14 0.0661717
3 9 100 14 0.0316461
4 9 100 14 0.0738685
5 9 100 14 0.0331212
6 9 100 14 0.233598
7 9 100 14 0.168476
8 9 100 14 0.0992529
9 9 100 14 0.033284
10 9 100 14 0.12815
11 9 100 14 0.0330861
13 9 100 14 0.0330973
1 10 100 14 0.039789
2 10 100 14 0.0397836
3 10 100 14 0.0795788
4 10 100 14 0.0399056
5 10 100 14 4.47211e-05
6 10 100 14 0.117286
7 10 100 14 0.167001
8 10 100 14 0.159146
9 10 100 14 0.158694
10 10 100 14 0.0794994
11 10 100 14 0.0794627
12 10 100 14 0.0398069
14 10 100 14 1.45766e-06
2 11 100 14 0.0692993
3 11 100 14 0.0346556
4 11 100 14 0.0595141
5 11 100 14 2.89811e-05
6 11 100 14 0.103984
7 11 100 14 0.0488417
8 11 100 14 0.173177
9 11 100 14 0.103974
10 11 100 14 0.138628
11 11 100 14 0.0946844
12 11 100 14 0.06924
13 11 100 14 0.103973
14 11 100 14 4.73678e-07
1 12 100 14 1.92952e-06
2 12 100 14 0.000223188
3 12 100 14 4.74656e-05
4 12 100 14 0.000545168
5 12 100 14 0.0470165
6 12 100 14 9.20622e-05
7 12 100 14 0.000824814
8 12 100 14 0.0473903
9 12 100 14 0.234802
10 12 100 14 0.136884
11 12 100 14 0.0633877
12 12 100 14 0.0933781
13 12 100 14 0.234639
14 12 100 14 0.140768
1 13 100 14 0.000248362
2 13 100 14 1.06798e-06
3 13 100 14 8.92828e-07
4 13 100 14 0.0407504
5 13 100 14 0.0368189
6 13 100 14 0.0456592
7 13 100 14 0.0509871
8 13 100 14 0.0455562
9 13 100 14 0.0461012
10 13 100 14 0.228347
11 13 100 14 0.137379
12 13 100 14 0.228925
13 13 100 14 0.0935437
14 13 100 14 0.0456824
1 14 100 14 0.00029596
2 14 100 14 9.11122e-07
3 14 100 14 0.092639
4 14 100 14 8.1972e-06
6 14 100 14 5.81672e-06
7 14 100 14 0.0731136
8 14 100 14 0.139054
9 14 100 14 8.39901e-05
10 14 100 14 0.0926666
11 14 100 14 0.185321
12 14 100 14 0.185098
13 14 100 14 0.0926858
14 14 100 14 0.139027
4 15 100 14 1.01223e-06
5 15 100 14 0.051884
6 15 100 14 0.0525326
7 15 100 14 0.0525555
8 15 100 14 0.160397
9 15 100 14 0.201097
10 15 100 14 3.40269e-05
11 15 100 14 0.210048
12 15 100 14 0.0525158
13 15 100 14 0.0531791
14 15 100 14 0.165756
1 16 100 14 0.0024404
2 16 100 14 1.59802e-05
3 16 100 14 3.05873e-06
4 16 100 14 0.000110236
5 16 100 14 0.0629666
6 16 100 14 1.4966e-05
7 16 100 14 0.000100431
8 16 100 14 0.000575066
9 16 100 14 0.300489
10 16 100 14 0.184034
11 16 100 14 0.0967985
12 16 100 14 0.141844
13 16 100 14 0.00260269
14 16 100 14 0.208005
1 17 100 14 0.0106815
2 17 100 14 2.80007e-05
3 17 100 14 0.000207582
4 17 100 14 0.000523549
5 17 100 14 0.0205139
6 17 100 14 0.0809216
7 17 100 14 0.0198737
8 17 100 14 3.88761e-06
9 17 100 14 0.0571798
10 17 100 14 0.175336
11 17 100 14 0.229401
12 17 100 14 0.00078922
13 17 100 14 0.318907
14 17 100 14 0.0856329
1 18 100 14 0.000415288
2 18 100 14 0.0796024
3 18 100 14 0.000100917
4 18 100 14 3.2815e-05
5 18 100 14 0.000520698
6 18 100 14 4.9257e-05
7 18 100 14 0.026584
8 18 100 14 0.0793657
9 18 100 14 0.000990032
10 18 100 14 0.0642762
11 18 100 14 0.210461
12 18 100 14 0.20212
13 18 100 14 0.17312
14 18 100 14 0.162362
2 19 100 14 8.41103e-06
3 19 100 14 5.77948e-06
4 19 100 14 1.90902e-05
5 19 100 14 7.66259e-05
6 19 100 14 0.0168036
7 19 100 14 0.0018188
8 19 100 14 1.9555e-05
9 19 100 14 0.157068
10 19 100 14 0.00558167
11 19 100 14 0.00254118
12 19 100 14 0.579988
13 19 100 14 0.203151
14 19 100 14 0.0329185
1 20 100 14 5.44087e-06
2 20 100 14 0.000365675
3 20 100 14 1.95522e-06
4 20 100 14 9.38095e-05
5 20 100 14 0.0758357
6 20 100 14 8.17414e-05
7 20 100 14 0.071791
8 20 100 14 0.0733943
9 20 100 14 0.000608987
10 20 100 14 0.0756448
11 20 100 14 0.0681911
12 20 100 14 0.104668
13 20 100 14 0.302402
14 20 100 14 0.226915
1 21 100 14 6.49159e-05
2 21 100 14 2.67044e-05
3 21 100 14 0.0280244
4 21 100 14 3.84177e-05
5 21 100 14 0.000195265
6 21 100 14 0.00447033
7 21 100 14 0.000102686
8 21 100 14 0.000462775
9 21 100 14 0.158607
10 21 100 14 0.157785
11 21 100 14 0.000343687
12 21 100 14 0.0135008
13 21 100 14 0.160092
14 21 100 14 0.476286
1 22 100 14 0.00186982
2 22 100 14 6.807e-07
3 22 100 14 0.187188
4 22 100 14 0.0323242
5 22 100 14 2.20498e-05
6 22 100 14 3.1906e-05
7 22 100 14 5.21302e-06
8 22 100 14 2.18774e-05
9 22 100 14 3.70845e-06
10 22 100 14 0.00105209
11 22 100 14 0.20785
12 22 100 14 6.14459e-06
13 22 100 14 0.189509
14 22 100 14 0.380115
1 23 100 14 0.000612519
2 23 100 14 0.231022
3 23 100 14 0.000385121
4 23 100 14 6.87322e-06
5 23 100 14 2.06122e-05
6 23 100 14 1.38797e-06
7 23 100 14 0.0686007
8 23 100 14 1.45987e-05
10 23 100 14 0.000135322
11 23 100 14 6.11831e-06
12 23 100 14 0.00064643
13 23 100 14 0.161213
14 23 100 14 0.537335
1 24 100 14 0.00754841
2 24 100 14 0.000193559
3 24 100 14 6.25182e-06
4 24 100 14 5.78763e-05
5 24 100 14 0.000239389
6 24 100 14 7.36054e-06
7 24 100 14 4.07663e-05
8 24 100 14 2.23629e-05
9 24 100 14 0.204718
10 24 100 14 0.00022562
11 24 100 14 0.17763
12 24 100 14 0.265738
13 24 100 14 0.343569
14 24 100 14 2.82522e-06
2 25 100 14 2.38317e-05
3 25 100 14 2.36449e-06
4 25 100 14 3.09211e-05
9 25 100 14 4.15019e-06
10 25 100 14 0.0115112
11 25 100 14 3.32544e-06
12 25 100 14 0.204783
13 25 100 14 0.000690371
14 25 100 14 0.782951
1 26 100 14 0.00147532
2 26 100 14 0.000108825
3 26 100 14 0.000233595
4 26 100 14 0.00296708
5 26 100 14 0.000848449
6 26 100 14 1.98095e-05
8 26 100 14 0.00199948
9 26 100 14 0.0001117
10 26 100 14 0.518896
11 26 100 14 0.472684
12 26 100 14 0.000425555
13 26 100 14 6.45046e-05
14 26 100 14 0.000165801
1 27 100 14 2.10385e-06
2 27 100 14 9.63883e-06
3 27 100 14 0.578087
4 27 100 14 0.0194334
5 27 100 14 0.000137211
9 27 100 14 1.73693e-06
10 27 100 14 9.66498e-07
12 27 100 14 0.0687019
13 27 100 14 0.000290129
14 27 100 14 0.333336
2 28 100 14 6.2158e-07
3 28 100 14 0.00220466
4 28 100 14 0.358068
5 28 100 14 8.01498e-07
8 28 100 14 0.00136258
12 28 100 14 2.17149e-06
13 28 100 14 2.95112e-05
14 28 100 14 0.638331
3 29 100 14 2.52551e-05
4 29 100 14 1.80594e-05
5 29 100 14 0.99682
10 29 100 14 2.70001e-05
12 29 100 14 0.00239872
13 29 100 14 0.000710703
3 30 100 14 1.99899e-06
4 30 100 14 3.02692e-06
5 30 100 14 0.000452503
6 30 100 14 0.997016
7 30 100 14 0.00250574
8 30 100 14 1.17994e-05
13 30 100 14 8.47111e-06
5 31 100 14 4.21054e-05
6 31 100 14 0.000224593
7 31 100 14 0.996768
8 31 100 14 0.00295927
13 31 100 14 6.28358e-06
5 32 100 14 5.49595e-06
6 32 100 14 5.04004e-05
7 32 100 14 0.000852558
8 32 100 14 0.998229
9 32 100 14 2.79523e-06
10 32 100 14 4.56053e-06
11 32 100 14 0.000145292
12 32 100 14 0.000572145
13 32 100 14 0.000123876
14 32 100 14 1.35899e-05
3 33 100 14 1.15446e-05
13 33 100 14 1.37133e-05
14 33 100 14 0.999975
6 34 100 14 0.854747
11 34 100 14 0.025021
14 34 100 14 0.120232
3 35 100 14 0.999728
12 35 100 14 0.000169012
14 35 100 14 0.000102565
14 36 100 14 1
1 0 100 15 0.00274851
2 0 100 15 0.0684325
3 0 100 15 0.0267779
4 0 100 15 0.0713451
5 0 100 15 0.0714332
6 0 100 15 0.0634742
7 0 100 15 0.0848385
8 0 100 15 0.0138109
9 0 100 15 0.0302761
10 0 100 15 0.145773
11 0 100 15 0.0832243
12 0 100 15 0.258799
13 0 100 15 0.0315891
14 0 100 15 0.0468148
15 0 100 15 0.00066274
1 1 100 15 0.453923
2 1 100 15 0.289858
3 1 100 15 0.0776541
4 1 100 15 0.0211413
5 1 100 15 0.0778004
6 1 100 15 0.041711
7 1 100 15 0.0193651
8 1 100 15 3.04963e-06
9 1 100 15 0.0115095
10 1 100 15 0.00056767
11 1 100 15 5.07279e-07
12 1 100 15 1.52739e-05
13 1 100 15 0.00643425
14 1 100 15 1.24787e-05
15 1 100 15 4.09312e-06
1 2 100 15 0.335689
2 2 100 15 0.219182
3 2 100 15 0.25733
4 2 100 15 1.85967e-05
5 2 100 15 0.000194594
6 2 100 15 0.110272
7 2 100 15 0.0367762
8 2 100 15 0.0368605
9 2 100 15 2.21402e-05
10 2 100 15 7.32335e-07
11 2 100 15 7.04952e-07
12 2 100 15 0.00360665
13 2 100 15 4.53974e-05
14 2 100 15 2.05996e-06
1 3 100 15 0.199822
2 3 100 15 0.25138
3 3 100 15 0.21672
4 3 100 15 0.180733
5 3 100 15 0.0495053
6 3 100 15 1.40759e-06
7 3 100 15 0.0497037
8 3 100 15 0.0271455
9 3 100 15 0.0248551
10 3 100 15 1.21824e-06
11 3 100 15 1.00718e-05
12 3 100 15 7.65961e-05
13 3 100 15 3.32633e-06
14 3 100 15 3.29075e-05
15 3 100 15 9.90598e-06
1 4 100 15 0.101268
2 4 100 15 0.227868
3 4 100 15 0.18705
4 4 100 15 0.195424
5 4 100 15 0.0703669
6 4 100 15 0.111501
7 4 100 15 0.0421072
8 4 100 15 0.0211718
9 4 100 15 0.0166296
10 4 100 15 4.94978e-06
11 4 100 15 4.41848e-05
12 4 100 15 0.0264855
13 4 100 15 4.96084e-07
14 4 100 15 7.45442e-05
15 4 100 15 4.3852e-06
1 5 100 15 0.000315157
2 5 100 15 0.0513421
3 5 100 15 0.237846
4 5 100 15 0.260837
5 5 100 15 0.195699
6 5 100 15 0.0983219
7 5 100 15 0.0014332
8 5 100 15 0.024061
9 5 100 15 0.0240855
10 5 100 15 0.0248145
11 5 100 15 0.0224387
12 5 100 15 0.00934115
13 5 100 15 0.0244114
14 5 100 15 0.0250299
15 5 100 15 2.3259e-05
1 6 100 15 4.39706e-05
2 6 100 15 4.87724e-06
3 6 100 15 0.108203
4 6 100 15 0.212616
5 6 100 15 0.231432
6 6 100 15 0.190673
7 6 100 15 0.113051
8 6 100 15 0.0595375
9 6 100 15 1.93705e-06
10 6 100 15 2.1038e-06
11 6 100 15 6.40385e-06
12 6 100 15 0.0244399
13 6 100 15 0.0188538
14 6 100 15 0.0411281
15 6 100 15 7.06054e-06
1 7 100 15 0.054719
2 7 100 15 8.79461e-05
3 7 100 15 0.0859178
4 7 100 15 0.076906
5 7 100 15 0.208788
6 7 100 15 0.174397
7 7 100 15 0.274587
8 7 100 15 0.0636853
9 7 100 15 0.0382801
10 7 100 15 1.54074e-05
11 7 100 15 9.42061e-05
12 7 100 15 0.000123128
13 7 100 15 0.0223263
14 7 100 15 3.44837e-05
15 7 100 15 3.74577e-05
1 8 100 15 0.0433522
2 8 100 15 0.0411667
3 8 100 15 0.0439977
4 8 100 15 0.0201404
5 8 100 15 0.12213
6 8 100 15 0.0990231
7 8 100 15 0.199433
8 8 100 15 0.086013
9 8 100 15 0.101042
10 8 100 15 0.0404596
11 8 100 15 0.075113
12 8 100 15 0.0823888
13 8 100 15 0.0202481
14 8 100 15 0.0254091
15 8 100 15 8.3896e-05
1 9 100 15 0.0253523
2 9 100 15 0.0485582
3 9 100 15 0.100885
4 9 100 15 0.0355722
5 9 100 15 0.0759904
6 9 100 15 0.0563103
7 9 100 15 0.0985371
8 9 100 15 0.202447
9 9 100 15 0.197101
10 9 100 15 0.0253148
11 9 100 15 0.0531293
12 9 100 15 0.00165412
13 9 100 15 0.0506837
14 9 100 15 0.0266909
15 9 100 15 0.00177353
1 10 100 15 0.0250106
2 10 100 15 0.0271493
3 10 100 15 0.00042817
4 10 100 15 0.0878879
5 10 100 15 0.000223257
6 10 100 15 0.125069
7 10 100 15 0.0997682
8 10 100 15 0.177543
9 10 100 15 0.0799897
10 10 100 15 0.101537
11 10 100 15 0.150099
12 10 100 15 0.0252765
13 10 100 15 0.0499719
14 10 100 15 0.0500275
15 10 100 15 1.87309e-05
1 11 100 15 0.0626678
2 11 100 15 0.0454508
3 11 100 15 0.0461929
4 11 100 15 0.0445967
5 11 100 15 0.133189
6 11 100 15 0.0439917
7 11 100 15 0.0451331
8 11 100 15 0.10995
9 11 100 15 0.0656224
10 11 100 15 0.196836
11 11 100 15 0.109829
12 11 100 15 0.0229855
13 11 100 15 0.0498092
14 11 100 15 0.0237465
15 11 100 15 3.56974e-07
1 12 100 15 4.62244e-06
2 12 100 15 0.0873997
3 12 100 15 0.0229503
4 12 100 15 0.0062209
5 12 100 15 0.087011
6 12 100 15 0.089192
7 12 100 15 0.0447092
8 12 100 15 0.0639021
9 12 100 15 0.112083
10 12 100 15 0.112382
11 12 100 15 0.0893769
12 12 100 15 0.153659
13 12 100 15 0.0418256
14 12 100 15 0.0669315
15 12 100 15 0.0223521
1 13 100 15 0.0236594
2 13 100 15 0.0232204
3 13 100 15 0.0499223
4 13 100 15 0.0963682
5 13 100 15 0.00357084
6 13 100 15 0.00056653
7 13 100 15 0.0747827
8 13 100 15 0.0315056
9 13 100 15 0.173939
10 13 100 15 0.124623
11 13 100 15 0.102266
12 13 100 15 0.0500085
13 13 100 15 0.143316
14 13 100 15 0.10225
15 13 100 15 1.35514e-06
1 14 100 15 0.0532068
2 14 100 15 0.0268978
3 14 100 15 0.0267393
4 14 100 15 0.061455
5 14 100 15 0.053602
6 14 100 15 0.0538272
7 14 100 15 2.0209e-06
8 14 100 15 0.0557653
9 14 100 15 0.106693
10 14 100 15 0.157371
11 14 100 15 0.103362
12 14 100 15 0.110352
13 14 100 15 0.0833848
14 14 100 15 0.0801589
15 14 100 15 0.0271838
1 15 100 15 0.0242615
2 15 100 15 1.65712e-05
3 15 100 15 1.30535e-05
4 15 100 15 0.0239245
5 15 100 15 2.38405e-05
6 15 100 15 0.0490711
7 15 100 15 0.0490503
8 15 100 15 0.0963115
9 15 100 15 0.100265
10 15 100 15 0.0954357
11 15 100 15 0.0766396
12 15 100 15 0.146957
13 15 100 15 0.0738757
14 15 100 15 0.166293
15 15 100 15 0.097862
1 16 100 15 0.0564272
2 16 100 15 1.00729e-05
3 16 100 15 0.00027019
4 16 100 15 0.0270477
5 16 100 15 0.0280491
6 16 100 15 0.107172
7 16 100 15 0.0818167
8 16 100 15 0.136021
9 16 100 15 0.000422358
10 16 100 15 0.0548631
11 16 100 15 0.0810628
12 16 100 15 0.0843543
13 16 100 15 0.180935
14 16 100 15 0.0543028
15 16 100 15 0.107247
1 17 100 15 0.000211475
2 17 100 15 0.0332287
3 17 100 15 0.000395246
4 17 100 15 0.00043866
5 17 100 15 0.000172011
6 17 100 15 0.026492
7 17 100 15 0.120153
8 17 100 15 0.0800782
9 17 100 15 0.0391266
10 17 100 15 0.0462959
11 17 100 15 0.144005
12 17 100 15 0.0812512
13 17 100 15 0.0603615
14 17 100 15 0.123535
15 17 100 15 0.244255
1 18 100 15 0.000277795
2 18 100 15 0.0306684
3 18 100 15 0.0311109
4 18 100 15 0.00407958
5 18 100 15 0.0484124
6 18 100 15 0.000198773
7 18 100 15 0.0838794
8 18 100 15 0.0595233
9 18 100 15 0.0972828
10 18 100 15 0.0888552
11 18 100 15 0.0370576
12 18 100 15 0.173374
13 18 100 15 0.1272
14 18 100 15 0.089427
15 18 100 15 0.128653
1 19 100 15 0.041314
2 19 100 15 0.000160209
3 19 100 15 0.000410145
4 19 100 15 0.0740681
5 19 100 15 0.0446564
6 19 100 15 0.0376352
7 19 100 15 0.0420783
8 19 100 15 0.0352503
9 19 100 15 0.107731
10 19 100 15 0.0599769
11 19 100 15 0.00665673
12 19 100 15 0.130112
13 19 100 15 0.177783
14 19 100 15 0.127748
15 19 100 15 0.11442
2 20 100 15 0.0429277
3 20 100 15 0.000502615
4 20 100 15 5.32878e-05
5 20 100 15 0.00171773
6 20 100 15 0.0575833
7 20 100 15 0.000143765
8 20 100 15 0.169521
9 20 100 15 0.0904943
10 20 100 15 0.0977873
11 20 100 15 0.149722
12 20 100 15 0.00844579
13 20 100 15 0.0965762
14 20 100 15 0.0765439
15 20 100 15 0.207982
2 21 100 15 0.000220622
3 21 100 15 6.93659e-05
4 21 100 15 0.00139142
5 21 100 15 0.0246539
6 21 100 15 0.0605843
7 21 100 15 0.00191264
8 21 100 15 0.0614916
9 21 100 15 0.201082
10 21 100 15 0.0441836
11 21 100 15 0.166317
12 21 100 15 0.0784806
13 21 100 15 0.0582869
14 21 100 15 0.120709
15 21 100 15 0.180617
1 22 100 15 2.84138e-05
2 22 100 15 1.28824e-06
3 22 100 15 0.05295
4 22 100 15 3.14039e-05
5 22 100 15 0.0002625
6 22 100 15 6.93619e-05
7 22 100 15 0.10699
8 22 100 15 0.0528326
9 22 100 15 0.00347078
10 22 100 15 0.174099
11 22 100 15 0.0987499
12 22 100 15 0.0287988
13 22 100 15 0.157477
14 22 100 15 0.158998
15 22 100 15 0.165241
2 23 100 15 2.53382e-06
3 23 100 15 3.02639e-05
4 23 100 15 1.19048e-05
5 23 100 15 0.1025
6 23 100 15 7.27621e-05
7 23 100 15 5.90976e-05
8 23 100 15 0.0667877
9 23 100 15 0.131027
10 23 100 15 0.0969005
11 23 100 15 0.0694745
12 23 100 15 0.00176889
13 23 100 15 7.2197e-05
14 23 100 15 0.265622
15 23 100 15 0.265671
1 24 100 15 7.87936e-05
2 24 100 15 3.63446e-05
3 24 100 15 1.90783e-05
4 24 100 15 1.1329e-05
5 24 100 15 0.000269546
6 24 100 15 0.00219605
7 24 100 15 0.0352548
8 24 100 15 0.000141404
9 24 100 15 0.203572
10 24 100 15 0.0173225
11 24 100 15 0.213921
12 24 100 15 0.198521
13 24 100 15 0.211355
14 24 100 15 0.00997383
15 24 100 15 0.107328
1 25 100 15 2.83864e-07
3 25 100 15 8.99949e-06
4 25 100 15 5.83049e-05
5 25 100 15 0.000324946
6 25 100 15 3.3476e-06
7 25 100 15 1.77782e-05
8 25 100 15 0.0556815
9 25 100 15 0.000449876
10 25 100 15 0.156138
11 25 100 15 0.172968
12 25 100 15 0.257143
13 25 100 15 0.0576068
14 25 100 15 0.230902
15 25 100 15 0.0686976
1 26 100 15 1.94277e-05
2 26 100 15 2.33133e-06
3 26 100 15 0.000149649
4 26 100 15 9.89545e-05
5 26 100 15 0.0112161
6 26 100 15 0.102764
7 26 100 15 6.32404e-05
8 26 100 15 2.98435e-05
9 26 100 15 0.00132984
10 26 100 15 1.20614e-05
11 26 100 15 0.00210941
12 26 100 15 0.199971
13 26 100 15 0.304101
14 26 100 15 0.111831
15 26 100 15 0.266303
2 27 100 15 7.17627e-05
3 27 100 15 0.000179579
4 27 100 15 4.77967e-05
5 27 100 15 0.00115339
6 27 100 15 0.00199461
7 27 100 15 1.57438e-05
8 27 100 15 2.37606e-06
9 27 100 15 0.000101869
10 27 100 15 0.0949876
11 27 100 15 0.000143656
12 27 100 15 0.185137
13 27 100 15 0.358536
14 27 100 15 0.263696
15 27 100 15 0.0939336
1 28 100 15 8.54782e-06
2 28 100 15 0.00253265
3 28 100 15 0.00022034
4 28 100 15 5.77698e-06
5 28 100 15 4.17317e-05
6 28 100 15 4.02935e-05
7 28 100 15 2.54715e-05
8 28 100 15 0.000477905
9 28 100 15 0.00352458
10 28 100 15 4.14993e-06
11 28 100 15 0.0907713
12 28 100 15 5.19338e-05
13 28 100 15 1.04264e-05
14 28 100 15 0.175336
15 28 100 15 0.726949
1 29 100 15 2.17915e-06
2 29 100 15 0.00533486
3 29 100 15 1.41149e-05
4 29 100 15 1.69501e-05
5 29 100 15 6.88274e-06
7 29 100 15 4.65762e-05
8 29 100 15 3.30113e-06
9 29 100 15 1.69844e-05
10 29 100 15 1.6667e-06
11 29 100 15 0.000174413
12 29 100 15 1.68947e-05
13 29 100 15 0.47282
14 29 100 15 0.00658494
15 29 100 15 0.514961
1 30 100 15 4.00156e-05
2 30 100 15 1.65102e-06
3 30 100 15 0.484834
4 30 100 15 2.12976e-05
5 30 100 15 1.44956e-05
6 30 100 15 0.00884062
7 30 100 15 0.00868706
8 30 100 15 7.77967e-05
9 30 100 15 0.000538719
10 30 100 15 0.00521869
11 30 100 15 3.82459e-05
12 30 100 15 0.000464428
13 30 100 15 0.000268484
14 30 100 15 0.49091
15 30 100 15 4.48039e-05
1 31 100 15 6.0212e-07
2 31 100 15 3.10301e-05
3 31 100 15 0.000334376
4 31 100 15 0.113792
5 31 100 15 0.000675315
6 31 100 15 4.81233e-06
7 31 100 15 0.114873
8 31 100 15 6.95995e-07
9 31 100 15 0.15567
10 31 100 15 0.112866
11 31 100 15 0.166401
12 31 100 15 0.000472738
13 31 100 15 0.112825
14 31 100 15 0.103542
15 31 100 15 0.118511
2 32 100 15 0.00129661
3 32 100 15 0.00017123
4 32 100 15 0.210456
5 32 100 15 0.00215986
6 32 100 15 0.0019135
7 32 100 15 3.14956e-05
8 32 100 15 0.134447
9 32 100 15 9.29822e-07
10 32 100 15 1.46054e-05
12 32 100 15 1.75477e-05
13 32 100 15 5.31341e-06
15 32 100 15 0.649485
2 33 100 15 5.01079e-05
3 33 100 15 9.55504e-06
4 33 100 15 0.000377387
5 33 100 15 0.000226004
6 33 100 15 0.999085
7 33 100 15 1.10837e-05
8 33 100 15 7.8203e-06
9 33 100 15 0.000225612
12 33 100 15 7.57574e-06
4 34 100 15 0.0427669
5 34 100 15 0.906
6 34 100 15 0.000216003
7 34 100 15 0.00132453
8 34 100 15 7.45698e-06
13 34 100 15 0.0484885
14 34 100 15 0.00116808
15 34 100 15 2.88605e-05
2 35 100 15 1.07362e-05
3 35 100 15 7.76361e-05
4 35 100 15 4.89653e-06
5 35 100 15 2.6622e-06
6 35 100 15 1.74919e-05
7 35 100 15 0.000526909
15 35 100 15 0.99936
3 36 100 15 4.77355e-06
5 36 100 15 2.62433e-06
9 36 100 15 5.81456e-06
12 36 100 15 3.76502e-06
15 36 100 15 0.999983
1 0 100 16 0.0124438
2 0 100 16 0.0735832
3 0 100 16 0.000777508
4 0 100 16 0.00695804
5 0 100 16 0.00412615
6 0 100 16 0.0887333
7 0 100 16 0.216263
8 0 100 16 0.0372426
9 0 100 16 0.00395411
10 0 100 16 0.00663326
11 0 100 16 0.0934449
12 0 100 16 0.219348
13 0 100 16 0.0124219
14 0 100 16 0.122093
15 0 100 16 0.0875421
16 0 100 16 0.0144353
1 1 100 16 0.535738
2 1 100 16 0.187294
3 1 100 16 0.0776694
4 1 100 16 0.133532
5 1 100 16 0.0195808
6 1 100 16 0.019351
7 1 100 16 0.0194558
8 1 100 16 0.000410548
9 1 100 16 0.00032892
10 1 100 16 0.00530527
11 1 100 16 0.000625838
12 1 100 16 2.26326e-06
13 1 100 16 7.22329e-05
14 1 100 16 5.63433e-05
15 1 100 16 0.000576899
1 2 100 16 0.305763
2 2 100 16 0.282169
3 2 100 16 0.256431
4 2 100 16 0.0513547
5 2 100 16 0.0257332
6 2 100 16 0.0257365
7 2 100 16 0.0256411
8 2 100 16 0.0257393
10 2 100 16 1.09319e-06
11 2 100 16 5.59126e-07
12 2 100 16 0.00126674
13 2 100 16 4.06588e-05
14 2 100 16 0.000106951
16 2 100 16 1.65955e-05
1 3 100 16 0.0540601
2 3 100 16 0.33475
3 3 100 16 0.257062
4 3 100 16 0.147788
5 3 100 16 0.128039
6 3 100 16 0.0258057
7 3 100 16 1.75088e-05
8 3 100 16 0.0266529
9 3 100 16 9.19904e-06
10 3 100 16 0.0257896
11 3 100 16 2.71299e-06
12 3 100 16 1.1023e-05
13 3 100 16 1.46608e-06
14 3 100 16 9.68952e-06
16 3 100 16 1.00821e-06
1 4 100 16 0.196938
2 4 100 16 0.19824
3 4 100 16 0.173444
4 4 100 16 0.180659
5 4 100 16 0.0740456
6 4 100 16 0.049321
7 4 100 16 0.076204
8 4 100 16 0.0492836
9 4 100 16 3.53766e-05
10 4 100 16 0.000274062
11 4 100 16 9.47717e-05
12 4 100 16 0.000863191
13 4 100 16 2.39057e-05
14 4 100 16 0.000127645
15 4 100 16 0.000446682
1 5 100 16 0.0224994
2 5 100 16 0.140677
3 5 100 16 0.255941
4 5 100 16 0.188341
5 5 100 16 0.123497
6 5 100 16 0.084676
7 5 100 16 0.0512131
8 5 100 16 0.029682
9 5 100 16 0.0171911
10 5 100 16 1.68305e-05
11 5 100 16 0.0180706
12 5 100 16 0.0154177
13 5 100 16 0.0344439
14 5 100 16 0.00109992
15 5 100 16 0.0172333
16 5 100 16 3.15515e-07
1 6 100 16 0.0271187
2 6 100 16 0.00400616
3 6 100 16 0.0604118
4 6 100 16 0.121504
5 6 100 16 0.312077
6 6 100 16 0.217755
7 6 100 16 0.0942768
8 6 100 16 0.0329558
9 6 100 16 0.0609282
10 6 100 16 0.0303562
11 6 100 16 0.00802951
12 6 100 16 5.73638e-05
13 6 100 16 0.000256665
14 6 100 16 0.0300722
15 6 100 16 0.000188529
16 6 100 16 7.21454e-06
1 7 100 16 0.0805913
2 7 100 16 2.9706e-05
3 7 100 16 0.073987
4 7 100 16 0.0611787
5 7 100 16 0.205904
6 7 100 16 0.16476
7 7 100 16 0.199093
8 7 100 16 0.0678527
9 7 100 16 0.0408261
10 7 100 16 0.0611901
11 7 100 16 7.19116e-06
12 7 100 16 0.020106
13 7 100 16 0.000236708
14 7 100 16 0.0242209
15 7 100 16 1.58755e-05
16 7 100 16 1.02054e-06
1 8 100 16 6.29605e-07
2 8 100 16 0.0607207
3 8 100 16 0.0202356
4 8 100 16 0.10082
5 8 100 16 0.114143
6 8 100 16 0.199199
7 8 100 16 0.0995483
8 8 100 16 0.101041
9 8 100 16 0.100403
10 8 100 16 0.060479
11 8 100 16 0.100959
12 8 100 16 0.0201871
13 8 100 16 8.81694e-05
14 8 100 16 0.00242505
15 8 100 16 0.0197503
16 8 100 16 9.11874e-07
1 9 100 16 0.0343772
2 9 100 16 0.0626533
3 9 100 16 0.062141
4 9 100 16 0.0397248
5 9 100 16 0.0576047
6 9 100 16 0.115205
7 9 100 16 0.170905
8 9 100 16 0.173235
9 9 100 16 0.100422
10 9 100 16 0.0594443
11 9 100 16 0.0253762
12 9 100 16 0.0591639
13 9 100 16 0.0397376
14 9 100 16 6.49192e-06
15 9 100 16 3.08414e-07
16 9 100 16 2.90131e-06
1 10 100 16 0.0242209
2 10 100 16 0.0242297
3 10 100 16 0.0480594
4 10 100 16 0.0244866
5 10 100 16 0.0477035
6 10 100 16 0.024926
7 10 100 16 0.104561
8 10 100 16 0.104749
9 10 100 16 0.186206
10 10 100 16 0.16857
11 10 100 16 0.120393
12 10 100 16 0.0241368
13 10 100 16 0.0482598
14 10 100 16 0.024726
15 10 100 16 0.023838
16 10 100 16 0.00093394
1 11 100 16 0.0201102
3 11 100 16 3.88511e-06
4 11 100 16 0.0605516
5 11 100 16 0.0401246
6 11 100 16 0.060253
7 11 100 16 0.0435742
8 11 100 16 0.154655
9 11 100 16 0.121303
10 11 100 16 0.121458
11 11 100 16 0.0411669
12 11 100 16 0.140819
13 11 100 16 0.0825837
14 11 100 16 0.0731013
15 11 100 16 0.040208
16 11 100 16 8.8565e-05
1 12 100 16 2.32459e-05
2 12 100 16 0.022682
3 12 100 16 0.0309279
4 12 100 16 0.0221446
5 12 100 16 0.0182449
6 12 100 16 0.000414842
7 12 100 16 0.0230714
8 12 100 16 0.134384
9 12 100 16 0.134668
10 12 100 16 0.134872
11 12 100 16 0.116305
12 12 100 16 0.0449152
13 12 100 16 0.134937
14 12 100 16 0.0766444
15 12 100 16 0.0892754
16 12 100 16 0.0164904
1 13 100 16 0.000945585
2 13 100 16 0.0223662
3 13 100 16 0.0223115
4 13 100 16 0.0230896
5 13 100 16 1.8143e-06
6 13 100 16 0.0671635
7 13 100 16 0.0226709
8 13 100 16 0.0440995
9 13 100 16 0.0447403
10 13 100 16 0.111603
11 13 100 16 0.101909
12 13 100 16 0.177621
13 13 100 16 0.022369
14 13 100 16 0.147477
15 13 100 16 0.146736
16 13 100 16 0.0448952
1 14 100 16 1.77908e-06
3 14 100 16 5.6538e-05
4 14 100 16 0.0211974
5 14 100 16 0.0217809
6 14 100 16 0.0418706
7 14 100 16 0.0836661
8 14 100 16 0.041531
9 14 100 16 0.0418449
10 14 100 16 0.10414
11 14 100 16 0.10451
12 14 100 16 0.106294
13 14 100 16 0.16722
14 14 100 16 0.121857
15 14 100 16 0.143762
16 14 100 16 0.000267786
1 15 100 16 0.02226
2 15 100 16 0.000166005
3 15 100 16 7.03104e-07
4 15 100 16 0.0229954
5 15 100 16 0.0460421
6 15 100 16 0.000136167
7 15 100 16 0.130224
8 15 100 16 0.0950071
9 15 100 16 0.0630115
10 15 100 16 0.0481924
11 15 100 16 0.0843405
12 15 100 16 0.0700967
13 15 100 16 0.137675
14 15 100 16 0.0941391
15 15 100 16 0.0921419
16 15 100 16 0.0935712
1 16 100 16 2.85432e-05
2 16 100 16 5.94454e-05
3 16 100 16 0.0273583
4 16 100 16 0.0271542
6 16 100 16 0.0229432
7 16 100 16 7.99426e-05
8 16 100 16 0.0576828
9 16 100 16 0.111615
10 16 100 16 0.054732
11 16 100 16 0.0547253
12 16 100 16 0.0557292
13 16 100 16 0.165938
14 16 100 16 0.145361
15 16 100 16 0.192973
16 16 100 16 0.0836213
1 17 100 16 5.25339e-05
2 17 100 16 5.90427e-07
3 17 100 16 8.38073e-06
4 17 100 16 0.0705705
5 17 100 16 0.0234091
6 17 100 16 0.000657887
7 17 100 16 0.00591689
8 17 100 16 2.54823e-05
9 17 100 16 0.140629
10 17 100 16 0.144393
11 17 100 16 0.0924743
12 17 100 16 0.0704265
13 17 100 16 0.0467644
14 17 100 16 0.141079
15 17 100 16 0.100109
16 17 100 16 0.163483
1 18 100 16 0.0467293
2 18 100 16 0.0112793
3 18 100 16 6.42803e-05
4 18 100 16 0.029821
5 18 100 16 0.0444445
6 18 100 16 0.126153
7 18 100 16 5.91342e-05
8 18 100 16 0.00436156
9 18 100 16 4.83831e-05
10 18 100 16 0.0833359
11 18 100 16 0.14749
12 18 100 16 0.101161
13 18 100 16 0.0333581
14 18 100 16 0.0320843
15 18 100 16 0.141413
16 18 100 16 0.198198
1 19 100 16 9.21405e-05
2 19 100 16 1.47691e-05
3 19 100 16 0.0360291
4 19 100 16 0.00102591
5 19 100 16 5.56943e-06
6 19 100 16 0.0724428
7 19 100 16 0.0359072
8 19 100 16 0.0531964
9 19 100 16 0.0367688
10 19 100 16 0.0358945
11 19 100 16 0.0722499
12 19 100 16 0.116405
13 19 100 16 0.134726
14 19 100 16 0.179198
15 19 100 16 0.0425187
16 19 100 16 0.183524
1 20 100 16 0.00111197
2 20 100 16 0.0289422
3 20 100 16 0.000365687
4 20 100 16 0.000662691
5 20 100 16 0.0458566
6 20 100 16 2.88835e-05
7 20 100 16 0.0412614
8 20 100 16 0.0487878
9 20 100 16 0.0464614
10 20 100 16 0.0783626
11 20 100 16 0.0972585
12 20 100 16 0.118222
13 20 100 16 0.0777529
14 20 100 16 0.000251625
15 20 100 16 0.136764
16 20 100 16 0.27791
1 21 100 16 1.776e-05
2 21 100 16 0.000116119
3 21 100 16 2.15988e-05
4 21 100 16 0.000182193
5 21 100 16 0.0558637
6 21 100 16 9.18672e-05
7 21 100 16 0.000254455
8 21 100 16 0.0555719
9 21 100 16 0.0827848
10 21 100 16 0.0648079
11 21 100 16 0.179618
12 21 100 16 0.0169275
13 21 100 16 0.319871
14 21 100 16 0.055655
15 21 100 16 0.0568851
16 21 100 16 0.111331
1 22 100 16 0.00526854
2 22 100 16 4.77313e-05
3 22 100 16 4.86945e-05
4 22 100 16 3.64562e-05
5 22 100 16 0.000164619
6 22 100 16 0.0753315
7 22 100 16 0.0190157
8 22 100 16 0.00111383
9 22 100 16 0.0692938
10 22 100 16 0.10618
11 22 100 16 0.126802
12 22 100 16 0.0929836
13 22 100 16 0.000120119
14 22 100 16 0.224762
15 22 100 16 0.0709619
16 22 100 16 0.20787
1 23 100 16 1.85434e-07
2 23 100 16 1.04668e-05
3 23 100 16 1.82371e-06
4 23 100 16 0.000856999
5 23 100 16 0.0677048
6 23 100 16 1.65825e-05
7 23 100 16 0.000995856
8 23 100 16 0.134098
9 23 100 16 0.0675609
10 23 100 16 0.0667057
11 23 100 16 0.113748
12 23 100 16 0.000289011
13 23 100 16 0.0660781
14 23 100 16 0.124237
15 23 100 16 0.134599
16 23 100 16 0.223099
1 24 100 16 0.000141718
2 24 100 16 3.51803e-05
3 24 100 16 2.97368e-07
4 24 100 16 0.000125016
5 24 100 16 1.01553e-06
6 24 100 16 0.0709227
7 24 100 16 0.0727174
8 24 100 16 0.0014297
9 24 100 16 0.127984
10 24 100 16 0.0111876
11 24 100 16 0.0715602
12 24 100 16 0.0717151
13 24 100 16 4.55317e-05
14 24 100 16 0.142189
15 24 100 16 0.0713985
16 24 100 16 0.358546
1 25 100 16 2.33704e-05
2 25 100 16 4.75665e-07
3 25 100 16 3.55835e-05
4 25 100 16 0.146226
5 25 100 16 0.145947
6 25 100 16 0.000208733
7 25 100 16 0.0069804
8 25 100 16 0.0767925
9 25 100 16 0.0835153
10 25 100 16 0.0150797
11 25 100 16 0.0117854
12 25 100 16 0.155281
13 25 100 16 0.0787864
14 25 100 16 0.115297
15 25 100 16 0.155668
16 25 100 16 0.0083736
1 26 100 16 0.000558517
2 26 100 16 3.48662e-06
3 26 100 16 1.34916e-06
4 26 100 16 0.000126845
5 26 100 16 0.000321937
6 26 100 16 0.11292
7 26 100 16 0.150387
8 26 100 16 0.000139555
9 26 100 16 0.0622711
10 26 100 16 0.115662
11 26 100 16 0.0278943
12 26 100 16 0.00165608
13 26 100 16 0.103876
14 26 100 16 6.48702e-07
15 26 100 16 3.302e-06
16 26 100 16 0.424178
1 27 100 16 0.000127363
2 27 100 16 1.29622e-06
3 27 100 16 1.10341e-05
4 27 100 16 2.57338e-06
5 27 100 16 9.00291e-06
6 27 100 16 4.8434e-05
7 27 100 16 2.46292e-05
8 27 100 16 0.157273
9 27 100 16 3.60848e-05
10 27 100 16 0.000198525
11 27 100 16 0.262252
12 27 100 16 0.422385
13 27 100 16 0.156675
14 27 100 16 6.05528e-05
15 27 100 16 3.1621e-07
16 27 100 16 0.000894453
1 28 100 16 1.66282e-06
4 28 100 16 1.02444e-05
5 28 100 16 9.60485e-06
6 28 100 16 7.87225e-05
7 28 100 16 0.0625739
8 28 100 16 0.119806
9 28 100 16 0.000159776
10 28 100 16 1.21558e-05
11 28 100 16 0.0981837
12 28 100 16 0.319537
13 28 100 16 0.305835
14 28 100 16 0.0925936
15 28 100 16 0.000180488
16 28 100 16 0.00101812
1 29 100 16 6.31705e-06
2 29 100 16 5.87104e-05
4 29 100 16 1.69079e-06
5 29 100 16 2.15083e-07
6 29 100 16 0.0779998
7 29 100 16 0.0786909
8 29 100 16 1.91205e-07
9 29 100 16 0.078689
10 29 100 16 0.0794495
11 29 100 16 0.10981
12 29 100 16 0.0788253
13 29 100 16 0.092198
14 29 100 16 0.0787819
15 29 100 16 0.191381
16 29 100 16 0.134108
4 30 100 16 2.082e-05
5 30 100 16 0.000933094
6 30 100 16 4.14337e-06
7 30 100 16 0.00024072
8 30 100 16 8.09121e-05
10 30 100 16 1.81159e-05
11 30 100 16 5.18254e-05
12 30 100 16 0.0192823
13 30 100 16 0.212336
14 30 100 16 0.314191
15 30 100 16 0.241198
16 30 100 16 0.211642
2 31 100 16 3.56091e-06
4 31 100 16 7.17656e-06
6 31 100 16 0.000506148
7 31 100 16 1.07427e-06
8 31 100 16 0.000881827
9 31 100 16 6.8372e-06
10 31 100 16 0.00288652
11 31 100 16 7.1864e-06
12 31 100 16 5.97104e-05
13 31 100 16 0.00219986
14 31 100 16 0.302139
15 31 100 16 0.000524871
16 31 100 16 0.690777
1 32 100 16 4.59172e-06
2 32 100 16 1.59023e-05
4 32 100 16 1.42127e-06
6 32 100 16 2.39137e-06
7 32 100 16 0.000581257
8 32 100 16 0.000673308
9 32 100 16 2.217e-05
10 32 100 16 0.000907459
11 32 100 16 2.4369e-05
12 32 100 16 0.000167455
13 32 100 16 0.00259059
14 32 100 16 0.330779
15 32 100 16 0.334552
16 32 100 16 0.329678
7 33 100 16 0.000285782
9 33 100 16 7.92631e-06
11 33 100 16 1.47957e-06
13 33 100 16 5.9266e-05
14 33 100 16 2.54559e-05
15 33 100 16 0.474982
16 33 100 16 0.524638
2 34 100 16 1.68621e-06
7 34 100 16 4.70063e-06
8 34 100 16 8.44781e-06
11 34 100 16 0.0019322
12 34 100 16 0.000201422
13 34 100 16 1.47079e-06
15 34 100 16 1.83047e-06
16 34 100 16 0.997848
12 35 100 16 1
1 36 100 16 1.81167e-06
4 36 100 16 2.10915e-06
12 36 100 16 0.00127419
13 36 100 16 0.998613
14 36 100 16 0.000108393
4 37 100 16 0.993554
13 37 100 16 0.00195695
14 37 100 16 0.000794725
15 37 100 16 0.00369438
4 38 100 16 6.37942e-06
6 38 100 16 2.39174e-06
8 38 100 16 9.97772e-05
12 38 100 16 0.0157011
13 38 100 16 0.000110118
14 38 100 16 0.278249
15 38 100 16 0.705829
16 38 100 16 2.16629e-06
1 39 100 16 0.0223995
12 39 100 16 0.959807
15 39 100 16 0.0177938
4 40 100 16 1
4 41 100 16 1
12 42 100 16 6.24767e-05
13 42 100 16 2.67903e-06
16 42 100 16 0.999935
1 0 100 17 0.000619495
2 0 100 17 0.134195
3 0 100 17 0.00345448
4 0 100 17 0.0820318
5 0 100 17 0.141061
6 0 100 17 0.084008
7 0 100 17 0.00977056
8 0 100 17 0.133172
9 0 100 17 0.0205683
10 0 100 17 0.0844825
11 0 100 17 0.103601
12 0 100 17 0.0885971
13 0 100 17 0.0184337
14 0 100 17 0.0131931
15 0 100 17 0.0751485
16 0 100 17 0.00526658
17 0 100 17 0.00239809
1 1 100 17 0.557469
2 1 100 17 0.214366
3 1 100 17 0.0534247
4 1 100 17 0.0572105
5 1 100 17 0.020538
6 1 100 17 1.07701e-06
7 1 100 17 0.0109577
8 1 100 17 1.32351e-05
9 1 100 17 0.0150326
10 1 100 17 0.00137187
11 1 100 17 0.017513
12 1 100 17 0.0174633
13 1 100 17 0.0174692
14 1 100 17 6.7036e-05
15 1 100 17 5.20233e-06
16 1 100 17 0.0170985
1 2 100 17 0.265579
2 2 100 17 0.304817
3 2 100 17 0.110099
4 2 100 17 0.0427343
5 2 100 17 0.000305057
6 2 100 17 0.0438999
7 2 100 17 4.4423e-06
8 2 100 17 0.0439916
9 2 100 17 9.32194e-06
10 2 100 17 0.000358545
11 2 100 17 0.000177748
12 2 100 17 0.00026079
13 2 100 17 0.0439731
14 2 100 17 0.0556575
15 2 100 17 0.044156
16 2 100 17 0.0439717
17 2 100 17 4.38054e-06
1 3 100 17 0.082352
2 3 100 17 0.143831
3 3 100 17 0.247087
4 3 100 17 0.191771
5 3 100 17 0.0409571
6 3 100 17 0.0206284
7 3 100 17 0.0411862
8 3 100 17 0.0873026
9 3 100 17 0.0632514
10 3 100 17 0.0207048
11 3 100 17 0.0191509
12 3 100 17 0.0206358
13 3 100 17 4.58893e-07
14 3 100 17 0.000425469
15 3 100 17 0.0206481
16 3 100 17 6.54068e-05
17 3 100 17 1.86535e-06
1 4 100 17 0.0646462
2 4 100 17 0.2848
3 4 100 17 0.119941
4 4 100 17 0.208706
5 4 100 17 0.141922
6 4 100 17 0.0466162
7 4 100 17 0.0210057
8 4 100 17 1.87708e-05
9 4 100 17 1.65052e-05
10 4 100 17 0.0208276
11 4 100 17 2.56808e-05
12 4 100 17 0.020807
13 4 100 17 0.0208179
14 4 100 17 0.00816798
16 4 100 17 0.0416813
17 4 100 17 3.15159e-07
1 5 100 17 0.0584637
2 5 100 17 0.0787152
3 5 100 17 0.294205
4 5 100 17 0.138513
5 5 100 17 0.118444
6 5 100 17 0.116038
7 5 100 17 0.0369865
8 5 100 17 0.0197831
9 5 100 17 0.0195793
10 5 100 17 0.00355695
11 5 100 17 3.60245e-05
12 5 100 17 0.019485
13 5 100 17 0.038089
14 5 100 17 0.0386736
15 5 100 17 0.0194232
16 5 100 17 7.4985e-06
17 5 100 17 2.22804e-07
1 6 100 17 0.036559
2 6 100 17 0.0408871
3 6 100 17 0.110936
4 6 100 17 0.176524
5 6 100 17 0.129081
6 6 100 17 0.145963
7 6 100 17 0.0918882
8 6 100 17 0.0188818
9 6 100 17 0.000490504
10 6 100 17 0.0693953
11 6 100 17 0.018279
12 6 100 17 0.0364928
13 6 100 17 0.0182879
14 6 100 17 0.0149164
15 6 100 17 0.0548469
16 6 100 17 0.0365706
17 6 100 17 7.1793e-07
1 7 100 17 0.0515718
2 7 100 17 0.0343432
3 7 100 17 0.102764
4 7 100 17 0.086515
5 7 100 17 0.187217
6 7 100 17 0.154611
7 7 100 17 0.121112
8 7 100 17 0.0343816
9 7 100 17 0.0488991
10 7 100 17 0.0209855
11 7 100 17 0.0338118
12 7 100 17 0.0715135
13 7 100 17 6.15191e-07
14 7 100 17 6.38932e-05
15 7 100 17 0.0180696
16 7 100 17 0.0341389
17 7 100 17 1.87555e-07
1 8 100 17 0.0343672
2 8 100 17 0.0629907
3 8 100 17 0.0168249
4 8 100 17 0.0666605
5 8 100 17 0.146174
6 8 100 17 0.100662
7 8 100 17 0.11647
8 8 100 17 0.184303
9 8 100 17 0.119165
10 8 100 17 0.0346788
11 8 100 17 0.0503618
12 8 100 17 0.0169004
13 8 100 17 0.0168108
14 8 100 17 0.0167515
15 8 100 17 0.0167825
17 8 100 17 9.70378e-05
1 9 100 17 0.0173072
2 9 100 17 0.0447437
3 9 100 17 0.0917192
4 9 100 17 0.133328
5 9 100 17 0.0283531
6 9 100 17 0.135267
7 9 100 17 0.157023
8 9 100 17 0.112186
9 9 100 17 0.160389
10 9 100 17 0.0882694
11 9 100 17 0.000185613
12 9 100 17 0.00551977
13 9 100 17 0.000368196
14 9 100 17 0.000574098
15 9 100 17 1.25892e-05
16 9 100 17 0.0224483
17 9 100 17 0.00230652
1 10 100 17 7.29872e-05
2 10 100 17 0.00121516
3 10 100 17 0.057858
4 10 100 17 0.019541
5 10 100 17 0.109756
6 10 100 17 0.0591998
7 10 100 17 0.117357
8 10 100 17 0.0978047
9 10 100 17 0.15416
10 10 100 17 0.112488
11 10 100 17 0.115746
12 10 100 17 0.0747269
13 10 100 17 0.0391111
14 10 100 17 0.0209293
15 10 100 17 0.019442
16 10 100 17 7.78602e-07
17 10 100 17 0.000591941
1 11 100 17 0.0307557
2 11 100 17 0.00376593
3 11 100 17 0.0310268
4 11 100 17 0.0617967
5 11 100 17 0.0760617
6 11 100 17 0.0619463
7 11 100 17 0.123535
8 11 100 17 0.0620084
9 11 100 17 0.0747313
10 11 100 17 0.102447
11 11 100 17 0.126536
12 11 100 17 0.0929581
13 11 100 17 0.0154915
14 11 100 17 0.0593489
15 11 100 17 0.0463406
16 11 100 17 0.0311336
17 11 100 17 0.000116393
1 12 100 17 0.0586179
2 12 100 17 0.0170082
3 12 100 17 0.019684
4 12 100 17 0.0195718
5 12 100 17 0.0187887
6 12 100 17 0.136464
7 12 100 17 0.0898848
8 12 100 17 0.156322
9 12 100 17 0.019639
10 12 100 17 0.112059
11 12 100 17 0.154688
12 12 100 17 0.116664
13 12 100 17 0.0214422
14 12 100 17 0.0196224
15 12 100 17 0.0198342
16 12 100 17 0.0196941
17 12 100 17 1.4889e-05
1 13 100 17 1.22625e-05
2 13 100 17 0.0274781
3 13 100 17 0.000643228
4 13 100 17 0.0217122
5 13 100 17 0.0583844
6 13 100 17 0.0665401
7 13 100 17 0.0648399
8 13 100 17 0.123444
9 13 100 17 0.150666
10 13 100 17 0.125227
11 13 100 17 0.0867818
12 13 100 17 0.0450909
13 13 100 17 0.142065
14 13 100 17 0.0435862
15 13 100 17 1.4486e-05
16 13 100 17 0.0217031
17 13 100 17 0.0218112
1 14 100 17 4.91092e-06
2 14 100 17 0.0409446
3 14 100 17 0.0207534
4 14 100 17 0.000126294
5 14 100 17 0.0200532
6 14 100 17 0.0620692
7 14 100 17 0.0572858
8 14 100 17 0.0686248
9 14 100 17 0.127174
10 14 100 17 0.0995577
11 14 100 17 0.103589
12 14 100 17 0.144845
13 14 100 17 0.103769
14 14 100 17 0.106658
15 14 100 17 4.29719e-06
16 14 100 17 0.0412257
17 14 100 17 0.00331535
1 15 100 17 0.041241
2 15 100 17 1.3192e-05
4 15 100 17 0.0425601
5 15 100 17 0.0256823
6 15 100 17 0.0419633
7 15 100 17 0.106742
8 15 100 17 0.0429901
9 15 100 17 0.0856831
10 15 100 17 0.107535
11 15 100 17 0.0838039
12 15 100 17 0.0891352
13 15 100 17 0.128713
14 15 100 17 0.098029
15 15 100 17 0.0630176
16 15 100 17 0.0428744
17 15 100 17 1.76321e-05
1 16 100 17 0.0180093
2 16 100 17 0.0176134
3 16 100 17 2.32599e-07
4 16 100 17 1.50537e-05
5 16 100 17 0.0359597
6 16 100 17 0.0146842
7 16 100 17 0.0360304
8 16 100 17 0.0551687
9 16 100 17 0.0664288
10 16 100 17 0.0720078
11 16 100 17 0.10806
12 16 100 17 0.125112
13 16 100 17 0.128685
14 16 100 17 0.123458
15 16 100 17 0.0721118
16 16 100 17 0.108032
17 16 100 17 0.0186229
1 17 100 17 1.82345e-05
2 17 100 17 0.0222966
3 17 100 17 2.83269e-05
4 17 100 17 0.000312919
5 17 100 17 0.0220004
6 17 100 17 0.0219943
7 17 100 17 2.86448e-07
8 17 100 17 0.0647494
9 17 100 17 0.065758
10 17 100 17 0.0748964
11 17 100 17 0.0664346
12 17 100 17 0.108797
13 17 100 17 0.087608
14 17 100 17 0.0660168
15 17 100 17 0.223169
16 17 100 17 0.0660101
17 17 100 17 0.10991
1 18 100 17 0.0214064
2 18 100 17 0.00030181
3 18 100 17 0.0207121
4 18 100 17 2.82029e-05
5 18 100 17 4.07286e-06
6 18 100 17 0.0342354
7 18 100 17 0.0296072
8 18 100 17 0.0387034
9 18 100 17 0.0663998
10 18 100 17 0.0633402
11 18 100 17 0.0621793
12 18 100 17 0.082781
13 18 100 17 0.06252
14 18 100 17 0.124888
15 18 100 17 0.062126
16 18 100 17 0.186009
17 18 100 17 0.144758
1 19 100 17 0.000629308
2 19 100 17 0.0310221
3 19 100 17 0.0127855
4 19 100 17 0.0270934
5 19 100 17 0.0540847
6 19 100 17 0.000160058
7 19 100 17 0.0742458
8 19 100 17 0.0129181
9 19 100 17 0.0518327
10 19 100 17 0.0272676
11 19 100 17 0.050128
12 19 100 17 0.0486194
13 19 100 17 0.203493
14 19 100 17 0.175922
15 19 100 17 0.105086
16 19 100 17 0.0486998
17 19 100 17 0.0760121
1 20 100 17 0.00533065
2 20 100 17 9.08842e-05
3 20 100 17 0.0312669
4 20 100 17 0.0639189
5 20 100 17 2.47565e-05
6 20 100 17 0.0305078
7 20 100 17 0.0323685
8 20 100 17 0.0824173
9 20 100 17 0.0651476
10 20 100 17 0.0886481
11 20 100 17 0.0567085
12 20 100 17 0.0357671
13 20 100 17 0.0285549
14 20 100 17 0.143656
15 20 100 17 0.176153
16 20 100 17 0.0979289
17 20 100 17 0.0615106
1 21 100 17 2.98565e-05
2 21 100 17 0.0147923
3 21 100 17 0.000323241
4 21 100 17 0.00442265
5 21 100 17 0.000599569
6 21 100 17 0.0036576
7 21 100 17 0.0587754
8 21 100 17 0.0884981
9 21 100 17 0.0189658
10 21 100 17 0.057409
11 21 100 17 0.0583573
12 21 100 17 0.0530211
13 21 100 17 0.0272697
14 21 100 17 0.0286075
15 21 100 17 0.13672
16 21 100 17 0.235674
17 21 100 17 0.212876
1 22 100 17 0.0263042
2 22 100 17 5.48727e-06
3 22 100 17 0.0254399
4 22 100 17 8.72374e-06
5 22 100 17 0.026446
6 22 100 17 0.0275419
7 22 100 17 1.14381e-05
8 22 100 17 0.00398608
9 22 100 17 0.08775
10 22 100 17 0.000825684
11 22 100 17 0.0839656
12 22 100 17 0.0394247
13 22 100 17 0.17857
14 22 100 17 0.0484499
15 22 100 17 0.0790052
16 22 100 17 0.216269
17 22 100 17 0.155995
2 23 100 17 5.58181e-05
3 23 100 17 0.000673996
4 23 100 17 1.26457e-05
5 23 100 17 0.00590139
6 23 100 17 0.00484458
7 23 100 17 0.0161861
8 23 100 17 0.0122209
9 23 100 17 8.93571e-05
10 23 100 17 0.0695843
11 23 100 17 0.0378623
12 23 100 17 0.0945867
13 23 100 17 0.0805818
14 23 100 17 0.174838
15 23 100 17 0.132109
16 23 100 17 7.59536e-05
17 23 100 17 0.370378
2 24 100 17 0.000351347
3 24 100 17 0.0577594
4 24 100 17 0.0297059
5 24 100 17 0.000998402
6 24 100 17 0.00100995
7 24 100 17 0.000708058
8 24 100 17 0.000174201
9 24 100 17 0.000206757
10 24 100 17 0.128208
11 24 100 17 0.0833444
12 24 100 17 0.0693281
13 24 100 17 0.00110725
14 24 100 17 0.112016
15 24 100 17 0.270005
16 24 100 17 0.00032454
17 24 100 17 0.244752
1 25 100 17 5.57641e-07
2 25 100 17 3.27345e-05
3 25 100 17 0.00114097
4 25 100 17 8.94038e-05
5 25 100 17 0.0575005
6 25 100 17 0.0182832
7 25 100 17 0.000345249
8 25 100 17 4.01955e-06
9 25 100 17 0.0535929
10 25 100 17 7.10826e-05
11 25 100 17 0.0830458
12 25 100 17 0.00033206
13 25 100 17 0.269221
14 25 100 17 0.0573622
15 25 100 17 0.172232
16 25 100 17 1.724e-05
17 25 100 17 0.286729
2 26 100 17 0.000104685
3 26 100 17 0.000162236
4 26 100 17 0.000454661
5 26 100 17 0.00432138
6 26 100 17 6.05462e-05
7 26 100 17 5.77647e-06
8 26 100 17 0.00370127
9 26 100 17 1.03878e-05
10 26 100 17 0.00012934
11 26 100 17 0.106362
12 26 100 17 0.00174148
13 26 100 17 0.00147776
14 26 100 17 0.431089
15 26 100 17 0.108296
16 26 100 17 0.321568
17 26 100 17 0.020516
2 27 100 17 2.99282e-05
3 27 100 17 2.07251e-06
4 27 100 17 0.105195
5 27 100 17 0.000553722
6 27 100 17 0.000130623
7 27 100 17 1.69873e-05
8 27 100 17 9.05785e-05
9 27 100 17 0.0373826
10 27 100 17 0.000708035
11 27 100 17 0.00205178
12 27 100 17 0.151045
13 27 100 17 0.00351285
14 27 100 17 0.00092006
15 27 100 17 0.0367091
16 27 100 17 0.34337
17 27 100 17 0.318282
1 28 100 17 0.0932217
2 28 100 17 0.000125767
3 28 100 17 0.113097
4 28 100 17 0.000582256
5 28 100 17 0.000373414
6 28 100 17 0.000526411
7 28 100 17 6.79122e-06
8 28 100 17 2.03182e-06
9 28 100 17 0.000170258
10 28 100 17 0.000381268
11 28 100 17 0.000974345
12 28 100 17 0.000783899
13 28 100 17 2.44366e-05
14 28 100 17 0.0491465
15 28 100 17 0.281762
16 28 100 17 0.14805
17 28 100 17 0.310773
2 29 100 17 2.65394e-06
3 29 100 17 3.13632e-07
4 29 100 17 4.0334e-06
5 29 100 17 0.0985839
6 29 100 17 3.27129e-05
7 29 100 17 1.02432e-05
9 29 100 17 5.87378e-05
10 29 100 17 0.177437
11 29 100 17 0.000155542
12 29 100 17 0.0492995
13 29 100 17 0.00031091
14 29 100 17 0.0965652
15 29 100 17 0.203619
16 29 100 17 0.00029246
17 29 100 17 0.373628
1 30 100 17 1.01711e-05
3 30 100 17 0.126862
4 30 100 17 3.45766e-06
5 30 100 17 0.00468821
6 30 100 17 4.06864e-06
7 30 100 17 0.0196875
9 30 100 17 5.92569e-05
10 30 100 17 4.82968e-05
11 30 100 17 0.150044
12 30 100 17 3.39057e-05
13 30 100 17 0.315778
14 30 100 17 0.00377264
15 30 100 17 0.140514
16 30 100 17 0.0885717
17 30 100 17 0.149923
1 31 100 17 4.83147e-05
2 31 100 17 0.000122648
3 31 100 17 1.19664e-06
4 31 100 17 6.80154e-06
5 31 100 17 3.15307e-05
6 31 100 17 0.371834
7 31 100 17 1.9412e-06
8 31 100 17 6.71778e-07
9 31 100 17 3.88367e-05
10 31 100 17 0.0334009
11 31 100 17 6.54266e-05
12 31 100 17 0.0284295
13 31 100 17 9.18246e-05
14 31 100 17 0.350962
15 31 100 17 0.0134032
16 31 100 17 0.000246172
17 31 100 17 0.201314
1 32 100 17 4.63838e-07
2 32 100 17 0.000453107
3 32 100 17 5.23035e-07
4 32 100 17 0.173966
5 32 100 17 4.94165e-06
6 32 100 17 4.40635e-06
7 32 100 17 0.00300378
8 32 100 17 2.40088e-06
10 32 100 17 0.00188687
11 32 100 17 0.0291083
12 32 100 17 0.000673327
13 32 100 17 0.000280913
14 32 100 17 0.175284
15 32 100 17 0.235589
16 32 100 17 0.204441
17 32 100 17 0.175301
2 33 100 17 2.05587e-06
3 33 100 17 7.77071e-07
4 33 100 17 5.34755e-05
5 33 100 17 2.5949e-05
6 33 100 17 0.00108074
8 33 100 17 7.25984e-06
10 33 100 17 5.5798e-06
11 33 100 17 1.40587e-05
12 33 100 17 0.0392099
13 33 100 17 8.60242e-06
14 33 100 17 6.58021e-06
15 33 100 17 0.0324439
16 33 100 17 0.18884
17 33 100 17 0.738301
2 34 100 17 8.211e-07
3 34 100 17 1.77867e-05
4 34 100 17 0.000139449
5 34 100 17 0.000337966
8 34 100 17 2.08168e-06
10 34 100 17 8.48979e-07
12 34 100 17 0.121819
13 34 100 17 0.29283
14 34 100 17 9.70423e-06
15 34 100 17 2.39983e-05
16 34 100 17 0.292672
17 34 100 17 0.292147
1 35 100 17 0.000865679
2 35 100 17 0.259682
3 35 100 17 0.00101029
4 35 100 17 5.47194e-07
5 35 100 17 0.000681974
6 35 100 17 0.209888
7 35 100 17 7.74023e-07
8 35 100 17 0.130156
10 35 100 17 0.00321965
12 35 100 17 1.99395e-06
13 35 100 17 7.49254e-06
14 35 100 17 3.73903e-06
15 35 100 17 0.000864253
16 35 100 17 0.259502
17 35 100 17 0.134117
5 36 100 17 1.96685e-06
9 36 100 17 2.02241e-06
10 36 100 17 7.93203e-07
12 36 100 17 4.97474e-06
13 36 100 17 2.1319e-06
15 36 100 17 1.34091e-06
17 36 100 17 0.999987
10 37 100 17 0.945789
15 37 100 17 0.0542111
6 38 100 17 0.0116865
9 38 100 17 0.00407913
10 38 100 17 0.9799
11 38 100 17 0.00138647
12 38 100 17 0.000625656
13 38 100 17 0.0018994
14 38 100 17 0.00033869
15 38 100 17 2.8886e-05
16 38 100 17 5.53017e-05
6 39 100 17 0.00150281
9 39 100 17 0.000408268
10 39 100 17 0.997361
11 39 100 17 0.000142494
12 39 100 17 6.07009e-05
13 39 100 17 0.000460432
14 39 100 17 5.66365e-05
15 39 100 17 3.69189e-06
16 39 100 17 3.73831e-06
15 40 100 17 1
6 41 100 17 4.00417e-06
9 41 100 17 0.000738505
10 41 100 17 0.11071
11 41 100 17 0.160734
12 41 100 17 0.589632
13 41 100 17 0.136412
14 41 100 17 0.00176949
1 42 100 17 0.00157718
7 42 100 17 0.521403
10 42 100 17 3.21172e-05
13 42 100 17 0.000731364
14 42 100 17 0.476256
9 43 100 17 3.16799e-06
10 43 100 17 0.000110504
11 43 100 17 0.000108605
12 43 100 17 0.000133404
13 43 100 17 0.00990473
14 43 100 17 0.989113
15 43 100 17 0.000624883
16 43 100 17 1.87795e-06
6 44 100 17 7.49215e-06
9 44 100 17 1.48709e-05
10 44 100 17 0.00187501
11 44 100 17 6.49256e-05
12 44 100 17 5.84289e-05
13 44 100 17 0.996455
14 44 100 17 0.00151305
15 44 100 17 1.14531e-05
10 45 100 17 1.55443e-05
11 45 100 17 3.83194e-06
12 45 100 17 2.65127e-05
13 45 100 17 0.000202687
14 45 100 17 0.000200572
15 45 100 17 0.999352
16 45 100 17 0.000199264
9 46 100 17 2.52449e-06
10 46 100 17 7.05767e-05
11 46 100 17 3.93613e-06
12 46 100 17 1.45719e-05
13 46 100 17 0.00019114
14 46 100 17 9.17615e-05
15 46 100 17 0.000254724
16 46 100 17 0.999371
9 47 100 17 4.87207e-06
10 47 100 17 0.000170207
11 47 100 17 8.47169e-06
12 47 100 17 2.22067e-05
13 47 100 17 0.000884572
14 47 100 17 0.000423245
15 47 100 17 0.000258543
16 47 100 17 1.09941e-05
17 47 100 17 0.998217
1 0 100 18 0.0031919
2 0 100 18 0.00898791
3 0 100 18 0.0390205
4 0 100 18 0.0329216
5 0 100 18 0.0108014
6 0 100 18 0.0364882
7 0 100 18 0.0481699
8 0 100 18 0.0574618
9 0 100 18 0.0670508
10 0 100 18 0.0649941
11 0 100 18 0.0599957
12 0 100 18 0.0122295
13 0 100 18 0.110825
14 0 100 18 0.0571054
15 0 100 18 0.108433
16 0 100 18 0.210116
17 0 100 18 0.0496136
18 0 100 18 0.0225942
1 1 100 18 0.584603
2 1 100 18 0.0969502
3 1 100 18 0.0996498
4 1 100 18 0.0501454
5 1 100 18 0.0536928
6 1 100 18 0.0270655
7 1 100 18 0.0278794
8 1 100 18 0.0265138
9 1 100 18 0.0139256
11 1 100 18 6.12662e-06
12 1 100 18 2.29382e-06
14 1 100 18 0.0138714
15 1 100 18 0.00568324
16 1 100 18 1.10189e-05
17 1 100 18 2.21346e-07
18 1 100 18 5.80972e-07
1 2 100 18 0.20696
2 2 100 18 0.37847
3 2 100 18 0.188267
4 2 100 18 0.0693427
5 2 100 18 0.051992
6 2 100 18 0.0175423
7 2 100 18 0.0173417
8 2 100 18 0.0346674
9 2 100 18 5.05314e-06
10 2 100 18 0.0173327
11 2 100 18 3.19949e-06
12 2 100 18 0.00016987
13 2 100 18 4.99664e-05
14 2 100 18 0.000398537
15 2 100 18 0.0174523
16 2 100 18 3.07373e-07
18 2 100 18 4.72339e-06
1 3 100 18 0.0889501
2 3 100 18 0.278041
3 3 100 18 0.277138
4 3 100 18 0.137615
5 3 100 18 0.0474213
6 3 100 18 0.0693388
7 3 100 18 0.0174085
8 3 100 18 0.0174055
9 3 100 18 1.68548e-05
10 3 100 18 0.0174074
11 3 100 18 0.0174913
12 3 100 18 0.000227478
13 3 100 18 2.84432e-06
14 3 100 18 0.0122279
15 3 100 18 0.017398
16 3 100 18 3.02708e-06
17 3 100 18 9.0053e-07
18 3 100 18 0.00190574
1 4 100 18 0.090601
2 4 100 18 0.202137
3 4 100 18 0.131765
4 4 100 18 0.251546
5 4 100 18 0.1093
6 4 100 18 0.0476703
7 4 100 18 0.000134599
8 4 100 18 0.0311148
9 4 100 18 0.0313172
10 4 100 18 0.0155874
11 4 100 18 0.0307586
12 4 100 18 0.0159398
13 4 100 18 0.0155879
14 4 100 18 9.63694e-05
15 4 100 18 5.57238e-07
16 4 100 18 0.0108076
17 4 100 18 0.0155833
18 4 100 18 5.34752e-05
1 5 100 18 0.0378134
2 5 100 18 0.0572186
3 5 100 18 0.204632
4 5 100 18 0.182653
5 5 100 18 0.209467
6 5 100 18 0.126014
7 5 100 18 0.126054
9 5 100 18 4.91299e-06
10 5 100 18 0.0140164
12 5 100 18 0.0280393
13 5 100 18 0.0140156
14 5 100 18 5.34032e-05
16 5 100 18 1.09347e-05
17 5 100 18 4.96095e-06
18 5 100 18 1.74436e-06
1 6 100 18 0.0278919
2 6 100 18 0.065803
3 6 100 18 0.129601
4 6 100 18 0.178686
5 6 100 18 0.210902
6 6 100 18 0.163396
7 6 100 18 0.0819015
8 6 100 18 0.0817337
9 6 100 18 0.0143118
10 6 100 18 1.21515e-05
11 6 100 18 0.0163526
12 6 100 18 0.0126785
13 6 100 18 4.50645e-05
14 6 100 18 4.76794e-06
15 6 100 18 5.35844e-06
16 6 100 18 0.0165771
17 6 100 18 2.91685e-05
18 6 100 18 6.8892e-05
1 7 100 18 0.0281919
2 7 100 18 0.0285909
3 7 100 18 0.0474872
4 7 100 18 0.165094
5 7 100 18 0.154123
6 7 100 18 0.151867
7 7 100 18 0.125155
8 7 100 18 0.163758
9 7 100 18 0.0822376
10 7 100 18 0.0275031
11 7 100 18 0.000118922
12 7 100 18 0.0137639
13 7 100 18 1.54425e-07
14 7 100 18 0.0115508
15 7 100 18 1.15006e-06
16 7 100 18 1.47929e-05
17 7 100 18 6.15585e-06
18 7 100 18 0.00053623
1 8 100 18 0.0813086
2 8 100 18 0.027802
3 8 100 18 0.0420291
4 8 100 18 0.0561032
5 8 100 18 0.0955411
6 8 100 18 0.124089
7 8 100 18 0.153922
8 8 100 18 0.0865626
9 8 100 18 0.121952
10 8 100 18 0.0563418
11 8 100 18 0.0140113
12 8 100 18 0.0279903
13 8 100 18 0.0558624
14 8 100 18 0.0140017
15 8 100 18 0.014012
16 8 100 18 0.0140224
17 8 100 18 0.0140013
18 8 100 18 0.000447195
1 9 100 18 0.000761231
2 9 100 18 0.0699484
3 9 100 18 0.0485286
4 9 100 18 0.030182
5 9 100 18 0.0772016
6 9 100 18 0.103592
7 9 100 18 0.132493
8 9 100 18 0.0991253
9 9 100 18 0.150173
10 9 100 18 0.0601429
11 9 100 18 0.0600209
12 9 100 18 0.073666
13 9 100 18 0.029605
14 9 100 18 0.0150096
15 9 100 18 0.00213944
16 9 100 18 0.030016
17 9 100 18 0.0169327
18 9 100 18 0.000461973
1 10 100 18 2.41519e-05
2 10 100 18 0.0188606
3 10 100 18 1.77734e-06
4 10 100 18 0.000218257
5 10 100 18 0.0346683
6 10 100 18 0.200431
7 10 100 18 0.116682
8 10 100 18 0.154757
9 10 100 18 0.0701504
10 10 100 18 0.17636
11 10 100 18 0.086702
12 10 100 18 0.0325893
13 10 100 18 0.00428517
14 10 100 18 0.0520471
15 10 100 18 2.46553e-05
16 10 100 18 0.0174917
17 10 100 18 0.0346986
18 10 100 18 7.54141e-06
1 11 100 18 0.0413895
2 11 100 18 0.0160745
3 11 100 18 0.0155485
4 11 100 18 0.0221601
5 11 100 18 0.0524758
6 11 100 18 0.000212913
7 11 100 18 0.191902
8 11 100 18 0.0945234
9 11 100 18 0.190396
10 11 100 18 0.0643875
11 11 100 18 0.112352
12 11 100 18 0.0528746
13 11 100 18 0.079401
14 11 100 18 0.0321522
15 11 100 18 0.0300045
16 11 100 18 0.000859397
17 11 100 18 6.85433e-05
18 11 100 18 0.0032172
1 12 100 18 0.00123139
2 12 100 18 0.0447358
3 12 100 18 2.31283e-06
4 12 100 18 0.015392
5 12 100 18 0.0452792
6 12 100 18 0.0614531
7 12 100 18 0.0377898
8 12 100 18 0.165612
9 12 100 18 0.0521771
10 12 100 18 0.166918
11 12 100 18 0.152646
12 12 100 18 0.0458602
13 12 100 18 0.0607704
14 12 100 18 0.030438
15 12 100 18 0.0306091
16 12 100 18 0.0306501
17 12 100 18 0.0583299
18 12 100 18 0.000106718
1 13 100 18 0.0305124
2 13 100 18 2.77512e-07
3 13 100 18 0.0308521
4 13 100 18 0.0271958
5 13 100 18 0.0158093
6 13 100 18 0.0307488
7 13 100 18 0.0457787
8 13 100 18 0.0344308
9 13 100 18 0.0615063
10 13 100 18 0.0936259
11 13 100 18 0.150189
12 13 100 18 0.153668
13 13 100 18 0.121605
14 13 100 18 0.0612125
15 13 100 18 0.0167008
16 13 100 18 0.0791178
17 13 100 18 0.0464743
18 13 100 18 0.000572291
1 14 100 18 1.4617e-06
2 14 100 18 0.000716006
4 14 100 18 0.000260237
5 14 100 18 4.47581e-06
6 14 100 18 0.0156506
7 14 100 18 0.0506146
8 14 100 18 0.0768169
9 14 100 18 0.111047
10 14 100 18 0.0782776
11 14 100 18 0.0629576
12 14 100 18 0.114454
13 14 100 18 0.0687413
14 14 100 18 0.219174
15 14 100 18 0.0782515
16 14 100 18 0.047017
17 14 100 18 0.044277
18 14 100 18 0.0317388
1 15 100 18 0.000378991
2 15 100 18 5.58731e-07
3 15 100 18 0.0178732
4 15 100 18 0.0182842
5 15 100 18 1.76409e-05
6 15 100 18 0.0174691
7 15 100 18 0.017863
8 15 100 18 0.0901339
9 15 100 18 0.106305
10 15 100 18 0.0733371
11 15 100 18 0.0939727
12 15 100 18 0.149342
13 15 100 18 0.0894945
14 15 100 18 4.6984e-05
15 15 100 18 0.160967
16 15 100 18 0.074031
17 15 100 18 0.071435
18 15 100 18 0.0190479
1 16 100 18 0.000267802
2 16 100 18 0.000267226
3 16 100 18 3.94808e-07
4 16 100 18 0.0203727
5 16 100 18 3.57377e-05
6 16 100 18 0.0185248
7 16 100 18 0.0418811
8 16 100 18 0.0213097
9 16 100 18 0.0845186
10 16 100 18 0.0849829
11 16 100 18 0.0427925
12 16 100 18 0.127295
13 16 100 18 0.127958
14 16 100 18 0.106975
15 16 100 18 0.0423447
16 16 100 18 0.132129
17 16 100 18 0.127208
18 16 100 18 0.0211361
1 17 100 18 2.71117e-06
2 17 100 18 0.0174267
3 17 100 18 0.0010324
4 17 100 18 4.76048e-06
5 17 100 18 8.0851e-06
6 17 100 18 0.0355954
7 17 100 18 0.000626672
8 17 100 18 0.051988
9 17 100 18 0.0176082
10 17 100 18 0.116381
11 17 100 18 0.121916
12 17 100 18 0.104435
13 17 100 18 0.0636337
14 17 100 18 0.157437
15 17 100 18 0.103182
16 17 100 18 0.0850747
17 17 100 18 0.088926
18 17 100 18 0.0347216
1 18 100 18 0.000117463
2 18 100 18 1.66792e-06
4 18 100 18 5.03697e-07
5 18 100 18 0.0351154
6 18 100 18 0.00349128
7 18 100 18 1.21675e-05
8 18 100 18 0.0111326
9 18 100 18 0.0337148
10 18 100 18 0.052426
11 18 100 18 0.140151
12 18 100 18 0.0875872
13 18 100 18 0.106488
14 18 100 18 0.0668368
15 18 100 18 0.158827
16 18 100 18 0.0765581
17 18 100 18 0.139549
18 18 100 18 0.0879913
1 19 100 18 0.0200235
3 19 100 18 8.67227e-06
5 19 100 18 0.0152601
6 19 100 18 0.0243431
7 19 100 18 4.61782e-06
8 19 100 18 1.83239e-06
9 19 100 18 0.0397994
10 19 100 18 0.020168
11 19 100 18 0.0582614
12 19 100 18 0.0603827
13 19 100 18 0.119458
14 19 100 18 0.101506
15 19 100 18 0.139793
16 19 100 18 0.120516
17 19 100 18 0.120649
18 19 100 18 0.159824
1 20 100 18 2.32174e-06
2 20 100 18 2.5787e-05
3 20 100 18 0.0245109
4 20 100 18 1.33412e-05
5 20 100 18 1.7488e-06
6 20 100 18 0.000398762
7 20 100 18 0.0234122
8 20 100 18 5.86496e-05
9 20 100 18 0.0286343
10 20 100 18 0.0517535
11 20 100 18 0.0524627
12 20 100 18 0.0505946
13 20 100 18 0.145872
14 20 100 18 0.0878586
15 20 100 18 0.0634626
16 20 100 18 0.174235
17 20 100 18 0.181243
18 20 100 18 0.11546
1 21 100 18 8.56932e-05
2 21 100 18 3.90909e-06
3 21 100 18 1.53069e-06
4 21 100 18 0.000145378
5 21 100 18 0.000958104
6 21 100 18 7.09053e-05
7 21 100 18 0.0287166
8 21 100 18 6.96822e-05
9 21 100 18 0.000298823
10 21 100 18 0.000415477
11 21 100 18 0.00543641
12 21 100 18 0.143201
13 21 100 18 0.0299755
14 21 100 18 0.0779456
15 21 100 18 0.135711
16 21 100 18 0.148192
17 21 100 18 0.101968
18 21 100 18 0.326805
1 22 100 18 4.83813e-07
2 22 100 18 0.000957312
3 22 100 18 3.72273e-05
4 22 100 18 0.000503959
5 22 100 18 0.0288674
6 22 100 18 0.0297615
7 22 100 18 0.0529902
8 22 100 18 0.0295565
9 22 100 18 0.0385002
10 22 100 18 0.0288243
11 22 100 18 0.0784526
12 22 100 18 0.0858065
13 22 100 18 0.101197
14 22 100 18 0.202623
15 22 100 18 0.159053
16 22 100 18 0.00735037
17 22 100 18 0.125773
18 22 100 18 0.029745
2 23 100 18 9.43095e-07
3 23 100 18 0.000572545
4 23 100 18 0.000218847
5 23 100 18 4.50021e-05
6 23 100 18 2.90626e-06
7 23 100 18 0.00690208
8 23 100 18 0.00501774
9 23 100 18 0.0329201
10 23 100 18 1.89589e-05
11 23 100 18 0.0266529
12 23 100 18 0.0628446
13 23 100 18 0.103845
14 23 100 18 0.143659
15 23 100 18 0.169862
16 23 100 18 0.154558
17 23 100 18 0.0819444
18 23 100 18 0.210934
1 24 100 18 1.29782e-06
2 24 100 18 3.50109e-05
3 24 100 18 2.30184e-06
4 24 100 18 0.0025271
5 24 100 18 3.10373e-06
6 24 100 18 1.21941e-05
7 24 100 18 1.77616e-05
8 24 100 18 0.0942603
9 24 100 18 0.00130787
10 24 100 18 0.0135107
11 24 100 18 5.30276e-05
12 24 100 18 0.0745503
13 24 100 18 0.0535469
14 24 100 18 0.134637
15 24 100 18 0.145161
16 24 100 18 0.13248
17 24 100 18 0.150521
18 24 100 18 0.197373
1 25 100 18 4.82504e-06
3 25 100 18 2.91855e-05
4 25 100 18 2.58461e-05
5 25 100 18 5.71205e-05
6 25 100 18 0.00735217
7 25 100 18 1.51632e-05
8 25 100 18 0.000222493
9 25 100 18 0.0398832
10 25 100 18 0.127536
11 25 100 18 0.042438
12 25 100 18 0.0521755
13 25 100 18 0.0856017
14 25 100 18 0.0511662
15 25 100 18 0.0428294
16 25 100 18 0.0861198
17 25 100 18 0.170334
18 25 100 18 0.294209
1 26 100 18 4.57298e-07
2 26 100 18 0.0478168
3 26 100 18 1.00189e-06
4 26 100 18 0.000531768
5 26 100 18 3.54133e-06
6 26 100 18 0.000147599
7 26 100 18 0.000119432
8 26 100 18 2.59187e-05
9 26 100 18 0.0010156
10 26 100 18 0.077812
11 26 100 18 0.0921326
12 26 100 18 6.77797e-05
13 26 100 18 0.107896
14 26 100 18 0.0734232
15 26 100 18 0.0705848
16 26 100 18 0.162865
17 26 100 18 0.00862165
18 26 100 18 0.356935
1 27 100 18 0.000203787
2 27 100 18 3.15849e-06
3 27 100 18 3.26602e-05
4 27 100 18 0.0662949
5 27 100 18 0.000175049
6 27 100 18 0.0186441
7 27 100 18 0.000310937
8 27 100 18 4.72787e-05
9 27 100 18 5.14405e-05
10 27 100 18 0.083561
11 27 100 18 0.137498
12 27 100 18 0.0438413
13 27 100 18 0.00117881
14 27 100 18 0.073415
15 27 100 18 0.115229
16 27 100 18 0.0043968
17 27 100 18 0.0907978
18 27 100 18 0.364319
2 28 100 18 0.0764615
3 28 100 18 0.112772
4 28 100 18 0.0781108
5 28 100 18 0.0785282
6 28 100 18 0.000147542
7 28 100 18 0.000875692
8 28 100 18 0.00144789
9 28 100 18 0.0117552
10 28 100 18 4.10486e-05
11 28 100 18 0.00412845
12 28 100 18 3.22076e-05
13 28 100 18 0.0781389
14 28 100 18 0.0782416
15 28 100 18 0.0806586
16 28 100 18 0.0818587
17 28 100 18 0.000311999
18 28 100 18 0.316489
2 29 100 18 0.00153148
3 29 100 18 1.14956e-05
4 29 100 18 0.0253717
5 29 100 18 0.163365
6 29 100 18 0.0344104
7 29 100 18 0.00196644
8 29 100 18 0.0631482
9 29 100 18 0.000211817
10 29 100 18 7.31304e-06
11 29 100 18 1.29063e-05
12 29 100 18 2.77049e-07
13 29 100 18 0.000221708
14 29 100 18 0.000691153
15 29 100 18 0.240761
16 29 100 18 0.00167901
17 29 100 18 0.318631
18 29 100 18 0.147979
3 30 100 18 3.05373e-05
4 30 100 18 0.00123722
5 30 100 18 0.000359306
6 30 100 18 0.000580762
7 30 100 18 0.142852
8 30 100 18 0.00200759
9 30 100 18 0.000768871
10 30 100 18 2.47488e-05
11 30 100 18 0.000403948
12 30 100 18 1.07633e-05
13 30 100 18 7.44216e-06
14 30 100 18 0.000338408
15 30 100 18 0.00360881
16 30 100 18 0.214651
17 30 100 18 0.228815
18 30 100 18 0.404304
2 31 100 18 0.000145515
3 31 100 18 3.86793e-05
4 31 100 18 0.0128639
5 31 100 18 2.17048e-05
6 31 100 18 2.61748e-06
7 31 100 18 1.56061e-05
8 31 100 18 0.000117052
9 31 100 18 0.0416964
10 31 100 18 1.13205e-06
11 31 100 18 4.02531e-06
12 31 100 18 3.17795e-06
13 31 100 18 3.95588e-05
14 31 100 18 0.000812794
15 31 100 18 0.000173842
16 31 100 18 0.485504
17 31 100 18 0.458552
18 31 100 18 8.27967e-06
1 32 100 18 3.60744e-06
3 32 100 18 1.39827e-05
4 32 100 18 7.53175e-07
5 32 100 18 1.44952e-05
6 32 100 18 5.48182e-07
8 32 100 18 0.0077617
9 32 100 18 2.68676e-05
10 32 100 18 0.00362542
11 32 100 18 4.77817e-05
12 32 100 18 0.000708896
13 32 100 18 0.000147577
14 32 100 18 7.47699e-05
15 32 100 18 0.161235
16 32 100 18 0.17074
17 32 100 18 0.0493873
18 32 100 18 0.606212
3 33 100 18 6.74426e-05
4 33 100 18 5.49457e-05
5 33 100 18 7.74252e-06
6 33 100 18 8.839e-05
7 33 100 18 5.28616e-06
8 33 100 18 0.0256979
9 33 100 18 0.000634041
10 33 100 18 0.00182383
11 33 100 18 0.000759332
12 33 100 18 0.000211242
13 33 100 18 0.00959005
14 33 100 18 0.23874
15 33 100 18 0.239748
16 33 100 18 0.00164139
17 33 100 18 0.000511647
18 33 100 18 0.480419
2 34 100 18 3.77447e-05
3 34 100 18 2.64177e-06
4 34 100 18 0.000110079
5 34 100 18 1.31918e-05
6 34 100 18 0.000143999
7 34 100 18 0.000165149
8 34 100 18 0.000234417
9 34 100 18 3.20155e-06
10 34 100 18 0.000217163
11 34 100 18 0.000330963
12 34 100 18 0.000424298
13 34 100 18 0.0015654
14 34 100 18 0.380506
15 34 100 18 0.168031
16 34 100 18 6.16926e-05
17 34 100 18 0.380881
18 34 100 18 0.067272
2 35 100 18 0.000253357
3 35 100 18 2.08825e-06
5 35 100 18 1.00755e-05
6 35 100 18 2.50118e-05
7 35 100 18 2.33399e-05
8 35 100 18 0.0351495
9 35 100 18 0.00018391
10 35 100 18 0.139827
11 35 100 18 2.30748e-06
12 35 100 18 0.154169
13 35 100 18 0.203738
14 35 100 18 0.00391804
15 35 100 18 0.163546
16 35 100 18 0.000870828
17 35 100 18 6.5354e-06
18 35 100 18 0.298275
2 36 100 18 7.41235e-05
5 36 100 18 2.78161e-05
6 36 100 18 1.20614e-06
7 36 100 18 3.85721e-06
9 36 100 18 0.351734
10 36 100 18 0.18923
11 36 100 18 0.192891
12 36 100 18 0.000226054
13 36 100 18 0.201674
14 36 100 18 0.000585729
15 36 100 18 4.05417e-06
16 36 100 18 0.0635466
18 36 100 18 1.59663e-06
1 37 100 18 7.00779e-06
2 37 100 18 1.27905e-05
4 37 100 18 8.1886e-06
6 37 100 18 0.165256
7 37 100 18 0.591753
8 37 100 18 0.00462319
9 37 100 18 0.00122177
12 37 100 18 0.0362706
13 37 100 18 2.62794e-05
14 37 100 18 0.00607648
15 37 100 18 9.88675e-05
16 37 100 18 0.19047
17 37 100 18 0.00416926
18 37 100 18 6.80267e-06
1 38 100 18 2.15351e-05
8 38 100 18 1.05763e-06
9 38 100 18 3.38779e-05
12 38 100 18 2.58651e-05
14 38 100 18 1.29676e-06
15 38 100 18 0.493134
16 38 100 18 0.430576
17 38 100 18 0.0762063
4 39 100 18 1.73546e-05
8 39 100 18 1.96729e-05
10 39 100 18 0.603667
12 39 100 18 1.29956e-06
13 39 100 18 0.000960105
14 39 100 18 0.00317754
15 39 100 18 0.000435499
16 39 100 18 0.000597517
17 39 100 18 0.39107
18 39 100 18 5.40465e-05
4 40 100 18 7.87592e-05
5 40 100 18 1.16547e-05
6 40 100 18 2.29756e-05
7 40 100 18 5.45706e-05
8 40 100 18 0.00253153
9 40 100 18 1.34902e-06
11 40 100 18 0.101519
14 40 100 18 1.91215e-06
15 40 100 18 3.6465e-05
16 40 100 18 0.000111562
17 40 100 18 0.460012
18 40 100 18 0.435618
1 41 100 18 1.77279e-06
4 41 100 18 3.60461e-05
6 41 100 18 0.000387112
8 41 100 18 0.000352529
9 41 100 18 0.000537269
12 41 100 18 0.193206
15 41 100 18 1.31122e-05
16 41 100 18 1.68021e-05
17 41 100 18 2.57893e-05
18 41 100 18 0.805424
4 42 100 18 0.997589
9 42 100 18 0.00241145
15 43 100 18 3.86331e-06
17 43 100 18 2.58734e-06
18 43 100 18 0.999994
18 44 100 18 1
1 0 100 19 0.0282211
2 0 100 19 0.0302157
3 0 100 19 0.0251872
4 0 100 19 0.0492439
5 0 100 19 0.0493863
6 0 100 19 0.00767651
7 0 100 19 0.121632
8 0 100 19 0.082187
9 0 100 19 0.0365685
10 0 100 19 0.0391156
11 0 100 19 0.0224422
12 0 100 19 0.0129877
13 0 100 19 0.0929263
14 0 100 19 0.110131
15 0 100 19 0.00289839
16 0 100 19 0.0939658
17 0 100 19 0.158956
18 0 100 19 0.0361259
19 0 100 19 0.000131755
1 1 100 19 0.49038
2 1 100 19 0.216308
3 1 100 19 0.0865283
4 1 100 19 0.0361395
5 1 100 19 0.0180168
6 1 100 19 0.0346911
7 1 100 19 0.0725691
8 1 100 19 0.0180276
9 1 100 19 3.96448e-05
10 1 100 19 1.91068e-05
11 1 100 19 7.83179e-06
13 1 100 19 9.89651e-05
14 1 100 19 2.25157e-06
15 1 100 19 0.00294356
16 1 100 19 0.0178805
17 1 100 19 0.00634795
19 1 100 19 2.75634e-07
1 2 100 19 0.213394
2 2 100 19 0.253371
3 2 100 19 0.194303
4 2 100 19 0.0643801
5 2 100 19 0.0663036
6 2 100 19 0.0654559
7 2 100 19 0.012206
8 2 100 19 0.107275
9 2 100 19 0.0211777
10 2 100 19 5.1891e-06
12 2 100 19 5.08659e-07
13 2 100 19 5.39982e-06
14 2 100 19 2.02649e-05
15 2 100 19 5.73654e-06
16 2 100 19 0.00207688
17 2 100 19 1.94639e-05
18 2 100 19 5.46804e-07
1 3 100 19 0.138599
2 3 100 19 0.190793
3 3 100 19 0.242666
4 3 100 19 0.121896
5 3 100 19 0.0695013
6 3 100 19 0.0521641
7 3 100 19 9.84254e-05
8 3 100 19 0.000169031
9 3 100 19 0.0865817
10 3 100 19 0.0347683
11 3 100 19 4.72831e-05
12 3 100 19 8.54206e-07
13 3 100 19 0.0172516
14 3 100 19 0.0158661
15 3 100 19 0.0173749
16 3 100 19 1.20746e-05
17 3 100 19 0.0122089
18 3 100 19 7.26286e-07
19 3 100 19 1.94423e-07
1 4 100 19 0.112028
2 4 100 19 0.193884
3 4 100 19 0.11282
4 4 100 19 0.244593
5 4 100 19 0.104379
6 4 100 19 0.0618377
7 4 100 19 0.0485079
8 4 100 19 0.0319997
9 4 100 19 0.0209184
10 4 100 19 0.0350577
11 4 100 19 1.0299e-05
13 4 100 19 2.51409e-05
14 4 100 19 0.0015628
15 4 100 19 0.0161274
16 4 100 19 0.0161613
17 4 100 19 8.09391e-05
18 4 100 19 2.68698e-07
19 4 100 19 5.84085e-06
1 5 100 19 0.0565972
2 5 100 19 0.071551
3 5 100 19 0.146493
4 5 100 19 0.196209
5 5 100 19 0.181025
6 5 100 19 0.172322
7 5 100 19 0.0160445
8 5 100 19 0.0288451
9 5 100 19 0.0294806
10 5 100 19 0.0144001
11 5 100 19 0.0144484
12 5 100 19 4.0002e-06
13 5 100 19 1.08746e-05
14 5 100 19 0.000287078
15 5 100 19 1.18199e-05
16 5 100 19 0.0289082
17 5 100 19 0.0288751
18 5 100 19 0.0144582
19 5 100 19 2.92676e-05
1 6 100 19 0.0200078
2 6 100 19 0.024807
