0 2 0.00826985
0 3 0.446301
0 4 0.00395074
0 5 0.020033
0 6 0.0783687
0 7 0.0928607
0 8 0.129827
0 9 0.101746
0 10 2.47574e-05
0 11 0.0151176
0 12 2.31201e-05
0 13 0.00156401
0 14 2.17351e-05
0 15 0.0599438
0 16 3.39892e-07
0 17 0.00248362
0 18 0.0374368
0 20 0.00174481
0 22 1.26226e-05
0 23 0.000125352
0 27 1.07864e-07
0 30 6.47803e-05
0 41 7.33576e-05
0 47 4.81028e-07
0 80 8.27737e-07
0 120 1.80899e-07
0 127 1.4674e-07
0 139 5.69886e-07
0 171 8.58701e-07
0 218 3.03682e-07
0 255 1.68211e-06
0 351 1.44097e-07
2 2 0.989176
2 6 1.97792e-06
2 7 6.91089e-07
2 8 6.41442e-07
2 9 0.0033136
2 10 1.19455e-07
2 11 0.00489092
2 12 5.01047e-07
2 18 1.12546e-06
2 20 5.78214e-05
2 80 0.00255218
2 84 2.98808e-07
2 120 2.8209e-06
2 605 3.73436e-07
3 2 0.0314389
3 3 0.00157481
3 4 0.079258
3 5 0.0179706
3 6 0.0183609
3 7 0.00184935
3 8 0.00799027
3 9 0.0352614
3 10 0.0955321
3 11 7.63973e-06
3 12 0.116681
3 13 0.189427
3 14 0.194657
3 15 0.00808822
3 16 1.85137e-06
3 17 8.01793e-07
3 18 0.036121
3 19 1.5215e-06
3 20 1.65382e-05
3 22 3.54195e-05
3 23 0.0229367
3 27 0.00699953
3 30 0.0228714
3 41 0.0981153
3 82 0.0148033
3 344 1.89121e-07
4 2 0.000100214
4 3 1.21881e-07
4 5 0.924654
4 6 0.00709157
4 7 5.27929e-07
4 8 2.53561e-06
4 9 8.51261e-05
4 10 0.0581339
4 11 0.00373341
4 15 1.39661e-06
4 32 1.68981e-07
4 63 0.000390995
4 73 4.49944e-07
4 80 1.44342e-07
4 83 0.00310298
4 84 0.00266752
4 104 1.58409e-07
4 218 3.49543e-07
4 259 3.34534e-05
5 2 1.03053e-05
5 3 0.00105243
5 4 0.769928
5 5 0.0052805
5 6 3.36256e-05
5 7 1.48977e-07
5 8 7.59542e-06
5 9 2.73159e-07
5 10 1.12523e-07
5 12 2.6219e-05
5 15 5.7407e-05
5 16 0.00285047
5 18 3.83107e-07
5 19 0.000350728
5 22 0.220342
5 37 5.75024e-05
5 169 1.20807e-06
5 171 1.23181e-07
5 198 1.49201e-07
5 255 6.02501e-07
5 326 5.59421e-07
6 2 4.30415e-06
6 5 0.00576418
6 6 0.919737
6 8 2.07281e-07
6 9 0.000149536
6 10 8.84214e-07
6 11 0.000283693
6 12 2.47677e-05
6 15 0.00190229
6 18 0.0545372
6 19 0.00289315
6 20 5.74496e-05
6 42 3.13168e-07
6 47 0.0143373
6 82 1.66116e-07
6 131 0.000288082
6 139 1.94127e-05
7 2 0.00518415
7 5 0.0222481
7 6 0.000213884
7 7 1.17252e-05
7 8 2.74261e-06
7 9 7.2843e-06
7 10 0.00444257
7 11 0.920945
7 13 1.00617e-07
7 18 0.000498288
7 29 0.0353122
7 41 9.03042e-05
7 80 0.0110431
8 2 0.000451145
8 3 0.00901008
8 4 0.00643789
8 5 0.00254201
8 6 0.000519517
8 7 0.128795
8 8 0.00233003
8 9 0.00163884
8 10 0.0507285
8 11 0.0299328
8 12 0.0642304
8 13 0.0059357
8 15 0.270885
8 16 0.0162079
8 17 0.310972
8 18 1.26597e-05
8 19 0.00533075
8 20 7.44409e-06
8 22 0.0178275
8 23 0.0113187
8 41 0.00597595
8 42 2.91613e-07
8 52 6.81218e-07
8 66 5.48439e-07
8 90 0.0365794
8 127 0.0223288
8 139 8.74589e-07
9 4 4.55741e-07
9 5 6.64287e-05
9 6 4.41027e-06
9 7 0.00069732
9 8 4.88597e-06
9 9 1.13265e-05
9 11 0.000202948
9 12 0.00918451
9 15 0.125284
9 16 0.856127
9 27 0.00283832
9 41 2.92735e-07
9 55 7.57782e-07
9 84 5.99267e-07
9 379 0.00557641
10 2 0.0038531
10 3 1.61089e-07
10 5 0.119064
10 6 4.4797e-05
10 7 0.000134636
10 8 3.12155e-06
10 9 1.15392e-05
10 10 0.850318
10 11 0.000306222
10 12 0.00223315
10 14 2.59804e-06
10 15 8.5898e-05
10 18 0.00031731
10 23 0.00199527
10 27 3.50708e-05
10 29 1.11515e-06
10 41 0.0037258
10 42 1.62842e-06
10 65 0.0156933
10 114 0.00216944
10 255 1.0773e-07
10 326 3.02879e-06
10 431 2.0956e-07
11 5 7.43633e-06
11 6 0.226665
11 7 0.000274181
11 8 4.81527e-06
11 9 0.00230703
11 10 0.000113291
11 11 0.00434167
11 12 3.5324e-05
11 14 6.11274e-05
11 18 0.761292
11 25 1.0264e-05
11 27 4.19264e-07
11 30 1.59818e-07
11 41 0.00426667
11 47 0.000608949
11 82 1.08531e-05
11 131 5.35905e-07
11 139 1.17058e-07
12 2 2.20297e-05
12 5 2.037e-05
12 6 0.021022
12 7 0.922658
12 8 0.000157344
12 12 2.10929e-07
12 15 1.02456e-05
12 17 7.52566e-07
12 18 0.000871957
12 26 0.00251474
12 41 2.96226e-06
12 60 7.45237e-06
12 80 1.63578e-07
12 107 0.0527112
13 2 1.06302e-06
13 5 0.00266619
13 6 0.0306115
13 7 0.000308426
13 9 0.000174864
13 12 0.735016
13 15 0.190406
13 16 0.000122802
13 17 0.0176343
13 30 4.20477e-06
13 32 1.1512e-07
13 63 1.08631e-05
13 73 1.69899e-06
13 80 3.1776e-07
13 82 0.0205722
13 83 1.5797e-07
13 218 0.00246813
13 272 1.3426e-07
13 606 2.13376e-07
14 2 5.5668e-06
14 6 1.71513e-06
14 11 2.25873e-07
14 14 0.999984
14 18 4.911e-06
14 40 1.78383e-07
14 66 2.45778e-06
14 120 2.04106e-07
14 605 1.13791e-07
15 2 5.19678e-06
15 3 0.881514
15 4 0.0765254
15 6 8.03445e-06
15 7 0.00374901
15 8 2.9524e-05
15 9 3.78617e-05
15 12 7.26424e-07
15 15 3.85313e-05
15 18 0.000120282
15 22 0.000164145
15 30 0.0227986
15 60 2.4651e-06
15 66 4.38958e-07
15 107 0.00733568
15 121 0.00388469
15 718 0.00378506
16 2 0.000263442
16 3 0.000254908
16 4 5.5734e-07
16 5 0.120683
16 6 0.000384833
16 7 0.206999
16 8 0.303911
16 9 2.22202e-05
16 10 0.0445244
16 11 0.0258298
16 13 0.000173487
16 15 0.000436953
16 16 0.0114515
16 17 0.0898963
16 30 0.120882
16 63 0.0374056
16 100 0.0368799
16 353 1.51906e-07
17 2 1.29814e-07
17 3 0.00368532
17 13 0.992056
17 47 2.63603e-07
17 66 0.00245941
17 116 0.00179844
17 120 2.32841e-07
18 3 9.90789e-06
18 4 0.9457
18 6 8.59075e-06
18 7 4.39364e-06
18 8 3.05642e-07
18 10 1.63318e-05
18 12 1.4554e-06
18 18 1.45993e-06
18 22 0.0438172
18 30 7.22869e-06
18 46 0.00361975
18 60 0.000121515
18 97 2.05871e-07
18 111 0.00668444
18 642 7.40773e-06
19 3 0.00334817
19 6 0.000191014
19 7 4.2367e-07
19 8 1.2536e-05
19 9 1.32751e-06
19 12 2.35186e-07
19 13 9.95178e-06
19 20 0.996423
19 27 1.34479e-05
19 87 1.22409e-07
19 120 1.41031e-07
20 2 0.00230794
20 5 1.54996e-05
20 6 3.59871e-05
20 8 8.78301e-07
20 9 1.85794e-06
20 10 6.6692e-06
20 12 6.90429e-07
20 13 0.000118123
20 20 0.000432344
20 38 0.598127
20 52 9.77846e-06
20 59 0.398297
20 106 1.14798e-05
20 127 0.000628424
20 198 4.73986e-06
20 899 1.38489e-06
21 3 0.982657
21 4 3.44868e-05
21 5 5.9132e-07
21 6 1.76173e-05
21 9 1.40275e-05
21 15 7.62278e-06
21 31 1.07959e-07
21 32 0.0106729
21 97 0.00648632
21 120 1.74935e-07
21 717 0.000109106
22 7 2.43474e-06
22 8 0.000257445
22 15 2.00828e-07
22 28 0.58166
22 43 0.418078
22 71 6.45374e-07
22 497 5.23389e-07
23 2 2.15726e-06
23 3 5.21718e-07
23 6 8.70214e-06
23 9 3.58139e-06
23 21 0.999985
24 2 1.01895e-07
24 3 2.17918e-05
24 4 0.309504
24 5 0.000244305
24 8 2.61774e-05
24 12 1.42127e-06
24 36 0.337471
24 49 0.00836945
24 57 3.58042e-07
24 64 0.125477
24 75 1.74106e-07
24 86 0.218883
25 3 0.491675
25 12 0.232437
25 13 1.43438e-07
25 17 0.25669
25 20 3.10829e-06
25 66 5.46835e-06
25 116 0.0133933
25 162 0.00579513
25 982 6.63252e-07
26 2 0.00701794
26 3 0.828394
26 4 0.138534
26 5 4.72375e-05
26 6 0.00062771
26 7 1.38404e-06
26 8 1.63736e-06
26 9 9.2891e-07
26 10 0.0182152
26 13 2.14134e-07
26 16 1.10937e-07
26 41 5.38773e-06
26 55 0.00715336
26 358 3.02357e-07
26 752 2.19165e-07
27 2 5.28014e-06
27 6 0.000184242
27 8 2.63643e-06
27 9 0.942235
27 15 8.41974e-05
27 16 1.48876e-07
27 18 0.0164427
27 77 0.0289875
27 80 0.00801171
27 143 0.00404664
27 404 1.62836e-07
28 2 0.0407406
28 4 1.07224e-06
28 5 7.71728e-06
28 6 0.0342637
28 7 8.31591e-05
28 9 8.92161e-06
28 10 0.00589333
28 11 0.00117062
28 14 1.84364e-07
28 16 0.00440598
28 33 0.687093
28 53 0.0131463
28 60 0.0117747
28 89 0.0111085
28 132 0.0991795
28 143 0.0118011
28 181 1.16759e-06
28 194 0.0529633
28 226 0.0263571
29 2 0.00050037
29 3 7.15305e-05
29 4 0.0534536
29 5 0.130905
29 6 1.87513e-06
29 7 0.00648413
29 8 0.136355
29 9 0.0633276
29 10 7.54499e-05
29 11 0.118731
29 13 0.0148026
29 14 0.0237381
29 15 0.000986685
29 17 2.73448e-07
29 18 7.30879e-05
29 20 7.92179e-07
29 36 1.03013e-05
29 60 2.60465e-06
29 74 0.42434
29 80 0.00124189
29 86 3.7468e-07
29 96 1.25062e-07
29 151 2.25336e-06
29 171 2.67635e-07
29 176 0.00828596
29 177 0.0166079
29 208 2.98183e-07
29 446 1.66863e-07
30 2 1.54432e-07
30 4 0.00320869
30 5 6.69378e-05
30 6 3.48303e-06
30 7 0.000119806
30 9 0.0125469
30 14 3.28284e-06
30 18 0.00047038
30 24 0.000233313
30 26 0.979397
30 80 4.65569e-07
30 143 1.54713e-07
30 171 5.08748e-05
30 882 0.00389896
31 8 1.00712e-06
31 9 1.51976e-05
31 17 3.78321e-06
31 18 0.00542162
31 19 0.991615
31 20 4.62176e-07
31 32 5.96823e-05
31 41 7.645e-05
31 47 1.04549e-05
31 97 0.000395621
31 104 1.30257e-05
31 727 0.00238808
32 2 0.211519
32 5 0.0185157
32 9 2.19421e-05
32 11 0.00709559
32 18 0.00298993
32 29 0.759786
32 65 7.14623e-05
33 2 0.000431496
33 3 0.000217719
33 4 1.57221e-07
33 5 0.0219348
33 6 0.000232826
33 7 0.785123
33 8 0.147118
33 9 0.0135514
33 10 1.91623e-07
33 11 0.0208601
33 15 0.00524336
33 17 1.7397e-07
33 18 9.34257e-05
33 20 3.32901e-07
33 30 1.25143e-07
33 41 0.00519326
34 2 3.11024e-06
34 3 0.694356
34 4 0.211268
34 5 1.36681e-07
34 7 0.00155793
34 8 1.44515e-05
34 9 5.65446e-06
34 11 2.16345e-06
34 15 0.0060096
34 17 3.70037e-06
34 18 5.16004e-07
34 22 0.0275114
34 30 0.0533497
34 37 1.13771e-07
34 47 2.16666e-06
34 710 0.00591453
35 2 5.09499e-07
35 5 4.34599e-06
35 6 1.89253e-06
35 7 0.00584654
35 8 0.0123932
35 9 0.00897039
35 11 1.66459e-07
35 18 0.000156963
35 20 0.000327511
35 24 0.955213
35 26 0.00860014
35 52 0.00416562
35 60 0.000112239
35 138 2.11299e-07
35 143 0.00420648
35 194 1.06421e-06
36 2 0.0233943
36 3 0.00136537
36 5 0.147672
36 6 1.25824e-05
36 7 0.0151674
36 8 0.317048
36 9 1.52286e-06
36 10 0.0365733
36 11 0.0107009
36 12 7.82591e-07
36 15 0.0124018
36 18 0.00205419
36 20 0.0104611
36 24 0.00998245
36 29 0.0111245
36 32 0.0520832
36 63 8.63672e-07
36 134 0.254755
36 187 0.0952005
37 4 0.102124
37 5 1.42671e-06
37 6 3.68278e-07
37 7 0.00278592
37 8 0.000508646
37 9 6.05212e-07
37 11 2.9037e-06
37 18 1.13146e-05
37 22 1.24204e-07
37 36 3.33614e-05
37 44 0.894133
37 64 1.70812e-06
37 92 0.000382929
37 180 2.26991e-07
37 208 4.34814e-06
37 514 2.73722e-07
37 786 8.62056e-06
38 2 0.00424258
38 3 0.981967
38 4 3.58889e-07
38 9 1.25557e-06
38 12 0.0137299
38 17 5.87718e-05
39 3 2.40818e-07
39 6 0.0168408
39 7 8.82188e-05
39 8 4.33365e-07
39 9 0.00302767
39 10 3.96956e-06
39 13 0.00403985
39 30 0.00600627
39 31 0.825858
39 55 1.89955e-06
39 60 0.144133
39 979 1.52861e-07
40 2 0.0328295
40 4 6.12577e-06
40 17 7.16107e-07
40 20 0.000673195
40 22 2.43375e-05
40 37 0.000494035
40 41 0.0252745
40 52 1.43975e-05
40 55 5.2609e-06
40 56 0.535325
40 69 1.94396e-05
40 90 0.259035
40 106 7.25489e-07
40 118 0.146236
40 198 1.79212e-06
40 235 4.80799e-05
40 319 1.77987e-07
40 455 1.06371e-05
41 2 0.00470887
41 3 0.000471507
41 4 0.000580886
41 5 0.000183726
41 6 0.00133517
41 7 4.73597e-05
41 8 0.00187426
41 9 6.56015e-05
41 10 0.00182002
41 12 2.44747e-06
41 15 1.91429e-07
41 17 0.495941
41 22 4.03516e-07
41 23 0.367163
41 27 0.0001242
41 30 2.61286e-06
41 45 0.0134382
41 49 7.92591e-05
41 55 0.0425284
41 59 3.14213e-07
41 60 9.93536e-06
41 82 5.71187e-06
41 103 1.94096e-06
41 120 8.51849e-07
41 175 0.0695994
41 198 2.71145e-07
41 223 6.55655e-07
41 847 1.36009e-05
42 2 0.00963337
42 5 2.15919e-07
42 6 0.00275705
42 7 0.00745736
42 9 0.0299183
42 16 2.02269e-07
42 18 6.31626e-07
42 19 0.0177841
42 22 0.0316574
42 48 0.657871
42 80 1.8893e-06
42 93 0.238112
42 97 4.49524e-06
42 138 0.0048019
42 217 6.73339e-07
42 255 1.34231e-07
43 4 1.53278e-07
43 8 5.44928e-07
43 14 2.67017e-07
43 37 0.989262
43 73 2.56691e-05
43 84 4.97704e-07
43 88 2.03863e-06
43 110 0.00537301
43 120 3.18095e-06
43 865 0.00533285
44 6 0.000158609
44 27 3.06441e-07
44 34 0.965022
44 40 0.0001296
44 50 0.0259775
44 60 1.34429e-06
44 84 0.00849515
44 97 1.52722e-06
44 138 0.000213798
45 5 2.92015e-07
45 6 0.00021767
45 7 4.02757e-06
45 9 0.00103402
45 13 9.99425e-06
45 14 0.000355965
45 16 3.93791e-05
45 42 1.98126e-07
45 63 0.618923
45 83 0.379407
45 118 2.11511e-07
45 455 8.37704e-06
46 2 3.43061e-07
46 3 0.00213499
46 8 0.0159333
46 13 0.0285098
46 15 0.0176039
46 16 1.1201e-05
46 17 7.76905e-05
46 18 5.46657e-07
46 22 3.43128e-07
46 23 0.657374
46 37 0.00130463
46 55 0.088116
46 56 0.173933
46 69 4.60172e-07
46 74 0.0150002
47 6 0.0456433
47 7 1.12955e-07
47 9 0.0300198
47 18 1.77452e-05
47 20 1.0523e-07
47 25 0.718049
47 29 8.13872e-07
47 31 0.0239261
47 41 0.0252085
47 55 2.35554e-07
47 61 0.00572277
47 65 0.00589715
47 121 9.09909e-05
47 222 0.0858933
47 284 0.0549554
47 835 0.00457493
48 2 1.45716e-07
48 18 0.0172061
48 19 0.0421573
48 35 0.938262
48 41 2.1921e-07
48 86 0.000349215
48 96 4.12527e-07
48 106 0.00153755
48 831 0.000487069
49 2 0.00609209
49 13 5.40491e-05
49 14 0.00567227
49 33 1.95071e-07
49 40 0.000323974
49 42 0.976241
49 73 0.00580376
49 893 0.00581294
50 7 9.32953e-07
50 11 6.72878e-07
50 27 2.79951e-07
50 40 0.979577
50 51 4.53624e-06
50 62 0.012416
50 63 2.2355e-07
50 77 1.95445e-06
50 84 0.00146417
50 87 3.21183e-07
50 89 0.00647475
50 127 5.89931e-05
51 3 0.0771594
51 12 0.0327475
51 16 7.78267e-06
51 61 0.890085
51 84 3.41455e-07
52 2 7.08194e-05
52 7 4.02787e-07
52 37 0.00623115
52 40 0.0174002
52 51 0.957846
52 88 1.04867e-06
52 110 0.0123092
52 1013 1.30172e-06
52 1014 0.00614034
53 4 1.54314e-05
53 7 2.62745e-05
53 15 3.85551e-07
53 18 2.35055e-07
53 21 0.0205577
53 22 0.0374757
53 23 0.00158686
53 32 0.0546707
53 71 0.885666
53 104 2.708e-07
54 2 1.39856e-07
54 3 9.47072e-05
54 5 0.102515
54 6 0.0459489
54 7 1.03814e-06
54 8 0.00055354
54 9 0.00570095
54 10 0.0488953
54 11 0.083199
54 12 0.013475
54 13 5.98092e-07
54 15 1.80039e-05
54 17 0.088278
54 18 0.0214957
54 27 3.07637e-07
54 29 0.012109
54 41 0.0647259
54 60 3.08327e-07
54 65 0.0260921
54 100 1.59889e-07
54 110 3.07029e-07
54 140 0.270627
54 189 0.0685037
54 218 0.147766
55 6 6.83079e-07
55 22 0.00153927
55 46 0.998346
55 63 1.47773e-07
55 69 1.60798e-07
55 127 4.96624e-06
55 225 0.000108483
56 2 1.27912e-05
56 6 9.58271e-07
56 7 3.52561e-07
56 10 2.84804e-07
56 50 0.993642
56 58 1.22058e-07
56 84 9.43037e-05
56 871 0.00624945
57 7 4.66553e-06
57 9 0.0302882
57 12 0.0293459
57 15 0.241232
57 16 0.048519
57 52 0.00693623
57 63 0.00677737
57 68 0.624114
57 69 1.74088e-07
57 77 0.012775
57 84 2.99356e-06
57 180 4.09408e-06
58 2 0.0539966
58 4 1.92566e-07
58 5 0.0710685
58 6 0.0220303
58 7 0.00120841
58 8 1.81807e-06
58 9 3.83451e-05
58 10 0.0530331
58 11 0.0120805
58 12 2.39044e-06
58 13 0.00106322
58 14 4.58362e-06
58 15 3.60668e-05
58 16 0.00983242
58 18 1.63438e-07
58 44 2.41724e-07
58 65 0.729599
58 73 9.3915e-07
58 80 0.0362077
58 217 1.21432e-07
58 247 0.0097953
59 2 0.0123187
59 6 3.80552e-07
59 37 0.000695961
59 38 0.00747604
59 53 0.0225677
59 58 0.783672
59 60 1.97845e-07
59 66 0.00755617
59 69 7.1062e-06
59 80 5.17089e-06
59 118 0.000358528
59 183 0.127772
59 238 0.0300654
59 776 5.74454e-07
59 790 0.00747605
59 812 1.79777e-07
59 978 2.80352e-05
60 6 8.15935e-05
60 54 0.999911
60 65 9.24429e-07
60 84 5.77328e-06
60 118 2.51825e-07
60 124 1.88889e-07
61 3 3.8725e-07
61 5 0.959438
61 6 0.00279654
61 8 4.56009e-07
61 10 0.0206568
61 32 0.0171081
61 44 1.25134e-07
62 2 0.0135161
62 3 2.95423e-05
62 4 2.19666e-06
62 6 0.0344354
62 7 0.452037
62 8 0.000137794
62 9 1.4051e-06
62 12 0.00184581
62 13 1.3114e-05
62 41 0.495433
62 44 2.06428e-07
62 120 1.315e-06
62 143 0.000114032
62 835 0.00243235
63 4 0.59347
63 6 2.31149e-05
63 8 1.47798e-07
63 9 0.00306433
63 12 0.0114871
63 13 1.94021e-07
63 22 0.391955
63 77 2.09295e-07
64 4 4.90503e-07
64 5 0.000356874
64 8 2.1383e-06
64 25 0.0125679
64 44 1.07732e-05
64 72 0.772563
64 82 4.99097e-06
64 92 0.0314705
64 176 0.140083
64 214 0.0429318
64 244 1.53336e-07
64 514 8.82509e-06
65 3 0.675592
65 5 1.03175e-07
65 6 1.62495e-05
65 12 1.27261e-06
65 15 0.117067
65 32 0.207322
65 171 1.17006e-06
66 3 0.00140722
66 8 0.10726
66 12 0.00082555
66 13 6.43068e-06
66 21 0.37233
66 28 0.25656
66 43 0.133164
66 52 0.128447
67 3 0.00021418
67 4 8.39464e-07
67 5 1.42498e-06
67 7 0.000119322
67 9 0.00721439
67 11 5.61723e-07
67 49 0.000244592
67 57 0.318662
67 64 0.0130491
67 75 0.535617
67 97 2.18666e-07
67 101 0.000570339
67 113 1.64191e-07
67 138 0.00847111
67 201 0.114843
67 410 0.000987719
67 966 3.94278e-06
68 7 2.70571e-06
68 9 2.44721e-06
68 10 0.00113124
68 11 4.33842e-05
68 18 0.000522936
68 53 0.998294
68 58 2.38391e-06
68 60 1.56106e-07
68 581 1.22794e-07
68 732 7.60582e-07
69 6 2.7568e-07
69 13 0.0412593
69 14 0.00911289
69 20 0.00801861
69 42 0.00816069
69 62 0.909095
69 84 1.31692e-05
69 165 0.00810011
69 625 0.00811978
69 839 0.00811978
70 3 0.0137694
70 4 0.0411341
70 7 0.000133128
70 18 1.39969e-07
70 20 0.0422877
70 23 0.0895082
70 24 0.0385504
70 30 0.22464
70 34 0.01277
70 73 0.0511547
70 82 0.156102
70 101 0.329907
70 143 4.3344e-06
70 280 3.99295e-05
71 2 5.55029e-05
71 3 4.38557e-06
71 5 1.60039e-06
71 6 0.00591556
71 8 0.00901987
71 9 5.51526e-07
71 10 5.45736e-05
71 11 2.57351e-07
71 15 2.85853e-07
71 17 0.0211271
71 20 7.3104e-07
71 27 0.203486
71 39 0.622764
71 41 2.2235e-07
71 42 1.17079e-07
71 47 4.48485e-07
71 96 0.0411451
71 104 0.000253711
71 144 0.0961699
72 6 5.32761e-07
72 7 0.000157994
72 8 0.000210506
72 9 0.000327466
72 11 9.40133e-07
72 18 0.000611933
72 22 6.04915e-06
72 25 0.122986
72 39 1.04089e-05
72 60 0.0352972
72 67 0.737726
72 72 1.4731e-06
72 89 2.60305e-07
72 121 0.0595643
72 208 0.0430973
72 255 2.43809e-06
73 2 0.000793216
73 3 8.48279e-06
73 5 1.72547e-07
73 6 0.0254599
73 7 8.63583e-06
73 9 4.09262e-06
73 10 0.0442663
73 11 2.81702e-06
73 15 0.301676
73 17 0.0137606
73 18 4.06927e-06
73 23 0.000173257
73 47 0.00243487
73 53 0.0145126
73 58 0.0427865
73 60 9.39168e-05
73 74 3.96963e-07
73 142 0.00120263
73 151 0.129036
73 181 0.169554
73 186 0.240098
73 256 1.64831e-07
73 825 0.0141237
74 2 0.0406808
74 6 1.21237e-07
74 7 2.29104e-06
74 8 1.09039e-05
74 9 1.85558e-05
74 10 6.01989e-06
74 17 3.42735e-07
74 23 2.69032e-07
74 37 0.0105812
74 45 7.0999e-06
74 59 7.32285e-07
74 103 0.37535
74 127 0.135121
74 130 0.322834
74 175 0.000121517
74 223 0.0624193
74 307 0.0528458
75 3 1.9351e-06
75 6 1.03537e-06
75 8 0.0353173
75 13 8.5908e-05
75 32 2.91467e-07
75 36 0.0167706
75 100 0.0297104
75 108 0.730504
75 123 0.0321704
75 124 0.0304135
75 196 1.83626e-07
75 203 0.0163847
75 303 0.0608268
75 306 0.0304133
75 521 1.71785e-07
75 789 0.00219274
75 942 0.0152067
76 3 7.80845e-05
76 12 0.30503
76 15 0.040444
76 17 0.640044
76 18 0.0144033
76 259 7.5386e-07
77 6 2.76921e-07
77 84 0.000628117
77 88 0.636769
77 110 0.353759
77 462 0.00884401
78 2 0.014509
78 3 0.0177702
78 6 7.36957e-06
78 9 0.00229339
78 14 9.67296e-07
78 15 1.35682e-05
78 17 0.0131809
78 41 1.80271e-06
78 59 0.0131166
78 123 0.417112
78 124 0.417174
78 127 0.0917872
78 989 0.0130339
79 4 3.42969e-05
79 6 7.87997e-06
79 8 6.80388e-05
79 36 0.0023657
79 57 0.706096
79 66 0.000100212
79 75 0.291244
79 124 1.1471e-07
79 141 8.32563e-05
79 935 3.25319e-07
80 3 1.56941e-06
80 6 0.0130409
80 8 1.90018e-06
80 9 5.58493e-07
80 10 0.00133918
80 12 2.14869e-06
80 19 1.73639e-07
80 25 0.024547
80 58 5.03184e-06
80 60 3.03665e-07
80 67 0.23447
80 95 0.713742
80 97 1.63453e-07
80 121 0.0128481
80 752 3.73452e-07
81 3 8.00128e-05
81 4 3.83348e-07
81 5 0.162896
81 6 3.45206e-07
81 7 0.000151314
81 8 0.278665
81 9 2.96297e-05
81 10 1.08702e-05
81 22 0.0295235
81 27 0.0294575
81 30 0.49916
81 32 2.54265e-05
82 7 9.94088e-05
82 11 1.67127e-07
82 25 4.86513e-06
82 45 0.155782
82 73 0.657579
82 81 0.183284
82 333 1.16756e-07
82 642 0.00324001
82 752 1.03691e-05
83 6 4.44555e-07
83 8 0.526974
83 13 5.8571e-06
83 27 0.393111
83 37 2.94809e-06
83 39 0.0170518
83 41 7.5385e-07
83 52 0.0104538
83 94 0.0523979
83 139 1.14607e-06
83 154 1.99514e-07
83 831 1.37248e-07
84 4 0.0001851
84 6 3.60193e-07
84 7 0.000283968
84 9 9.44175e-07
84 49 0.999529
84 177 7.6939e-07
84 331 3.16816e-07
85 3 6.12831e-07
85 4 0.0342091
85 8 0.134278
85 18 1.97446e-07
85 20 0.301373
85 24 2.70744e-06
85 27 6.163e-07
85 30 0.00248823
85 32 1.97755e-07
85 39 0.171427
85 52 0.21977
85 81 1.56624e-07
85 98 0.0156648
85 272 0.109561
85 642 0.0112241
86 6 1.73932e-05
86 8 2.91574e-06
86 11 0.000397924
86 13 4.43199e-06
86 17 0.000139899
86 20 8.94016e-05
86 27 0.0777859
86 39 0.714512
86 47 0.125507
86 60 0.000129161
86 120 2.15263e-07
86 144 0.0750699
86 195 0.000788506
86 378 3.10178e-06
86 535 1.12812e-06
86 727 0.0055508
87 3 4.77158e-06
87 7 4.10461e-06
87 8 8.24897e-06
87 23 0.330644
87 33 0.04173
87 37 5.23823e-05
87 41 1.31911e-06
87 45 0.0300169
87 69 6.56648e-07
87 85 0.425884
87 118 1.1892e-05
87 126 0.139308
87 132 2.03644e-05
87 143 0.00297192
87 170 0.0220049
87 238 1.84868e-06
87 431 0.00733411
88 3 0.383002
88 13 0.0595699
88 14 2.39385e-06
88 15 8.33588e-07
88 17 0.0182877
88 30 2.39031e-06
88 47 0.00992218
88 91 0.509732
88 96 0.0194711
88 98 8.78279e-06
88 259 2.28211e-07
89 5 4.50307e-06
89 6 0.000962922
89 9 0.000230415
89 10 2.10818e-06
89 12 0.0904239
89 13 0.124163
89 14 0.107324
89 19 1.65708e-05
89 47 0.536858
89 84 0.0734831
89 97 0.0249284
89 257 0.0416026
90 6 1.81965e-06
90 15 3.45874e-06
90 29 0.0128003
90 70 0.882843
90 89 0.0626122
90 112 0.0129965
90 121 0.00314404
90 143 1.04793e-06
90 166 1.62735e-07
90 703 0.0127986
90 887 0.0127987
91 2 5.65219e-07
91 3 0.000246157
91 4 0.095899
91 5 0.017669
91 8 1.33887e-06
91 10 2.46676e-07
91 14 0.00039459
91 15 0.279487
91 16 3.44348e-07
91 17 0.370923
91 30 0.153642
91 82 0.0319009
91 100 0.0341207
91 162 0.0157147
92 6 0.000125785
92 10 0.0111707
92 11 1.09191e-06
92 12 1.40435e-05
92 13 0.0113683
92 25 0.921605
92 56 3.89121e-07
92 159 0.0441005
92 266 0.011614
93 2 1.98079e-06
93 5 5.41528e-05
93 7 0.000439958
93 9 0.0163202
93 10 3.4419e-06
93 18 2.88394e-05
93 41 1.69658e-07
93 60 0.217084
93 89 0.392629
93 121 0.253601
93 279 0.119798
93 299 3.99361e-05
94 2 1.08057e-06
94 3 0.000717119
94 4 5.88086e-07
94 5 1.78717e-07
94 16 0.0131878
94 40 0.0170801
94 51 0.0149008
94 69 0.832804
94 78 0.0477404
94 120 0.0147188
94 225 0.0588483
94 776 4.59254e-07
95 2 0.00113932
95 4 0.000938338
95 5 2.82005e-07
95 6 0.0628299
95 7 1.43129e-06
95 8 3.86612e-06
95 15 0.0136363
95 22 0.0638585
95 24 0.0148312
95 55 3.34892e-06
95 73 0.0560567
95 76 0.771252
95 80 1.09738e-05
95 82 0.0154379
96 4 4.3218e-07
96 7 6.46644e-06
96 9 3.5037e-05
96 24 0.0714165
96 49 0.011612
96 79 0.905021
96 779 0.0119082
97 2 0.0320669
97 5 7.98727e-07
97 6 0.000882233
97 8 0.0954696
97 12 2.10673e-06
97 13 2.90447e-07
97 14 4.87554e-05
97 36 0.000371825
97 44 0.037736
97 64 8.12545e-07
97 72 0.309655
97 92 0.416231
97 105 0.0312192
97 138 2.00412e-07
97 244 0.0622557
97 410 0.0138394
97 514 2.3494e-05
97 845 0.000196811
98 5 0.103691
98 7 4.89546e-06
98 12 0.000741919
98 15 0.516163
98 16 0.135053
98 18 5.38367e-05
98 37 0.0209377
98 46 0.0252359
98 60 0.0280409
98 63 0.0848758
98 78 0.0428882
98 116 8.0911e-06
98 308 0.0423059
99 2 1.77048e-05
99 3 2.00506e-06
99 7 2.50609e-07
99 8 7.42118e-07
99 9 2.08855e-06
99 11 0.000181455
99 12 0.0662782
99 15 0.37453
99 17 0.4183
99 68 0.0283953
99 116 0.013718
99 119 0.0141425
99 151 0.0139953
99 162 0.0422607
99 255 0.0281759
100 2 1.12331e-06
100 3 0.000928974
100 7 1.78182e-07
100 15 0.0593967
100 32 0.902539
100 101 0.0371337
100 104 6.767e-07
101 2 0.000276218
101 3 0.000146491
101 4 7.07282e-05
101 6 0.106923
101 8 0.00180105
101 10 0.0119441
101 15 6.32499e-06
101 17 0.154305
101 18 0.0112923
101 19 0.00862081
101 23 0.126527
101 30 1.59007e-06
101 60 0.191904
101 82 3.41213e-05
101 93 0.0995568
101 370 0.191061
101 868 0.0955297
102 6 2.33081e-07
102 7 3.05664e-06
102 8 0.135862
102 9 0.681342
102 15 4.52907e-05
102 16 9.72595e-07
102 18 0.0160658
102 53 9.86425e-07
102 77 0.141618
102 80 0.000239227
102 84 0.0247841
102 107 7.0053e-07
102 333 3.63717e-05
103 5 6.43496e-06
103 9 3.04548e-06
103 23 1.86186e-07
103 55 0.118157
103 73 0.139789
103 81 0.725007
103 94 2.14096e-07
103 112 0.0157984
103 181 0.00123926
104 6 0.0244128
104 8 0.0168639
104 9 0.000895256
104 10 0.00017991
104 11 0.359084
104 13 0.000972301
104 27 0.0162889
104 36 0.0276861
104 52 0.0160503
104 55 0.0262876
104 61 0.0159002
104 76 0.286192
104 100 0.113044
104 236 0.0158966
104 264 0.0802461
105 19 0.483663
105 27 0.0169237
105 47 0.123011
105 97 0.304078
105 139 9.60035e-05
105 158 0.0722286
106 2 0.000333763
106 3 1.71576e-06
106 4 0.170972
106 5 1.58143e-05
106 6 1.55478e-06
106 7 0.0821924
106 9 0.131422
106 10 0.00264747
106 15 9.84967e-07
106 17 9.68332e-05
106 18 7.80325e-06
106 20 7.83196e-05
106 22 0.00956303
106 45 0.000742348
106 52 0.00015579
106 59 0.00110477
106 130 1.6538e-05
106 171 0.502812
106 223 0.0340986
106 253 0.0314303
106 255 0.00087901
106 493 0.0314259
107 4 0.000538322
107 6 1.51324e-05
107 7 0.0339096
107 33 0.0177718
107 45 0.865612
107 65 4.87316e-05
107 73 5.44084e-07
107 155 0.0489059
107 165 0.0168937
107 196 0.016304
108 2 0.0249264
108 4 0.0101912
108 6 0.0001256
108 7 0.000197162
108 8 1.15722e-06
108 9 0.0217404
108 11 0.156789
108 13 1.76805e-07
108 16 0.00521097
108 20 0.0162537
108 37 2.68958e-07
108 50 0.0163049
108 62 0.0167541
108 69 2.53771e-07
108 84 0.471267
108 133 0.113845
108 246 0.0975831
108 396 0.0488089
108 708 1.21521e-06
109 3 9.65565e-05
109 6 4.14134e-05
109 7 0.000339911
109 8 0.000105854
109 10 0.018885
109 12 2.05553e-07
109 16 0.0163513
109 27 1.16674e-06
109 36 0.902132
109 66 0.0156813
109 208 0.0463653
109 296 1.96744e-07
109 1013 2.02e-07
110 5 0.0147825
110 7 0.0956033
110 8 0.37576
110 9 1.09718e-05
110 11 0.00369329
110 15 0.0697452
110 20 0.0240651
110 24 0.000133656
110 27 0.034676
110 30 1.26499e-06
110 60 0.0120362
110 89 1.79285e-07
110 94 0.214336
110 96 0.0595754
110 111 0.0119715
110 114 0.047857
110 169 0.0357523
111 4 0.0300534
111 5 0.000284845
111 9 6.27769e-06
111 11 1.54733e-06
111 27 0.0156468
111 49 0.000836311
111 57 4.20167e-06
111 65 1.62523e-06
111 66 0.844742
111 113 0.000168966
111 141 0.0311988
111 166 0.0626218
111 181 0.0144305
111 236 2.8955e-06
112 6 4.09349e-07
112 7 0.272944
112 8 0.122297
112 9 0.00295745
112 12 0.000153437
112 15 0.00604964
112 24 0.0110584
112 27 0.000581446
112 32 0.132046
112 52 0.132663
112 64 0.00919847
112 86 1.34566e-07
112 101 0.0545095
112 152 0.0552206
112 160 0.143568
112 180 0.0100817
112 210 0.00249391
112 382 0.0331325
112 456 2.41714e-07
112 500 4.67319e-07
112 870 0.0110441
113 3 9.80403e-07
113 6 3.08684e-06
113 10 0.229012
113 12 0.0294399
113 13 0.0495968
113 14 0.0361388
113 19 3.4692e-07
113 23 0.115024
113 30 0.093101
113 55 0.0954094
113 60 0.0302552
113 65 0.0607751
113 82 0.0861312
113 120 6.38817e-07
113 272 0.0291883
113 389 0.116754
113 1024 0.0291696
114 6 2.14544e-07
114 8 0.133699
114 17 2.96011e-07
114 18 6.50269e-07
114 27 0.0768511
114 32 0.110671
114 36 0.0767029
114 41 0.0215306
114 52 0.0922349
114 64 0.243131
114 86 0.0329944
114 101 0.00922482
114 122 0.00922466
114 152 0.138372
114 160 0.00922539
114 180 0.0184496
114 251 0.0276872
114 410 2.85052e-07
115 2 0.0002839
115 4 0.00195061
115 6 2.51305e-05
115 7 0.00262743
115 8 0.194656
115 10 6.87796e-07
115 11 0.00436789
115 18 9.3431e-07
115 19 0.00163773
115 27 0.192943
115 32 8.96865e-06
115 39 0.0647142
115 47 7.36098e-06
115 71 1.20573e-06
115 82 6.64825e-07
115 96 0.128956
115 104 0.363749
115 121 0.0225761
115 378 0.0214932
116 3 4.22837e-07
116 5 3.07538e-07
116 16 0.0353277
116 17 0.019273
116 34 9.7232e-07
116 60 3.20191e-07
116 69 0.0410605
116 78 0.824784
116 119 2.81136e-05
116 263 0.0795249
117 6 9.76058e-05
117 8 0.531327
117 20 2.8189e-06
117 26 4.1096e-07
117 32 0.000336753
117 34 1.61694e-07
117 49 7.70589e-06
117 52 0.432188
117 180 0.0180194
117 274 0.00900997
117 897 0.00900996
118 6 0.000375072
118 9 0.000110232
118 11 0.0045839
118 18 0.0576901
118 19 0.0278377
118 47 0.445057
118 131 0.436874
118 512 0.0274723
119 3 4.78307e-06
119 4 7.37665e-07
119 6 2.16555e-06
119 7 9.63825e-06
119 9 1.53805e-06
119 20 2.2541e-05
119 115 0.999959
120 5 6.04016e-07
120 6 0.000128426
120 7 6.7448e-05
120 9 0.722216
120 12 0.0642532
120 26 0.0442114
120 29 0.0220917
120 47 0.0631562
120 63 0.0145715
120 74 7.02235e-06
120 110 0.0220157
120 120 2.01619e-06
120 143 0.00229313
120 225 0.000376572
120 326 0.0220661
120 333 0.0225429
121 3 8.52506e-07
121 7 7.24519e-07
121 8 0.00039927
121 32 0.000172319
121 38 0.0468266
121 80 3.55946e-07
121 104 3.78208e-05
121 106 0.775639
121 198 0.154685
121 333 7.49379e-05
121 567 0.022163
122 3 0.000324433
122 5 8.41609e-07
122 6 9.0887e-05
122 7 2.42099e-06
122 15 1.05457e-06
122 29 3.40516e-07
122 32 0.0630045
122 87 0.031928
122 98 0.179725
122 167 0.722912
122 287 0.00201059
123 8 0.000184808
123 12 0.000860207
123 31 9.59952e-07
123 86 0.0259789
123 94 4.50142e-06
123 105 0.648523
123 178 0.281196
123 251 0.021625
123 554 0.0216244
123 972 2.20088e-06
124 2 0.214404
124 5 0.000245674
124 9 0.0165403
124 11 4.56797e-05
124 15 0.00166952
124 20 0.0180094
124 65 0.0535789
124 77 2.73626e-07
124 80 0.695505
124 225 1.39127e-06
125 5 1.47289e-06
125 6 2.59206e-05
125 20 4.3141e-07
125 23 2.70789e-06
125 31 0.33538
125 46 7.43488e-07
125 60 0.322229
125 165 0.342359
126 3 5.90036e-07
126 8 2.11381e-06
126 13 0.00166065
126 14 9.18065e-07
126 20 0.151219
126 71 0.714775
126 98 0.132341
126 143 6.18069e-07
127 3 0.260222
127 13 2.74222e-07
127 87 0.739778
128 3 3.96499e-05
128 12 0.0214918
128 13 0.898076
128 15 0.000231637
128 17 7.6114e-05
128 18 2.11687e-06
128 52 0.042948
128 82 0.0370553
128 96 2.0087e-05
128 98 5.90143e-05
129 4 2.19699e-05
129 5 4.53277e-07
129 7 3.78172e-06
129 8 3.68133e-06
129 36 0.0175627
129 75 0.0351899
129 113 0.120506
129 129 0.580505
129 141 0.246206
130 4 3.32568e-05
130 6 0.19286
130 7 0.0304062
130 11 0.1398
130 18 1.20183e-05
130 25 0.0284356
130 80 0.0289599
130 96 2.63443e-05
130 149 0.105323
130 150 0.474143
131 3 0.000132432
131 10 6.556e-07
131 15 0.069778
131 16 0.78169
131 17 0.0739346
131 32 1.88524e-07
131 44 2.42965e-06
131 83 0.074462
132 3 1.70597e-05
132 8 1.19907e-06
132 32 0.00634888
132 41 0.164388
132 44 0.000106506
132 71 0.0545931
132 92 0.210899
132 125 0.292041
132 319 5.73105e-07
132 353 0.163851
132 407 0.107754
133 5 7.4118e-07
133 10 0.0116274
133 23 0.323839
133 55 0.137409
133 85 0.0925792
133 126 0.228793
133 142 0.163033
133 586 0.0198386
133 794 0.0228794
134 7 6.50966e-05
134 8 0.000287631
134 9 0.000210541
134 12 1.89909e-06
134 14 0.0215136
134 19 0.416837
134 41 3.84147e-06
134 97 0.436138
134 158 0.124928
134 432 1.47775e-05
135 7 3.02091e-07
135 8 0.533226
135 9 3.62799e-06
135 27 0.25731
135 39 8.45011e-07
135 88 0.0160569
135 89 0.0160817
135 96 0.144582
135 97 3.27392e-05
135 104 0.0160656
135 432 0.0160541
135 786 0.000586269
136 3 0.000208045
136 15 0.016799
136 20 0.0270851
136 46 6.0242e-07
136 117 0.955907
137 15 0.000609378
137 41 0.0134089
137 53 0.0244499
137 55 0.0491759
137 58 0.043551
137 66 6.09224e-06
137 69 7.06597e-06
137 74 0.0638369
137 99 0.620908
137 151 0.0920098
137 208 1.46515e-06
137 238 0.0230077
137 255 0.0230084
137 346 0.0230124
137 446 0.0230069
138 8 0.176705
138 20 0.170537
138 24 0.0212605
138 27 0.146865
138 36 9.34005e-06
138 39 0.0426146
138 52 0.191218
138 64 0.0850432
138 92 0.0996808
138 176 9.40973e-06
138 208 0.0447972
138 378 0.0212604
139 2 2.63579e-06
139 3 8.48408e-06
139 6 0.0456528
139 7 6.46196e-05
139 8 1.35587e-06
139 9 0.000252304
139 11 6.81575e-05
139 17 0.0335418
139 23 0.000643815
139 40 1.73403e-06
139 53 0.000156375
139 55 0.8169
139 74 1.21899e-06
139 77 0.0331582
139 81 0.069546
140 3 2.72207e-06
140 12 0.0472805
140 32 0.000932864
140 44 0.0378365
140 87 0.0272104
140 92 3.8201e-06
140 105 0.0271767
140 125 0.778588
140 214 0.0809668
140 319 1.52159e-06
141 2 0.0260872
141 6 0.0325791
141 7 2.51909e-07
141 9 3.31969e-05
141 33 0.336523
141 60 0.0817183
141 84 0.0613111
141 89 0.238447
141 132 0.223302
142 4 5.95084e-05
142 5 0.104645
142 6 0.271024
142 8 0.0482488
142 10 8.48697e-05
142 25 0.0540361
142 44 0.052337
142 60 0.0582906
142 130 0.0522408
142 154 0.0525602
142 179 0.000233369
142 262 0.306066
142 768 0.000173474
143 5 0.0927817
143 6 6.40508e-06
143 8 1.6939e-06
143 18 2.81811e-05
143 19 0.000257451
143 22 0.211265
143 41 0.0537405
143 46 0.0529404
143 84 0.0536282
143 198 1.04068e-05
143 241 0.0529398
143 290 0.0529434
143 302 0.217697
143 395 0.158819
143 652 0.0529396
144 7 2.12669e-05
144 18 0.0289389
144 19 4.42942e-05
144 35 0.347807
144 106 0.0365593
144 139 0.568322
144 815 0.0183067
145 3 7.45962e-07
145 5 3.21229e-05
145 6 5.15617e-05
145 7 0.115786
145 8 0.0147595
145 15 3.02147e-06
145 18 5.91119e-06
145 22 3.05266e-06
145 27 0.164446
145 30 3.58324e-07
145 39 0.0873989
145 82 0.00625237
145 96 0.0291122
145 104 1.05455e-05
145 154 0.320256
145 158 0.0311303
145 169 0.0594062
145 210 0.112987
145 356 0.058357
145 497 9.54761e-07
146 3 0.356248
146 6 4.30603e-06
146 7 0.0124821
146 9 6.84502e-06
146 10 3.56389e-05
146 15 0.080252
146 32 0.550969
146 101 2.50915e-06
147 12 0.00181098
147 15 0.0889972
147 16 0.734491
147 17 0.107608
147 47 3.2634e-07
147 68 0.0223569
147 151 0.0223784
147 823 0.0223574
148 3 8.41897e-06
148 6 3.78841e-06
148 7 1.80222e-06
148 8 0.00123956
148 11 0.000478297
148 13 0.00125146
148 14 0.0524606
148 25 3.74851e-07
148 31 3.226e-07
148 36 0.00275053
148 41 4.33426e-05
148 67 0.913163
148 102 0.0285984
149 6 6.65355e-07
149 8 0.00130362
149 12 0.0238028
149 18 2.96656e-06
149 27 0.713747
149 39 0.127453
149 41 0.00305475
149 64 0.00260919
149 96 0.128026
150 6 0.00102518
150 44 3.78001e-07
150 69 0.0259271
150 70 0.0522147
150 89 2.68678e-07
150 112 0.57068
150 239 0.259276
150 365 0.0615019
150 586 0.00344594
150 775 0.0259279
151 2 0.0438607
151 8 3.90627e-06
151 15 0.00169778
151 40 0.0211508
151 78 0.553348
151 91 0.201134
151 119 0.111737
151 233 0.0447181
151 776 7.59711e-07
151 807 0.0223483
152 4 0.0271024
152 5 0.000457625
152 6 0.000398367
152 8 0.000465895
152 12 0.10711
152 13 0.204329
152 14 0.201411
152 17 0.0621442
152 18 1.18878e-05
152 32 2.40405e-06
152 44 0.0268179
152 76 0.0410763
152 96 0.0410667
152 105 7.26381e-05
152 199 0.246458
152 208 2.17063e-07
152 277 0.0410763
153 3 0.0733216
153 6 3.75022e-07
153 12 0.486517
153 15 8.91531e-06
153 17 0.35364
153 18 7.25505e-06
153 20 2.96374e-06
153 162 0.0865025
154 3 7.9835e-07
154 4 0.189655
154 8 3.99973e-05
154 9 6.75684e-07
154 10 2.34225e-06
154 14 0.0001478
154 44 2.69945e-07
154 49 0.611191
154 66 1.39376e-05
154 177 4.16892e-06
154 179 0.0247699
154 267 0.0248851
154 325 0.149289
155 5 0.000401479
155 10 0.0646074
155 14 2.5647e-06
155 15 0.0433085
155 55 0.199018
155 58 0.00592668
155 69 0.0286258
155 70 0.0286144
155 94 0.0285915
155 145 0.572289
155 255 0.0286142
156 5 7.2633e-06
156 6 0.00771405
156 7 3.09213e-06
156 11 0.000473863
156 13 3.79756e-07
156 20 0.130264
156 62 1.54828e-06
156 98 0.861535
156 329 7.12387e-07
157 5 0.000168687
157 6 0.000117724
157 7 9.65447e-05
157 8 0.215051
157 9 0.0388277
157 25 0.0195665
157 27 0.341336
157 34 0.0538513
157 39 0.0186587
157 41 0.0138041
157 46 8.40263e-05
157 64 0.0493357
157 73 0.0179494
157 82 0.0348439
157 94 1.19029e-05
157 96 0.143597
157 97 0.0167601
157 104 0.0179895
157 633 0.0179496
158 6 0.000195579
158 7 9.96485e-07
158 20 5.23252e-07
158 31 0.231461
158 47 4.60514e-05
158 60 0.734329
158 98 6.47873e-06
158 768 0.0339605
159 153 1
160 2 3.76661e-06
160 4 0.198158
160 5 0.000332683
160 7 0.00170069
160 14 0.0615782
160 31 0.0613417
160 56 4.25298e-06
160 116 0.0613064
160 118 0.06409
160 301 0.122552
160 332 0.428931
160 446 1.36678e-06
161 4 8.79141e-06
161 5 9.68236e-05
161 8 0.284675
161 20 0.0240452
161 24 0.393958
161 34 2.48658e-07
161 46 0.0981817
161 47 0.0249562
161 49 0.0245934
161 79 6.75474e-06
161 169 0.0510339
161 404 1.05223e-05
161 412 0.0984338
162 3 7.66274e-07
162 10 3.73368e-05
162 11 2.95208e-05
162 21 2.5639e-06
162 49 0.0740447
162 66 0.814783
162 166 0.0740647
162 322 0.0370372
163 6 0.102248
163 7 8.1486e-07
163 9 0.86901
163 12 8.38726e-05
163 15 2.11834e-06
163 52 8.86393e-07
163 331 2.92944e-05
163 777 0.0286255
164 6 0.000370573
164 7 2.28098e-05
164 8 0.548744
164 9 0.000636438
164 10 0.00561193
164 11 0.0378098
164 12 0.0588414
164 60 0.0286077
164 77 0.319355
165 5 0.00485753
165 6 0.00568169
165 47 0.955671
165 143 7.28137e-05
165 151 0.0337169
166 8 3.47872e-06
166 9 3.29139e-06
166 12 0.023101
166 18 1.5452e-06
166 19 3.87577e-06
166 27 0.14802
166 32 3.6273e-06
166 104 0.344359
166 117 0.0493593
166 131 0.0203381
166 154 4.5389e-05
166 195 0.049356
166 210 0.143289
166 213 0.222117
167 3 2.96694e-05
167 5 1.74146e-05
167 7 3.26183e-06
167 8 1.08197e-05
167 12 0.0598255
167 17 0.186808
167 30 0.189985
167 53 6.00669e-06
167 111 0.0626155
167 146 0.000372158
167 191 0.500326
168 8 9.3154e-05
168 11 1.42765e-06
168 36 0.0820769
168 49 0.531749
168 57 0.0408281
168 114 7.96279e-07
168 177 0.304466
168 318 0.0407838
169 22 0.0352918
169 40 0.0428282
169 174 0.92188
170 4 9.04225e-07
170 8 0.429925
170 11 0.0201671
170 13 1.60115e-06
170 18 0.000212403
170 27 0.241486
170 31 0.000941892
170 41 0.0612656
170 94 0.103925
170 96 0.0603598
170 114 0.0201292
170 169 0.0213175
170 197 0.0201411
170 487 0.0201271
171 10 6.52368e-07
171 12 1.49047e-06
171 45 0.966374
171 65 0.0336243
172 5 0.353075
172 30 0.152946
172 99 0.0386309
172 132 1.0719e-06
172 170 0.111284
172 259 0.344063
173 6 0.0434459
173 17 0.059305
173 18 0.00063736
173 25 0.134884
173 55 0.0836906
173 56 0.0300598
173 65 0.0467863
173 74 0.57113
173 306 0.0300597
173 331 1.45294e-06
174 2 0.0919379
174 6 3.46065e-06
174 7 6.75357e-05
174 9 9.93006e-06
174 10 0.109783
174 11 0.10889
174 23 0.14139
174 61 0.049498
174 74 0.0032767
174 77 0.0494162
174 107 0.0989789
174 126 0.049847
174 142 0.0989676
174 271 0.197934
175 3 0.208231
175 6 5.77235e-06
175 7 1.26471e-06
175 9 7.4331e-05
175 20 5.82874e-07
175 28 0.000192764
175 128 0.576242
175 190 0.203381
175 210 0.0118715
176 10 3.64637e-05
176 157 0.999964
177 11 0.323227
177 15 2.66638e-06
177 51 5.42266e-05
177 66 0.0349451
177 82 0.0292612
177 189 0.436987
177 346 0.117013
177 733 0.0292546
177 787 0.0292545
178 3 0.000290273
178 5 3.82309e-05
178 6 0.000227204
178 15 0.00146083
178 17 0.130295
178 25 2.79156e-06
178 32 0.651894
178 35 0.0874292
178 98 0.0874451
178 287 0.0409176
179 8 0.000183396
179 10 3.10447e-05
179 11 0.0418013
179 41 0.043534
179 51 4.61013e-05
179 66 0.65071
179 118 6.45036e-05
179 294 0.219692
179 359 0.043938
180 2 3.28152e-06
180 5 0.000118729
180 6 0.000813715
180 8 1.00001e-06
180 25 0.0375645
180 27 0.154635
180 31 0.000612354
180 32 0.179538
180 53 0.0375318
180 58 0.0375445
180 64 0.148717
180 65 0.0750527
180 92 0.102637
180 133 0.0750529
180 152 0.0750715
180 187 0.0375279
180 237 4.92409e-05
180 510 0.0375291
181 6 8.96054e-05
181 19 0.748936
181 40 0.0312717
181 41 4.61757e-06
181 97 0.188995
181 158 1.98341e-06
181 333 0.0307017
182 135 1
183 3 0.275408
183 9 4.56632e-07
183 116 0.0258159
183 119 0.672516
183 162 0.000568323
183 649 0.0256916
184 87 0.0277804
184 136 0.944519
184 455 0.0277006
185 7 1.70139e-06
185 8 3.7355e-06
185 10 0.000852644
185 19 2.10384e-06
185 40 0.0482168
185 65 0.0609411
185 173 0.642635
185 247 0.247347
186 9 7.02336e-06
186 11 1.5723e-06
186 57 0.84673
186 75 0.153261
187 2 3.18282e-06
187 3 0.0476221
187 5 9.52245e-06
187 12 6.63606e-07
187 13 6.84135e-05
187 15 0.00111629
187 18 0.00376257
187 23 0.407952
187 32 0.0518152
187 117 0.0514816
187 206 0.411828
187 497 0.0243406
188 5 0.000137594
188 6 0.153004
188 8 0.0353739
188 10 1.60572e-06
188 19 0.14705
188 25 0.123443
188 31 0.205012
188 47 0.00212794
188 56 0.181379
188 60 0.122245
188 670 0.0302255
189 4 8.36404e-06
189 6 5.1144e-05
189 18 5.26111e-05
189 36 0.033226
189 45 0.0345673
189 73 1.3269e-06
189 147 0.932093
190 3 9.76211e-07
190 7 2.18835e-05
190 8 0.454685
190 16 0.152686
190 17 0.000910964
190 57 0.0816721
190 72 0.0817371
190 96 0.0652795
190 181 0.0814847
190 935 0.0815218
191 3 2.41387e-05
191 6 9.04636e-05
191 7 0.040416
191 9 0.128996
191 10 0.000874343
191 13 0.00347309
191 15 0.0927805
191 61 0.0494307
191 143 0.189846
191 179 0.0988132
191 220 0.247048
191 235 0.049395
191 256 0.0988126
192 156 1
193 2 0.000764152
193 3 0.644211
193 8 5.15105e-06
193 16 0.168145
193 30 0.0718075
193 100 0.115067
194 2 1.82369e-06
194 8 0.297214
194 27 0.142617
194 30 0.112086
194 36 0.0204432
194 40 0.000223661
194 41 0.0216595
194 44 0.0205535
194 47 0.0271477
194 71 0.0203706
194 82 0.10183
194 87 0.0203685
194 96 0.11852
194 154 0.0203682
194 158 0.0204262
194 169 8.30935e-07
194 214 0.0357919
194 235 0.0203772
195 3 9.84324e-05
195 4 0.16847
195 5 0.000273018
195 8 0.000166244
195 17 0.0353654
195 22 0.00020238
195 23 0.241462
195 30 0.205544
195 55 0.0513514
195 82 0.152606
195 106 0.0417636
195 250 0.0513488
195 414 0.0513493
196 164 1
197 6 2.61711e-05
197 7 9.3698e-05
197 9 0.00315176
197 64 0.00751602
197 106 0.0411858
197 168 0.41174
197 198 0.0823339
197 215 0.370952
197 244 0.0411866
197 319 0.0418139
198 2 1.19598e-06
198 9 5.37638e-07
198 12 0.0409374
198 14 1.53132e-06
198 19 0.000316975
198 47 0.631404
198 154 0.122676
198 158 0.0409981
198 257 0.122747
198 267 0.040917
199 3 3.6469e-05
199 46 0.831036
199 84 6.96235e-06
199 358 0.16892
200 2 0.0304334
200 6 1.28214e-05
200 104 0.0303086
200 113 0.424323
200 129 0.121235
200 141 0.393687
201 13 4.14238e-06
201 14 0.0322813
201 23 6.78004e-07
201 32 1.01756e-05
201 122 0.935407
201 147 0.0322668
201 818 2.96216e-05
202 5 4.59527e-05
202 8 1.4537e-05
202 18 0.000191728
202 30 0.129345
202 44 0.215399
202 46 0.193885
202 49 0.064954
202 72 0.0703556
202 95 0.0653156
202 102 0.0649557
202 144 0.0650046
202 214 0.130533
203 11 1.0877e-05
203 29 0.002514
203 96 0.0396346
203 114 0.871961
203 472 0.0858792
204 4 1.84626e-05
204 5 0.00489876
204 8 0.000273019
204 20 0.00148865
204 34 7.43912e-06
204 62 0.0451364
204 68 0.0451421
204 79 0.361096
204 81 0.0455371
204 89 0.0451494
204 180 2.57993e-06
204 251 0.0451385
204 272 5.95504e-06
204 280 0.180413
204 352 0.225693
205 6 4.36483e-07
205 12 0.0405236
205 13 8.46902e-05
205 15 2.94178e-05
205 18 0.000801691
205 37 2.40347e-06
205 41 0.11603
205 47 0.0401472
205 116 0.802381
206 23 0.500139
206 161 0.499861
207 5 0.0159196
207 8 2.65548e-06
207 13 0.0951283
207 15 4.50047e-05
207 31 0.0489351
207 64 1.09359e-05
207 86 0.0494204
207 96 0.00890559
207 109 0.732699
207 345 0.0489337
208 3 0.167077
208 7 0.00536227
208 11 0.00157809
208 17 0.151029
208 65 4.61988e-07
208 143 0.0370908
208 196 0.303056
208 267 0.111603
208 309 0.186007
208 674 0.0371965
209 2 3.22952e-06
209 5 4.07969e-05
209 9 0.189447
209 10 0.155593
209 15 0.0820739
209 18 0.116149
209 19 0.115157
209 24 0.0677561
209 33 0.0388396
209 41 0.00410886
209 55 0.0771044
209 70 0.0385741
209 159 0.115152
210 3 0.00045035
210 6 2.79165e-05
210 7 0.397687
210 9 0.000108538
210 13 0.218361
210 18 0.000181143
210 20 0.142278
210 45 0.240905
210 169 1.26298e-06
211 2 2.18657e-06
211 3 1.25669e-06
211 23 0.448056
211 56 0.0552857
211 80 7.76417e-07
211 126 0.11037
211 254 0.275966
211 465 0.0551849
211 752 0.0551319
212 3 0.080213
212 4 0.11445
212 7 0.00113626
212 15 0.047193
212 17 8.31657e-05
212 36 0.519009
212 64 7.67223e-06
212 74 0.0794699
212 86 0.00010355
212 443 0.079167
212 571 0.0791674
213 4 0.00534485
213 5 0.0406522
213 7 1.33247e-06
213 18 3.23923e-06
213 26 7.65341e-06
213 34 0.0585608
213 65 2.43606e-05
213 74 1.33858e-05
213 81 0.0586224
213 84 0.0160593
213 138 0.762088
213 149 0.0586225
214 3 0.250133
214 15 4.17076e-05
214 30 0.05243
214 32 0.110457
214 47 1.55113e-06
214 66 0.00118652
214 82 0.0524059
214 104 0.0523986
214 197 0.00936072
214 212 0.104797
214 252 0.157195
214 282 0.157195
214 456 0.0523978
215 5 7.35701e-06
215 7 1.1569e-06
215 8 0.211561
215 9 0.140543
215 11 0.0680491
215 18 1.29504e-05
215 19 0.0238112
215 23 2.36913e-06
215 27 6.59682e-06
215 35 0.0241227
215 41 0.180442
215 47 0.094992
215 121 0.0653614
215 227 0.167203
215 376 0.0238847
216 5 1.55848e-05
216 13 1.01222e-06
216 23 0.23635
216 55 0.263926
216 61 5.09728e-07
216 142 0.187633
216 159 0.0311699
216 170 0.218539
216 276 0.0311829
216 581 0.0311822
217 98 0.0370169
217 163 0.962983
218 3 0.000992469
218 5 1.58683e-06
218 17 0.483157
218 53 4.41911e-06
218 69 0.481332
218 151 0.0345034
218 670 3.31709e-06
218 978 5.30989e-06
219 2 0.000418193
219 6 2.45726e-05
219 7 0.162767
219 9 0.35914
219 22 0.0605821
219 48 0.05996
219 54 0.059953
219 93 0.0599502
219 123 0.0599534
219 143 0.177252
220 27 0.458647
220 39 0.143737
220 97 0.0358785
220 104 0.0718679
220 195 0.25154
220 210 0.00239515
220 671 0.0359343
221 5 2.09168e-06
221 7 1.52572e-05
221 9 4.4658e-05
221 14 0.000275303
221 27 0.348353
221 83 5.838e-07
221 104 0.173973
221 149 0.128945
221 304 0.290326
221 680 0.058065
222 6 1.86402e-05
222 7 9.0329e-06
222 9 0.047926
222 22 0.0734377
222 23 0.0765742
222 38 0.0118797
222 42 0.0363871
222 56 0.145841
222 90 0.498601
222 106 4.78257e-05
222 118 0.0728505
222 803 0.036427
223 3 0.522357
223 18 1.90546e-06
223 21 0.0447832
223 24 0.0475235
223 29 0.0445009
223 30 0.11881
223 41 0.0440876
223 100 0.0889639
223 136 0.0444857
223 290 0.0444857
224 6 0.0469872
224 9 2.79534e-06
224 14 1.5549e-06
224 31 1.51964e-06
224 55 0.221506
224 120 5.39795e-06
224 228 0.581732
224 420 0.149763
225 21 6.32382e-05
225 22 0.03944
225 23 1.60341e-06
225 60 1.53701e-05
225 104 0.178272
225 172 0.695296
225 424 0.086912
226 13 0.000385078
226 16 1.4229e-06
226 95 0.0477174
226 102 0.725254
226 150 0.0453283
226 199 0.181314
227 4 0.00669278
227 11 0.0527789
227 57 0.0472441
227 63 0.09375
227 143 0.0470466
227 203 0.564392
227 410 0.141059
227 869 0.0470362
228 3 0.000475985
228 7 1.30232e-06
228 12 0.0495447
228 182 0.105615
228 242 0.263872
228 275 0.316619
228 382 0.0527742
228 442 0.105548
228 466 0.0527744
228 695 0.0527745
229 5 0.13285
229 8 7.51411e-06
229 18 0.0777103
229 23 0.015437
229 66 0.277519
229 121 0.0687029
229 260 0.288925
229 610 0.0694234
229 655 2.41074e-06
229 808 0.0694234
230 5 0.000487826
230 6 0.0997851
230 12 5.21771e-05
230 22 9.74965e-07
230 25 0.0965778
230 50 0.0951847
230 80 0.204484
230 83 0.0967653
230 84 0.12313
230 89 8.84345e-06
230 104 0.0926319
230 149 0.0957068
230 365 0.0951847
231 3 1.42292e-06
231 7 1.37309e-06
231 17 0.0433089
231 30 0.00942285
231 41 1.08294e-06
231 165 0.126907
231 270 0.50133
231 329 0.182302
231 350 0.0911507
231 635 0.0455754
232 5 0.297917
232 6 4.46045e-06
232 10 0.0488959
232 20 0.179091
232 30 0.0724853
232 39 0.223175
232 97 0.0445275
232 355 0.0892688
232 702 0.0446344
233 2 0.000194899
233 4 0.000352504
233 8 0.0434876
233 30 0.0694988
233 66 2.0667e-06
233 82 4.22551e-07
233 105 0.732294
233 178 0.154169
234 3 0.000878045
234 7 2.94427e-05
234 39 0.0797948
234 45 0.164471
234 100 0.117721
234 155 0.637106
235 3 0.0354106
235 9 5.54723e-05
235 24 0.0876433
235 45 0.459352
235 60 1.81124e-06
235 102 0.041754
235 265 0.0835081
235 329 0.083505
235 349 0.167016
235 944 0.041754
236 2 0.00963303
236 14 0.00385145
236 18 0.00090426
236 30 0.000492203
236 47 0.069697
236 55 0.209194
236 56 0.28798
236 74 0.348517
236 387 0.0697312
237 2 0.0351442
237 3 2.25377e-06
237 11 0.000810114
237 25 0.166053
237 32 0.041322
237 55 0.0868269
237 56 0.0859751
237 60 0.00128948
237 159 0.249676
237 249 0.291289
237 597 0.0416126
238 13 0.48467
238 15 0.0451223
238 16 0.0566222
238 42 0.26478
238 61 0.0378699
238 116 0.110935
239 3 3.69618e-06
239 6 4.90277e-06
239 7 0.0103441
239 8 0.421647
239 9 0.0889324
239 12 0.00262442
239 17 0.0615386
239 18 8.47135e-07
239 41 0.184862
239 52 0.0445713
239 143 0.0308904
239 274 0.123423
239 783 0.0308557
239 876 0.000302147
240 12 0.0902369
240 16 0.041353
240 68 0.86841
241 2 1.06825e-05
241 3 0.000108908
241 15 0.546543
241 17 0.270581
241 69 0.0456666
241 185 0.0457756
241 460 0.0456545
241 531 0.0456598
242 6 0.308837
242 9 0.281267
242 10 1.45091e-06
242 48 0.0456464
242 55 0.182089
242 60 0.0455121
242 73 0.0455978
242 80 5.55695e-07
242 477 0.0910485
243 4 0.0391169
243 7 0.120358
243 9 0.290414
243 99 0.29131
243 143 0.0365279
243 162 0.0375252
243 255 0.148356
243 263 0.0363923
244 6 3.24148e-06
244 7 0.00296397
244 9 0.00265425
244 27 8.27691e-07
244 66 0.0385092
244 113 0.769131
244 141 0.153826
244 223 3.88441e-07
244 789 0.0329109
245 2 3.80459e-05
245 7 0.0069872
245 14 0.0145086
245 16 7.08533e-06
245 80 0.0979064
245 143 1.44593e-05
245 171 0.0978376
245 253 0.782701
246 4 0.000223406
246 13 0.0801442
246 14 1.21019e-05
246 20 0.462687
246 25 0.00525447
246 31 0.0758398
246 39 9.31919e-07
246 53 0.0399512
246 65 0.0418382
246 71 0.126243
246 74 0.0418181
246 91 0.0420859
246 132 0.0418152
246 354 0.0420856
247 7 3.2903e-06
247 134 2.17197e-06
247 187 0.539388
247 237 0.0802033
247 320 0.380403
248 2 0.000389347
248 9 0.313256
248 15 5.75203e-07
248 18 0.126356
248 31 0.0828758
248 38 0.0389707
248 47 0.14805
248 56 0.0414495
248 61 0.0414378
248 90 0.041465
248 143 0.0828727
248 162 0.0414387
248 240 0.0414378
249 2 0.081392
249 4 4.91037e-06
249 5 0.00621658
249 9 1.56996e-06
249 16 0.0803908
249 30 0.0803813
249 51 0.0401914
249 188 0.711421
250 6 8.2346e-06
250 8 2.06274e-06
250 9 0.000233448
250 11 0.0848553
250 33 0.537571
250 53 0.0383837
250 66 0.0383927
250 74 0.0383926
250 84 0.0702165
250 100 0.0383987
250 144 0.0383678
250 178 0.0383927
250 231 0.0383926
250 264 0.0383927
251 4 0.108132
251 6 7.04875e-05
251 7 0.000218033
251 66 3.74739e-06
251 89 0.0583235
251 132 0.013517
251 166 0.765086
251 378 0.0546496
252 4 0.0715955
252 56 0.427807
252 141 0.000987118
252 146 0.0716145
252 211 0.0717109
252 260 0.14148
252 559 0.0716145
252 655 0.071609
252 966 0.071581
253 3 2.95005e-06
253 9 0.065158
253 16 0.159734
253 22 0.25172
253 271 0.418707
253 317 0.104677
254 3 9.77265e-05
254 16 2.59516e-05
254 32 3.25976e-05
254 103 0.0768681
254 168 0.0770888
254 185 0.614719
254 210 0.000544147
254 439 0.153736
254 460 1.88002e-05
254 531 0.0768687
255 3 0.00201063
255 13 0.251168
255 14 0.185117
255 16 0.0619085
255 23 0.0318095
255 42 0.0335219
255 221 0.248265
255 240 0.155166
255 334 0.0310332
256 5 0.00127221
256 6 0.138899
256 7 0.198534
256 25 0.123424
256 77 0.121578
256 104 0.061151
256 107 0.0610272
256 150 0.0610272
256 361 0.0610271
256 489 0.0178496
256 497 0.0321574
256 518 0.0610272
256 566 0.0610269
257 11 0.000413149
257 23 1.48727e-05
257 36 0.047364
257 41 1.59001e-06
257 64 0.60667
257 72 0.0482884
257 75 0.110903
257 323 0.093188
257 440 0.0465782
257 945 0.0465781
258 5 0.168083
258 6 0.00854956
258 8 0.000157738
258 10 0.19866
258 20 0.0353845
258 22 0.00520145
258 39 0.23053
258 55 0.000256843
258 60 0.068713
258 80 0.0212182
258 89 0.263245
259 4 0.0428493
259 6 4.96615e-06
259 8 3.753e-06
259 46 0.0380498
259 106 0.0835741
259 110 0.0415573
259 168 0.501449
259 215 0.208937
259 646 0.0417874
259 969 0.0417874
260 4 0.064328
260 23 0.173604
260 29 0.0594174
260 46 0.0586677
260 50 0.0582347
260 91 0.0585809
260 280 0.175722
260 293 0.175722
260 341 0.117148
260 480 0.0585741
261 4 0.000392884
261 5 9.09678e-07
261 8 0.00171049
261 10 9.74702e-06
261 24 8.30975e-05
261 36 0.000752849
261 67 1.6421e-06
261 205 0.725134
261 283 0.271914
262 2 0.106171
262 4 0.000269982
262 5 4.97179e-06
262 8 5.01703e-06
262 13 0.0589661
262 14 0.0526599
262 25 0.0463151
262 39 0.266141
262 45 0.0526104
262 52 0.00185972
262 53 0.0026684
262 56 0.0526134
262 58 0.0526085
262 71 7.73415e-07
262 74 0.000322137
262 85 0.0527254
262 87 0.201418
262 263 0.0526399
263 3 6.59901e-06
263 7 0.090042
263 9 0.0015238
263 13 0.0520265
263 29 0.061918
263 112 0.0617779
263 193 0.556001
263 271 2.78742e-06
263 286 0.123882
263 582 0.0528198
264 3 0.00225911
264 7 2.93384e-06
264 8 0.00182805
264 9 0.000767184
264 11 0.00277979
264 16 0.0974973
264 22 0.184398
264 52 0.0795648
264 71 0.0449352
264 111 0.087612
264 192 0.407745
264 258 0.045305
264 795 0.045305
265 50 0.0555571
265 52 4.70467e-05
265 102 0.944396
266 9 6.78983e-05
266 11 0.0125507
266 67 0.0692697
266 95 0.0707575
266 177 0.423539
266 357 0.282544
266 921 0.0706359
266 990 0.0706359
267 3 1.03744e-06
267 7 5.62594e-06
267 8 7.18117e-07
267 60 0.0535183
267 72 0.410361
267 88 0.0523777
267 92 0.0680083
267 162 0.0523684
267 185 0.153848
267 244 0.209511
268 3 6.9407e-07
268 10 3.15434e-06
268 54 6.09451e-07
268 69 0.999996
269 3 0.0549267
269 6 0.000116396
269 17 0.106208
269 27 0.0999879
269 64 0.0532907
269 71 0.318368
269 80 0.0487053
269 124 6.22252e-07
269 185 2.84283e-05
269 250 0.159184
269 390 0.106123
269 725 0.0530614
270 7 0.133655
270 8 0.272149
270 9 1.32418e-05
270 10 1.9652e-06
270 11 2.68201e-07
270 15 0.0542451
270 30 0.0857674
270 53 8.8116e-07
270 94 0.302596
270 96 0.000272495
270 114 0.043228
270 148 0.0864561
270 169 6.44242e-07
270 491 0.021614
271 5 5.74935e-07
271 15 0.333446
271 51 0.0329274
271 70 0.528356
271 94 0.0334408
271 171 0.00109042
271 437 0.00468484
271 732 0.0330257
271 852 0.0330286
272 23 0.0556097
272 37 1.64095e-05
272 69 0.0546398
272 120 0.834126
272 481 0.0556081
273 32 0.038683
273 52 0.0772249
273 100 6.86469e-07
273 102 0.0383132
273 112 0.574055
273 252 0.0382955
273 267 0.0382955
273 282 0.0382955
273 315 0.0419357
273 347 0.0766058
273 508 0.0382955
274 6 0.000738592
274 8 0.000134346
274 10 0.549303
274 22 0.12719
274 39 0.0689359
274 65 0.0635133
274 82 3.22394e-05
274 166 0.0631259
274 198 0.0635133
274 995 0.0635131
275 7 1.3081e-05
275 8 1.37191e-05
275 10 0.552949
275 27 0.111944
275 39 0.0560411
275 76 0.0560182
275 104 0.0548971
275 305 0.0560411
275 495 0.0560411
275 1006 0.0560408
276 8 0.450261
276 32 0.000131502
276 36 0.0973252
276 52 0.311041
276 208 0.0848637
276 261 0.0284509
276 845 0.0279267
277 8 0.00354488
277 13 7.1337e-07
277 21 0.0800697
277 131 0.0412735
277 150 0.041522
277 154 0.0827954
277 202 0.538665
277 210 0.046386
277 234 0.0414358
277 338 0.124307
278 6 0.00807834
278 19 1.67565e-05
278 31 0.0917254
278 47 0.248027
278 76 0.579801
278 422 0.0723512
279 3 3.6567e-06
279 20 0.00244263
279 46 4.45344e-06
279 57 0.0623478
279 200 0.935202
280 3 0.932185
280 47 0.00372676
280 56 1.91897e-05
280 392 0.0640692
281 4 0.093186
281 5 0.000261166
281 19 0.088505
281 20 0.0836067
281 47 0.143401
281 66 0.334736
281 151 0.0052475
281 376 0.0836844
281 592 0.083686
281 678 0.0836859
282 6 3.38008e-06
282 20 0.132806
282 32 0.00720023
282 39 0.132825
282 52 0.132845
282 237 0.527897
282 906 0.066423
283 6 8.73845e-07
283 7 0.934682
283 8 1.20138e-05
283 20 0.0653049
284 7 8.04433e-06
284 184 0.999992
285 4 1.3473e-05
285 6 0.0589061
285 64 0.379012
285 92 0.502145
285 176 0.059924
286 5 0.332143
286 7 0.0454725
286 8 4.52809e-06
286 36 7.63788e-07
286 155 0.0956574
286 176 0.284553
286 177 2.9541e-06
286 198 0.0508891
286 605 0.0477906
286 800 0.0478287
286 863 0.0478287
286 1011 0.0478285
287 5 2.26146e-05
287 17 0.0484506
287 113 0.0962406
287 196 0.135463
287 211 0.629826
287 573 0.0449956
287 674 5.67376e-06
287 936 0.0449958
288 32 1.39492e-05
288 71 0.0735509
288 87 0.058064
288 146 0.0580475
288 191 0.0548788
288 245 0.580545
288 310 0.116845
288 641 0.0580545
289 5 5.93373e-05
289 8 0.586431
289 10 1.29189e-05
289 11 2.77886e-06
289 77 0.259669
289 266 0.0494413
289 276 0.0521923
289 656 0.0521915
290 7 0.000135803
290 9 7.82325e-07
290 11 5.52313e-06
290 15 3.82625e-06
290 22 0.153259
290 30 0.26188
290 82 0.179457
290 111 0.339522
290 116 0.0657359
291 9 0.00389403
291 10 0.0770454
291 23 0.0774461
291 41 0.0764154
291 45 0.0769631
291 65 0.0764734
291 126 0.0764484
291 143 0.000103986
291 170 0.076451
291 239 0.0764484
291 328 0.229345
291 425 0.0764484
291 533 0.076517
292 8 5.71313e-06
292 11 0.178912
292 12 0.127885
292 14 0.136386
292 15 0.00614624
292 16 0.137894
292 18 4.71939e-06
292 37 0.0461651
292 84 0.136821
292 116 0.137833
292 345 0.0919476
293 18 5.16404e-07
293 19 0.499659
293 131 0.0507681
293 234 0.449573
294 3 1.84613e-06
294 5 1.1374e-06
294 7 0.392655
294 8 0.197428
294 10 0.0374473
294 12 0.0483104
294 18 0.0357465
294 27 0.0946783
294 90 0.0487384
294 107 0.0484313
294 149 0.0482806
294 179 0.0482811
295 6 0.0663199
295 7 0.34895
295 9 0.282109
295 10 0.0258209
295 12 6.55184e-05
295 15 0.000798061
295 25 0.0689017
295 27 9.94376e-07
295 87 1.62575e-05
295 107 0.00044429
295 150 0.137652
295 195 3.24341e-05
295 283 6.74765e-06
295 394 0.068882
296 4 2.50973e-05
296 7 0.105002
296 9 1.26108e-05
296 15 1.0476e-05
296 41 0.0891003
296 66 0.357033
296 70 0.0892458
296 166 0.000543514
296 294 0.0892437
296 359 0.0892933
296 515 0.178487
296 739 0.00200252
297 248 0.666667
297 324 0.333333
298 3 6.6837e-05
298 32 0.0572518
298 36 0.102596
298 44 0.0826239
298 71 0.100744
298 87 0.100808
298 92 0.346163
298 94 0.100743
298 204 0.0586332
298 357 0.050371
299 10 0.0642339
299 18 0.00301129
299 26 0.124411
299 33 1.72465e-06
299 102 0.808342
300 6 0.0845984
300 40 0.0535979
300 53 0.807811
300 276 0.0539928
301 3 3.1354e-05
301 6 0.0874861
301 7 0.00395783
301 137 0.838294
301 220 0.0701379
301 847 9.31036e-05
302 16 1
303 4 6.07295e-06
303 8 0.139367
303 67 7.33709e-07
303 73 0.278946
303 79 0.0697376
303 81 0.209214
303 208 0.0935321
303 277 0.0697376
303 481 0.0697376
303 1013 0.0697215
304 17 3.8051e-05
304 21 0.130963
304 44 0.0638719
304 197 0.0504756
304 292 0.565877
304 488 0.0630244
304 550 0.0628752
304 763 0.0628749
305 2 7.09819e-07
305 5 7.59067e-05
305 34 0.0483019
305 40 0.0629131
305 51 0.0473787
305 69 0.0469772
305 112 0.0472934
305 119 0.0860043
305 120 0.425638
305 124 0.0472934
305 162 0.140834
305 708 0.0472897
306 47 0.159144
306 100 0.419783
306 285 0.421073
307 9 0.0976431
307 10 0.101232
307 109 0.0534135
307 173 0.106816
307 193 0.587488
307 959 0.053408
308 4 0.250741
308 23 7.99739e-05
308 41 2.71402e-06
308 45 0.247701
308 73 0.100279
308 197 3.86498e-06
308 257 6.94629e-05
308 371 0.0501399
308 393 0.15042
308 475 0.100283
308 476 0.10028
309 29 0.0505555
309 44 0.0505546
309 49 0.0505541
309 56 0.15188
309 59 0.0944295
309 90 0.203955
309 142 0.0505539
309 179 0.0505539
309 198 0.0947487
309 275 0.0505539
309 382 0.0505531
309 442 0.0505539
309 586 0.0505539
310 11 0.301367
310 13 1.64749e-06
310 55 0.19328
310 65 9.52526e-06
310 313 0.505087
310 437 0.000255572
311 3 0.846224
311 32 0.153776
312 2 0.0664805
312 6 8.89751e-06
312 15 1.12124e-06
312 74 0.0666471
312 182 0.800183
312 406 0.0666792
313 6 5.84356e-06
313 19 0.168531
313 47 0.156993
313 109 0.252651
313 234 0.084953
313 371 0.336866
314 33 1.26882e-05
314 55 0.132386
314 77 0.0683251
314 99 0.0666834
314 121 0.000969543
314 145 0.60015
314 226 0.131472
315 9 2.3347e-06
315 11 0.206461
315 18 0.0555976
315 65 0.0679807
315 73 0.19089
315 76 0.0709627
315 84 0.000355759
315 351 0.0679493
315 377 0.271841
315 584 0.0679601
316 10 0.080702
316 17 3.65784e-05
316 19 0.153691
316 35 0.0855341
316 109 0.680034
316 127 2.06725e-06
317 5 0.000155102
317 9 0.00476915
317 22 0.404176
317 59 0.000136383
317 66 0.147772
317 146 0.147664
317 191 0.147664
317 1028 0.147664
318 7 3.20131e-06
318 45 0.493371
318 93 8.8592e-06
318 99 0.126652
318 130 0.0633261
318 160 0.126652
318 172 0.126652
318 265 7.64167e-06
318 349 0.0633262
319 3 1.28782e-06
319 17 5.22294e-05
319 56 1.67535e-05
319 58 0.135726
319 78 0.465463
319 91 0.000138
319 233 0.132989
319 238 0.132613
319 259 1.18112e-05
319 507 0.132989
320 3 0.396506
320 9 2.64375e-05
320 13 0.0222856
320 23 0.237939
320 54 0.0291178
320 232 0.285008
320 1026 0.0291178
321 3 8.49863e-06
321 8 0.0158688
321 32 7.36213e-06
321 72 0.0566196
321 92 0.115456
321 128 0.054106
321 144 0.108218
321 190 0.0541045
321 191 0.0541045
321 204 0.378732
321 255 0.000454219
321 274 7.08073e-06
321 402 0.108209
321 415 0.0541045
322 8 0.00064855
322 16 0.000231514
322 19 0.0927972
322 55 0.256739
322 77 0.278393
322 134 0.0927973
322 258 0.185596
322 411 0.0927979
323 3 0.000169801
323 8 9.77854e-06
323 64 0.137812
323 178 0.36943
323 224 0.123143
323 296 0.369428
323 404 7.53542e-06
324 229 1
325 5 0.00539754
325 7 0.0675962
325 9 0.000197282
325 18 1.64598e-06
325 19 7.4789e-07
325 47 0.0691191
325 216 0.500327
325 267 0.0714752
325 282 0.0714753
325 378 0.0714597
325 416 0.142951
326 230 1
327 11 3.15379e-05
327 18 0.0549365
327 35 0.0558356
327 38 7.84152e-05
327 41 0.109595
327 45 0.223331
327 49 0.274971
327 100 0.0558328
327 175 0.0578877
327 285 0.0558328
327 454 0.111666
327 899 9.43172e-07
328 6 3.44669e-06
328 9 0.469748
328 11 0.0785946
328 41 0.300442
328 143 0.0755852
328 279 0.0756267
329 24 0.000445663
329 27 1.87565e-05
329 111 0.899544
329 132 0.0999547
329 219 3.66314e-05
330 47 0.000421329
330 55 0.167014
330 189 0.0835226
330 259 0.0809403
330 297 0.501072
330 776 0.0835085
330 901 0.0835204
331 8 1.15798e-05
331 10 0.000196732
331 15 0.203439
331 32 0.173554
331 151 0.26649
331 181 0.266847
331 256 0.000527678
331 445 0.0889344
332 2 3.01844e-06
332 32 0.00019295
332 34 0.0999802
332 41 0.199951
332 50 0.099983
332 179 0.59989
333 4 0.134561
333 7 0.188125
333 9 0.00134009
333 77 0.0691192
333 99 9.44983e-05
333 133 0.0674178
333 142 0.404507
333 289 0.0674178
333 746 0.0674178
334 11 0.000437219
334 17 2.21372e-05
334 127 0.999468
334 479 7.21949e-05
335 6 0.223021
335 7 0.000242561
335 9 0.171996
335 16 0.150242
335 33 0.170552
335 42 0.113578
335 170 0.0567896
335 273 0.113579
336 6 0.0525435
336 8 3.65168e-06
336 12 1.7114e-06
336 19 0.149616
336 25 0.0498678
336 35 0.498645
336 53 0.0498642
336 58 0.0498645
336 251 0.0498652
336 404 0.0498645
336 405 0.0498645
337 29 0.000170979
337 103 0.539381
337 124 0.0771467
337 130 0.147062
337 175 0.150825
337 180 0.0771467
337 223 0.00826734
338 6 0.00309316
338 18 0.000342858
338 29 0.00447319
338 137 0.992091
339 3 0.0119388
339 19 5.61747e-06
339 65 0.167566
339 116 0.0745899
339 120 0.7459
340 87 0.181649
340 98 0.181922
340 135 0.0909179
340 136 0.0909184
340 156 0.0909184
340 161 0.0909184
340 164 0.0909184
340 230 0.0909184
340 421 0.0909184
341 6 5.17562e-05
341 19 0.0712982
341 23 0.0768809
341 104 0.0833217
341 195 0.0768946
341 252 0.0768842
341 281 0.0768837
341 336 0.307537
341 452 0.230248
342 5 6.30401e-06
342 19 0.0766951
342 21 0.692078
342 47 1.05706e-06
342 106 0.000200649
342 131 0.154141
342 168 0.0768779
343 3 1.84663e-05
343 9 0.00257669
343 15 3.02869e-06
343 23 0.110915
343 46 0.0984211
343 64 0.000340946
343 114 0.0986841
343 374 0.295303
343 427 0.393737
344 3 0.000441752
344 7 0.0419565
344 8 0.00381684
344 26 0.342638
344 41 0.122262
344 209 0.488886
345 27 0.282889
345 30 0.00214186
345 39 0.142994
345 225 0.0714956
345 235 0.0714979
345 383 0.214491
345 428 0.214491
346 9 1.14865e-05
346 10 0.0786884
346 38 0.000120187
346 41 0.0716871
346 103 0.0733248
346 127 0.0707128
346 130 0.0707646
346 175 0.351658
346 307 0.0707643
346 322 0.141504
346 745 0.0707643
347 23 0.082691
347 25 0.172552
347 29 0.0829156
347 30 0.248073
347 44 0.0829917
347 50 0.165396
347 72 0.0826908
347 326 0.0826907
348 8 0.0075304
348 9 0.000117821
348 12 0.197292
348 14 0.107813
348 25 0.10141
348 30 0.0526532
348 41 0.157948
348 61 0.0526818
348 63 0.0526041
348 77 0.0534729
348 96 0.00590477
348 162 0.052596
348 277 0.0526584
348 330 0.0526584
348 809 0.0526583
349 10 0.0798307
349 24 0.157556
349 29 0.0789659
349 48 0.16131
349 83 0.0787801
349 94 0.0659055
349 166 0.0787804
349 171 0.0743421
349 216 0.0787805
349 437 0.145749
350 9 1.91684e-05
350 146 0.72672
350 417 0.273261
351 7 0.128598
351 109 0.522842
351 269 0.0871402
351 468 0.17428
351 751 0.0871397
352 10 6.15804e-05
352 13 0.120233
352 14 0.162661
352 17 8.63342e-07
352 41 0.15366
352 127 0.0803532
352 221 0.0805044
352 321 0.402526
353 2 0.236328
353 3 0.00129845
353 7 0.111452
353 9 0.201465
353 23 0.014851
353 59 6.6055e-05
353 127 6.13317e-06
353 381 0.3259
353 445 0.108633
354 6 4.38501e-06
354 7 0.316713
354 15 0.0709822
354 100 0.189133
354 212 0.211584
354 634 0.105792
354 985 0.105792
355 11 0.166665
355 17 2.55442e-06
355 79 0.166679
355 106 0.16668
355 162 0.166616
355 373 0.16668
355 547 0.166678
356 2 5.68648e-06
356 52 0.0998224
356 160 5.24859e-05
356 206 0.200026
356 300 0.700093
357 6 0.000958951
357 12 0.0714859
357 30 0.177691
357 34 0.0684824
357 65 0.0662898
357 82 0.068449
357 154 0.0684643
357 158 0.135851
357 236 0.0684655
357 423 0.0684655
357 504 0.136931
357 1029 0.0684655
358 4 0.013008
358 8 1.04765e-05
358 9 0.000456277
358 27 0.00529717
358 106 0.581475
358 139 0.0947385
358 198 0.110475
358 208 0.0976273
358 330 0.0969125
359 10 0.233377
359 15 0.000272303
359 23 0.0651779
359 53 0.0638376
359 55 0.19104
359 56 0.0636798
359 58 0.191266
359 70 0.0639905
359 94 0.0636798
359 282 0.0636798
360 197 1
361 4 0.104768
361 5 0.0027781
361 8 0.163715
361 11 1.25243e-05
361 73 0.103898
361 77 0.000152682
361 209 0.20908
361 340 0.103899
361 473 0.207797
361 970 0.103899
362 7 0.216123
362 10 0.142775
362 77 0.0721782
362 85 0.210303
362 108 0.141351
362 150 0.072882
362 231 0.072209
362 366 0.0721782
363 11 0.000936965
363 19 0.0806516
363 30 0.161998
363 34 0.0806774
363 46 0.0806515
363 47 0.0806611
363 68 0.0806516
363 82 0.191812
363 166 0.0806564
363 541 0.0806516
363 834 0.0806516
364 8 0.000758021
364 15 0.104042
364 27 0.239301
364 39 0.161747
364 96 0.24688
364 142 0.164844
364 195 0.0824275
365 3 1.37968e-06
365 7 0.321992
365 8 0.419813
365 21 0.0646132
365 28 1.34624e-05
365 29 0.0644962
365 277 0.0645358
365 444 0.0645353
366 3 0.000181461
366 10 5.83552e-05
366 17 0.0709292
366 18 0.0760912
366 23 0.071387
366 26 0.14065
366 41 5.054e-05
366 69 0.0724314
366 78 0.0703289
366 91 0.0703286
366 95 0.0703085
366 102 0.0703271
366 118 0.0759369
366 166 9.38732e-06
366 541 0.0703271
366 581 0.0703271
366 720 0.0703271
367 3 0.0010972
367 31 0.335565
367 331 0.33149
367 951 0.331848
368 9 0.00285144
368 22 9.9196e-05
368 30 1.5431e-05
368 85 0.070016
368 100 0.419049
368 155 0.157889
368 303 0.280064
368 508 0.0700159
369 9 0.225369
369 10 7.83249e-07
369 27 0.29962
369 64 0.0310992
369 84 0.0737706
369 106 0.0707477
369 398 0.299389
369 406 3.03539e-06
370 4 1.45859e-05
370 8 1.3606e-05
370 13 1.94898e-06
370 16 0.165891
370 54 0.166823
370 93 0.0834084
370 96 0.0834075
370 293 0.166813
370 397 0.0834067
370 651 0.0834067
370 747 0.0834067
370 943 0.0834067
371 10 0.461156
371 18 0.00125345
371 70 0.154154
371 91 0.0772631
371 121 1.03115e-06
371 243 0.0771676
371 268 0.151838
371 578 0.0771676
372 2 2.03481e-05
372 9 0.00014064
372 18 0.404588
372 32 0.000860369
372 83 4.51046e-06
372 169 0.190358
372 175 0.201872
372 849 0.202156
373 7 0.138552
373 8 0.221484
373 36 0.13835
373 44 0.169062
373 52 0.16631
373 160 0.0831999
373 208 0.0275753
373 319 0.0554666
374 3 0.00291201
374 7 0.178051
374 23 0.117917
374 32 0.117925
374 38 0.111661
374 92 8.71929e-06
374 150 0.117882
374 210 0.235763
374 394 0.117881
375 2 0.285719
375 96 0.143434
375 258 0.428124
375 689 0.142723
376 3 3.73386e-06
376 30 3.26599e-05
376 82 0.0902152
376 187 0.00594014
376 288 0.723047
376 596 0.0903808
376 801 0.0903807
377 84 0.252827
377 138 0.250261
377 469 0.246514
377 585 0.250398
378 7 0.0105831
378 15 0.000316136
378 18 3.69954e-05
378 22 0.197874
378 48 0.197759
378 77 0.131793
378 93 0.263855
378 107 0.131927
378 110 0.0658554
379 32 0.144554
379 179 0.580075
379 315 0.27537
380 6 0.000669194
380 11 0.157318
380 20 0.000102794
380 30 0.0863097
380 46 0.0863114
380 47 9.91978e-07
380 82 0.065213
380 87 0.258828
380 101 0.0863114
380 373 0.0863117
380 579 0.172623
381 15 7.48511e-07
381 52 0.0574153
381 87 0.498457
381 98 0.329646
381 300 0.0572406
381 373 0.0572406
382 3 0.513205
382 30 0.478159
382 218 0.00863588
383 3 0.000231289
383 16 0.178413
383 71 0.183042
383 87 0.273663
383 125 0.182354
383 342 0.182297
384 121 0.0962388
384 219 0.401672
384 372 0.50209
385 5 0.0186537
385 23 0.107417
385 44 0.0706681
385 62 0.0538349
385 68 0.0538371
385 82 0.0538258
385 99 0.0538339
385 125 0.107722
385 131 0.0538333
385 214 0.103372
385 342 0.107667
385 401 0.0538357
385 555 0.107667
385 939 0.0538332
386 4 0.000137541
386 15 0.127772
386 22 0.124731
386 84 7.05682e-06
386 89 0.12517
386 112 0.373409
386 166 0.124303
386 496 0.12447
387 7 2.06361e-05
387 18 0.000560598
387 64 0.0779217
387 65 0.204769
387 78 1.40405e-05
387 138 0.30767
387 149 0.306489
387 158 0.102556
388 11 8.29109e-06
388 171 0.000701681
388 219 0.768686
388 391 0.153744
388 662 0.0768607
389 3 0.000148398
389 6 0.000811943
389 14 0.215466
389 17 0.215723
389 18 1.50587e-06
389 39 0.0718667
389 45 0.423967
389 500 0.0718343
389 820 0.000181742
390 4 0.00163213
390 7 0.0296577
390 8 0.182446
390 9 0.0356856
390 22 0.0709535
390 48 0.142003
390 77 0.179203
390 107 0.143364
390 138 0.0358411
390 149 0.179213
391 7 0.000152689
391 20 0.0626425
391 23 0.184571
391 44 0.0939321
391 52 0.0938443
391 55 0.188948
391 56 0.000189688
391 69 9.57118e-06
391 142 3.46331e-06
391 170 0.0939274
391 276 0.187852
391 986 0.0939274
392 11 0.00249144
392 36 0.0904003
392 44 1.76256e-06
392 109 0.726313
392 158 2.76448e-06
392 535 0.180791
393 12 4.256e-05
393 49 0.219886
393 59 5.94301e-06
393 130 0.120548
393 151 0.219761
393 322 0.219874
393 636 7.53042e-06
393 782 0.219874
394 11 0.287881
394 32 0.036618
394 298 0.675501
395 17 1.50948e-06
395 56 0.222093
395 201 0.11113
395 430 0.444518
395 583 0.222258
396 7 3.2679e-06
396 9 0.738838
396 469 0.261158
397 8 0.000253028
397 20 0.248216
397 52 0.00241014
397 72 0.0280864
397 185 0.551042
397 494 0.169992
398 3 8.48154e-05
398 21 0.306693
398 25 0.0763923
398 65 0.0764969
398 106 0.152985
398 131 0.0813695
398 312 0.0764948
398 387 0.0764947
398 415 0.0764938
398 1019 0.0764948
399 46 0.11117
399 47 0.221841
399 203 0.222329
399 380 0.333495
399 438 0.111165
400 4 0.0892832
400 6 0.00374491
400 26 0.113371
400 62 0.113399
400 68 0.113388
400 143 0.113337
400 264 0.11338
400 484 0.226763
400 543 0.113333
401 4 0.000212276
401 7 0.391819
401 9 0.304135
401 10 3.64935e-05
401 14 0.100063
401 25 0.103139
401 58 0.100595
402 8 0.276698
402 9 9.59797e-06
402 15 1.25489e-05
402 77 0.0483252
402 93 0.0483284
402 140 0.0966567
402 143 0.0483284
402 173 0.0966567
402 217 0.144976
402 231 0.144985
402 330 0.0466962
402 431 0.0483271
403 2 0.0675767
403 3 0.0984831
403 13 0.162571
403 14 0.162748
403 19 0.0212016
403 196 0.243216
403 309 0.0814029
403 331 0.0813982
403 953 0.0814029
404 20 7.77709e-05
404 23 0.00234554
404 261 0.831314
404 1022 0.166263
405 11 0.180442
405 44 3.20877e-05
405 80 3.05874e-05
405 209 4.72107e-06
405 224 0.614618
405 421 0.204872
406 8 3.55976e-06
406 9 6.65635e-05
406 25 0.246946
406 47 0.0501882
406 53 0.100371
406 65 0.150731
406 77 0.0501882
406 217 0.150565
406 227 0.150565
406 266 0.0501882
406 334 0.0501882
407 21 0.181818
407 90 0.090908
407 126 0.0909092
407 216 0.545455
407 416 0.0909092
408 8 0.147945
408 9 0.150153
408 18 0.0940454
408 25 0.101545
408 26 1.21152e-05
408 41 0.10159
408 60 0.0507728
408 77 0.150926
408 107 0.152237
408 655 2.13677e-06
408 692 0.0507728
409 64 0.596166
409 72 0.400861
409 176 0.00297287
410 8 0.20473
410 17 0.0656877
410 20 0.065791
410 36 0.0674088
410 52 0.329296
410 80 0.00108553
410 176 0.0668334
410 198 0.0651391
410 208 0.0024689
410 217 0.0658045
410 514 0.0657547
411 11 0.000145626
411 17 0.102289
411 22 0.199486
411 23 0.0997255
411 306 0.0997256
411 387 0.0997256
411 457 0.199451
411 520 0.0997256
411 714 0.0997256
412 6 0.000385448
412 8 0.155033
412 9 1.06107e-05
412 12 4.65946e-07
412 18 1.16084e-05
412 19 1.11991e-06
412 22 0.0688531
412 48 0.0390045
412 77 0.115239
412 80 0.0363981
412 84 0.155946
412 106 0.0391066
412 107 0.155983
412 149 0.195023
412 263 0.0390045
413 5 0.408241
413 27 0.0633259
413 29 0.0824729
413 55 0.0911908
413 123 0.0886767
413 165 0.0887093
413 186 0.0887094
413 994 0.0886736
414 76 0.0913135
414 89 2.35684e-06
414 154 0.0912609
414 198 0.0872999
414 205 0.638858
414 764 0.0912652
415 31 0.0775183
415 39 0.0774974
415 55 0.0786218
415 64 0.301895
415 75 0.232008
415 124 0.0774948
415 152 0.154964
416 18 8.64862e-05
416 51 0.109914
416 80 0.221019
416 138 0.549562
416 149 0.109912
416 180 0.00950621
417 30 0.423352
417 80 0.112892
417 207 0.463756
418 18 0.107215
418 31 0.0558818
418 55 0.111593
418 69 0.0557932
418 70 0.167383
418 112 0.0557892
418 124 0.0557932
418 183 0.0557932
418 188 0.0557932
418 243 0.0557932
418 347 0.0557932
418 453 0.0557932
418 613 0.0557932
418 957 0.0557932
419 22 0.0918692
419 122 0.748312
419 147 0.0936364
419 331 2.20887e-06
419 489 0.0661801
420 8 0.00011687
420 35 0.0772312
420 36 0.0772981
420 39 0.0742789
420 47 0.539172
420 86 0.0773061
420 94 0.0772986
420 208 0.0772986
421 27 1.325e-05
421 40 0.090869
421 46 0.182239
421 243 0.636083
421 512 0.0907954
422 7 0.000592728
422 47 0.0247354
422 58 2.9868e-06
422 109 0.558488
422 269 0.416181
423 188 0.391945
423 194 0.306383
423 598 0.301672
424 29 0.145405
424 31 0.310481
424 131 0.388268
424 314 0.155846
425 28 0.0833644
425 45 0.583551
425 71 0.166356
425 349 0.0833644
425 948 0.0833644
426 39 0.142887
426 84 0.428441
426 326 0.428671
427 5 0.0142844
427 10 0.0825514
427 12 0.077942
427 15 0.0989388
427 64 0.0806872
427 92 0.0807335
427 128 0.0806872
427 190 0.0806872
427 362 0.322749
427 406 0.0806872
427 1024 5.2028e-05
428 3 7.54357e-05
428 133 0.499963
428 237 1.2982e-05
428 289 0.499948
429 14 0.19273
429 15 0.426254
429 38 0.063483
429 68 0.0634774
429 91 0.0634819
429 158 0.0634819
429 247 0.0634819
429 272 0.0636104
430 278 1
431 23 0.393837
431 36 0.101029
431 206 0.40411
431 331 0.101024
432 5 0.0173029
432 30 0.129986
432 61 0.121989
432 82 0.120792
432 88 0.121985
432 129 0.121986
432 160 0.121988
432 722 0.121986
432 878 0.121985
433 30 1.84907e-06
433 191 0.00700519
433 198 2.17088e-06
433 301 0.552478
433 310 0.330018
433 753 0.110494
434 7 0.00613732
434 9 7.50288e-06
434 23 0.165753
434 31 0.082898
434 56 0.248703
434 61 0.082898
434 90 0.0820426
434 118 0.248695
434 143 0.0828656
435 9 1.84324e-05
435 22 0.0122247
435 31 0.178416
435 70 0.161864
435 273 0.161887
435 294 0.323726
435 798 0.161864
436 5 0.0810394
436 19 0.117044
436 31 0.232021
436 65 0.000677348
436 66 0.455373
436 85 0.113845
437 3 0.00204291
437 8 0.000147418
437 16 1.9348e-05
437 46 0.124763
437 69 0.109136
437 77 0.218255
437 107 0.109127
437 395 0.109127
437 471 0.109127
437 495 0.109127
437 690 0.109127
438 10 0.222992
438 19 0.111232
438 51 0.110974
438 116 0.110927
438 159 0.110969
438 162 0.110968
438 240 0.110969
438 534 0.110969
439 36 0.0971427
439 64 0.0349503
439 92 0.0874242
439 205 0.0975634
439 283 0.682919
440 7 3.74575e-05
440 8 0.000369272
440 295 0.826502
440 717 0.0889307
440 831 0.0841605
441 32 1.30845e-05
441 92 0.132039
441 204 0.618511
441 466 0.124718
441 829 0.124718
442 15 0.303387
442 18 2.02334e-06
442 80 0.0989083
442 98 0.0996171
442 104 0.0996171
442 119 0.199237
442 180 0.0996171
442 246 0.0996141
443 3 0.151352
443 8 0.0973498
443 17 0.0950299
443 69 0.656268
444 7 0.313822
444 89 0.114541
444 142 0.114542
444 143 0.22801
444 194 0.114542
444 226 0.114542
445 3 0.00420847
445 80 0.133054
445 225 0.862738
446 5 0.0490049
446 8 4.00036e-06
446 17 2.95183e-06
446 144 0.305041
446 242 0.645948
447 2 0.111696
447 3 0.172897
447 7 0.161314
447 16 0.055439
447 18 1.1831e-06
447 148 0.0554059
447 192 0.387841
447 260 0.0554059
448 8 3.01656e-05
448 57 0.111094
448 144 0.111024
448 182 0.666753
448 558 0.1111
449 84 1
450 3 4.03789e-05
450 137 0.8885
450 339 0.11146
451 13 0.285703
451 14 0.285938
451 256 0.285572
451 287 0.142786
452 3 7.1125e-05
452 23 0.842779
452 232 0.000171132
452 1018 0.156979
453 15 1.8993e-05
453 18 0.338015
453 22 2.56567e-05
453 24 0.163583
453 80 0.0833074
453 111 0.166103
453 159 1.26631e-06
453 169 0.0828705
453 328 0.0830374
453 375 0.0830374
454 12 9.64402e-06
454 23 0.15242
454 53 0.15269
454 58 0.161407
454 62 0.076206
454 78 0.076267
454 99 0.0761997
454 126 0.152401
454 183 0.1524
455 3 9.04495e-06
455 6 2.46022e-05
455 57 0.17025
455 185 0.265357
455 250 0.470299
455 252 0.0940598
456 5 0.236066
456 22 0.100674
456 41 0.0788386
456 58 0.333841
456 74 1.30318e-05
456 131 0.0834994
456 243 0.083534
456 252 0.0835331
457 65 0.0692085
457 77 0.0692085
457 103 0.307924
457 113 0.0691996
457 217 0.0692085
457 265 0.346042
457 830 0.0692085
458 7 0.0607349
458 22 0.26859
458 48 0.268731
458 77 0.200504
458 107 0.20144
459 15 0.137492
459 21 0.0716768
459 28 0.0718218
459 32 0.00135129
459 52 0.143533
459 65 0.143517
459 149 0.143536
459 181 0.0717635
459 311 0.0717696
459 447 0.143539
460 8 0.00131744
460 32 0.119762
460 36 1.80234e-06
460 52 0.36142
460 71 3.94284e-05
460 87 0.154373
460 98 0.121017
460 152 0.121035
460 426 0.121035
461 3 0.00433056
461 6 0.1675
461 8 8.62724e-06
461 9 0.82816
462 8 0.0098161
462 15 0.218312
462 47 0.110732
462 94 0.111142
462 99 0.000154426
462 121 0.215031
462 143 0.110398
462 148 0.110398
462 268 0.0036185
462 516 0.110398
463 5 0.000830421
463 27 0.400447
463 47 0.100187
463 97 0.197976
463 195 0.200374
463 338 0.100187
464 2 0.00439123
464 210 0.0460654
464 367 0.949543
465 6 0.222284
465 339 0.555398
465 599 0.111159
465 724 0.111159
466 4 0.200964
466 6 0.00107061
466 8 0.000287573
466 56 0.200403
466 83 0.196262
466 335 0.401012
467 4 0.0879439
467 7 0.12103
467 14 3.09898e-05
467 22 0.175778
467 30 0.0885122
467 99 0.0877808
467 143 0.087801
467 458 0.263343
467 617 0.0877809
468 7 0.438342
468 101 0.449326
468 463 0.0561658
468 639 0.0561658
469 32 0.0922551
469 71 0.0907837
469 87 0.0907735
469 206 0.0907735
469 210 0.0907735
469 288 0.0907735
469 304 0.0907734
469 361 0.181547
469 403 0.0907735
469 1003 0.0907735
470 206 0.100001
470 299 0.0999917
470 312 0.600006
470 331 0.200002
471 9 0.149287
471 10 0.106418
471 13 0.0532111
471 18 0.106267
471 20 0.10642
471 39 0.10642
471 78 0.0527245
471 80 0.0532102
471 101 0.0532102
471 121 0.05321
471 142 0.0532102
471 143 0.0532012
471 683 0.0532102
472 76 0.713356
472 346 0.14267
472 377 0.142671
472 396 0.00130194
473 14 0.0779094
473 25 0.0779982
473 31 0.0780036
473 45 0.0780008
473 55 0.371363
473 85 0.0780008
473 126 0.0780008
473 132 0.0827223
473 577 0.0780008
474 4 0.201015
474 30 0.29635
474 419 0.301506
474 588 0.100589
474 730 0.10054
475 6 0.000483228
475 7 0.297764
475 13 0.0497448
475 20 0.104691
475 46 0.0498089
475 60 0.0498276
475 61 0.0497435
475 88 0.0497448
475 89 0.0487002
475 91 0.0497448
475 101 0.198979
475 104 0.00101547
475 547 0.0497448
475 662 6.87425e-06
476 7 0.274791
476 9 0.280776
476 41 0.112425
476 109 0.112372
476 140 0.056189
476 148 0.112227
476 979 0.0512198
477 7 0.162169
477 20 0.186117
477 39 0.0812603
477 45 5.19231e-05
477 93 0.000806738
477 99 0.162739
477 101 9.95751e-06
477 160 0.0813693
477 172 0.0813693
477 200 0.162739
477 233 0.0813693
478 291 1
479 8 0.000240758
479 9 2.44445e-06
479 24 0.166672
479 39 2.43654e-06
479 251 0.0833062
479 296 0.0833094
479 404 0.0833097
479 405 0.166619
479 426 0.0833059
479 474 0.166619
479 568 0.0833097
479 606 0.0833024
480 17 0.00166378
480 197 0.126833
480 213 0.1245
480 350 0.498001
480 569 0.1245
480 583 1.28943e-06
480 913 0.1245
481 27 0.331769
481 64 0.0070685
481 131 0.108207
481 281 0.552955
482 5 0.0822997
482 64 0.372864
482 127 0.0908004
482 179 0.0908074
482 256 0.0908074
482 286 0.0908072
482 355 0.0908074
482 448 0.0908068
483 23 0.0911495
483 41 0.091146
483 73 0.0901755
483 76 0.182299
483 80 0.0904919
483 226 0.0911482
483 422 0.182299
483 423 0.0901418
483 813 0.0911495
484 10 2.1143e-05
484 28 0.124418
484 31 0.128489
484 106 0.370022
484 118 0.127687
484 168 0.124418
484 178 0.000529439
484 521 0.124415
485 47 3.59878e-06
485 73 0.428564
485 81 0.285713
485 273 0.142856
485 426 6.44218e-06
485 490 0.142857
486 5 0.00837363
486 7 5.8141e-06
486 15 4.55676e-05
486 111 0.991575
487 2 6.30364e-06
487 4 0.347027
487 8 0.0001106
487 18 0.0815121
487 63 0.0816188
487 96 3.79262e-05
487 158 0.0816149
487 384 0.32646
487 812 0.0816128
488 8 0.698365
488 64 0.00016453
488 77 0.200693
488 86 0.100777
489 2 0.00161534
489 6 0.468848
489 7 0.00295955
489 33 4.59882e-06
489 89 0.0185353
489 449 0.169531
489 663 0.169253
489 883 0.169253
490 4 0.222353
490 73 0.111092
490 81 0.333277
490 277 0.222185
490 433 0.111092
491 8 0.0005736
491 18 0.135513
491 29 0.107987
491 30 6.19381e-06
491 39 0.107989
491 231 0.107989
491 311 0.215977
491 348 0.107989
491 373 0.107989
491 428 0.107989
492 7 2.00529e-05
492 16 0.0564604
492 22 0.20137
492 24 0.121495
492 71 0.112911
492 87 0.112911
492 96 0.0564661
492 111 0.281609
492 169 0.000302726
492 192 0.0564553
493 30 0.000155504
493 207 0.70157
493 224 0.298275
494 316 1
495 74 0.170571
495 165 0.170571
495 260 0.317716
495 525 0.341142
496 15 5.28057e-06
496 45 0.0027832
496 91 0.138855
496 133 0.138854
496 160 0.138855
496 165 0.0252291
496 186 0.138855
496 196 0.138836
496 325 0.138855
496 531 1.80234e-05
496 681 0.138855
497 9 0.119845
497 40 0.104348
497 54 0.102492
497 60 0.151575
497 80 0.104343
497 114 0.104349
497 149 0.104349
497 169 0.208698
498 60 0.188124
498 73 0.065913
498 169 0.0947282
498 204 0.272509
498 214 0.189267
498 384 0.0947292
498 415 0.0947292
499 3 3.12292e-06
499 24 1.97783e-06
499 30 0.100008
499 32 0.100003
499 69 0.100003
499 116 0.39997
499 123 0.100003
499 148 0.100003
499 822 0.100003
500 15 1.48586e-06
500 70 0.245724
500 94 0.122899
500 187 0.0169926
500 233 0.614383
501 10 0.200135
501 23 0.12021
501 25 0.158942
501 33 0.16023
501 45 0.120056
501 66 0.0400712
501 170 0.120214
501 183 0.0400713
501 189 0.0400713
502 8 0.00124165
502 9 0.000556634
502 44 0.114186
502 45 0.114169
502 49 0.113951
502 77 0.114169
502 155 0.0850509
502 357 0.114169
502 478 0.342507
503 3 1.75994e-06
503 4 2.48572e-05
503 8 5.27197e-05
503 17 0.162923
503 23 0.339736
503 27 3.57577e-06
503 28 0.171407
503 60 0.162873
503 103 0.162978
504 16 0.221985
504 40 0.111151
504 45 0.111151
504 46 0.111151
504 97 0.111113
504 221 0.111151
504 622 0.111151
504 781 0.11115
505 10 1.78404e-06
505 41 0.0905488
505 55 0.0881602
505 77 0.0921847
505 107 0.0882364
505 133 0.0881735
505 140 0.0881735
505 173 0.0881735
505 216 0.0881735
505 274 0.0881726
505 538 0.111828
505 785 0.0881734
506 15 0.191641
506 18 0.0342051
506 51 0.0933975
506 171 0.0978119
506 226 0.0976836
506 255 0.184593
506 446 0.10233
506 498 0.100613
506 533 0.0977239
507 5 6.45541e-06
507 31 0.126515
507 145 0.252326
507 169 0.116342
507 195 0.126104
507 249 0.37849
507 437 0.000216858
508 27 0.419998
508 64 0.430328
508 72 0.00355083
508 86 3.08027e-05
508 972 0.146093
509 10 0.127632
509 12 0.125455
509 46 0.125373
509 121 0.245405
509 590 0.250757
509 603 0.125378
510 7 0.140132
510 60 0.140903
510 73 0.140235
510 89 0.57873
511 133 1.57268e-05
511 172 0.750197
511 237 0.124869
511 818 0.124918
512 5 0.19956
512 34 0.140097
512 60 0.131253
512 83 0.0820717
512 89 0.096771
512 190 0.210149
512 532 0.140099
513 3 3.23641e-05
513 20 0.200094
513 39 0.399575
513 216 0.200149
513 846 0.200149
514 55 0.452087
514 96 0.0912234
514 100 0.0912479
514 121 0.0916989
514 151 0.0912482
514 264 0.0912482
514 554 0.0912464
515 17 0.000183971
515 31 0.448042
515 56 3.48663e-05
515 318 0.183913
515 368 0.183913
515 559 0.183913
516 7 0.25953
516 8 0.0067868
516 30 0.157145
516 101 0.104825
516 148 0.157238
516 180 0.262063
516 217 0.0524126
517 10 4.24209e-05
517 26 0.0908828
517 55 0.0908558
517 63 0.0914674
517 76 0.0908558
517 154 0.0908558
517 202 0.0908558
517 266 0.0908558
517 326 0.090855
517 369 0.0908558
517 379 0.0907616
517 492 0.0908558
518 13 9.43392e-05
518 14 2.13741e-06
518 18 0.000141266
518 19 0.167762
518 23 0.1664
518 41 0.166398
518 150 0.166401
518 220 0.166401
518 271 0.166401
519 23 0.111599
519 77 0.222076
519 81 0.111035
519 107 0.111035
519 126 0.222071
519 142 1.45799e-05
519 258 0.111134
519 387 0.111035
520 98 0.111223
520 252 0.111158
520 282 0.111158
520 351 0.555789
520 356 0.110672
521 16 0.125324
521 107 0.124594
521 119 0.375035
521 263 0.250033
521 459 0.125015
522 6 0.708208
522 20 0.000235138
522 602 0.291557
523 8 0.00131151
523 19 0.124943
523 23 0.12488
523 29 0.124143
523 77 0.124952
523 159 0.124943
523 465 0.124943
523 737 0.124943
523 895 0.124943
524 99 0.166667
524 194 0.166667
524 399 0.166667
524 556 0.333333
524 886 0.166667
525 21 0.277242
525 74 0.144624
525 368 0.144619
525 392 0.144619
525 488 0.288895
526 29 0.333056
526 697 0.333472
526 1027 0.333472
527 30 0.251277
527 287 0.748581
527 310 0.000142304
528 23 0.3223
528 73 0.223285
528 74 0.111644
528 81 3.55058e-06
528 99 0.110471
528 170 0.120654
528 425 0.111644
529 8 5.77802e-05
529 146 0.999942
530 30 0.0769312
530 39 0.0769331
530 46 0.07693
530 60 0.0769313
530 101 0.153863
530 112 0.0769314
530 160 0.153863
530 188 0.0769314
530 194 0.0768229
530 347 0.0769314
530 453 0.0769314
531 41 0.11111
531 58 0.111113
531 99 0.222222
531 183 0.111111
531 238 0.333333
531 838 0.111111
532 8 1.68472e-06
532 11 0.238565
532 30 4.06959e-06
532 36 6.53798e-06
532 64 0.123834
532 380 0.127518
532 438 0.255035
532 487 0.127518
532 687 0.127518
533 10 1.50603e-06
533 13 0.0909179
533 30 0.181911
533 56 0.181822
533 74 0.18182
533 77 0.0911428
533 82 0.0909206
533 91 0.090911
533 978 0.0905529
534 8 3.67807e-06
534 60 0.0374035
534 81 0.16224
534 112 0.16224
534 159 0.157434
534 175 0.156267
534 231 0.162171
534 932 0.16224
535 8 0.201259
535 20 0.147514
535 39 0.0501051
535 40 0.0981794
535 46 0.100692
535 83 0.100782
535 89 0.0501369
535 104 0.0498214
535 180 0.20151
536 32 0.111617
536 86 2.78614e-06
536 98 0.11091
536 101 0.11091
536 122 0.443638
536 148 0.11091
536 167 0.112013
537 7 2.85111e-05
537 16 0.000275176
537 22 0.399949
537 48 0.599747
538 293 0.5
538 341 0.5
539 7 5.04129e-05
539 18 0.168556
539 66 0.166287
539 343 0.166277
539 429 0.332553
539 933 0.166277
540 30 0.125127
540 212 0.749891
540 440 0.124982
541 4 6.55833e-06
541 11 0.250032
541 18 8.15919e-07
541 25 0.0633116
541 31 0.123599
541 51 0.0625657
541 84 0.0625658
541 95 0.062566
541 140 0.062566
541 186 0.062566
541 197 0.0625227
541 212 0.062566
541 335 0.062566
541 336 0.062566
542 5 0.000863971
542 11 0.0036726
542 41 0.165697
542 58 0.497163
542 96 0.0828733
542 99 0.0839828
542 145 0.082874
542 530 0.0828739
543 3 4.54046e-06
543 4 0.201466
543 36 0.179475
543 104 0.183118
543 169 0.366106
543 187 0.0698315
544 30 0.413019
544 41 0.0825046
544 82 0.0830681
544 115 0.165866
544 148 0.0896258
544 252 0.0829825
544 256 0.0829332
545 38 0.14283
545 45 0.285889
545 450 0.428461
545 550 0.14282
546 7 0.317683
546 22 0.0010471
546 32 0.227015
546 55 0.227121
546 56 1.28617e-05
546 209 0.227122
547 146 0.666562
547 191 0.11113
547 219 6.66675e-06
547 275 0.11118
547 954 0.111122
548 38 0.13061
548 80 0.0857321
548 138 0.391829
548 149 0.13061
548 155 0.13061
548 609 0.13061
549 35 0.143827
549 100 0.143784
549 119 0.143828
549 162 0.143828
549 264 0.280906
549 626 0.143828
550 6 0.0339393
550 8 0.246714
550 15 1.57013e-05
550 27 0.103555
550 40 0.204402
550 83 0.20699
550 84 0.204384
551 235 0.249974
551 385 0.625022
551 392 0.125004
552 38 0.482139
552 74 0.0305586
552 103 0.487303
553 2 0.114643
553 83 0.110667
553 245 0.221339
553 299 0.442681
553 793 0.110669
554 120 0.714293
554 154 0.142854
554 158 0.142853
555 7 7.64985e-06
555 9 0.199862
555 17 0.200581
555 18 3.66341e-06
555 196 0.199849
555 454 0.199849
555 861 0.199849
556 45 0.249687
556 67 0.24988
556 169 0.000673711
556 545 0.24988
556 592 0.24988
557 6 0.000239003
557 11 0.151269
557 15 4.46005e-05
557 113 0.706605
557 487 0.141321
557 849 0.000521878
558 7 0.312408
558 8 0.0784857
558 9 0.295836
558 30 6.89979e-06
558 84 0.078316
558 152 0.0783161
558 376 0.0783161
558 407 0.0783157
559 3 0.252756
559 16 0.382884
559 121 0.191439
559 318 0.172921
560 21 0.1111
560 55 0.111106
560 61 0.111206
560 62 0.1111
560 77 0.111104
560 118 0.1111
560 173 0.1111
560 235 0.111083
560 305 0.1111
561 8 7.71259e-06
561 15 9.23369e-06
561 80 0.100696
561 81 0.0998078
561 86 0.0946653
561 241 0.201393
561 290 0.201393
561 404 0.100635
561 409 0.100696
561 490 0.100696
562 16 0.102632
562 30 0.101469
562 51 0.101038
562 82 0.189682
562 133 0.101036
562 246 0.101036
562 493 0.101035
562 580 0.101036
562 780 0.101036
563 30 0.166667
563 381 0.166667
563 551 0.166667
563 574 0.166667
563 628 0.166667
563 712 0.166667
564 62 0.145644
564 67 0.145644
564 69 0.126111
564 73 0.145644
564 208 0.145674
564 217 0.14564
564 960 0.145643
565 7 0.306611
565 9 0.307065
565 12 0.231773
565 59 0.077315
565 80 3.09486e-06
565 198 0.0772336
566 7 0.155954
566 279 9.26321e-06
566 359 0.168733
566 378 0.168826
566 506 0.168826
566 653 0.168826
566 728 0.168826
567 9 0.000134152
567 20 0.145297
567 41 0.14505
567 70 0.14577
567 94 0.144647
567 123 0.128509
567 146 0.145297
567 191 0.145297
568 4 0.139847
568 10 0.133042
568 23 0.145456
568 90 2.87663e-06
568 118 0.145413
568 364 0.436238
569 52 0.255424
569 101 0.248204
569 267 0.248168
569 432 0.248204
570 17 0.0183818
570 39 4.55145e-05
570 97 0.196302
570 195 0.588953
570 223 0.196318
571 3 0.000140299
571 55 0.166605
571 123 0.333808
571 124 0.332711
571 169 0.166736
572 327 0.6
572 814 0.2
572 991 0.2
573 4 2.41225e-06
573 30 0.273654
573 82 0.42759
573 296 0.149377
573 769 0.149377
574 5 5.7413e-06
574 10 3.26885e-05
574 19 0.999915
574 159 4.63558e-05
575 8 0.118014
575 30 0.110259
575 41 0.22048
575 148 0.11024
575 224 4.79549e-05
575 268 0.22048
575 509 0.11024
575 1010 0.11024
576 10 0.00029106
576 65 0.166412
576 73 0.166659
576 140 0.333319
576 155 0.166659
576 754 0.166659
577 144 0.101409
577 151 0.188825
577 364 0.101407
577 455 0.202792
577 479 0.304161
577 580 0.101406
578 103 0.142788
578 360 0.142828
578 408 0.571313
578 553 0.143071
579 3 2.84552e-05
579 30 0.369522
579 154 0.125909
579 235 0.125927
579 241 0.125909
579 268 0.126798
579 638 0.125909
580 223 0.249964
580 435 0.250012
580 591 0.250012
580 719 0.250012
581 17 0.111235
581 60 0.110811
581 142 0.111233
581 159 0.111236
581 220 0.110754
581 276 0.111032
581 337 0.222467
581 699 0.111233
582 10 0.144013
582 12 0.143445
582 32 0.143971
582 71 0.143956
582 87 0.143971
582 93 0.280638
582 96 6.34903e-06
583 23 0.0997896
583 30 0.102289
583 56 0.099741
583 58 0.099747
583 82 0.099741
583 85 0.099741
583 175 0.0997335
583 209 0.199477
583 318 0.099741
584 8 0.497707
584 118 0.502286
584 126 7.02098e-06
585 56 0.2
585 159 0.2
585 249 0.2
585 266 0.2
585 491 0.2
586 11 0.18092
586 109 0.163893
586 210 0.163893
586 310 0.327786
586 847 0.163508
587 31 0.202147
587 36 0.00255801
587 56 0.203219
587 108 0.000554277
587 154 0.203225
587 212 0.203225
587 420 0.185072
588 7 0.201559
588 8 3.29486e-06
588 28 0.282238
588 158 0.172954
588 277 0.172954
588 319 0.170292
589 3 4.14153e-06
589 8 0.29605
589 33 0.0639995
589 47 0.063967
589 60 0.0639994
589 78 0.0639985
589 116 0.0639864
589 170 0.0639995
589 274 0.191998
589 308 0.0639982
589 536 0.0639994
590 29 0.137527
590 133 0.287327
590 231 0.143664
590 246 0.145169
590 268 0.142649
590 271 0.143664
591 30 0.108816
591 36 0.10828
591 37 0.0198797
591 69 0.00142579
591 82 0.108277
591 203 0.108278
591 269 0.108278
591 330 0.111934
591 562 0.216555
591 872 0.108278
592 10 0.181921
592 11 0.091129
592 55 0.18194
592 65 0.181927
592 121 0.0901423
592 150 0.0909732
592 159 0.0909944
592 247 0.0909732
593 84 1
594 35 0.142523
594 41 0.144957
594 343 0.570016
594 924 0.142504
595 41 0.125062
595 50 0.125085
595 82 0.248686
595 133 0.125086
595 194 0.12591
595 374 0.125086
595 975 0.125086
596 55 0.169033
596 60 0.15832
596 159 0.168163
596 244 0.168158
596 272 0.168163
596 526 0.168163
597 366 0.2
597 485 0.6
597 540 0.2
598 8 0.330484
598 45 0.111582
598 54 0.111582
598 71 0.111582
598 87 0.111582
598 101 0.111582
598 108 2.19918e-05
598 306 0.111582
599 37 0.140684
599 47 0.15571
599 60 0.14087
599 156 0.140684
599 258 0.281368
599 816 0.140684
600 30 0.22187
600 347 0.111197
600 388 0.555777
600 771 0.111155
601 11 0.16814
601 42 0.168315
601 67 0.168315
601 68 0.168315
601 100 0.326916
602 14 0.00153012
602 15 0.0043254
602 140 0.331382
602 173 0.331382
602 311 0.33138
603 10 2.21969e-06
603 15 0.333269
603 37 0.166676
603 94 0.333369
603 159 0.166684
604 27 0.575309
604 92 0.0406437
604 103 0.192006
604 175 0.192041
605 46 0.25
605 225 0.25
605 263 0.25
605 273 0.25
606 44 0.250604
606 72 0.250664
606 707 0.249366
606 843 0.249366
607 29 9.87383e-05
607 63 0.201556
607 243 0.201555
607 255 0.201551
607 314 0.39524
608 25 0.165164
608 47 0.333934
608 132 0.166967
608 191 0.166967
608 291 0.166967
609 8 0.0970899
609 13 0.128984
609 14 0.128988
609 49 0.128988
609 231 0.128988
609 311 0.128988
609 448 0.128988
609 1017 0.128988
610 7 0.333304
610 40 0.166666
610 89 1.32652e-05
610 179 0.166672
610 256 0.166672
610 715 0.166672
611 18 0.241546
611 60 0.00357312
611 302 0.172385
611 308 0.194166
611 333 0.194163
611 549 0.194166
612 7 0.201604
612 212 0.598797
612 489 0.199599
613 7 0.511717
613 80 0.162616
613 307 0.162834
613 401 0.162834
614 7 2.08759e-05
614 89 0.250818
614 127 0.501115
614 218 0.248046
615 55 0.75
615 784 0.25
616 10 0.203864
616 84 0.199034
616 100 0.199034
616 285 0.199034
616 330 0.199034
617 20 0.135924
617 111 0.57605
617 217 0.144013
617 688 0.144013
618 11 2.83935e-05
618 22 0.000280381
618 118 0.394165
618 228 0.588192
618 979 0.017334
619 32 0.0833334
619 102 0.0833334
619 135 0.0833329
619 163 0.0833334
619 185 0.0833334
619 229 0.0833334
619 232 0.0833334
619 241 0.0833334
619 308 0.0833333
619 354 0.0833334
619 363 0.0833334
619 457 0.0833334
620 16 0.166647
620 23 0.166312
620 206 0.166757
620 239 0.166771
620 360 0.333513
621 327 0.8
621 394 0.2
622 42 0.166755
622 110 0.333509
622 158 0.332981
622 162 0.166755
623 6 1.04126e-05
623 40 0.11136
623 41 0.111359
623 44 0.22061
623 89 0.111364
623 125 0.222693
623 215 0.111258
623 407 0.111346
624 10 0.000133852
624 55 0.248484
624 60 3.70811e-05
624 159 0.255915
624 266 0.247715
624 376 0.247715
625 94 0.25
625 313 0.25
625 409 0.25
625 637 0.25
626 171 0.142857
626 375 0.285714
626 464 0.428571
626 735 0.142857
627 105 0.222213
627 108 0.111202
627 201 0.111107
627 203 0.111106
627 210 0.111066
627 233 0.111106
627 257 0.111093
627 1005 0.111105
628 15 1.83893e-06
628 17 0.110399
628 18 0.110472
628 26 0.1104
628 27 0.1104
628 76 0.1104
628 100 0.116769
628 111 0.110361
628 217 0.1104
628 544 0.1104
629 250 0.250002
629 333 0.499989
629 833 0.250002
629 978 7.77804e-06
630 13 0.333294
630 14 0.333312
630 22 0.166734
630 324 0.166659
631 3 0.00121524
631 23 2.5696e-05
631 51 0.199806
631 63 0.199522
631 91 0.19981
631 444 0.399622
632 97 0.166678
632 213 0.667345
632 235 0.165977
633 15 5.30106e-05
633 86 1.61921e-05
633 89 0.00350664
633 147 0.33214
633 362 0.332142
633 682 0.332142
634 8 0.00413559
634 29 0.225677
634 65 0.0931358
634 77 0.225681
634 107 0.225685
634 317 0.225685
635 66 1
636 17 0.110167
636 32 0.11542
636 221 0.110631
636 236 0.221263
636 301 0.110624
636 423 0.110631
636 952 0.110631
636 992 0.110631
637 38 0.111042
637 41 0.222772
637 45 0.111022
637 93 0.111029
637 169 0.111022
637 242 0.111022
637 305 0.111022
637 480 0.111022
637 543 4.63237e-05
638 100 0.666634
638 162 0.333366
639 8 3.64268e-05
639 21 0.139958
639 49 0.140549
639 85 0.139958
639 262 0.29958
639 451 0.139962
639 909 0.139958
640 8 0.00181692
640 10 0.0197076
640 15 0.978476
641 2 0.0973603
641 3 0.00014119
641 5 0.0172412
641 8 0.0040566
641 21 0.0974383
641 28 0.0975422
641 43 0.0974342
641 69 0.292303
641 78 0.101615
641 94 0.0974342
641 151 0.0974342
642 22 0.166828
642 23 0.166855
642 27 0.0834159
642 39 0.0834484
642 56 0.250229
642 64 0.083368
642 85 0.00178772
642 92 0.0806521
642 120 0.083416
643 329 1.72648e-05
643 424 0.999983
644 41 0.249091
644 92 0.250346
644 254 0.250228
644 621 0.250335
645 29 0.142861
645 77 0.142853
645 107 0.142861
645 143 0.142855
645 326 0.142848
645 564 0.285722
646 18 0.57611
646 93 0.212835
646 480 0.211055
647 23 0.38595
647 227 0.12281
647 414 0.368429
647 537 0.12281
648 20 0.142858
648 39 0.142857
648 52 0.142855
648 53 0.142858
648 58 0.142858
648 587 0.285714
649 3 0.0840613
649 227 0.0994422
649 232 0.219843
649 334 0.0994421
649 363 0.397769
649 1015 0.0994421
650 16 0.101205
650 30 0.303589
650 82 0.299642
650 214 0.0931535
650 296 0.101205
650 526 0.101205
651 41 0.125001
651 100 0.249998
651 175 0.124999
651 240 0.250001
651 345 0.125001
651 928 0.125001
652 28 0.665699
652 175 0.334301
653 15 0.181024
653 55 0.0781628
653 94 0.370375
653 99 0.185188
653 180 0.185188
653 258 6.25819e-05
654 9 0.000956358
654 29 0.199808
654 39 0.399618
654 114 0.199809
654 263 0.199808
655 21 0.593587
655 28 0.406413
656 337 1
657 207 0.588014
657 224 0.411986
658 7 3.79223e-05
658 39 0.166745
658 45 0.166697
658 67 0.166783
658 160 0.166779
658 172 0.166783
658 247 0.166176
659 18 0.157862
659 51 7.7771e-06
659 87 0.424069
659 409 0.212068
659 498 0.205993
660 100 0.2
660 119 0.599999
660 162 0.2
661 22 0.166674
661 29 0.166665
661 48 0.166665
661 97 0.166665
661 261 0.166665
661 856 0.166665
662 11 0.164834
662 46 0.328581
662 158 0.168937
662 317 0.168928
662 345 0.168719
663 17 0.338913
663 41 4.45284e-06
663 56 0.332509
663 85 0.160359
663 387 0.168215
664 69 0.111111
664 71 0.111111
664 87 0.111111
664 114 0.111111
664 180 0.111111
664 225 0.111111
664 266 0.111111
664 879 0.111111
664 961 0.111111
665 5 0.0976062
665 12 0.12906
665 13 0.12927
665 31 0.128766
665 41 0.127377
665 42 0.129307
665 62 0.129307
665 267 0.129307
666 15 0.497114
666 436 0.502886
667 19 0.500004
667 77 0.249993
667 233 0.250003
668 7 0.000669915
668 8 0.062148
668 30 0.187436
668 148 0.187436
668 281 0.374873
668 736 0.187436
669 151 0.333333
669 171 0.333333
669 842 0.333333
670 213 1
671 38 0.142437
671 42 0.142505
671 54 0.145038
671 62 0.285009
671 90 0.142506
671 884 0.142505
672 18 0.125056
672 19 0.291765
672 27 0.145795
672 64 0.145795
672 75 0.145794
672 331 0.145795
673 30 0.282091
673 197 0.179477
673 344 0.538432
674 15 0.013731
674 19 0.495731
674 62 0.490538
675 3 0.00465824
675 41 0.149698
675 45 0.0428468
675 220 0.200699
675 231 0.200699
675 366 0.200699
675 875 0.2007
676 20 0.169774
676 30 0.151239
676 111 0.169747
676 114 0.169747
676 486 0.169747
676 578 0.169747
677 15 0.333019
677 87 0.33349
677 299 0.33349
678 19 0.124994
678 39 0.125001
678 47 0.125001
678 52 0.125001
678 56 0.125001
678 59 0.125001
678 245 0.125001
678 310 0.125001
679 30 0.167142
679 41 0.167148
679 121 0.334292
679 142 0.164267
679 241 0.16715
680 16 0.200557
680 57 0.200296
680 117 0.19974
680 169 0.199703
680 971 0.199703
681 7 0.000188425
681 14 0.0915818
681 17 0.129651
681 30 0.13011
681 148 0.130113
681 235 0.130113
681 238 0.258131
681 418 0.130113
682 3 4.13718e-05
682 190 0.664727
682 594 0.335232
683 12 0.145188
683 13 0.149258
683 14 0.141511
683 36 0.139506
683 73 0.141513
683 684 0.141513
683 877 0.141513
684 223 0.46991
684 256 0.53009
685 4 0.025327
685 84 0.648905
685 218 0.325768
686 30 0.166885
686 82 0.166388
686 185 0.166682
686 236 0.166682
686 282 0.166682
686 400 0.166682
687 29 0.400835
687 40 0.200422
687 246 0.198322
687 399 0.200422
688 53 0.0999976
688 56 0.100019
688 59 0.0999976
688 77 0.199998
688 107 0.199995
688 127 0.0999976
688 138 0.0999976
688 149 0.0999976
689 35 1
690 30 0.250064
690 71 0.249979
690 82 0.249978
690 456 0.249979
691 232 0.250013
691 240 0.499991
691 537 0.249996
692 11 0.326669
692 29 0.163425
692 55 0.163404
692 71 0.0196943
692 570 0.326808
693 5 0.142854
693 123 0.142859
693 202 0.142859
693 309 0.142858
693 331 0.142859
693 337 0.142853
693 726 0.142859
694 11 1.87879e-05
694 77 0.166713
694 123 0.166396
694 267 0.166718
694 499 0.166718
694 631 0.166718
694 644 0.166718
695 7 1.22464e-05
695 12 0.30814
695 146 0.175719
695 218 0.172045
695 636 0.172039
695 799 0.172045
696 5 4.64351e-06
696 10 0.222596
696 19 0.220716
696 55 0.222714
696 159 0.222659
696 982 0.111311
697 11 0.400378
697 12 5.56608e-06
697 13 1.61545e-05
697 14 0.199204
697 575 0.400397
698 41 0.249069
698 81 0.25031
698 129 0.250311
698 309 0.250311
699 172 1
700 46 0.333206
700 204 0.666794
701 9 0.00177739
701 22 0.998223
702 22 0.0926922
702 84 0.218539
702 148 0.216896
702 236 0.235936
702 483 0.235936
703 9 0.000108989
703 27 0.333297
703 536 0.333297
703 567 0.333297
704 421 0.25
704 521 0.25
704 744 0.25
704 905 0.25
705 6 0.662024
705 137 0.337976
706 16 0.193331
706 40 0.0967268
706 46 0.0967267
706 53 0.0967242
706 64 0.0328673
706 96 0.0967199
706 108 0.0967267
706 241 0.0967267
706 276 0.0967267
706 290 0.0967237
707 15 0.00343592
