1 1 100 1 1
1 0 100 8 0.00221408
2 0 100 8 0.996195
3 0 100 8 0.00159046
2 1 100 8 0.487493
3 1 100 8 0.510512
4 1 100 8 0.00199513
3 2 100 8 0.000792157
4 2 100 8 0.999208
1 3 100 8 0.966261
2 3 100 8 0.033724
8 3 100 8 1.50404e-05
1 4 100 8 0.000149255
2 4 100 8 0.000144511
5 4 100 8 0.999706
5 5 100 8 0.0010028
7 5 100 8 0.998997
1 6 100 8 4.45167e-05
2 6 100 8 0.00133105
6 6 100 8 0.998624
8 7 100 8 1
1 0 100 9 0.00111795
2 0 100 9 0.998361
3 0 100 9 0.000299715
8 0 100 9 0.000220918
1 1 100 9 0.000588894
2 1 100 9 0.995324
5 1 100 9 0.000685433
6 1 100 9 0.00340182
1 2 100 9 0.00170329
2 2 100 9 0.00756891
3 2 100 9 0.990707
8 2 100 9 2.03734e-05
4 3 100 9 0.334475
6 3 100 9 0.333313
7 3 100 9 0.332187
8 3 100 9 2.46262e-05
1 4 100 9 0.498254
6 4 100 9 2.04634e-05
7 4 100 9 0.00340822
8 4 100 9 0.498207
9 4 100 9 0.000110182
2 5 100 9 2.77383e-05
3 5 100 9 0.999972
2 6 100 9 4.6266e-05
3 6 100 9 0.00242485
4 6 100 9 0.332603
5 6 100 9 0.664926
1 7 100 9 0.51347
2 7 100 9 0.48653
2 8 100 9 0.000694928
6 8 100 9 0.501452
7 8 100 9 0.497772
8 8 100 9 2.134e-05
9 8 100 9 5.92278e-05
5 9 100 9 0.000143117
6 9 100 9 1.30449e-05
7 9 100 9 0.00728653
8 9 100 9 0.992243
9 9 100 9 0.000313997
2 10 100 9 1.74048e-05
9 10 100 9 0.999983
1 0 100 10 0.251804
2 0 100 10 0.0141966
3 0 100 10 0.0627069
5 0 100 10 0.0067666
7 0 100 10 0.664526
1 1 100 10 0.344954
4 1 100 10 0.000106878
6 1 100 10 0.000299376
7 1 100 10 0.309775
8 1 100 10 1.11078e-05
9 1 100 10 1.25077e-05
10 1 100 10 0.344841
1 2 100 10 0.00278982
2 2 100 10 7.20935e-05
3 2 100 10 0.00159149
5 2 100 10 0.000103664
6 2 100 10 0.000940644
7 2 100 10 0.0164468
9 2 100 10 0.978056
1 3 100 10 0.663335
2 3 100 10 0.33619
3 3 100 10 0.000342589
7 3 100 10 0.000102963
9 3 100 10 2.96694e-05
1 4 100 10 3.45779e-05
2 4 100 10 0.480607
3 4 100 10 0.519139
9 4 100 10 0.000220006
2 5 100 10 0.310918
3 5 100 10 0.00739922
5 5 100 10 0.155903
8 5 100 10 0.189273
9 5 100 10 0.336506
4 6 100 10 0.999693
7 6 100 10 0.000306605
4 7 100 10 4.89811e-05
5 7 100 10 0.000546153
6 7 100 10 0.49951
7 7 100 10 2.50418e-05
8 7 100 10 0.499834
10 7 100 10 3.66319e-05
2 8 100 10 0.364023
5 8 100 10 0.635208
6 8 100 10 0.000431459
9 8 100 10 2.39478e-05
10 8 100 10 0.000313237
3 9 100 10 0.250053
4 9 100 10 0.249976
5 9 100 10 0.250362
6 9 100 10 0.249596
8 9 100 10 1.29702e-05
7 10 100 10 0.999841
8 10 100 10 0.000159236
2 11 100 10 0.0218567
3 11 100 10 0.0740665
5 11 100 10 0.14166
8 11 100 10 0.762417
7 12 100 10 1.5515e-05
8 12 100 10 0.487313
9 12 100 10 0.512672
3 13 100 10 4.18155e-06
8 13 100 10 1.95277e-06
10 13 100 10 0.999994
3 0 100 11 0.0352115
5 0 100 11 0.619194
9 0 100 11 0.345594
1 1 100 11 0.996262
8 1 100 11 0.00373774
8 2 100 11 0.591762
10 2 100 11 0.408238
6 3 100 11 0.000741903
9 3 100 11 0.000409122
10 3 100 11 0.236614
11 3 100 11 0.762235
4 4 100 11 0.000680571
5 4 100 11 0.000936934
6 4 100 11 3.35978e-05
7 4 100 11 0.998349
5 5 100 11 0.0295325
6 5 100 11 0.969583
7 5 100 11 6.08279e-05
11 5 100 11 0.000823452
1 6 100 11 0.00146769
2 6 100 11 9.75467e-05
3 6 100 11 0.0674863
4 6 100 11 0.928436
5 6 100 11 0.00251263
1 7 100 11 0.615707
3 7 100 11 0.260754
5 7 100 11 0.123539
1 8 100 11 0.493263
2 8 100 11 0.501305
3 8 100 11 0.0035015
4 8 100 11 0.00193068
5 9 100 11 0.999248
6 9 100 11 0.000647581
9 9 100 11 0.000104566
9 11 100 11 1
5 12 100 11 8.12116e-05
9 12 100 11 0.999919
3 13 100 11 0.999894
5 13 100 11 0.000101795
10 13 100 11 4.56301e-06
3 14 100 11 0.482197
5 14 100 11 0.485258
9 14 100 11 0.0325446
1 15 100 11 0.0293899
3 15 100 11 0.0640195
4 15 100 11 0.000320674
5 15 100 11 0.885654
6 15 100 11 0.000551332
9 15 100 11 0.0200644
3 16 100 11 1
3 17 100 11 1
3 18 100 11 0.856849
5 18 100 11 0.0080218
9 18 100 11 0.13507
11 18 100 11 5.92906e-05
1 0 100 12 0.000140156
2 0 100 12 0.00632335
3 0 100 12 0.187328
4 0 100 12 0.000313171
5 0 100 12 0.622894
6 0 100 12 0.0817716
7 0 100 12 0.0142957
8 0 100 12 0.00154699
9 0 100 12 0.00415767
10 0 100 12 0.0811187
11 0 100 12 0.000110524
1 1 100 12 0.153656
2 1 100 12 0.438601
3 1 100 12 0.10949
4 1 100 12 0.146528
5 1 100 12 0.0029296
6 1 100 12 0.00218166
7 1 100 12 3.70754e-05
9 1 100 12 0.146572
10 1 100 12 5.14383e-06
1 2 100 12 0.102213
2 2 100 12 0.205004
3 2 100 12 0.305092
4 2 100 12 4.75262e-05
5 2 100 12 0.304437
6 2 100 12 0.0828312
9 2 100 12 0.000361615
10 2 100 12 6.21548e-06
11 2 100 12 7.93241e-06
1 3 100 12 0.217595
2 3 100 12 0.108622
3 3 100 12 0.108861
4 3 100 12 0.21733
5 3 100 12 2.84567e-06
6 3 100 12 0.0175402
7 3 100 12 0.321787
9 3 100 12 2.49848e-05
10 3 100 12 0.0082338
11 3 100 12 2.77857e-06
1 4 100 12 0.287247
2 4 100 12 3.53283e-06
3 4 100 12 0.143993
4 4 100 12 0.144257
5 4 100 12 0.144357
6 4 100 12 0.00373619
7 4 100 12 1.20548e-05
8 4 100 12 2.73724e-05
10 4 100 12 0.132756
11 4 100 12 0.14361
1 5 100 12 0.109342
2 5 100 12 0.000158684
3 5 100 12 0.114439
4 5 100 12 0.114735
5 5 100 12 0.207063
6 5 100 12 0.110051
7 5 100 12 1.01642e-05
8 5 100 12 0.114667
9 5 100 12 0.114841
10 5 100 12 0.114693
1 6 100 12 0.124953
3 6 100 12 1.47306e-05
4 6 100 12 0.124856
5 6 100 12 0.000616704
6 6 100 12 0.249291
7 6 100 12 0.124973
8 6 100 12 0.125194
9 6 100 12 0.124953
10 6 100 12 0.000196323
11 6 100 12 0.124953
2 7 100 12 0.194677
3 7 100 12 0.000161886
4 7 100 12 0.000184692
5 7 100 12 0.00149439
6 7 100 12 0.187017
7 7 100 12 0.0068711
8 7 100 12 0.174935
9 7 100 12 0.0687183
10 7 100 12 0.365925
11 7 100 12 1.57155e-05
2 8 100 12 0.0845548
3 8 100 12 0.106588
5 8 100 12 0.000293668
6 8 100 12 0.0905023
7 8 100 12 0.0892335
8 8 100 12 0.0940088
9 8 100 12 0.178459
10 8 100 12 0.00196971
11 8 100 12 0.354383
12 8 100 12 7.40868e-06
1 9 100 12 3.41484e-06
3 9 100 12 1.91493e-06
4 9 100 12 0.150808
5 9 100 12 0.150151
6 9 100 12 0.149125
7 9 100 12 0.000473097
8 9 100 12 0.00151787
9 9 100 12 0.244885
10 9 100 12 0.15233
11 9 100 12 2.71337e-06
12 9 100 12 0.150702
3 10 100 12 2.16894e-05
4 10 100 12 0.166324
5 10 100 12 0.156104
6 10 100 12 0.000202919
7 10 100 12 0.333339
8 10 100 12 0.166874
9 10 100 12 5.59666e-05
10 10 100 12 0.0101961
11 10 100 12 9.55317e-06
12 10 100 12 0.166874
5 11 100 12 6.83027e-06
6 11 100 12 0.199634
7 11 100 12 3.97957e-05
8 11 100 12 3.39699e-05
9 11 100 12 0.000137002
10 11 100 12 0.395298
11 11 100 12 0.202424
12 11 100 12 0.202426
4 12 100 12 0.000981839
7 12 100 12 0.000903019
8 12 100 12 0.0363495
9 12 100 12 5.76858e-05
10 12 100 12 0.466162
11 12 100 12 0.495093
12 12 100 12 0.000452472
7 13 100 12 0.168772
8 13 100 12 0.493125
9 13 100 12 0.169017
12 13 100 12 0.169087
4 14 100 12 4.71267e-06
5 14 100 12 2.90664e-06
6 14 100 12 1.45908e-06
7 14 100 12 1.92945e-06
8 14 100 12 6.16537e-06
9 14 100 12 2.58039e-05
10 14 100 12 2.94707e-06
11 14 100 12 4.10975e-05
12 14 100 12 0.999913
2 15 100 12 1.31134e-05
9 15 100 12 0.000111955
11 15 100 12 0.00749327
12 15 100 12 0.992382
1 0 100 13 0.000216218
2 0 100 13 0.00755637
3 0 100 13 0.00916934
4 0 100 13 0.00024017
5 0 100 13 0.302556
6 0 100 13 0.000520987
7 0 100 13 0.161313
8 0 100 13 0.348363
9 0 100 13 0.000652265
10 0 100 13 0.000277807
11 0 100 13 0.169122
13 0 100 13 1.33293e-05
1 1 100 13 0.159479
2 1 100 13 0.207817
3 1 100 13 0.0746266
4 1 100 13 0.0752522
5 1 100 13 0.00485636
6 1 100 13 0.147519
7 1 100 13 0.147552
8 1 100 13 0.00688838
9 1 100 13 0.103438
10 1 100 13 0.0716513
11 1 100 13 2.6552e-06
12 1 100 13 0.000917153
1 2 100 13 0.218713
2 2 100 13 0.225516
3 2 100 13 0.111621
4 2 100 13 0.117274
5 2 100 13 0.10942
6 2 100 13 0.107875
7 2 100 13 4.74005e-06
8 2 100 13 1.35507e-05
9 2 100 13 5.31926e-05
10 2 100 13 7.01933e-05
11 2 100 13 0.109407
12 2 100 13 7.1007e-06
13 2 100 13 2.58271e-05
1 3 100 13 0.121834
2 3 100 13 0.0160919
3 3 100 13 0.357982
4 3 100 13 0.243608
5 3 100 13 0.122095
6 3 100 13 3.69211e-05
7 3 100 13 6.4082e-05
8 3 100 13 0.00918104
9 3 100 13 0.00515096
10 3 100 13 0.00349643
11 3 100 13 0.000161874
12 3 100 13 0.120298
1 4 100 13 0.0960373
2 4 100 13 0.188803
3 4 100 13 0.194203
4 4 100 13 0.0958225
5 4 100 13 0.00201735
6 4 100 13 0.00175781
7 4 100 13 0.0958546
8 4 100 13 0.0953978
9 4 100 13 0.149346
10 4 100 13 0.000125609
11 4 100 13 4.95047e-06
13 4 100 13 0.0806307
1 5 100 13 0.265202
2 5 100 13 0.0590659
3 5 100 13 0.0591695
4 5 100 13 0.171674
5 5 100 13 0.119449
6 5 100 13 0.000883289
7 5 100 13 0.0590534
8 5 100 13 0.0116139
9 5 100 13 0.0626776
10 5 100 13 0.00412562
11 5 100 13 0.0688804
12 5 100 13 0.118103
13 5 100 13 0.000101896
1 6 100 13 4.40477e-06
2 6 100 13 0.111758
3 6 100 13 0.054601
4 6 100 13 0.0560044
5 6 100 13 0.218707
6 6 100 13 0.275685
7 6 100 13 0.0563699
8 6 100 13 0.0873098
9 6 100 13 0.0558822
10 6 100 13 0.0519619
11 6 100 13 0.031534
13 6 100 13 0.000181536
1 7 100 13 1.7903e-06
2 7 100 13 0.0890712
3 7 100 13 0.0888345
4 7 100 13 0.0890703
5 7 100 13 0.0906577
6 7 100 13 0.0938066
7 7 100 13 0.178465
8 7 100 13 0.08905
9 7 100 13 4.25841e-06
10 7 100 13 0.0890989
11 7 100 13 0.177904
12 7 100 13 2.48521e-06
13 7 100 13 0.0140338
3 8 100 13 0.000326499
4 8 100 13 0.109629
5 8 100 13 0.000365281
6 8 100 13 0.000482042
7 8 100 13 0.121239
8 8 100 13 0.438039
9 8 100 13 6.10498e-05
10 8 100 13 5.33923e-06
11 8 100 13 0.000313074
12 8 100 13 0.328884
13 8 100 13 0.000655579
3 9 100 13 1.17684e-06
5 9 100 13 0.0713157
6 9 100 13 0.146137
7 9 100 13 0.10181
8 9 100 13 0.0740119
9 9 100 13 0.238992
10 9 100 13 0.0736181
11 9 100 13 0.0736161
13 9 100 13 0.220498
1 10 100 13 5.59854e-05
4 10 100 13 8.07304e-06
9 10 100 13 0.211227
10 10 100 13 0.216871
11 10 100 13 0.355183
12 10 100 13 0.216656
3 11 100 13 1.10473e-05
5 11 100 13 6.9034e-06
6 11 100 13 5.84537e-05
7 11 100 13 0.211271
9 11 100 13 4.31452e-06
10 11 100 13 0.547931
11 11 100 13 0.0295008
12 11 100 13 0.211211
13 11 100 13 5.35571e-06
1 12 100 13 0.00114874
2 12 100 13 1.30321e-05
6 12 100 13 3.22264e-05
7 12 100 13 9.81083e-06
8 12 100 13 0.17346
9 12 100 13 0.128439
10 12 100 13 0.173497
11 12 100 13 0.176481
12 12 100 13 2.47957e-06
13 12 100 13 0.346918
1 13 100 13 0.000620066
2 13 100 13 4.07109e-06
4 13 100 13 6.88428e-05
5 13 100 13 0.0146015
6 13 100 13 1.2973e-05
8 13 100 13 4.41044e-05
9 13 100 13 2.8783e-05
10 13 100 13 0.00167618
11 13 100 13 0.0345184
12 13 100 13 0.316448
13 13 100 13 0.631977
1 14 100 13 5.41085e-06
3 14 100 13 0.00719665
5 14 100 13 0.000313992
7 14 100 13 1.65561e-05
10 14 100 13 0.156746
11 14 100 13 0.0552836
12 14 100 13 0.390244
13 14 100 13 0.390193
1 15 100 13 0.000208274
3 15 100 13 1.27416e-05
4 15 100 13 2.7589e-06
6 15 100 13 0.000867301
7 15 100 13 2.19025e-05
10 15 100 13 0.969248
11 15 100 13 0.0296291
12 15 100 13 8.0873e-06
13 15 100 13 1.76074e-06
3 16 100 13 3.18892e-06
6 16 100 13 0.00011904
10 16 100 13 5.06109e-05
11 16 100 13 4.57786e-06
12 16 100 13 1.28599e-05
13 16 100 13 0.99981
1 17 100 13 0.0750201
6 17 100 13 6.75957e-06
7 17 100 13 1.35177e-05
8 17 100 13 4.12876e-06
10 17 100 13 3.94175e-05
13 17 100 13 0.924916
3 18 100 13 1
3 19 100 13 1
3 20 100 13 1
3 21 100 13 1
3 22 100 13 0.987996
6 22 100 13 6.26309e-05
7 22 100 13 0.0119411
6 23 100 13 0.705184
7 23 100 13 0.294816
1 0 100 14 1.68187e-05
2 0 100 14 0.000705337
3 0 100 14 0.00224711
5 0 100 14 0.00100099
6 0 100 14 0.000275127
7 0 100 14 1.53496e-05
8 0 100 14 0.170754
9 0 100 14 0.165677
10 0 100 14 0.0421209
11 0 100 14 0.263568
12 0 100 14 0.163184
13 0 100 14 0.190436
1 1 100 14 0.492142
2 1 100 14 0.111539
3 1 100 14 0.163317
4 1 100 14 0.164174
5 1 100 14 0.0547121
6 1 100 14 6.08118e-06
7 1 100 14 6.52428e-06
9 1 100 14 0.000143781
10 1 100 14 0.00168159
11 1 100 14 0.00802067
12 1 100 14 0.00424467
13 1 100 14 1.30699e-05
1 2 100 14 0.117051
2 2 100 14 0.347547
3 2 100 14 0.234035
4 2 100 14 0.116838
5 2 100 14 3.60563e-05
6 2 100 14 1.82815e-06
7 2 100 14 8.41618e-07
8 2 100 14 0.000105058
9 2 100 14 9.33658e-05
10 2 100 14 0.00898593
11 2 100 14 0.00027354
12 2 100 14 0.0585001
13 2 100 14 0.0581097
14 2 100 14 0.0584222
1 3 100 14 4.40429e-05
2 3 100 14 0.187678
3 3 100 14 0.273521
4 3 100 14 0.0906688
5 3 100 14 0.182171
6 3 100 14 0.00805815
8 3 100 14 0.000356242
9 3 100 14 0.0908269
10 3 100 14 0.0737953
11 3 100 14 0.0912772
12 3 100 14 0.000267459
13 3 100 14 0.00133661
1 4 100 14 1.88307e-06
2 4 100 14 0.0651283
3 4 100 14 0.0683574
4 4 100 14 0.205736
5 4 100 14 0.0978847
6 4 100 14 0.140469
7 4 100 14 0.136812
8 4 100 14 0.0684213
9 4 100 14 0.00449773
10 4 100 14 0.0643867
11 4 100 14 0.016676
12 4 100 14 0.0683157
13 4 100 14 0.0633133
1 5 100 14 8.45417e-06
3 5 100 14 1.13869e-06
4 5 100 14 0.0496578
5 5 100 14 0.278928
6 5 100 14 0.16286
7 5 100 14 0.200408
8 5 100 14 0.0507685
9 5 100 14 0.0505687
10 5 100 14 0.0511327
11 5 100 14 0.0564985
12 5 100 14 0.0501954
13 5 100 14 0.0489719
14 5 100 14 6.13763e-07
1 6 100 14 0.00288348
2 6 100 14 0.000102998
3 6 100 14 5.99273e-06
5 6 100 14 0.114229
6 6 100 14 0.300959
7 6 100 14 0.228399
8 6 100 14 0.12178
9 6 100 14 0.228556
10 6 100 14 0.000452238
11 6 100 14 2.23615e-05
12 6 100 14 0.000270751
13 6 100 14 0.00233921
1 7 100 14 9.84887e-06
2 7 100 14 5.05664e-05
3 7 100 14 3.07428e-05
4 7 100 14 1.49826e-06
5 7 100 14 0.110749
6 7 100 14 0.11944
7 7 100 14 0.000682887
8 7 100 14 0.338464
9 7 100 14 0.230235
10 7 100 14 0.0892808
11 7 100 14 3.18508e-05
12 7 100 14 1.09682e-05
13 7 100 14 4.9038e-06
14 7 100 14 0.111007
1 8 100 14 0.0977615
4 8 100 14 0.100064
5 8 100 14 0.000253013
6 8 100 14 0.289772
7 8 100 14 0.299167
8 8 100 14 0.0120451
9 8 100 14 3.22834e-06
10 8 100 14 0.100695
11 8 100 14 0.100081
12 8 100 14 0.000153356
13 8 100 14 4.86185e-06
1 9 100 14 2.13897e-05
4 9 100 14 0.000263843
6 9 100 14 1.9587e-05
7 9 100 14 0.000999233
8 9 100 14 0.21392
9 9 100 14 0.00896045
10 9 100 14 0.391501
11 9 100 14 4.35325e-05
12 9 100 14 0.188463
13 9 100 14 2.36017e-06
14 9 100 14 0.195806
1 10 100 14 3.76843e-05
2 10 100 14 3.44294e-06
3 10 100 14 0.000173621
4 10 100 14 1.47246e-05
7 10 100 14 0.000129827
8 10 100 14 0.105164
9 10 100 14 0.133118
10 10 100 14 2.9116e-06
11 10 100 14 0.302679
12 10 100 14 0.156096
13 10 100 14 0.151349
14 10 100 14 0.151232
8 11 100 14 9.18437e-05
9 11 100 14 0.199767
10 11 100 14 0.199378
11 11 100 14 0.100115
12 11 100 14 0.300406
13 11 100 14 0.200227
14 11 100 14 1.55622e-05
4 12 100 14 0.000951994
5 12 100 14 8.8747e-06
8 12 100 14 0.00148951
9 12 100 14 5.03104e-06
10 12 100 14 0.142405
11 12 100 14 1.16438e-05
12 12 100 14 0.28415
13 12 100 14 0.428234
14 12 100 14 0.142744
1 13 100 14 2.15432e-05
4 13 100 14 2.48433e-05
8 13 100 14 0.199075
9 13 100 14 0.000171632
10 13 100 14 0.200007
11 13 100 14 0.398605
12 13 100 14 0.00252453
13 13 100 14 6.05481e-06
14 13 100 14 0.199564
6 14 100 14 2.15588e-06
8 14 100 14 0.19825
9 14 100 14 0.200373
10 14 100 14 0.000538645
14 14 100 14 0.600836
5 15 100 14 4.40852e-06
10 15 100 14 5.4375e-06
11 15 100 14 0.666444
12 15 100 14 6.9139e-06
14 15 100 14 0.333539
2 16 100 14 0.204977
3 16 100 14 0.20888
4 16 100 14 0.209105
6 16 100 14 2.78692e-05
8 16 100 14 5.00603e-06
10 16 100 14 0.000461188
11 16 100 14 0.000639415
12 16 100 14 0.177071
13 16 100 14 0.198833
1 17 100 14 8.22968e-05
3 17 100 14 0.000187809
4 17 100 14 0.000152989
7 17 100 14 0.164374
8 17 100 14 0.195048
9 17 100 14 0.195949
10 17 100 14 0.176625
11 17 100 14 0.000487193
12 17 100 14 0.0616686
13 17 100 14 0.205425
7 18 100 14 1.79918e-06
8 18 100 14 1.7967e-05
10 18 100 14 6.53909e-05
11 18 100 14 1.7776e-05
12 18 100 14 1.27224e-06
14 18 100 14 0.999896
1 0 100 15 0.00380962
2 0 100 15 0.00823053
3 0 100 15 0.003755
4 0 100 15 0.182989
5 0 100 15 4.8876e-05
6 0 100 15 2.64199e-05
7 0 100 15 0.214518
8 0 100 15 0.0410286
9 0 100 15 0.355228
10 0 100 15 0.000852624
11 0 100 15 0.180021
12 0 100 15 0.00167759
13 0 100 15 0.00698858
14 0 100 15 0.000827411
1 1 100 15 0.406284
2 1 100 15 0.244299
3 1 100 15 0.251786
4 1 100 15 0.054252
8 1 100 15 1.14125e-06
9 1 100 15 7.00766e-07
10 1 100 15 2.13574e-05
11 1 100 15 0.0433559
1 2 100 15 0.0956384
2 2 100 15 0.382777
3 2 100 15 0.188727
4 2 100 15 0.193969
5 2 100 15 0.0474693
6 2 100 15 8.11406e-07
7 2 100 15 3.46204e-05
8 2 100 15 0.000852485
9 2 100 15 0.0422674
10 2 100 15 0.0473477
11 2 100 15 0.000779176
12 2 100 15 0.000136195
15 2 100 15 1.07564e-06
1 3 100 15 0.205241
2 3 100 15 0.0061767
3 3 100 15 0.125086
4 3 100 15 0.243864
5 3 100 15 0.244511
6 3 100 15 0.0611732
8 3 100 15 0.0610192
9 3 100 15 0.0528619
10 3 100 15 6.58609e-05
11 3 100 15 1.14885e-06
1 4 100 15 5.83438e-06
2 4 100 15 0.0877275
3 4 100 15 0.130734
4 4 100 15 0.0758905
5 4 100 15 0.0438536
6 4 100 15 0.219543
7 4 100 15 0.0878119
8 4 100 15 0.0439214
9 4 100 15 0.0878303
10 4 100 15 0.0437614
11 4 100 15 0.0855661
12 4 100 15 0.0933451
13 4 100 15 1.35171e-06
14 4 100 15 8.16678e-06
1 5 100 15 1.10976e-05
2 5 100 15 1.56427e-05
3 5 100 15 0.0560136
4 5 100 15 0.130184
5 5 100 15 0.258631
6 5 100 15 0.129124
7 5 100 15 0.19395
8 5 100 15 0.100585
9 5 100 15 6.9739e-06
10 5 100 15 0.00135207
11 5 100 15 0.064897
12 5 100 15 8.54152e-05
13 5 100 15 0.000530321
14 5 100 15 0.0646132
1 6 100 15 2.41564e-06
2 6 100 15 3.19221e-05
3 6 100 15 0.00811177
4 6 100 15 0.00330671
5 6 100 15 0.145297
6 6 100 15 0.198408
7 6 100 15 0.0727525
8 6 100 15 0.000495913
9 6 100 15 0.221827
10 6 100 15 0.145541
11 6 100 15 0.00016338
12 6 100 15 0.131862
13 6 100 15 0.0721691
14 6 100 15 3.08686e-05
15 6 100 15 7.92782e-07
1 7 100 15 0.00332701
3 7 100 15 0.00292427
4 7 100 15 4.91553e-05
5 7 100 15 0.000235375
6 7 100 15 0.0261041
7 7 100 15 0.276915
8 7 100 15 0.356731
9 7 100 15 0.0624417
10 7 100 15 0.0884346
11 7 100 15 0.0912521
12 7 100 15 0.0915273
13 7 100 15 1.00478e-05
14 7 100 15 4.29126e-05
15 7 100 15 5.74106e-06
1 8 100 15 0.0636679
4 8 100 15 0.131326
5 8 100 15 0.0676435
6 8 100 15 0.202027
7 8 100 15 0.128777
8 8 100 15 0.139575
9 8 100 15 0.0831789
10 8 100 15 0.0458132
11 8 100 15 0.0684507
12 8 100 15 0.000901898
13 8 100 15 0.0676749
14 8 100 15 0.000181435
15 8 100 15 0.000783163
1 9 100 15 8.50188e-07
4 9 100 15 0.000839037
5 9 100 15 0.1321
6 9 100 15 5.04615e-06
7 9 100 15 0.0660638
8 9 100 15 0.0653798
9 9 100 15 0.132798
10 9 100 15 0.140403
11 9 100 15 3.93089e-05
12 9 100 15 0.131253
13 9 100 15 0.198673
14 9 100 15 0.132443
15 9 100 15 1.7517e-06
1 10 100 15 6.52396e-05
3 10 100 15 4.92871e-07
5 10 100 15 9.50961e-07
6 10 100 15 9.27721e-06
7 10 100 15 2.56564e-05
8 10 100 15 0.00641424
9 10 100 15 0.0496731
10 10 100 15 0.102314
11 10 100 15 0.192413
12 10 100 15 0.188244
13 10 100 15 0.275437
14 10 100 15 0.185404
1 11 100 15 1.34191e-06
2 11 100 15 1.61796e-05
3 11 100 15 0.000206809
4 11 100 15 2.37002e-06
5 11 100 15 0.0741061
6 11 100 15 0.0785794
7 11 100 15 0.0741069
8 11 100 15 0.165402
9 11 100 15 0.000107866
10 11 100 15 0.153817
11 11 100 15 0.154666
12 11 100 15 0.000165334
13 11 100 15 0.0765047
14 11 100 15 0.148206
15 11 100 15 0.0741127
1 12 100 15 1.4375e-06
4 12 100 15 1.82835e-06
5 12 100 15 1.06719e-06
6 12 100 15 0.0594635
7 12 100 15 0.12653
8 12 100 15 0.0551459
9 12 100 15 0.0690984
10 12 100 15 0.12188
11 12 100 15 0.181939
12 12 100 15 0.189165
13 12 100 15 0.00688879
14 12 100 15 6.01069e-06
15 12 100 15 0.189878
1 13 100 15 7.98081e-05
8 13 100 15 0.167545
9 13 100 15 0.00396209
10 13 100 15 0.0838251
11 13 100 15 4.54662e-06
12 13 100 15 0.0839876
13 13 100 15 0.158571
14 13 100 15 0.251551
15 13 100 15 0.250474
4 14 100 15 1.05906e-05
9 14 100 15 0.152207
10 14 100 15 0.141378
11 14 100 15 0.000833627
12 14 100 15 0.000111485
13 14 100 15 0.000132528
14 14 100 15 0.280934
15 14 100 15 0.424393
9 15 100 15 0.00183934
12 15 100 15 0.124578
13 15 100 15 0.249164
14 15 100 15 0.250745
15 15 100 15 0.373674
9 16 100 15 0.104719
15 16 100 15 0.895281
7 17 100 15 0.160172
9 17 100 15 0.000772739
13 17 100 15 0.308546
14 17 100 15 0.511846
15 17 100 15 0.0186641
4 18 100 15 3.77425e-06
7 18 100 15 2.39328e-06
9 18 100 15 0.000437179
15 18 100 15 0.999557
1 0 100 16 0.00024972
2 0 100 16 0.00205932
3 0 100 16 0.463845
4 0 100 16 0.000304612
5 0 100 16 0.00333335
6 0 100 16 0.0141363
7 0 100 16 0.199794
8 0 100 16 0.0421532
9 0 100 16 0.000282548
10 0 100 16 0.000208438
11 0 100 16 0.156727
12 0 100 16 0.00199285
13 0 100 16 0.00419155
14 0 100 16 0.109762
15 0 100 16 0.00094548
16 0 100 16 1.41062e-05
1 1 100 16 0.510706
2 1 100 16 0.145848
3 1 100 16 0.0639491
4 1 100 16 0.0755851
5 1 100 16 0.0280848
6 1 100 16 0.0364562
7 1 100 16 0.0368553
8 1 100 16 0.000220247
9 1 100 16 5.88893e-06
10 1 100 16 0.0314329
11 1 100 16 0.0364037
15 1 100 16 0.0344524
1 2 100 16 0.141099
2 2 100 16 0.320589
3 2 100 16 0.183321
4 2 100 16 0.102852
5 2 100 16 0.0784171
6 2 100 16 0.00168879
7 2 100 16 0.00020253
8 2 100 16 0.0672297
9 2 100 16 4.29019e-05
10 2 100 16 0.0336397
11 2 100 16 1.73212e-05
13 2 100 16 0.0349221
15 2 100 16 0.035979
1 3 100 16 0.0404782
2 3 100 16 0.199345
3 3 100 16 0.361279
4 3 100 16 0.120292
5 3 100 16 0.120182
6 3 100 16 0.157959
7 3 100 16 5.68665e-05
8 3 100 16 0.000119449
9 3 100 16 3.29089e-05
10 3 100 16 1.39121e-06
11 3 100 16 0.000174619
12 3 100 16 7.68498e-05
13 3 100 16 2.11828e-06
1 4 100 16 0.101543
2 4 100 16 0.0998783
3 4 100 16 0.138816
4 4 100 16 0.178274
5 4 100 16 0.034955
6 4 100 16 0.137937
7 4 100 16 0.0346689
8 4 100 16 0.0688434
9 4 100 16 0.0663313
10 4 100 16 0.103438
11 4 100 16 0.0344055
12 4 100 16 0.000907756
13 4 100 16 4.19696e-07
15 4 100 16 1.69266e-06
1 5 100 16 8.56705e-07
2 5 100 16 0.0244168
3 5 100 16 0.000536534
4 5 100 16 0.119279
5 5 100 16 0.217709
6 5 100 16 0.0942679
7 5 100 16 0.171269
8 5 100 16 0.122103
9 5 100 16 0.0993933
10 5 100 16 0.00429762
11 5 100 16 0.0243159
12 5 100 16 0.0483068
13 5 100 16 0.0245288
14 5 100 16 0.0488594
15 5 100 16 0.00071541
1 6 100 16 0.052172
2 6 100 16 0.0260885
3 6 100 16 8.99053e-07
4 6 100 16 0.0261979
5 6 100 16 0.102945
6 6 100 16 0.183898
7 6 100 16 0.115623
8 6 100 16 0.0770888
9 6 100 16 0.104534
10 6 100 16 0.0260854
11 6 100 16 0.0260886
12 6 100 16 0.0524236
13 6 100 16 0.0521761
14 6 100 16 0.0511367
15 6 100 16 0.103542
1 7 100 16 2.10469e-06
2 7 100 16 3.69391e-06
3 7 100 16 1.31791e-05
4 7 100 16 0.0964811
5 7 100 16 0.049898
6 7 100 16 0.00751853
7 7 100 16 0.103932
8 7 100 16 0.184575
9 7 100 16 0.050099
10 7 100 16 0.0500501
11 7 100 16 0.000465752
12 7 100 16 0.196231
13 7 100 16 0.101801
14 7 100 16 0.0585378
15 7 100 16 0.100388
16 7 100 16 4.74686e-06
1 8 100 16 3.31328e-05
2 8 100 16 0.00327318
3 8 100 16 3.8284e-05
4 8 100 16 1.53979e-06
6 8 100 16 0.00021878
7 8 100 16 0.136677
8 8 100 16 0.105189
9 8 100 16 0.234417
10 8 100 16 0.187944
11 8 100 16 0.0469387
12 8 100 16 0.0469529
13 8 100 16 0.13739
14 8 100 16 0.100371
15 8 100 16 0.00055394
16 8 100 16 1.06338e-06
2 9 100 16 0.0406003
3 9 100 16 0.0437456
4 9 100 16 5.13799e-07
6 9 100 16 0.0436644
7 9 100 16 0.00400864
8 9 100 16 0.126607
9 9 100 16 0.0876027
10 9 100 16 0.130529
11 9 100 16 0.129631
12 9 100 16 0.0436933
13 9 100 16 1.3326e-06
14 9 100 16 0.0879444
15 9 100 16 0.130955
16 9 100 16 0.131017
1 10 100 16 1.10005e-06
3 10 100 16 8.88338e-06
4 10 100 16 0.0443358
5 10 100 16 0.0466556
6 10 100 16 0.037671
7 10 100 16 0.0883577
8 10 100 16 0.000747459
9 10 100 16 0.13409
10 10 100 16 0.221646
11 10 100 16 0.158714
12 10 100 16 0.0904427
13 10 100 16 0.0887363
14 10 100 16 0.0442566
16 10 100 16 0.0443374
4 11 100 16 0.110737
5 11 100 16 0.111055
6 11 100 16 1.88356e-06
7 11 100 16 0.105861
8 11 100 16 0.110737
9 11 100 16 1.45556e-06
10 11 100 16 1.20946e-05
11 11 100 16 0.187296
12 11 100 16 0.0598312
13 11 100 16 0.146521
14 11 100 16 0.0561089
15 11 100 16 0.0556183
16 11 100 16 0.0562184
5 12 100 16 0.0032881
6 12 100 16 0.142453
7 12 100 16 9.79797e-06
9 12 100 16 0.139498
10 12 100 16 0.142465
11 12 100 16 0.0746563
12 12 100 16 0.187153
13 12 100 16 0.0964029
14 12 100 16 0.0715109
15 12 100 16 0.0712905
16 12 100 16 0.0712731
8 13 100 16 0.0649904
9 13 100 16 0.0235739
10 13 100 16 0.0649494
11 13 100 16 0.129934
12 13 100 16 0.0658004
13 13 100 16 0.00128514
14 13 100 16 0.259843
15 13 100 16 0.194802
16 13 100 16 0.194821
2 14 100 16 1.42136e-05
3 14 100 16 1.11328e-06
4 14 100 16 1.19165e-05
5 14 100 16 0.000587878
6 14 100 16 3.00963e-05
7 14 100 16 0.0271218
9 14 100 16 8.04928e-06
10 14 100 16 0.10462
11 14 100 16 0.209177
12 14 100 16 0.030097
13 14 100 16 0.207848
14 14 100 16 0.00167507
15 14 100 16 0.209493
16 14 100 16 0.209315
1 15 100 16 4.13581e-06
3 15 100 16 2.06426e-05
9 15 100 16 4.39571e-05
11 15 100 16 0.0626017
12 15 100 16 0.249174
13 15 100 16 0.125203
14 15 100 16 0.187394
15 15 100 16 0.187805
16 15 100 16 0.187753
4 16 100 16 1.24346e-06
9 16 100 16 3.15402e-05
11 16 100 16 1.63152e-05
12 16 100 16 0.100961
13 16 100 16 0.200158
14 16 100 16 0.198725
15 16 100 16 0.0998167
16 16 100 16 0.400291
2 17 100 16 4.14446e-06
3 17 100 16 1.34416e-06
11 17 100 16 0.262777
12 17 100 16 0.131519
13 17 100 16 0.263038
14 17 100 16 0.211149
16 17 100 16 0.131511
1 18 100 16 3.98286e-05
3 18 100 16 0.000457898
4 18 100 16 9.78316e-05
5 18 100 16 3.06313e-05
6 18 100 16 0.00123287
7 18 100 16 0.000163765
8 18 100 16 1.38069e-05
9 18 100 16 0.000153454
11 18 100 16 0.00556608
12 18 100 16 3.59049e-05
13 18 100 16 0.000240115
14 18 100 16 0.0591408
15 18 100 16 0.468204
16 18 100 16 0.464623
4 19 100 16 2.34423e-06
6 19 100 16 1.94981e-05
8 19 100 16 3.82801e-06
9 19 100 16 0.141034
10 19 100 16 0.156507
11 19 100 16 0.0753948
12 19 100 16 0.156541
13 19 100 16 0.156542
14 19 100 16 0.000700942
15 19 100 16 0.000256257
16 19 100 16 0.312998
9 20 100 16 2.64131e-06
14 20 100 16 0.0153183
15 20 100 16 0.492222
16 20 100 16 0.492457
9 21 100 16 3.2967e-06
14 21 100 16 2.358e-06
16 21 100 16 0.999994
1 0 100 17 0.000135535
2 0 100 17 0.190231
3 0 100 17 0.0341478
4 0 100 17 0.0485272
5 0 100 17 0.057726
6 0 100 17 0.00050015
7 0 100 17 0.173097
8 0 100 17 0.0165371
9 0 100 17 0.0613083
10 0 100 17 0.0173532
11 0 100 17 0.140274
12 0 100 17 0.0497135
13 0 100 17 0.000881357
14 0 100 17 0.0632233
15 0 100 17 0.146232
16 0 100 17 1.04217e-05
17 0 100 17 0.000101447
1 1 100 17 0.204889
2 1 100 17 0.0897373
3 1 100 17 0.0817249
4 1 100 17 0.126862
5 1 100 17 0.126744
6 1 100 17 0.036343
7 1 100 17 0.0238685
8 1 100 17 0.0181208
9 1 100 17 0.0552432
10 1 100 17 0.0314765
11 1 100 17 0.0303749
12 1 100 17 0.000225509
13 1 100 17 0.0366249
14 1 100 17 0.0543222
15 1 100 17 0.0471513
16 1 100 17 0.036292
1 2 100 17 0.246742
2 2 100 17 0.230616
3 2 100 17 0.13938
4 2 100 17 0.11042
5 2 100 17 0.0232033
6 2 100 17 0.024337
7 2 100 17 9.3248e-05
8 2 100 17 0.0227498
9 2 100 17 0.0232251
10 2 100 17 0.0466326
11 2 100 17 0.0468079
12 2 100 17 0.0856886
13 2 100 17 1.15488e-06
14 2 100 17 2.89875e-06
15 2 100 17 9.98008e-05
1 3 100 17 0.0485682
2 3 100 17 0.0640491
3 3 100 17 0.216574
4 3 100 17 0.102521
5 3 100 17 0.144004
6 3 100 17 0.120298
7 3 100 17 0.0243292
8 3 100 17 0.0545287
9 3 100 17 0.0500088
10 3 100 17 0.00136051
11 3 100 17 0.0732331
12 3 100 17 0.0036165
13 3 100 17 0.0242017
14 3 100 17 0.0242127
15 3 100 17 0.0242935
16 3 100 17 0.0242004
1 4 100 17 0.00217013
2 4 100 17 0.0952395
3 4 100 17 0.0887497
4 4 100 17 0.0885678
5 4 100 17 0.0922648
6 4 100 17 0.231153
7 4 100 17 0.132803
8 4 100 17 0.0441225
9 4 100 17 0.0452588
10 4 100 17 0.0852044
11 4 100 17 0.0465069
12 4 100 17 0.000686985
13 4 100 17 0.0464741
14 4 100 17 0.000597605
15 4 100 17 0.000164976
16 4 100 17 6.785e-06
17 4 100 17 2.85345e-05
1 5 100 17 0.115453
2 5 100 17 0.0385784
3 5 100 17 0.0769568
4 5 100 17 0.122987
5 5 100 17 0.187681
6 5 100 17 0.109938
7 5 100 17 0.0765039
8 5 100 17 0.10572
9 5 100 17 0.0436501
10 5 100 17 0.0394058
11 5 100 17 0.00703435
12 5 100 17 3.06368e-05
13 5 100 17 0.0365191
14 5 100 17 0.0395223
15 5 100 17 1.9876e-05
16 5 100 17 9.03824e-07
1 6 100 17 0.0322341
2 6 100 17 0.0324509
3 6 100 17 2.48094e-05
4 6 100 17 0.129029
5 6 100 17 0.0971977
6 6 100 17 0.16632
7 6 100 17 0.193587
8 6 100 17 0.159048
9 6 100 17 0.0324147
10 6 100 17 0.0322211
11 6 100 17 0.00161243
12 6 100 17 0.0643278
14 6 100 17 0.0271956
15 6 100 17 0.000103236
16 6 100 17 0.0322325
17 6 100 17 4.622e-07
1 7 100 17 0.0011273
2 7 100 17 0.0447098
3 7 100 17 0.0829811
4 7 100 17 4.09345e-06
5 7 100 17 0.0834954
6 7 100 17 0.0831459
7 7 100 17 0.204153
8 7 100 17 0.166182
9 7 100 17 0.168425
10 7 100 17 0.000148711
11 7 100 17 0.0814547
12 7 100 17 0.041618
13 7 100 17 0.000261569
14 7 100 17 3.28831e-05
15 7 100 17 0.0416517
16 7 100 17 0.000109009
17 7 100 17 0.000500762
1 8 100 17 0.0297525
2 8 100 17 3.29296e-05
3 8 100 17 9.20311e-05
4 8 100 17 0.03005
5 8 100 17 4.62199e-06
6 8 100 17 0.139706
7 8 100 17 0.119038
8 8 100 17 0.139293
9 8 100 17 0.157258
10 8 100 17 0.235405
11 8 100 17 0.0595989
12 8 100 17 0.0594073
13 8 100 17 0.000554085
14 8 100 17 5.96142e-05
15 8 100 17 0.029702
17 8 100 17 4.57454e-05
1 9 100 17 0.0439279
2 9 100 17 2.2216e-06
3 9 100 17 1.92598e-06
4 9 100 17 0.00157292
5 9 100 17 0.0437472
6 9 100 17 0.0445291
7 9 100 17 0.043765
8 9 100 17 0.176487
9 9 100 17 0.194827
10 9 100 17 0.0903337
11 9 100 17 0.176361
12 9 100 17 0.00073489
13 9 100 17 0.0469973
14 9 100 17 0.00236087
15 9 100 17 0.00258275
16 9 100 17 0.0439278
17 9 100 17 0.0878413
1 10 100 17 0.0278624
2 10 100 17 0.0557384
3 10 100 17 0.0278656
4 10 100 17 0.025965
5 10 100 17 0.0278671
6 10 100 17 4.94826e-05
7 10 100 17 0.0837078
8 10 100 17 0.08392
9 10 100 17 0.0368672
10 10 100 17 0.0832101
11 10 100 17 0.14236
12 10 100 17 0.186461
13 10 100 17 0.108573
14 10 100 17 0.0603473
15 10 100 17 0.0491132
16 10 100 17 2.23992e-06
17 10 100 17 8.96635e-05
2 11 100 17 6.33083e-05
3 11 100 17 0.0328033
4 11 100 17 0.00223581
6 11 100 17 0.0322667
7 11 100 17 2.08892e-06
8 11 100 17 9.78898e-05
9 11 100 17 0.12034
10 11 100 17 0.195316
11 11 100 17 0.0100821
12 11 100 17 0.17514
13 11 100 17 0.109103
14 11 100 17 0.164291
15 11 100 17 0.0592182
16 11 100 17 0.0662559
17 11 100 17 0.0327859
1 12 100 17 9.67802e-06
2 12 100 17 0.00890017
3 12 100 17 1.11023e-06
4 12 100 17 0.0685754
5 12 100 17 0.00257736
6 12 100 17 6.72869e-07
7 12 100 17 0.0799633
8 12 100 17 0.0441613
9 12 100 17 0.0400436
10 12 100 17 9.43825e-06
11 12 100 17 0.0415962
12 12 100 17 0.119113
13 12 100 17 0.148447
14 12 100 17 0.119464
15 12 100 17 0.131643
16 12 100 17 0.195318
17 12 100 17 0.000176497
2 13 100 17 0.0325373
3 13 100 17 8.65529e-06
4 13 100 17 0.00997087
5 13 100 17 0.0038651
6 13 100 17 0.000462259
7 13 100 17 2.60647e-06
8 13 100 17 5.75503e-05
9 13 100 17 1.43129e-05
10 13 100 17 0.0702446
11 13 100 17 0.104033
12 13 100 17 0.176946
13 13 100 17 0.141538
14 13 100 17 0.177864
15 13 100 17 0.138577
16 13 100 17 0.00334679
17 13 100 17 0.140532
1 14 100 17 3.08006e-05
2 14 100 17 0.0321255
3 14 100 17 0.0597593
4 14 100 17 0.0299166
5 14 100 17 0.0595272
6 14 100 17 3.74958e-05
7 14 100 17 6.07477e-06
8 14 100 17 2.39884e-05
9 14 100 17 3.20379e-05
10 14 100 17 4.05374e-05
11 14 100 17 0.04227
12 14 100 17 0.00307306
13 14 100 17 0.208333
14 14 100 17 0.144634
15 14 100 17 0.180022
16 14 100 17 0.209302
17 14 100 17 0.0308662
2 15 100 17 0.0406207
3 15 100 17 0.0405933
6 15 100 17 0.0406122
8 15 100 17 0.0404568
9 15 100 17 0.000100684
10 15 100 17 2.93288e-05
11 15 100 17 0.0795924
12 15 100 17 0.00733045
13 15 100 17 0.0393817
14 15 100 17 0.0407434
15 15 100 17 0.142638
16 15 100 17 0.28428
17 15 100 17 0.243622
2 16 100 17 2.79219e-06
3 16 100 17 7.11366e-06
6 16 100 17 5.58425e-06
7 16 100 17 0.000477032
8 16 100 17 4.03067e-06
9 16 100 17 1.28327e-05
10 16 100 17 0.065033
11 16 100 17 8.15867e-05
12 16 100 17 8.67006e-07
13 16 100 17 0.0607876
14 16 100 17 0.124895
15 16 100 17 0.124668
16 16 100 17 0.125085
17 16 100 17 0.49894
1 17 100 17 3.74972e-05
2 17 100 17 4.11564e-05
9 17 100 17 0.0765823
10 17 100 17 0.0790831
11 17 100 17 1.21711e-06
12 17 100 17 0.0790995
13 17 100 17 0.0790992
14 17 100 17 0.0791551
15 17 100 17 0.0533284
16 17 100 17 0.158161
17 17 100 17 0.395412
9 18 100 17 3.51093e-05
10 18 100 17 2.45507e-05
14 18 100 17 1.46448e-05
15 18 100 17 0.000796041
17 18 100 17 0.99913
2 19 100 17 1.79119e-06
5 19 100 17 3.57717e-06
6 19 100 17 3.97103e-06
9 19 100 17 3.92075e-06
11 19 100 17 4.00969e-05
12 19 100 17 2.54935e-05
13 19 100 17 1.38099e-06
16 19 100 17 0.499151
17 19 100 17 0.500769
2 20 100 17 0.0383105
11 20 100 17 0.0637916
13 20 100 17 0.0099872
16 20 100 17 0.686328
17 20 100 17 0.201583
11 21 100 17 0.000688033
12 21 100 17 0.0543811
13 21 100 17 0.0173817
16 21 100 17 0.926432
17 21 100 17 0.00111733
17 22 100 17 1
1 0 100 18 0.000583892
2 0 100 18 0.0180391
3 0 100 18 0.00847914
4 0 100 18 0.0673105
5 0 100 18 0.0336481
6 0 100 18 0.188988
7 0 100 18 0.00235504
8 0 100 18 0.0911916
9 0 100 18 0.0320754
10 0 100 18 0.0106492
11 0 100 18 0.0809277
12 0 100 18 0.0918076
13 0 100 18 0.0784508
14 0 100 18 0.00102717
15 0 100 18 0.177979
16 0 100 18 0.116436
17 0 100 18 5.0679e-05
18 0 100 18 1.40829e-06
1 1 100 18 0.443523
2 1 100 18 0.172742
3 1 100 18 0.154039
4 1 100 18 0.0430831
5 1 100 18 0.00244138
6 1 100 18 0.0432375
7 1 100 18 0.039092
8 1 100 18 0.0214983
9 1 100 18 0.0214871
10 1 100 18 2.20559e-06
11 1 100 18 0.000930669
12 1 100 18 0.0215267
13 1 100 18 0.0149614
14 1 100 18 2.50125e-05
15 1 100 18 1.79506e-05
16 1 100 18 3.17473e-06
17 1 100 18 0.0213896
1 2 100 18 0.176674
2 2 100 18 0.322991
3 2 100 18 0.204139
4 2 100 18 0.110182
5 2 100 18 0.0743054
6 2 100 18 0.000453123
7 2 100 18 0.00247515
8 2 100 18 0.0368968
9 2 100 18 0.0367834
10 2 100 18 0.0184487
11 2 100 18 0.000306879
12 2 100 18 8.92245e-05
13 2 100 18 4.01858e-06
14 2 100 18 5.63433e-06
15 2 100 18 0.0162094
16 2 100 18 3.63443e-05
1 3 100 18 0.0857361
2 3 100 18 0.17493
3 3 100 18 0.222944
4 3 100 18 0.0946037
5 3 100 18 0.124786
6 3 100 18 0.0629299
7 3 100 18 0.0209043
8 3 100 18 0.0208926
9 3 100 18 0.02105
10 3 100 18 0.042738
11 3 100 18 0.0409275
12 3 100 18 0.0210058
13 3 100 18 0.00246675
14 3 100 18 1.74606e-05
15 3 100 18 0.022228
16 3 100 18 0.0209166
17 3 100 18 0.020923
1 4 100 18 0.070197
2 4 100 18 0.103075
3 4 100 18 0.0799075
4 4 100 18 0.22649
5 4 100 18 0.0539341
6 4 100 18 0.0750453
7 4 100 18 0.0997022
8 4 100 18 8.79176e-05
9 4 100 18 0.0263126
10 4 100 18 0.0522439
11 4 100 18 0.079554
12 4 100 18 0.0265181
13 4 100 18 0.0267472
14 4 100 18 0.0289761
15 4 100 18 0.000109234
16 4 100 18 0.0245755
17 4 100 18 0.0264998
18 4 100 18 2.46884e-05
1 5 100 18 0.000289791
2 5 100 18 0.0200196
3 5 100 18 0.0589001
4 5 100 18 0.158721
5 5 100 18 0.117246
6 5 100 18 0.139838
7 5 100 18 0.124083
8 5 100 18 0.119704
9 5 100 18 0.0597969
10 5 100 18 0.0398612
11 5 100 18 0.0596973
12 5 100 18 1.44879e-05
13 5 100 18 0.0395516
14 5 100 18 0.0180862
15 5 100 18 0.0199367
16 5 100 18 0.00440886
17 5 100 18 0.0198448
1 6 100 18 0.0254117
2 6 100 18 0.0251003
3 6 100 18 0.0507777
4 6 100 18 0.100086
5 6 100 18 0.0915916
6 6 100 18 0.201797
7 6 100 18 0.152699
8 6 100 18 0.100222
9 6 100 18 0.0501433
10 6 100 18 0.0250872
11 6 100 18 6.60223e-06
12 6 100 18 0.02525
13 6 100 18 0.000191188
14 6 100 18 0.0746352
15 6 100 18 0.0500564
16 6 100 18 0.00186527
17 6 100 18 0.0250789
18 6 100 18 1.51081e-06
1 7 100 18 0.000255863
3 7 100 18 0.0261629
4 7 100 18 0.0510608
5 7 100 18 0.156542
6 7 100 18 0.0773534
7 7 100 18 0.182951
8 7 100 18 0.159749
9 7 100 18 0.112655
10 7 100 18 0.0777182
11 7 100 18 0.0543064
12 7 100 18 0.0267409
13 7 100 18 0.0286489
14 7 100 18 8.9003e-05
15 7 100 18 0.000258755
16 7 100 18 0.0454862
17 7 100 18 3.89907e-07
18 7 100 18 2.17358e-05
1 8 100 18 0.0390222
2 8 100 18 0.0195968
3 8 100 18 0.0391735
4 8 100 18 0.0144404
5 8 100 18 0.0794894
6 8 100 18 0.117403
7 8 100 18 0.134076
8 8 100 18 0.131584
9 8 100 18 0.108851
10 8 100 18 0.0785119
11 8 100 18 0.0202375
12 8 100 18 0.0391855
13 8 100 18 0.004085
14 8 100 18 0.0585028
15 8 100 18 0.056905
16 8 100 18 0.0196399
17 8 100 18 0.0391816
18 8 100 18 0.00011547
2 9 100 18 3.44773e-06
3 9 100 18 4.17541e-06
4 9 100 18 0.0232055
5 9 100 18 0.0651654
6 9 100 18 0.0696698
7 9 100 18 0.0538331
8 9 100 18 0.140619
9 9 100 18 0.163656
10 9 100 18 0.0930763
11 9 100 18 0.0921274
12 9 100 18 0.0928716
13 9 100 18 0.0698952
14 9 100 18 0.000599353
15 9 100 18 1.57675e-05
16 9 100 18 0.0423219
17 9 100 18 0.0466302
18 9 100 18 0.0463053
1 10 100 18 5.22665e-06
2 10 100 18 1.05651e-06
3 10 100 18 3.6043e-05
4 10 100 18 2.47817e-06
5 10 100 18 0.0296711
6 10 100 18 0.0298172
7 10 100 18 0.0300904
8 10 100 18 0.0299839
9 10 100 18 0.179368
10 10 100 18 0.271576
11 10 100 18 0.122455
12 10 100 18 0.0298729
13 10 100 18 0.0889491
14 10 100 18 0.059602
15 10 100 18 0.033935
16 10 100 18 0.0350002
17 10 100 18 0.0298118
18 10 100 18 0.0298223
1 11 100 18 1.06261e-06
3 11 100 18 2.86344e-05
4 11 100 18 4.46778e-06
6 11 100 18 0.0270268
7 11 100 18 0.0799258
8 11 100 18 0.0539508
9 11 100 18 0.0829044
10 11 100 18 0.131479
11 11 100 18 0.246222
12 11 100 18 0.188786
13 11 100 18 0.0272837
14 11 100 18 0.0540641
15 11 100 18 0.0272718
16 11 100 18 0.0540462
17 11 100 18 6.36103e-06
18 11 100 18 0.0269989
1 12 100 18 0.0229003
4 12 100 18 0.0229017
5 12 100 18 0.0229002
6 12 100 18 0.0229004
7 12 100 18 0.0155123
8 12 100 18 0.0686897
9 12 100 18 0.0815255
10 12 100 18 0.0881976
11 12 100 18 0.0891048
12 12 100 18 0.229202
13 12 100 18 0.137316
14 12 100 18 0.091558
15 12 100 18 0.0385666
16 12 100 18 3.90849e-06
17 12 100 18 0.0458055
18 12 100 18 0.0229153
1 13 100 18 1.17967e-05
2 13 100 18 0.029947
3 13 100 18 2.36357e-05
5 13 100 18 4.62986e-05
6 13 100 18 1.32171e-05
7 13 100 18 0.000411268
8 13 100 18 0.00035449
9 13 100 18 0.0306429
10 13 100 18 0.0898392
11 13 100 18 0.0285672
12 13 100 18 0.0586197
13 13 100 18 0.35925
14 13 100 18 0.093214
15 13 100 18 0.129389
16 13 100 18 0.0898549
17 13 100 18 0.0299453
18 13 100 18 0.0598702
1 14 100 18 0.0216257
2 14 100 18 3.2818e-07
3 14 100 18 0.0216225
4 14 100 18 0.0432466
5 14 100 18 0.043246
6 14 100 18 7.27209e-06
7 14 100 18 3.28051e-07
8 14 100 18 2.46961e-05
9 14 100 18 8.75357e-07
10 14 100 18 0.0216361
11 14 100 18 0.106605
12 14 100 18 0.0865058
13 14 100 18 0.0422546
14 14 100 18 0.177072
15 14 100 18 0.133574
16 14 100 18 0.151177
17 14 100 18 0.108143
18 14 100 18 0.0432585
1 15 100 18 1.57109e-05
2 15 100 18 1.28906e-06
3 15 100 18 1.5799e-06
4 15 100 18 7.65334e-05
5 15 100 18 0.0263271
6 15 100 18 0.0263038
7 15 100 18 0.00440901
8 15 100 18 5.23841e-06
9 15 100 18 0.0263069
10 15 100 18 0.026319
11 15 100 18 0.0524446
12 15 100 18 0.130971
13 15 100 18 0.0803269
14 15 100 18 0.148943
15 15 100 18 0.108635
16 15 100 18 0.105796
17 15 100 18 0.157868
18 15 100 18 0.105249
1 16 100 18 9.77963e-07
2 16 100 18 1.14334e-06
4 16 100 18 0.0184032
5 16 100 18 4.5663e-07
6 16 100 18 1.52791e-06
7 16 100 18 0.0283558
8 16 100 18 3.0691e-06
10 16 100 18 2.66253e-06
11 16 100 18 0.000177881
12 16 100 18 0.0344074
13 16 100 18 0.101936
14 16 100 18 0.00162983
15 16 100 18 0.267706
16 16 100 18 0.206851
17 16 100 18 0.136179
18 16 100 18 0.204344
1 17 100 18 6.62303e-07
5 17 100 18 0.0422965
6 17 100 18 0.0423057
7 17 100 18 0.0423069
8 17 100 18 0.0422486
10 17 100 18 1.29719e-06
13 17 100 18 0.0428121
14 17 100 18 0.126012
15 17 100 18 0.0845138
16 17 100 18 0.112128
17 17 100 18 0.21158
18 17 100 18 0.253794
3 18 100 18 0.0416573
4 18 100 18 0.0416573
5 18 100 18 0.0416573
8 18 100 18 0.0415172
11 18 100 18 0.0416573
13 18 100 18 0.0832803
14 18 100 18 0.125343
15 18 100 18 0.0416232
16 18 100 18 0.166695
17 18 100 18 0.166629
18 18 100 18 0.208283
1 19 100 18 1.0652e-06
4 19 100 18 6.19759e-06
12 19 100 18 1.28604e-06
14 19 100 18 0.100218
15 19 100 18 0.0998639
16 19 100 18 0.299737
17 19 100 18 0.200065
18 19 100 18 0.300107
1 20 100 18 3.71219e-06
2 20 100 18 1.93996e-06
4 20 100 18 1.95412e-06
7 20 100 18 5.29189e-07
8 20 100 18 8.56202e-07
9 20 100 18 1.09334e-06
10 20 100 18 2.18113e-06
11 20 100 18 2.31384e-06
12 20 100 18 1.2014e-05
13 20 100 18 1.22245e-05
14 20 100 18 0.134805
15 20 100 18 0.0387665
16 20 100 18 0.0016369
17 20 100 18 0.274755
18 20 100 18 0.549998
1 21 100 18 0.000104267
4 21 100 18 5.08112e-06
5 21 100 18 6.02563e-07
7 21 100 18 7.28619e-07
10 21 100 18 9.55751e-07
11 21 100 18 0.000619102
12 21 100 18 6.06598e-07
13 21 100 18 1.90503e-05
14 21 100 18 2.9856e-06
15 21 100 18 1.17232e-06
16 21 100 18 6.03553e-05
17 21 100 18 1.24608e-06
18 21 100 18 0.999184
4 22 100 18 1.6621e-05
13 22 100 18 0.00114331
14 22 100 18 0.00324032
15 22 100 18 1.94896e-05
16 22 100 18 4.20107e-06
18 22 100 18 0.995576
13 23 100 18 9.26042e-06
14 23 100 18 4.68127e-05
15 23 100 18 0.999944
13 24 100 18 0.000506453
14 24 100 18 0.997452
15 24 100 18 0.00203894
16 24 100 18 2.72605e-06
13 25 100 18 0.000112547
14 25 100 18 2.30066e-05
15 25 100 18 0.000830715
16 25 100 18 0.999034
13 26 100 18 6.91971e-06
14 26 100 18 8.38731e-05
17 26 100 18 0.999909
13 27 100 18 0.000164703
14 27 100 18 6.33138e-06
18 27 100 18 0.999829
1 0 100 19 0.00100518
2 0 100 19 0.103892
3 0 100 19 0.125959
4 0 100 19 0.0528935
5 0 100 19 0.0404642
6 0 100 19 0.0103451
7 0 100 19 0.0404382
8 0 100 19 0.00102663
9 0 100 19 0.0520925
10 0 100 19 0.0505574
11 0 100 19 0.0637724
12 0 100 19 0.0867107
13 0 100 19 0.0134303
14 0 100 19 0.0374544
15 0 100 19 0.0740204
16 0 100 19 0.154782
17 0 100 19 0.0903627
18 0 100 19 0.000793296
1 1 100 19 0.401838
2 1 100 19 0.167923
3 1 100 19 0.115832
4 1 100 19 0.115769
5 1 100 19 0.0661451
6 1 100 19 0.0496586
7 1 100 19 0.0326301
8 1 100 19 0.0165571
9 1 100 19 1.45557e-06
10 1 100 19 0.0330953
11 1 100 19 6.41536e-07
12 1 100 19 4.46593e-06
13 1 100 19 0.000294629
14 1 100 19 2.69211e-05
15 1 100 19 0.000196123
16 1 100 19 1.53134e-05
17 1 100 19 7.04133e-07
18 1 100 19 1.13371e-05
1 2 100 19 0.14632
2 2 100 19 0.26646
3 2 100 19 0.148034
4 2 100 19 0.144674
5 2 100 19 0.0880756
6 2 100 19 0.0884133
7 2 100 19 0.0551344
8 2 100 19 0.0282032
9 2 100 19 0.0147772
10 2 100 19 5.60909e-06
11 2 100 19 0.014906
12 2 100 19 0.000167265
13 2 100 19 0.00410725
14 2 100 19 6.28669e-05
15 2 100 19 5.12024e-05
16 2 100 19 0.000606008
17 2 100 19 1.46986e-06
1 3 100 19 0.044371
2 3 100 19 0.0436136
3 3 100 19 0.189046
4 3 100 19 0.110754
5 3 100 19 0.210027
6 3 100 19 0.167537
7 3 100 19 0.0842347
8 3 100 19 0.0614359
9 3 100 19 0.0211388
10 3 100 19 7.91629e-05
11 3 100 19 0.00160297
12 3 100 19 0.0210347
13 3 100 19 6.14717e-07
14 3 100 19 8.08744e-06
15 3 100 19 0.00139376
16 3 100 19 0.00180265
17 3 100 19 0.0210373
18 3 100 19 0.0208825
1 4 100 19 0.0419655
2 4 100 19 0.125957
3 4 100 19 0.123452
4 4 100 19 0.0963064
5 4 100 19 0.0643087
6 4 100 19 0.0739049
7 4 100 19 0.0701058
8 4 100 19 0.0218195
9 4 100 19 0.0645092
10 4 100 19 0.102501
11 4 100 19 0.0617302
12 4 100 19 0.0422959
13 4 100 19 0.0213119
14 4 100 19 0.0212307
15 4 100 19 0.021693
16 4 100 19 0.0227343
17 4 100 19 0.00304709
18 4 100 19 0.0211255
19 4 100 19 1.18166e-06
1 5 100 19 0.0513649
2 5 100 19 0.0382274
3 5 100 19 0.0191587
4 5 100 19 0.0634592
5 5 100 19 0.113083
6 5 100 19 0.0572289
7 5 100 19 0.150228
8 5 100 19 0.160491
9 5 100 19 0.0976827
10 5 100 19 0.0959827
11 5 100 19 0.019333
12 5 100 19 0.0191186
13 5 100 19 0.0190861
14 5 100 19 0.0191482
15 5 100 19 0.0192106
16 5 100 19 0.0190716
17 5 100 19 0.0190604
18 5 100 19 0.0190645
19 5 100 19 2.22263e-07
1 6 100 19 5.36222e-05
2 6 100 19 0.0211194
3 6 100 19 0.020682
4 6 100 19 0.0983947
5 6 100 19 0.125798
6 6 100 19 0.129391
7 6 100 19 0.0619509
8 6 100 19 0.097742
9 6 100 19 0.0865845
10 6 100 19 0.0832236
11 6 100 19 0.0834469
12 6 100 19 0.0413774
13 6 100 19 0.0619811
14 6 100 19 0.0419821
15 6 100 19 0.0215456
16 6 100 19 9.79114e-05
17 6 100 19 0.0208725
18 6 100 19 0.00375636
19 6 100 19 2.29813e-07
1 7 100 19 5.4466e-06
2 7 100 19 5.57034e-06
3 7 100 19 0.0207882
4 7 100 19 1.29769e-06
5 7 100 19 0.0625102
6 7 100 19 0.104936
7 7 100 19 0.0584101
8 7 100 19 0.0908031
9 7 100 19 0.167573
10 7 100 19 0.150598
11 7 100 19 0.103591
12 7 100 19 0.0439475
13 7 100 19 0.0633967
14 7 100 19 0.0605466
15 7 100 19 0.0142496
16 7 100 19 0.0209985
17 7 100 19 0.0207328
18 7 100 19 0.0167553
19 7 100 19 0.000150908
2 8 100 19 5.97783e-07
3 8 100 19 4.35446e-05
4 8 100 19 0.0672192
5 8 100 19 5.53963e-06
6 8 100 19 0.00909713
7 8 100 19 0.119264
8 8 100 19 0.172832
9 8 100 19 0.0212325
10 8 100 19 0.0685163
11 8 100 19 0.180253
12 8 100 19 0.0681258
13 8 100 19 0.0462194
14 8 100 19 0.0450913
15 8 100 19 0.112632
16 8 100 19 0.0217339
17 8 100 19 0.0226351
18 8 100 19 0.0450907
19 8 100 19 7.38307e-06
1 9 100 19 4.25494e-07
2 9 100 19 0.000197609
3 9 100 19 0.0434863
4 9 100 19 0.06528
5 9 100 19 0.043449
6 9 100 19 0.0355901
7 9 100 19 0.0434823
8 9 100 19 0.0870233
9 9 100 19 0.152256
10 9 100 19 0.0556646
11 9 100 19 0.065271
12 9 100 19 0.16679
13 9 100 19 0.0371244
14 9 100 19 0.0649967
15 9 100 19 0.00642197
16 9 100 19 0.067644
17 9 100 19 0.0435887
18 9 100 19 0.0217235
19 9 100 19 9.24269e-06
1 10 100 19 6.05364e-05
2 10 100 19 0.0217655
3 10 100 19 1.61027e-05
4 10 100 19 0.000171914
5 10 100 19 0.000919679
6 10 100 19 0.042678
7 10 100 19 0.0435362
8 10 100 19 0.0423677
9 10 100 19 0.0654836
10 10 100 19 0.0436433
11 10 100 19 0.0217986
12 10 100 19 0.0711477
13 10 100 19 0.228933
14 10 100 19 0.0655797
15 10 100 19 0.0657506
16 10 100 19 0.0860537
17 10 100 19 0.108432
18 10 100 19 0.0482383
19 10 100 19 0.0434242
1 11 100 19 1.50783e-06
2 11 100 19 0.000250206
3 11 100 19 4.51134e-05
4 11 100 19 7.58509e-07
5 11 100 19 0.0448141
6 11 100 19 0.0686838
7 11 100 19 0.0686374
8 11 100 19 0.0445007
9 11 100 19 0.0457823
10 11 100 19 0.115124
11 11 100 19 0.0706228
12 11 100 19 0.0853835
13 11 100 19 0.0464956
14 11 100 19 0.137285
15 11 100 19 0.0693065
16 11 100 19 0.00403228
17 11 100 19 0.0455623
18 11 100 19 0.0863429
19 11 100 19 0.0671291
1 12 100 19 0.000121306
3 12 100 19 6.58368e-05
4 12 100 19 5.09574e-06
7 12 100 19 1.33393e-06
8 12 100 19 3.24669e-05
9 12 100 19 0.0624052
10 12 100 19 0.038669
11 12 100 19 0.0421631
12 12 100 19 0.0866684
13 12 100 19 0.166037
14 12 100 19 0.120039
15 12 100 19 0.110664
16 12 100 19 0.0618235
17 12 100 19 0.0823462
18 12 100 19 0.12464
19 12 100 19 0.104318
1 13 100 19 0.000163727
2 13 100 19 0.00332879
3 13 100 19 3.04287e-05
5 13 100 19 1.25465e-06
6 13 100 19 2.46e-05
7 13 100 19 0.0243109
8 13 100 19 0.0242904
9 13 100 19 0.0482284
10 13 100 19 0.00412135
11 13 100 19 0.153485
12 13 100 19 0.117854
13 13 100 19 0.0976581
14 13 100 19 0.0765363
15 13 100 19 0.0971271
16 13 100 19 0.119923
17 13 100 19 0.0632938
18 13 100 19 0.048637
19 13 100 19 0.120986
4 14 100 19 4.43882e-06
5 14 100 19 6.62044e-07
6 14 100 19 6.33209e-05
8 14 100 19 0.00212442
9 14 100 19 5.72406e-06
10 14 100 19 0.0797257
11 14 100 19 0.00084259
12 14 100 19 3.65638e-05
13 14 100 19 0.0735811
14 14 100 19 0.253279
15 14 100 19 0.0834541
16 14 100 19 0.166763
17 14 100 19 0.21618
18 14 100 19 0.123916
19 14 100 19 2.32512e-05
1 15 100 19 5.91804e-06
3 15 100 19 0.0674519
4 15 100 19 4.91964e-07
8 15 100 19 1.00889e-06
10 15 100 19 1.09693e-06
11 15 100 19 0.0674766
12 15 100 19 0.0347148
13 15 100 19 0.000478736
14 15 100 19 0.0672286
15 15 100 19 0.25722
16 15 100 19 0.205813
17 15 100 19 0.0632831
18 15 100 19 0.135122
19 15 100 19 0.101202
1 16 100 19 0.0343053
2 16 100 19 2.45892e-06
3 16 100 19 1.22502e-06
4 16 100 19 1.37954e-05
5 16 100 19 3.66892e-05
6 16 100 19 4.73924e-06
7 16 100 19 0.0348601
8 16 100 19 0.0348588
9 16 100 19 0.0348701
10 16 100 19 4.173e-07
11 16 100 19 9.25278e-05
12 16 100 19 0.103821
13 16 100 19 0.0348751
14 16 100 19 0.0348653
15 16 100 19 0.0987309
16 16 100 19 0.100904
17 16 100 19 0.174039
18 16 100 19 0.139425
19 16 100 19 0.174293
4 17 100 19 7.3217e-05
5 17 100 19 6.57125e-07
9 17 100 19 0.00164513
10 17 100 19 2.72637e-05
12 17 100 19 0.0685778
13 17 100 19 0.0694981
14 17 100 19 0.0691847
15 17 100 19 0.109961
16 17 100 19 0.163543
17 17 100 19 0.205999
18 17 100 19 0.207714
19 17 100 19 0.103777
1 18 100 19 1.71025e-05
10 18 100 19 4.70338e-06
11 18 100 19 1.84982e-06
12 18 100 19 0.000611562
13 18 100 19 0.0786788
14 18 100 19 0.0694403
15 18 100 19 2.54636e-05
16 18 100 19 0.132692
17 18 100 19 5.57093e-05
18 18 100 19 0.195963
19 18 100 19 0.52251
1 19 100 19 4.0322e-06
10 19 100 19 0.142958
16 19 100 19 0.00077241
17 19 100 19 0.284375
19 19 100 19 0.571891
1 20 100 19 0.000194876
2 20 100 19 4.20465e-05
6 20 100 19 0.142599
8 20 100 19 0.142612
10 20 100 19 0.14258
11 20 100 19 0.142613
17 20 100 19 0.00152512
18 20 100 19 0.285225
19 20 100 19 0.142608
1 21 100 19 0.0943332
2 21 100 19 0.00115122
3 21 100 19 2.33621e-05
5 21 100 19 2.13904e-05
6 21 100 19 0.00181183
7 21 100 19 3.64889e-05
8 21 100 19 7.86725e-07
9 21 100 19 0.0158403
10 21 100 19 0.000140738
11 21 100 19 1.017e-05
12 21 100 19 0.000122072
13 21 100 19 1.35025e-05
14 21 100 19 0.000106438
15 21 100 19 0.000267273
16 21 100 19 0.000494365
17 21 100 19 8.0383e-06
18 21 100 19 2.83152e-06
19 21 100 19 0.885616
1 22 100 19 3.07674e-06
2 22 100 19 0.00046821
5 22 100 19 0.0111458
7 22 100 19 0.987318
8 22 100 19 0.000234395
9 22 100 19 9.16493e-06
10 22 100 19 0.000115982
11 22 100 19 5.08705e-05
12 22 100 19 3.32339e-05
14 22 100 19 0.000445855
15 22 100 19 9.64792e-05
16 22 100 19 6.18373e-05
18 22 100 19 1.70027e-05
3 23 100 19 0.246558
4 23 100 19 0.246742
5 23 100 19 0.00338176
7 23 100 19 2.77211e-05
8 23 100 19 1.04349e-06
9 23 100 19 5.89548e-05
10 23 100 19 6.96254e-05
11 23 100 19 0.080916
12 23 100 19 1.67378e-05
13 23 100 19 5.30903e-06
14 23 100 19 7.76666e-06
15 23 100 19 0.246416
16 23 100 19 0.0048194
17 23 100 19 2.58996e-05
18 23 100 19 0.000141184
19 23 100 19 0.170813
2 24 100 19 4.45605e-05
5 24 100 19 9.89392e-05
12 24 100 19 3.11325e-06
14 24 100 19 2.05581e-06
16 24 100 19 2.68627e-05
19 24 100 19 0.999824
1 0 100 20 0.000621126
2 0 100 20 0.0530312
3 0 100 20 0.0237621
4 0 100 20 0.0144839
5 0 100 20 0.000801846
6 0 100 20 0.00369389
7 0 100 20 0.0159565
8 0 100 20 0.081451
9 0 100 20 0.0522974
10 0 100 20 0.0445833
11 0 100 20 0.0749649
12 0 100 20 0.0741502
13 0 100 20 0.0414107
14 0 100 20 0.11854
15 0 100 20 0.0283468
16 0 100 20 0.0362854
17 0 100 20 0.103987
18 0 100 20 0.231041
19 0 100 20 0.000591346
1 1 100 20 0.491851
2 1 100 20 0.164169
3 1 100 20 0.0730733
4 1 100 20 0.0702046
5 1 100 20 0.0183061
6 1 100 20 0.0364608
7 1 100 20 0.0364117
8 1 100 20 0.0181881
9 1 100 20 0.0357228
10 1 100 20 0.000483939
11 1 100 20 2.85276e-06
12 1 100 20 1.37272e-06
13 1 100 20 1.00716e-05
14 1 100 20 0.000416096
15 1 100 20 7.66004e-06
16 1 100 20 0.0181897
17 1 100 20 0.0182253
18 1 100 20 0.0182694
19 1 100 20 6.34028e-06
1 2 100 20 0.110825
2 2 100 20 0.234782
3 2 100 20 0.257909
4 2 100 20 0.190667
5 2 100 20 0.0865219
6 2 100 20 0.0139133
7 2 100 20 6.16469e-05
8 2 100 20 0.005192
9 2 100 20 4.25817e-06
10 2 100 20 0.0125926
11 2 100 20 0.0125374
12 2 100 20 0.0111553
13 2 100 20 8.47078e-07
14 2 100 20 5.67489e-05
15 2 100 20 5.6504e-05
17 2 100 20 0.0125119
18 2 100 20 0.0168619
19 2 100 20 0.0343509
1 3 100 20 0.0617452
2 3 100 20 0.09437
3 3 100 20 0.160123
4 3 100 20 0.0497397
5 3 100 20 0.209466
6 3 100 20 0.104521
7 3 100 20 0.0955758
8 3 100 20 0.0320254
9 3 100 20 0.0166174
10 3 100 20 0.0314313
11 3 100 20 0.0161368
12 3 100 20 0.0160457
13 3 100 20 0.0319482
14 3 100 20 3.19876e-06
15 3 100 20 0.0160465
16 3 100 20 0.016046
17 3 100 20 0.0159955
18 3 100 20 0.000176393
19 3 100 20 0.0319797
20 3 100 20 6.8369e-06
1 4 100 20 0.0719035
2 4 100 20 0.141135
3 4 100 20 0.0898748
4 4 100 20 0.0902059
5 4 100 20 0.0707795
6 4 100 20 0.132789
7 4 100 20 0.132339
8 4 100 20 0.0718732
9 4 100 20 0.0359559
10 4 100 20 0.0180949
11 4 100 20 0.0180053
12 4 100 20 0.0359327
13 4 100 20 0.0359334
14 4 100 20 0.0181984
15 4 100 20 0.0359245
16 4 100 20 5.72628e-05
17 4 100 20 0.000456017
18 4 100 20 0.000313717
19 4 100 20 0.000227343
1 5 100 20 0.0205677
2 5 100 20 0.0418351
3 5 100 20 0.0818827
4 5 100 20 0.137374
5 5 100 20 0.111228
6 5 100 20 0.139939
7 5 100 20 0.115761
8 5 100 20 0.0836064
9 5 100 20 0.0821453
10 5 100 20 0.0615615
11 5 100 20 0.000325553
12 5 100 20 0.020534
13 5 100 20 0.0205243
14 5 100 20 0.000192699
15 5 100 20 4.13416e-05
16 5 100 20 0.00049969
17 5 100 20 9.69746e-05
18 5 100 20 0.0407662
19 5 100 20 0.0206052
20 5 100 20 0.0205148
1 6 100 20 0.0166483
2 6 100 20 0.0166787
3 6 100 20 0.000227686
4 6 100 20 0.0938386
5 6 100 20 0.0782574
6 6 100 20 0.0850473
7 6 100 20 0.143192
8 6 100 20 0.0369975
9 6 100 20 0.083685
10 6 100 20 0.0666481
11 6 100 20 0.0518134
12 6 100 20 0.0333529
13 6 100 20 0.0181852
14 6 100 20 0.0487889
15 6 100 20 0.0497468
16 6 100 20 0.0333122
17 6 100 20 0.0234653
18 6 100 20 0.0499922
19 6 100 20 0.0534649
20 6 100 20 0.0166575
1 7 100 20 0.0215065
2 7 100 20 3.97175e-05
3 7 100 20 0.0174214
4 7 100 20 0.0358031
5 7 100 20 0.10368
6 7 100 20 0.170936
7 7 100 20 0.0465252
8 7 100 20 0.144744
9 7 100 20 0.0885033
10 7 100 20 0.0870422
11 7 100 20 0.0851137
12 7 100 20 0.0184714
13 7 100 20 0.0168216
14 7 100 20 0.0520396
15 7 100 20 0.0174176
16 7 100 20 0.0279833
17 7 100 20 0.0350654
18 7 100 20 0.0174841
19 7 100 20 0.0133953
20 7 100 20 7.32741e-06
1 8 100 20 4.0599e-06
2 8 100 20 5.21566e-07
3 8 100 20 0.0196293
4 8 100 20 0.0392617
5 8 100 20 0.0976327
6 8 100 20 0.0784211
7 8 100 20 0.105243
8 8 100 20 0.167508
9 8 100 20 0.103611
10 8 100 20 0.11777
11 8 100 20 0.0980653
12 8 100 20 0.0952663
13 8 100 20 0.00045446
14 8 100 20 0.0197445
15 8 100 20 0.000289267
16 8 100 20 0.0195761
17 8 100 20 0.0182118
18 8 100 20 0.0192936
20 8 100 20 1.68576e-05
1 9 100 20 4.21903e-06
2 9 100 20 0.022341
3 9 100 20 0.0222013
4 9 100 20 3.57294e-05
5 9 100 20 4.72485e-06
6 9 100 20 0.0269078
7 9 100 20 0.0889747
8 9 100 20 0.111647
9 9 100 20 0.175205
10 9 100 20 0.0670085
11 9 100 20 0.0683972
12 9 100 20 0.109189
13 9 100 20 0.129223
14 9 100 20 0.0444685
15 9 100 20 0.0222832
16 9 100 20 0.0658688
17 9 100 20 2.3631e-05
18 9 100 20 0.000659556
19 9 100 20 0.022432
20 9 100 20 0.0231263
1 10 100 20 1.39697e-06
2 10 100 20 1.26724e-06
3 10 100 20 7.61089e-05
4 10 100 20 0.0483021
5 10 100 20 0.0244012
6 10 100 20 0.00169481
7 10 100 20 0.0486114
8 10 100 20 0.150346
9 10 100 20 0.0967602
10 10 100 20 0.0966
11 10 100 20 0.0965944
12 10 100 20 0.0517503
13 10 100 20 0.145413
14 10 100 20 0.0966992
15 10 100 20 0.0722366
16 10 100 20 0.0241757
17 10 100 20 1.83178e-06
18 10 100 20 0.0239267
20 10 100 20 0.0224076
1 11 100 20 0.0193266
2 11 100 20 0.0193404
3 11 100 20 0.0142312
4 11 100 20 2.34975e-06
5 11 100 20 3.44035e-05
6 11 100 20 1.01977e-06
7 11 100 20 7.76136e-05
8 11 100 20 0.000268475
9 11 100 20 0.0770558
10 11 100 20 0.0733414
11 11 100 20 0.117778
12 11 100 20 0.173846
13 11 100 20 0.115877
14 11 100 20 0.059838
15 11 100 20 0.0911116
16 11 100 20 0.0807104
17 11 100 20 0.0601582
18 11 100 20 0.0195862
19 11 100 20 0.0387582
20 11 100 20 0.0386571
1 12 100 20 1.75429e-05
3 12 100 20 0.00010781
4 12 100 20 0.0187108
5 12 100 20 0.0187044
6 12 100 20 0.0187043
7 12 100 20 0.0186408
8 12 100 20 0.0373812
9 12 100 20 0.0374473
10 12 100 20 0.112785
11 12 100 20 0.0560602
12 12 100 20 0.0747858
13 12 100 20 0.0747267
14 12 100 20 0.103554
15 12 100 20 0.104667
16 12 100 20 0.098534
17 12 100 20 0.0940307
18 12 100 20 0.0562942
19 12 100 20 0.0374307
20 12 100 20 0.0374174
1 13 100 20 5.17549e-07
4 13 100 20 0.0215034
6 13 100 20 0.039708
7 13 100 20 0.000330592
8 13 100 20 7.13352e-06
9 13 100 20 0.0217825
10 13 100 20 0.0630284
11 13 100 20 0.148346
12 13 100 20 0.0654729
13 13 100 20 0.0862813
14 13 100 20 0.0446968
15 13 100 20 0.0801482
16 13 100 20 0.107554
17 13 100 20 0.0825985
18 13 100 20 0.0665509
19 13 100 20 0.150278
20 13 100 20 0.0217132
1 14 100 20 9.33637e-06
3 14 100 20 2.06324e-05
6 14 100 20 5.1449e-05
7 14 100 20 0.01889
8 14 100 20 0.0199855
9 14 100 20 0.0460215
10 14 100 20 0.0798122
11 14 100 20 0.0779058
12 14 100 20 0.100857
13 14 100 20 0.11915
14 14 100 20 0.102684
15 14 100 20 0.0984265
16 14 100 20 0.0790336
17 14 100 20 0.0599311
18 14 100 20 0.0373568
19 14 100 20 0.0999142
20 14 100 20 0.0599505
1 15 100 20 8.76463e-05
2 15 100 20 8.92207e-07
3 15 100 20 5.4896e-06
4 15 100 20 3.83584e-05
10 15 100 20 8.81788e-05
11 15 100 20 0.0286674
12 15 100 20 0.0577465
13 15 100 20 0.169515
14 15 100 20 0.142623
15 15 100 20 0.113583
16 15 100 20 0.0570021
17 15 100 20 0.142618
18 15 100 20 0.0883352
19 15 100 20 0.0570495
20 15 100 20 0.142641
4 16 100 20 1.62874e-05
5 16 100 20 1.94976e-06
6 16 100 20 4.37074e-06
8 16 100 20 8.10558e-07
10 16 100 20 0.00127704
11 16 100 20 4.82072e-05
12 16 100 20 0.031047
13 16 100 20 7.60354e-06
14 16 100 20 0.218437
15 16 100 20 0.250246
16 16 100 20 0.125223
17 16 100 20 0.121206
18 16 100 20 0.0937141
19 16 100 20 8.58563e-05
20 16 100 20 0.158685
1 17 100 20 1.03465e-06
5 17 100 20 9.92452e-06
6 17 100 20 0.0288868
7 17 100 20 0.0577738
8 17 100 20 0.0288894
9 17 100 20 0.0296367
10 17 100 20 0.0288871
11 17 100 20 0.0577629
12 17 100 20 0.0290061
13 17 100 20 0.0577645
14 17 100 20 0.0578098
15 17 100 20 0.0926612
16 17 100 20 0.0882591
17 17 100 20 0.115843
18 17 100 20 0.153428
19 17 100 20 0.115553
20 17 100 20 0.0578276
1 18 100 20 5.8513e-05
2 18 100 20 9.33873e-07
6 18 100 20 0.000509727
8 18 100 20 1.18511e-05
12 18 100 20 0.00255511
13 18 100 20 0.00454588
14 18 100 20 0.054267
15 18 100 20 0.108048
16 18 100 20 0.108999
17 18 100 20 0.00116248
18 18 100 20 0.164614
19 18 100 20 0.286248
20 18 100 20 0.26898
4 19 100 20 5.92192e-05
9 19 100 20 1.55036e-06
10 19 100 20 1.69571e-05
11 19 100 20 7.01096e-07
12 19 100 20 5.85284e-06
13 19 100 20 1.85233e-05
15 19 100 20 0.00343538
16 19 100 20 0.293219
17 19 100 20 0.232536
18 19 100 20 0.118003
19 19 100 20 0.234674
20 19 100 20 0.118029
2 20 100 20 1.97278e-06
12 20 100 20 0.091749
13 20 100 20 0.000529747
14 20 100 20 0.000245527
15 20 100 20 0.000592377
16 20 100 20 0.0933225
17 20 100 20 0.356547
18 20 100 20 0.0900801
19 20 100 20 4.26962e-05
20 20 100 20 0.366889
5 21 100 20 3.5693e-05
7 21 100 20 3.1449e-06
12 21 100 20 0.000125087
13 21 100 20 1.95425e-05
14 21 100 20 3.50435e-06
15 21 100 20 0.00318314
16 21 100 20 4.03338e-06
17 21 100 20 0.00967278
18 21 100 20 0.179516
19 21 100 20 0.448537
20 21 100 20 0.358901
5 22 100 20 8.52004e-07
10 22 100 20 2.98792e-07
11 22 100 20 3.60738e-06
12 22 100 20 3.14276e-06
13 22 100 20 5.31873e-07
15 22 100 20 0.000619949
16 22 100 20 0.109205
17 22 100 20 3.98556e-06
18 22 100 20 0.110702
19 22 100 20 0.111396
20 22 100 20 0.668065
4 23 100 20 0.000708828
5 23 100 20 1.06528e-05
6 23 100 20 1.20636e-05
7 23 100 20 3.33844e-06
9 23 100 20 1.84481e-06
10 23 100 20 0.000508647
12 23 100 20 0.000112971
13 23 100 20 9.41989e-06
15 23 100 20 0.00242261
16 23 100 20 0.000146579
17 23 100 20 0.00393222
18 23 100 20 8.77571e-06
19 23 100 20 2.02887e-05
20 23 100 20 0.992102
4 24 100 20 0.00297194
13 24 100 20 3.67426e-06
17 24 100 20 0.546518
18 24 100 20 0.450133
19 24 100 20 0.000372963
9 25 100 20 0.00196791
15 25 100 20 5.69488e-05
17 25 100 20 3.62782e-06
20 25 100 20 0.997972
4 26 100 20 2.56522e-06
13 26 100 20 6.10685e-06
17 26 100 20 0.315506
18 26 100 20 0.547275
19 26 100 20 0.13721
14 27 100 20 0.000865661
20 27 100 20 0.999134
1 0 100 21 0.000213906
2 0 100 21 0.081379
3 0 100 21 0.0989271
4 0 100 21 0.000196244
5 0 100 21 7.10531e-05
6 0 100 21 0.136436
7 0 100 21 0.0652681
8 0 100 21 0.0577439
9 0 100 21 0.0397922
10 0 100 21 0.10938
11 0 100 21 0.00653236
12 0 100 21 0.104933
13 0 100 21 0.0681922
14 0 100 21 0.0635047
15 0 100 21 0.00126749
16 0 100 21 0.07653
17 0 100 21 0.00620545
18 0 100 21 0.0344523
19 0 100 21 0.0489173
20 0 100 21 5.72514e-05
1 1 100 21 0.337139
2 1 100 21 0.159856
3 1 100 21 0.103966
4 1 100 21 0.118126
5 1 100 21 0.0735241
6 1 100 21 0.0325212
7 1 100 21 0.032512
8 1 100 21 0.0216772
9 1 100 21 0.00357901
10 1 100 21 0.0110803
11 1 100 21 0.0225803
12 1 100 21 0.0193546
13 1 100 21 6.61993e-05
14 1 100 21 0.0108388
15 1 100 21 3.75327e-06
16 1 100 21 0.0099826
17 1 100 21 2.70831e-06
18 1 100 21 0.0214948
19 1 100 21 0.0216954
1 2 100 21 0.134057
2 2 100 21 0.263641
3 2 100 21 0.228495
4 2 100 21 0.159202
5 2 100 21 0.0679021
6 2 100 21 0.0225816
7 2 100 21 0.0113913
8 2 100 21 0.0220269
9 2 100 21 0.0165848
10 2 100 21 0.0185062
11 2 100 21 0.022624
12 2 100 21 0.0201452
13 2 100 21 7.01002e-05
14 2 100 21 7.66194e-05
15 2 100 21 1.501e-05
16 2 100 21 0.00115631
17 2 100 21 7.29747e-06
18 2 100 21 2.65945e-05
19 2 100 21 0.000203702
20 2 100 21 0.0112874
1 3 100 21 0.12671
2 3 100 21 0.0779116
3 3 100 21 0.162548
4 3 100 21 0.127272
5 3 100 21 0.234416
6 3 100 21 0.107132
7 3 100 21 0.0542019
8 3 100 21 0.0180601
9 3 100 21 0.0361067
10 3 100 21 0.0197117
11 3 100 21 0.017605
12 3 100 21 9.51287e-05
13 3 100 21 1.11235e-05
14 3 100 21 0.000108854
15 3 100 21 0.000108787
16 3 100 21 0.0179504
17 3 100 21 9.72265e-06
18 3 100 21 2.90219e-05
19 3 100 21 1.2534e-05
1 4 100 21 0.0704148
2 4 100 21 0.128563
3 4 100 21 0.12902
4 4 100 21 0.101197
5 4 100 21 0.08648
6 4 100 21 0.12926
7 4 100 21 0.109431
8 4 100 21 0.0573585
9 4 100 21 0.028679
10 4 100 21 0.0148128
11 4 100 21 0.0144886
12 4 100 21 0.00109288
13 4 100 21 0.0286677
14 4 100 21 0.0286668
15 4 100 21 6.79236e-05
16 4 100 21 0.0144476
17 4 100 21 0.0413194
18 4 100 21 0.00165205
19 4 100 21 3.76955e-05
20 4 100 21 0.0143434
21 4 100 21 2.13137e-07
1 5 100 21 0.0141554
2 5 100 21 0.0142918
3 5 100 21 0.0419712
4 5 100 21 0.108557
5 5 100 21 0.154355
6 5 100 21 0.159506
7 5 100 21 0.171383
8 5 100 21 0.105039
9 5 100 21 0.0281107
10 5 100 21 0.042598
11 5 100 21 0.0100327
12 5 100 21 0.0254019
13 5 100 21 5.29797e-05
14 5 100 21 0.0140621
15 5 100 21 0.0279317
16 5 100 21 1.60923e-06
17 5 100 21 0.0270853
18 5 100 21 6.91271e-06
19 5 100 21 0.0139927
20 5 100 21 0.0414658
1 6 100 21 0.000891944
2 6 100 21 0.0143276
3 6 100 21 0.00064886
4 6 100 21 0.0573259
5 6 100 21 0.057691
6 6 100 21 0.104385
7 6 100 21 0.0876689
8 6 100 21 0.132168
9 6 100 21 0.0857738
10 6 100 21 0.126878
11 6 100 21 0.0891601
12 6 100 21 0.0575735
13 6 100 21 0.0428281
14 6 100 21 0.0286162
15 6 100 21 8.96402e-05
16 6 100 21 0.0143273
17 6 100 21 0.0148437
18 6 100 21 0.0409363
19 6 100 21 0.0289051
20 6 100 21 0.0149604
21 6 100 21 1.56778e-07
1 7 100 21 3.0857e-06
2 7 100 21 3.42365e-06
3 7 100 21 4.08455e-07
4 7 100 21 0.0195266
5 7 100 21 0.0523121
6 7 100 21 0.125131
7 7 100 21 0.0813982
8 7 100 21 0.155289
9 7 100 21 0.153986
10 7 100 21 0.0877708
11 7 100 21 0.0949641
12 7 100 21 0.0989886
13 7 100 21 0.0415519
14 7 100 21 0.0351095
15 7 100 21 0.0346333
16 7 100 21 0.00139688
17 7 100 21 0.000263985
18 7 100 21 0.0175874
19 7 100 21 8.2897e-05
21 7 100 21 9.38674e-07
1 8 100 21 1.60585e-05
2 8 100 21 7.06097e-06
3 8 100 21 1.42454e-06
4 8 100 21 0.0438739
5 8 100 21 0.0583356
6 8 100 21 0.0442783
7 8 100 21 0.164497
8 8 100 21 0.123964
9 8 100 21 0.132454
10 8 100 21 0.0842812
11 8 100 21 0.1273
12 8 100 21 0.030298
13 8 100 21 0.0289341
14 8 100 21 0.0458955
15 8 100 21 0.0847632
16 8 100 21 0.00164727
17 8 100 21 0.0292779
18 8 100 21 0.000171752
19 8 100 21 3.2499e-06
20 8 100 21 7.2408e-07
1 9 100 21 0.0135423
2 9 100 21 0.0135183
3 9 100 21 0.0135185
4 9 100 21 0.0136225
5 9 100 21 0.0295886
6 9 100 21 0.0508675
7 9 100 21 0.0413351
8 9 100 21 0.0628357
9 9 100 21 0.13398
10 9 100 21 0.121056
11 9 100 21 0.105475
12 9 100 21 0.109894
13 9 100 21 0.0494478
14 9 100 21 0.0280929
15 9 100 21 0.0397178
16 9 100 21 0.0415626
17 9 100 21 0.0271758
18 9 100 21 0.0139984
19 9 100 21 0.0500967
20 9 100 21 0.0405545
21 9 100 21 0.000119644
1 10 100 21 5.23967e-06
2 10 100 21 5.02865e-05
3 10 100 21 3.64206e-05
4 10 100 21 0.000416171
5 10 100 21 3.11735e-06
6 10 100 21 4.6951e-06
7 10 100 21 0.0323527
8 10 100 21 0.087873
9 10 100 21 0.166414
10 10 100 21 0.108782
11 10 100 21 0.0788193
12 10 100 21 0.118475
13 10 100 21 0.147377
14 10 100 21 0.0566344
15 10 100 21 0.0673309
16 10 100 21 0.0323905
17 10 100 21 0.053063
18 10 100 21 0.0317705
19 10 100 21 0.0181988
21 10 100 21 2.57998e-06
1 11 100 21 1.83745e-07
2 11 100 21 4.18412e-07
3 11 100 21 5.8219e-05
5 11 100 21 1.51337e-05
6 11 100 21 0.0266391
7 11 100 21 0.0400148
8 11 100 21 0.0400607
9 11 100 21 0.0221869
10 11 100 21 0.0933496
11 11 100 21 0.119082
12 11 100 21 0.0932227
13 11 100 21 0.112599
14 11 100 21 0.139981
15 11 100 21 0.0400714
16 11 100 21 0.0921687
17 11 100 21 0.0624767
18 11 100 21 0.0529631
19 11 100 21 0.0219973
20 11 100 21 0.0397891
21 11 100 21 0.00332394
1 12 100 21 0.000216437
3 12 100 21 4.09688e-06
4 12 100 21 2.06986e-05
5 12 100 21 2.63946e-06
6 12 100 21 3.35608e-06
7 12 100 21 5.01584e-05
8 12 100 21 0.018039
9 12 100 21 0.0151567
10 12 100 21 0.0352273
11 12 100 21 0.121141
12 12 100 21 0.0895028
13 12 100 21 0.141038
14 12 100 21 0.0881354
15 12 100 21 0.173545
16 12 100 21 0.088236
17 12 100 21 0.0537657
18 12 100 21 0.0528035
19 12 100 21 0.0527139
20 12 100 21 0.0176086
21 12 100 21 0.05279
1 13 100 21 0.0156869
3 13 100 21 0.0155926
4 13 100 21 1.2708e-06
5 13 100 21 1.63329e-06
6 13 100 21 1.88398e-05
7 13 100 21 2.3559e-07
8 13 100 21 3.82067e-05
9 13 100 21 0.0348896
10 13 100 21 0.00294052
11 13 100 21 0.0316203
12 13 100 21 0.110008
13 13 100 21 0.135815
14 13 100 21 0.171165
15 13 100 21 0.0992056
16 13 100 21 0.130614
17 13 100 21 0.0798862
18 13 100 21 0.0619795
19 13 100 21 0.0474648
20 13 100 21 0.0472847
21 13 100 21 0.0157868
1 14 100 21 0.0226567
2 14 100 21 0.022872
3 14 100 21 0.000296404
4 14 100 21 0.0226543
5 14 100 21 3.07464e-05
6 14 100 21 0.00284444
7 14 100 21 2.63878e-05
8 14 100 21 0.000460988
9 14 100 21 0.0252867
10 14 100 21 0.0515554
11 14 100 21 4.88881e-05
12 14 100 21 0.0218973
13 14 100 21 0.0680999
14 14 100 21 0.0850197
15 14 100 21 0.180929
16 14 100 21 0.158887
17 14 100 21 0.17722
18 14 100 21 0.0453968
19 14 100 21 0.0231679
20 14 100 21 0.0226545
21 14 100 21 0.0679953
2 15 100 21 0.0183252
3 15 100 21 0.0366047
4 15 100 21 8.07706e-06
5 15 100 21 0.0182807
6 15 100 21 1.90449e-07
7 15 100 21 4.16964e-06
8 15 100 21 3.42603e-06
9 15 100 21 0.000186239
10 15 100 21 0.0163161
11 15 100 21 5.63052e-05
12 15 100 21 0.000948924
13 15 100 21 0.101968
14 15 100 21 0.129002
15 15 100 21 0.0918826
16 15 100 21 0.0927889
17 15 100 21 0.141388
18 15 100 21 0.146589
19 15 100 21 0.0773969
20 15 100 21 0.0732981
21 15 100 21 0.0549534
1 16 100 21 7.24256e-06
2 16 100 21 0.000268878
3 16 100 21 0.019358
4 16 100 21 0.0204297
5 16 100 21 0.0192799
6 16 100 21 9.46694e-05
8 16 100 21 2.16109e-07
9 16 100 21 9.86228e-06
10 16 100 21 2.68037e-05
11 16 100 21 0.0193183
12 16 100 21 0.0366446
13 16 100 21 0.0193143
14 16 100 21 0.019702
15 16 100 21 0.113472
16 16 100 21 0.115786
17 16 100 21 0.0590406
18 16 100 21 0.168625
19 16 100 21 0.231074
20 16 100 21 0.118909
21 16 100 21 0.0386392
1 17 100 21 2.28166e-06
2 17 100 21 1.74049e-06
3 17 100 21 1.8026e-06
4 17 100 21 0.0212257
5 17 100 21 0.0224784
7 17 100 21 7.47711e-07
8 17 100 21 7.76374e-06
9 17 100 21 3.64869e-05
10 17 100 21 3.39417e-07
11 17 100 21 0.00150508
12 17 100 21 0.022081
13 17 100 21 1.2788e-05
14 17 100 21 0.0449546
15 17 100 21 0.022706
16 17 100 21 0.0888842
17 17 100 21 0.154257
18 17 100 21 0.0937271
19 17 100 21 0.127413
20 17 100 21 0.243666
21 17 100 21 0.157037
1 18 100 21 1.35362e-06
2 18 100 21 2.47463e-05
3 18 100 21 3.60419e-07
4 18 100 21 8.78966e-05
5 18 100 21 1.00002e-06
6 18 100 21 6.19075e-05
8 18 100 21 2.05846e-06
9 18 100 21 2.34184e-05
10 18 100 21 1.12351e-05
11 18 100 21 4.82848e-05
12 18 100 21 6.57355e-05
13 18 100 21 3.22823e-06
14 18 100 21 0.00011383
15 18 100 21 0.0577948
16 18 100 21 0.115046
17 18 100 21 0.0345969
18 18 100 21 0.147225
19 18 100 21 0.1835
20 18 100 21 0.144158
21 18 100 21 0.317235
6 19 100 21 1.01991e-05
8 19 100 21 3.09964e-05
10 19 100 21 1.68267e-05
14 19 100 21 2.36254e-05
15 19 100 21 0.0326053
16 19 100 21 0.000359593
17 19 100 21 0.162694
18 19 100 21 0.260695
19 19 100 21 0.152044
20 19 100 21 0.228393
21 19 100 21 0.163128
2 20 100 21 1.64113e-06
4 20 100 21 1.35793e-05
6 20 100 21 1.15655e-06
7 20 100 21 1.53183e-05
8 20 100 21 6.19261e-07
9 20 100 21 1.38721e-06
10 20 100 21 4.02944e-05
11 20 100 21 6.2174e-06
12 20 100 21 2.10704e-05
13 20 100 21 0.000168212
14 20 100 21 3.25526e-06
15 20 100 21 0.000301578
16 20 100 21 0.0549911
17 20 100 21 0.0640252
18 20 100 21 0.0550139
19 20 100 21 0.110084
20 20 100 21 0.110068
21 20 100 21 0.605244
5 21 100 21 1.21524e-06
11 21 100 21 0.00140548
12 21 100 21 2.09803e-05
15 21 100 21 1.0991e-05
16 21 100 21 5.44571e-06
17 21 100 21 2.14302e-05
18 21 100 21 0.0848185
19 21 100 21 0.255618
20 21 100 21 0.339439
21 21 100 21 0.318659
11 22 100 21 3.2519e-06
13 22 100 21 6.29918e-06
15 22 100 21 1.60294e-06
16 22 100 21 1.66458e-06
18 22 100 21 7.29823e-06
20 22 100 21 0.250002
21 22 100 21 0.749978
3 23 100 21 3.19649e-06
5 23 100 21 8.11081e-05
9 23 100 21 2.15067e-06
11 23 100 21 7.34857e-06
12 23 100 21 4.62416e-05
15 23 100 21 4.05292e-05
17 23 100 21 2.10002e-06
19 23 100 21 7.00204e-05
21 23 100 21 0.999747
1 24 100 21 8.57347e-06
10 24 100 21 1.05499e-05
11 24 100 21 5.25421e-06
12 24 100 21 2.22739e-06
15 24 100 21 0.000196524
16 24 100 21 0.000235221
19 24 100 21 0.000378742
20 24 100 21 2.49449e-06
21 24 100 21 0.99916
15 25 100 21 4.13063e-06
19 25 100 21 0.498814
20 25 100 21 0.501182
12 26 100 21 2.03575e-06
15 26 100 21 6.43923e-05
16 26 100 21 2.09777e-06
19 26 100 21 8.94899e-06
21 26 100 21 0.999923
1 0 100 22 0.000236773
2 0 100 22 0.0674853
3 0 100 22 0.10079
4 0 100 22 0.0440987
5 0 100 22 0.00705656
6 0 100 22 0.0234147
7 0 100 22 0.136215
8 0 100 22 0.0595766
9 0 100 22 0.0482784
10 0 100 22 0.0297424
11 0 100 22 0.0930131
12 0 100 22 0.0708969
13 0 100 22 0.0289338
14 0 100 22 0.0325325
15 0 100 22 0.050756
16 0 100 22 0.0091274
17 0 100 22 0.0315347
18 0 100 22 0.0829735
19 0 100 22 0.02507
20 0 100 22 0.0577054
21 0 100 22 0.000559791
22 0 100 22 1.98724e-06
1 1 100 22 0.421828
2 1 100 22 0.184548
3 1 100 22 0.0678794
4 1 100 22 0.0717399
5 1 100 22 0.0430319
6 1 100 22 0.0412671
7 1 100 22 2.55864e-05
8 1 100 22 0.00832375
9 1 100 22 0.0076505
10 1 100 22 0.0385815
11 1 100 22 0.0140353
12 1 100 22 0.0279246
13 1 100 22 0.0277837
14 1 100 22 0.000326725
15 1 100 22 0.0139889
16 1 100 22 0.0299026
17 1 100 22 0.00112567
18 1 100 22 2.77291e-06
19 1 100 22 3.44377e-05
1 2 100 22 0.106962
2 2 100 22 0.200959
3 2 100 22 0.1737
4 2 100 22 0.118985
5 2 100 22 0.0855201
6 2 100 22 0.0301567
7 2 100 22 0.0296993
8 2 100 22 0.0383416
9 2 100 22 0.0396194
10 2 100 22 0.0195309
11 2 100 22 0.0297418
12 2 100 22 0.0097745
13 2 100 22 0.0099166
14 2 100 22 0.0195326
15 2 100 22 0.0290721
16 2 100 22 0.0201202
17 2 100 22 0.0286066
18 2 100 22 0.00970645
19 2 100 22 4.92939e-07
20 2 100 22 1.03077e-06
21 2 100 22 5.32715e-05
1 3 100 22 0.0293651
2 3 100 22 0.0647879
3 3 100 22 0.205153
4 3 100 22 0.0987123
5 3 100 22 0.114075
6 3 100 22 0.131867
7 3 100 22 0.0432603
8 3 100 22 0.0592379
9 3 100 22 0.0347781
10 3 100 22 0.013409
11 3 100 22 0.0318376
12 3 100 22 0.029371
13 3 100 22 0.0440082
14 3 100 22 0.0578895
15 3 100 22 6.18275e-05
16 3 100 22 0.00110739
17 3 100 22 0.0145609
18 3 100 22 0.0146186
19 3 100 22 0.0111341
20 3 100 22 6.42934e-07
21 3 100 22 0.000737538
22 3 100 22 2.76926e-05
1 4 100 22 0.0261812
2 4 100 22 0.0656796
3 4 100 22 0.078662
4 4 100 22 0.162047
5 4 100 22 0.129991
6 4 100 22 0.091033
7 4 100 22 0.0659259
8 4 100 22 0.0135173
9 4 100 22 0.0263915
10 4 100 22 0.0131273
11 4 100 22 0.0131492
12 4 100 22 0.0394042
13 4 100 22 0.0387705
14 4 100 22 0.0255089
15 4 100 22 0.026283
16 4 100 22 0.0267662
17 4 100 22 1.95423e-06
18 4 100 22 0.0263004
19 4 100 22 0.0525014
20 4 100 22 0.0393783
21 4 100 22 0.0262541
22 4 100 22 0.0131259
1 5 100 22 0.0520034
2 5 100 22 0.00531862
3 5 100 22 0.000514156
4 5 100 22 0.169181
5 5 100 22 0.212308
6 5 100 22 0.163197
7 5 100 22 0.12361
8 5 100 22 0.0274342
9 5 100 22 0.000650247
10 5 100 22 2.79951e-05
11 5 100 22 0.0144391
12 5 100 22 0.017683
13 5 100 22 2.8646e-05
14 5 100 22 0.00101292
15 5 100 22 0.0351907
16 5 100 22 0.0173355
17 5 100 22 0.0356571
18 5 100 22 0.0530683
19 5 100 22 0.0354934
20 5 100 22 0.0177056
21 5 100 22 0.0181383
22 5 100 22 2.33995e-06
1 6 100 22 0.0570202
2 6 100 22 0.0328217
3 6 100 22 0.0782323
4 6 100 22 0.00290186
5 6 100 22 0.0610769
6 6 100 22 0.111354
7 6 100 22 0.136953
8 6 100 22 0.130756
9 6 100 22 0.0390914
10 6 100 22 0.117261
11 6 100 22 0.0488232
12 6 100 22 0.0392099
13 6 100 22 0.0469667
14 6 100 22 0.0195607
15 6 100 22 0.000193847
16 6 100 22 0.0202087
17 6 100 22 0.0375954
18 6 100 22 0.00047181
19 6 100 22 1.24846e-05
20 6 100 22 0.0194872
21 6 100 22 1.91548e-06
1 7 100 22 0.00159681
2 7 100 22 0.0290942
3 7 100 22 0.0143966
4 7 100 22 0.026607
5 7 100 22 0.0573562
6 7 100 22 0.129542
7 7 100 22 0.21518
8 7 100 22 0.153758
9 7 100 22 0.114848
10 7 100 22 0.0446967
11 7 100 22 0.0143742
12 7 100 22 0.0286369
13 7 100 22 0.0165366
14 7 100 22 0.0144186
15 7 100 22 0.025504
16 7 100 22 0.0142159
17 7 100 22 0.0153923
18 7 100 22 0.0247748
19 7 100 22 0.0159071
20 7 100 22 0.0286347
21 7 100 22 0.0144584
22 7 100 22 7.10455e-05
1 8 100 22 0.0328642
2 8 100 22 0.0500548
3 8 100 22 3.70593e-05
4 8 100 22 1.11318e-05
5 8 100 22 1.80653e-05
6 8 100 22 0.0335654
7 8 100 22 0.0699178
8 8 100 22 0.183401
9 8 100 22 0.117494
10 8 100 22 0.0835003
11 8 100 22 0.105307
12 8 100 22 0.0490617
13 8 100 22 0.0457777
14 8 100 22 0.0249845
15 8 100 22 0.0490661
16 8 100 22 0.0167794
17 8 100 22 0.000289754
18 8 100 22 0.0373525
19 8 100 22 0.0204051
20 8 100 22 0.0307204
21 8 100 22 0.0328294
22 8 100 22 0.016563
1 9 100 22 0.0180801
2 9 100 22 0.0173054
3 9 100 22 0.0186186
4 9 100 22 0.0187109
5 9 100 22 0.0186215
6 9 100 22 0.0186233
7 9 100 22 0.000392791
8 9 100 22 0.0953042
9 9 100 22 0.220949
10 9 100 22 0.2235
11 9 100 22 0.0760051
12 9 100 22 0.038049
13 9 100 22 0.0746506
14 9 100 22 0.0715678
15 9 100 22 0.0175158
16 9 100 22 0.0186525
17 9 100 22 0.000166389
18 9 100 22 0.00318912
19 9 100 22 0.0140208
20 9 100 22 0.000327819
21 9 100 22 0.0171189
22 9 100 22 0.0186309
1 10 100 22 0.018336
2 10 100 22 7.53256e-06
3 10 100 22 6.49262e-06
4 10 100 22 3.84618e-06
5 10 100 22 4.7238e-05
6 10 100 22 0.000159765
7 10 100 22 1.27772e-05
8 10 100 22 0.0361578
9 10 100 22 0.109706
10 10 100 22 0.166263
11 10 100 22 0.178555
12 10 100 22 0.147393
13 10 100 22 0.0549467
14 10 100 22 0.037281
15 10 100 22 0.0550251
16 10 100 22 0.056558
17 10 100 22 0.0624428
18 10 100 22 0.0222775
19 10 100 22 0.0183418
20 10 100 22 0.0364662
21 10 100 22 1.06488e-05
22 10 100 22 2.61374e-06
1 11 100 22 0.0191666
2 11 100 22 2.55143e-06
4 11 100 22 0.019026
5 11 100 22 0.0190221
6 11 100 22 0.0190674
7 11 100 22 5.73184e-07
8 11 100 22 0.0326818
9 11 100 22 0.0563499
10 11 100 22 0.0384069
11 11 100 22 0.0942772
12 11 100 22 0.112574
13 11 100 22 0.115655
14 11 100 22 0.0567024
15 11 100 22 0.0382223
16 11 100 22 0.0946499
17 11 100 22 0.0380426
18 11 100 22 8.61361e-06
19 11 100 22 0.0570049
20 11 100 22 0.0571459
21 11 100 22 0.112923
22 11 100 22 0.0190704
1 12 100 22 2.70533e-05
2 12 100 22 0.0205598
3 12 100 22 0.0203734
4 12 100 22 0.0198255
5 12 100 22 0.0197031
6 12 100 22 0.0394896
7 12 100 22 0.0198256
8 12 100 22 0.000240095
9 12 100 22 0.0198361
10 12 100 22 0.0402895
11 12 100 22 0.0794947
12 12 100 22 0.0995858
13 12 100 22 0.168864
14 12 100 22 0.178325
15 12 100 22 0.0587457
16 12 100 22 0.059421
17 12 100 22 0.0401055
18 12 100 22 0.0555427
19 12 100 22 0.0199291
20 12 100 22 0.0198269
21 12 100 22 0.000141832
22 12 100 22 0.0198476
1 13 100 22 1.98986e-06
2 13 100 22 0.0131818
3 13 100 22 0.0136844
4 13 100 22 0.0136833
5 13 100 22 0.0273596
6 13 100 22 0.0137424
7 13 100 22 0.0273815
8 13 100 22 0.040961
9 13 100 22 0.0273682
10 13 100 22 0.0402921
11 13 100 22 0.0824455
12 13 100 22 0.0836947
13 13 100 22 0.0942875
14 13 100 22 0.0964964
15 13 100 22 0.134848
16 13 100 22 0.0209766
17 13 100 22 0.0486821
18 13 100 22 0.0426781
19 13 100 22 0.0547353
20 13 100 22 0.0680655
21 13 100 22 0.0417478
22 13 100 22 0.0136861
2 14 100 22 5.95755e-06
3 14 100 22 3.40319e-05
4 14 100 22 0.00208832
5 14 100 22 5.52106e-07
6 14 100 22 0.0181171
7 14 100 22 1.06976e-05
8 14 100 22 0.0181415
9 14 100 22 3.22325e-06
10 14 100 22 0.0186439
11 14 100 22 0.0189976
12 14 100 22 0.109048
13 14 100 22 0.0803348
14 14 100 22 0.132373
15 14 100 22 0.0745318
16 14 100 22 0.214647
17 14 100 22 0.018918
18 14 100 22 0.0200838
19 14 100 22 0.109551
20 14 100 22 0.037097
21 14 100 22 0.090772
22 14 100 22 0.0366011
3 15 100 22 1.15229e-05
4 15 100 22 0.00869391
5 15 100 22 0.000115902
6 15 100 22 2.61039e-05
8 15 100 22 2.77361e-06
9 15 100 22 1.98946e-06
10 15 100 22 0.000302545
11 15 100 22 0.0604492
12 15 100 22 0.0560912
13 15 100 22 0.0545399
14 15 100 22 0.0758332
15 15 100 22 0.134167
16 15 100 22 0.0808901
17 15 100 22 0.170071
18 15 100 22 0.131173
19 15 100 22 0.0378449
20 15 100 22 0.0568268
21 15 100 22 0.0573729
22 15 100 22 0.075586
1 16 100 22 3.94413e-06
3 16 100 22 5.41856e-06
4 16 100 22 9.559e-06
5 16 100 22 5.0588e-06
6 16 100 22 1.83581e-06
7 16 100 22 0.0206944
8 16 100 22 0.0207713
9 16 100 22 0.0206995
10 16 100 22 0.0206941
11 16 100 22 5.20956e-05
12 16 100 22 2.74906e-06
13 16 100 22 0.0413865
14 16 100 22 0.0619545
15 16 100 22 0.144859
16 16 100 22 0.103203
17 16 100 22 0.166876
18 16 100 22 0.19462
19 16 100 22 0.0798699
20 16 100 22 0.0207343
21 16 100 22 0.0414855
22 16 100 22 0.0620715
1 17 100 22 3.43257e-05
3 17 100 22 0.025293
4 17 100 22 0.0259213
5 17 100 22 0.0253911
6 17 100 22 8.65982e-07
7 17 100 22 2.34544e-05
8 17 100 22 1.57494e-05
9 17 100 22 0.0248421
10 17 100 22 0.000982838
11 17 100 22 8.23377e-06
12 17 100 22 2.31598e-05
13 17 100 22 2.39419e-05
14 17 100 22 7.36644e-05
15 17 100 22 0.0761439
16 17 100 22 0.124108
17 17 100 22 0.267723
18 17 100 22 0.0785157
19 17 100 22 0.0957932
20 17 100 22 0.0772376
21 17 100 22 0.0508147
22 17 100 22 0.12703
1 18 100 22 3.81739e-06
3 18 100 22 2.41518e-05
4 18 100 22 0.0142576
5 18 100 22 2.36192e-05
8 18 100 22 1.68057e-06
9 18 100 22 0.0263593
10 18 100 22 0.0258595
11 18 100 22 2.9357e-06
12 18 100 22 7.79308e-06
13 18 100 22 0.0257604
14 18 100 22 0.0515299
15 18 100 22 0.0284312
16 18 100 22 0.0803714
17 18 100 22 0.103911
18 18 100 22 0.182687
19 18 100 22 0.126629
20 18 100 22 0.205098
21 18 100 22 0.103224
22 18 100 22 0.0258171
1 19 100 22 8.59708e-07
3 19 100 22 2.59664e-05
4 19 100 22 7.06456e-05
5 19 100 22 3.00033e-05
11 19 100 22 2.07415e-06
12 19 100 22 6.94046e-06
13 19 100 22 0.000109087
14 19 100 22 1.30018e-06
15 19 100 22 0.000221647
16 19 100 22 0.0568438
17 19 100 22 0.0284934
18 19 100 22 0.0574526
19 19 100 22 0.142555
20 19 100 22 0.201162
21 19 100 22 0.342063
22 19 100 22 0.17096
1 20 100 22 4.5168e-06
5 20 100 22 0.0301171
6 20 100 22 0.0301021
7 20 100 22 0.0301172
8 20 100 22 3.34111e-05
9 20 100 22 0.0301172
10 20 100 22 0.0300668
11 20 100 22 2.93059e-05
13 20 100 22 0.0219372
15 20 100 22 0.00362427
17 20 100 22 0.0301313
18 20 100 22 0.120404
19 20 100 22 0.191838
20 20 100 22 0.0900211
21 20 100 22 0.180613
22 20 100 22 0.210843
3 21 100 22 7.81198e-07
4 21 100 22 0.000121239
8 21 100 22 8.33489e-07
10 21 100 22 8.58017e-06
12 21 100 22 7.58693e-05
14 21 100 22 0.0407353
15 21 100 22 6.35896e-07
16 21 100 22 0.0293056
17 21 100 22 5.62414e-07
18 21 100 22 0.000486772
19 21 100 22 0.169609
20 21 100 22 0.149955
21 21 100 22 0.0812799
22 21 100 22 0.528419
8 22 100 22 3.23087e-06
10 22 100 22 0.0900218
11 22 100 22 0.0177965
13 22 100 22 6.74932e-06
14 22 100 22 3.53547e-05
18 22 100 22 0.069371
19 22 100 22 0.00213443
20 22 100 22 0.23451
21 22 100 22 0.11723
22 22 100 22 0.468891
11 23 100 22 4.80373e-06
14 23 100 22 0.0354377
17 23 100 22 1.9324e-05
21 23 100 22 0.482273
22 23 100 22 0.482265
11 24 100 22 9.42324e-07
13 24 100 22 1.83622e-06
15 24 100 22 5.7734e-06
16 24 100 22 6.6027e-07
18 24 100 22 9.0974e-05
19 24 100 22 1.78792e-05
20 24 100 22 1.39663e-06
22 24 100 22 0.999881
4 25 100 22 2.67601e-06
7 25 100 22 0.999978
13 25 100 22 1.43761e-05
14 25 100 22 4.75824e-06
4 26 100 22 0.000241361
7 26 100 22 1.34085e-05
8 26 100 22 4.60576e-06
10 26 100 22 1.02763e-05
12 26 100 22 5.12613e-05
13 26 100 22 0.000477906
14 26 100 22 0.994691
15 26 100 22 3.51531e-06
17 26 100 22 0.00349835
20 26 100 22 5.5107e-06
21 26 100 22 0.00100316
8 27 100 22 1
7 28 100 22 0.988374
13 28 100 22 0.00121755
14 28 100 22 0.010409
12 29 100 22 1.99948e-06
13 29 100 22 4.77482e-06
19 29 100 22 1.05431e-05
20 29 100 22 0.992083
21 29 100 22 0.00789976
8 30 100 22 2.86833e-05
10 30 100 22 4.29841e-06
12 30 100 22 4.47252e-06
13 30 100 22 0.000160231
14 30 100 22 3.48901e-05
15 30 100 22 4.52822e-06
20 30 100 22 5.75453e-06
21 30 100 22 0.999757
10 31 100 22 0.920883
11 31 100 22 0.000307708
13 31 100 22 0.00168566
14 31 100 22 0.00170497
15 31 100 22 0.000952104
20 31 100 22 0.00026681
21 31 100 22 0.0742003
1 32 100 22 1.64131e-05
4 32 100 22 0.0032707
7 32 100 22 3.39871e-05
8 32 100 22 1.14957e-05
10 32 100 22 0.000288038
11 32 100 22 2.7206e-05
12 32 100 22 0.000139341
13 32 100 22 0.000924394
14 32 100 22 0.596527
17 32 100 22 0.185466
20 32 100 22 1.48732e-05
21 32 100 22 0.213281
10 33 100 22 0.582064
11 33 100 22 0.414429
12 33 100 22 0.00346966
13 33 100 22 3.67218e-05
10 34 100 22 0.0140123
11 34 100 22 0.232764
12 34 100 22 0.751649
13 34 100 22 0.00141281
21 34 100 22 0.000162061
1 0 100 23 0.000228456
2 0 100 23 0.0160399
3 0 100 23 0.0899411
4 0 100 23 0.0342088
5 0 100 23 0.0231632
6 0 100 23 0.0740801
7 0 100 23 0.0559497
8 0 100 23 0.0683172
9 0 100 23 0.0576273
10 0 100 23 0.0188139
11 0 100 23 0.0477786
12 0 100 23 0.0795379
13 0 100 23 0.0416515
14 0 100 23 0.035967
15 0 100 23 0.00806657
16 0 100 23 0.0215801
17 0 100 23 0.0735374
18 0 100 23 0.0264303
19 0 100 23 0.0902736
20 0 100 23 0.0843801
21 0 100 23 0.0523411
22 0 100 23 8.44328e-05
23 0 100 23 1.75495e-06
1 1 100 23 0.369892
2 1 100 23 0.127633
3 1 100 23 0.105273
4 1 100 23 0.143496
5 1 100 23 0.0418329
6 1 100 23 0.0398739
7 1 100 23 0.0290662
8 1 100 23 0.0298391
9 1 100 23 0.0204275
10 1 100 23 0.0099413
11 1 100 23 0.0298718
12 1 100 23 0.0100241
13 1 100 23 0.0198653
14 1 100 23 5.6762e-06
15 1 100 23 4.2846e-05
16 1 100 23 1.68084e-07
17 1 100 23 0.00236249
18 1 100 23 0.000586919
19 1 100 23 0.0101203
20 1 100 23 3.6067e-05
21 1 100 23 0.00980698
22 1 100 23 2.51368e-06
1 2 100 23 0.155043
2 2 100 23 0.221938
3 2 100 23 0.159923
4 2 100 23 0.118702
5 2 100 23 0.111431
6 2 100 23 0.0538997
7 2 100 23 0.0318942
8 2 100 23 0.0319296
9 2 100 23 0.0212357
10 2 100 23 0.0234907
11 2 100 23 0.010815
12 2 100 23 0.0108502
13 2 100 23 0.000129738
14 2 100 23 0.00671912
15 2 100 23 9.17323e-05
16 2 100 23 0.00990552
17 2 100 23 0.0110142
18 2 100 23 0.0206855
19 2 100 23 0.000146899
20 2 100 23 0.00015303
21 2 100 23 1.20505e-06
23 2 100 23 1.49609e-07
1 3 100 23 0.0392618
2 3 100 23 0.0676375
3 3 100 23 0.10168
4 3 100 23 0.0923848
5 3 100 23 0.154108
6 3 100 23 0.130676
7 3 100 23 0.078739
8 3 100 23 0.065292
9 3 100 23 0.0652448
10 3 100 23 0.0743854
11 3 100 23 1.81411e-05
12 3 100 23 0.013279
13 3 100 23 0.0130062
14 3 100 23 0.00275831
15 3 100 23 5.38963e-06
16 3 100 23 0.012959
17 3 100 23 0.0237859
18 3 100 23 0.000248368
19 3 100 23 0.000229614
20 3 100 23 0.038306
21 3 100 23 0.013036
22 3 100 23 0.0129582
1 4 100 23 0.0404338
2 4 100 23 0.120462
3 4 100 23 0.11549
4 4 100 23 0.0718593
5 4 100 23 0.0717829
6 4 100 23 0.0998012
7 4 100 23 0.0603572
8 4 100 23 0.051264
9 4 100 23 0.0324688
10 4 100 23 0.041181
11 4 100 23 0.0256268
12 4 100 23 0.0713438
13 4 100 23 0.0418636
14 4 100 23 0.0411489
15 4 100 23 0.0103138
16 4 100 23 0.0102934
17 4 100 23 0.00227825
18 4 100 23 0.0207395
19 4 100 23 0.0304969
20 4 100 23 0.0103645
21 4 100 23 0.020135
22 4 100 23 0.010293
23 4 100 23 2.02675e-06
1 5 100 23 0.000540559
2 5 100 23 2.84787e-05
3 5 100 23 0.017413
4 5 100 23 0.0663617
5 5 100 23 0.065107
6 5 100 23 0.0824705
7 5 100 23 0.188668
8 5 100 23 0.134073
9 5 100 23 0.0781287
10 5 100 23 0.0856846
11 5 100 23 0.116368
12 5 100 23 0.0160629
13 5 100 23 0.0164432
14 5 100 23 0.000146117
15 5 100 23 0.0323193
16 5 100 23 0.0486061
17 5 100 23 0.000166589
18 5 100 23 3.20135e-05
19 5 100 23 0.00019714
20 5 100 23 0.0173551
21 5 100 23 0.0175469
22 5 100 23 0.016279
23 5 100 23 2.27624e-06
1 6 100 23 0.0148671
2 6 100 23 0.0592471
3 6 100 23 0.0406944
4 6 100 23 0.0812311
5 6 100 23 0.074118
6 6 100 23 0.0635239
7 6 100 23 0.148564
8 6 100 23 0.0855762
9 6 100 23 0.0894185
10 6 100 23 0.0607232
11 6 100 23 0.0592172
12 6 100 23 0.0891554
13 6 100 23 0.0586852
14 6 100 23 0.0444194
15 6 100 23 8.4319e-05
16 6 100 23 0.000275923
17 6 100 23 0.0148198
18 6 100 23 0.0119815
19 6 100 23 0.000114963
20 6 100 23 0.000313533
21 6 100 23 0.00296306
22 6 100 23 2.61164e-06
23 6 100 23 3.35266e-06
1 7 100 23 0.00149768
2 7 100 23 0.0116792
3 7 100 23 2.74584e-05
4 7 100 23 0.0259353
5 7 100 23 0.0562793
6 7 100 23 0.0652893
7 7 100 23 0.0452473
8 7 100 23 0.0907274
9 7 100 23 0.101473
10 7 100 23 0.12076
11 7 100 23 0.0575343
12 7 100 23 0.0333723
13 7 100 23 0.0414824
14 7 100 23 0.0340584
15 7 100 23 0.0780751
16 7 100 23 0.0225846
17 7 100 23 0.0213632
18 7 100 23 0.0450765
19 7 100 23 0.0340891
20 7 100 23 0.0227397
21 7 100 23 0.045467
22 7 100 23 0.0450485
23 7 100 23 0.000192345
1 8 100 23 0.00904454
2 8 100 23 0.00930315
3 8 100 23 0.0271693
4 8 100 23 0.028134
5 8 100 23 0.0632168
6 8 100 23 0.0364198
7 8 100 23 0.0549004
8 8 100 23 0.0808489
9 8 100 23 0.0910463
10 8 100 23 0.0732872
11 8 100 23 0.0541964
12 8 100 23 0.0204673
13 8 100 23 0.0455868
14 8 100 23 0.117821
15 8 100 23 0.0734157
16 8 100 23 0.0337779
17 8 100 23 0.0361439
18 8 100 23 0.0359157
19 8 100 23 0.0181318
20 8 100 23 0.027272
21 8 100 23 0.0362072
22 8 100 23 0.0271503
23 8 100 23 0.000543593
1 9 100 23 0.0287521
2 9 100 23 0.00191093
3 9 100 23 1.04307e-06
4 9 100 23 0.0298393
5 9 100 23 0.043017
6 9 100 23 0.0795355
7 9 100 23 0.058756
8 9 100 23 0.0455284
9 9 100 23 0.0282994
10 9 100 23 0.0287225
11 9 100 23 0.129462
12 9 100 23 0.0725033
13 9 100 23 0.069236
14 9 100 23 0.0393146
15 9 100 23 0.0866583
16 9 100 23 0.0580333
17 9 100 23 0.015341
18 9 100 23 0.0292843
19 9 100 23 0.0263933
20 9 100 23 0.0431152
21 9 100 23 0.0143853
22 9 100 23 0.0574906
23 9 100 23 0.0144202
1 10 100 23 0.0137512
2 10 100 23 0.0260033
3 10 100 23 0.0249109
4 10 100 23 0.0130227
5 10 100 23 0.0257676
6 10 100 23 0.039316
7 10 100 23 0.0388582
8 10 100 23 0.0603007
9 10 100 23 0.0650806
10 10 100 23 0.113273
11 10 100 23 0.0522496
12 10 100 23 0.118043
13 10 100 23 0.0393521
14 10 100 23 0.0139342
15 10 100 23 0.059438
16 10 100 23 0.102714
17 10 100 23 0.0514608
18 10 100 23 0.0122398
19 10 100 23 0.0515175
20 10 100 23 0.0259491
21 10 100 23 0.025825
22 10 100 23 0.0262164
23 10 100 23 0.000776871
1 11 100 23 0.000395153
2 11 100 23 0.0147807
3 11 100 23 0.0143452
4 11 100 23 0.0142456
5 11 100 23 7.79329e-05
6 11 100 23 5.88515e-05
7 11 100 23 0.0400054
8 11 100 23 0.0404477
9 11 100 23 0.0532207
10 11 100 23 0.0513996
11 11 100 23 0.0764887
12 11 100 23 0.0798551
13 11 100 23 0.137022
14 11 100 23 0.10615
15 11 100 23 0.0137369
16 11 100 23 0.0629937
17 11 100 23 0.107342
18 11 100 23 0.0402969
19 11 100 23 0.0265282
20 11 100 23 0.0413272
21 11 100 23 0.0268958
22 11 100 23 0.0520521
23 11 100 23 0.000334602
1 12 100 23 0.0136705
2 12 100 23 0.0412733
3 12 100 23 0.061133
4 12 100 23 0.0312127
5 12 100 23 0.0150196
6 12 100 23 0.0151906
7 12 100 23 2.51557e-05
8 12 100 23 0.0153745
9 12 100 23 0.0451501
10 12 100 23 0.0450027
11 12 100 23 0.063838
12 12 100 23 0.0602556
13 12 100 23 0.0600067
14 12 100 23 0.0910801
15 12 100 23 0.0767591
16 12 100 23 0.0917673
17 12 100 23 0.0179238
18 12 100 23 0.120082
19 12 100 23 0.0603464
20 12 100 23 0.0149767
21 12 100 23 8.34477e-07
22 12 100 23 1.04393e-06
23 12 100 23 0.0599105
1 13 100 23 0.0122159
2 13 100 23 0.0123224
3 13 100 23 0.012541
4 13 100 23 0.0122058
5 13 100 23 0.0244324
6 13 100 23 0.0122571
7 13 100 23 2.54256e-06
8 13 100 23 0.0243035
9 13 100 23 0.0320707
10 13 100 23 0.0495405
11 13 100 23 0.0900803
12 13 100 23 0.0489273
13 13 100 23 0.100124
14 13 100 23 0.0732382
15 13 100 23 0.0586059
16 13 100 23 0.0315797
17 13 100 23 0.134377
18 13 100 23 0.0597447
19 13 100 23 0.098811
20 13 100 23 0.0378675
21 13 100 23 0.0367209
22 13 100 23 0.0257013
23 13 100 23 0.0123299
1 14 100 23 5.44085e-06
2 14 100 23 0.00492184
3 14 100 23 0.000486606
4 14 100 23 0.000111465
5 14 100 23 0.0121478
6 14 100 23 0.0364396
7 14 100 23 0.0121549
8 14 100 23 0.000135965
9 14 100 23 0.0121781
10 14 100 23 0.0129829
11 14 100 23 0.000502062
12 14 100 23 0.036458
13 14 100 23 0.0614857
14 14 100 23 0.0874009
15 14 100 23 0.110416
16 14 100 23 0.123858
17 14 100 23 0.0631324
18 14 100 23 0.10639
19 14 100 23 0.0732925
20 14 100 23 0.0854227
21 14 100 23 0.0351152
22 14 100 23 0.0846278
23 14 100 23 0.0403349
1 15 100 23 0.0248404
2 15 100 23 0.0243189
3 15 100 23 0.0366322
4 15 100 23 0.0124479
6 15 100 23 4.13568e-06
7 15 100 23 0.012421
8 15 100 23 0.0124426
9 15 100 23 0.0255434
10 15 100 23 0.0246683
11 15 100 23 0.0615235
12 15 100 23 0.0717244
13 15 100 23 0.0551824
14 15 100 23 0.0621636
15 15 100 23 0.0997431
16 15 100 23 0.061396
17 15 100 23 0.0744216
18 15 100 23 0.0331148
19 15 100 23 0.0500302
20 15 100 23 0.0699485
21 15 100 23 0.0880066
22 15 100 23 0.0621835
23 15 100 23 0.0372428
1 16 100 23 2.43773e-06
2 16 100 23 0.0178955
3 16 100 23 0.000184393
4 16 100 23 0.0205474
5 16 100 23 0.0206447
6 16 100 23 0.0205723
7 16 100 23 3.80956e-06
8 16 100 23 0.000352374
9 16 100 23 1.36175e-06
10 16 100 23 1.49784e-06
11 16 100 23 0.0205793
12 16 100 23 0.0191685
13 16 100 23 0.0205592
14 16 100 23 0.0411149
15 16 100 23 0.0464288
16 16 100 23 0.144741
17 16 100 23 0.0614671
18 16 100 23 0.159432
19 16 100 23 0.0621421
20 16 100 23 0.0619509
21 16 100 23 0.13955
22 16 100 23 0.0822219
23 16 100 23 0.0604376
1 17 100 23 1.42352e-05
2 17 100 23 2.79496e-07
3 17 100 23 4.11918e-07
4 17 100 23 0.0216079
5 17 100 23 0.0221303
6 17 100 23 6.28128e-05
7 17 100 23 0.0216164
8 17 100 23 0.0216425
9 17 100 23 0.00126475
10 17 100 23 4.28237e-06
11 17 100 23 8.8723e-06
12 17 100 23 0.0476699
13 17 100 23 0.000561774
14 17 100 23 0.000509979
15 17 100 23 0.0845757
16 17 100 23 0.0653547
17 17 100 23 0.109854
18 17 100 23 0.0652924
19 17 100 23 0.064582
20 17 100 23 0.107532
21 17 100 23 0.0648255
22 17 100 23 0.0864541
23 17 100 23 0.214435
4 18 100 23 1.35398e-06
5 18 100 23 0.0176986
6 18 100 23 8.81597e-07
10 18 100 23 9.77012e-06
11 18 100 23 7.65929e-07
12 18 100 23 0.0179253
13 18 100 23 0.0526739
14 18 100 23 0.0704437
15 18 100 23 0.045683
16 18 100 23 0.0172375
17 18 100 23 0.0534026
18 18 100 23 0.0707179
19 18 100 23 0.141619
20 18 100 23 0.123947
21 18 100 23 0.159121
22 18 100 23 0.141034
23 18 100 23 0.0884838
1 19 100 23 1.10055e-06
2 19 100 23 3.96437e-05
3 19 100 23 9.78569e-06
4 19 100 23 0.0238595
5 19 100 23 4.9227e-06
6 19 100 23 0.0226215
7 19 100 23 0.0477182
8 19 100 23 0.0238591
9 19 100 23 0.0468199
10 19 100 23 0.0238644
11 19 100 23 4.73565e-05
12 19 100 23 3.87006e-05
13 19 100 23 0.0238543
14 19 100 23 3.55732e-05
15 19 100 23 0.000153851
16 19 100 23 0.0243255
17 19 100 23 0.0238547
18 19 100 23 0.0716806
19 19 100 23 0.133946
20 19 100 23 0.1219
21 19 100 23 0.0762514
22 19 100 23 0.0965904
23 19 100 23 0.238523
1 20 100 23 9.76082e-06
4 20 100 23 2.04883e-06
5 20 100 23 1.12255e-06
7 20 100 23 1.43255e-05
8 20 100 23 1.74993e-06
9 20 100 23 0.0154202
11 20 100 23 0.00033243
13 20 100 23 1.31663e-05
15 20 100 23 0.0590888
16 20 100 23 0.0116236
17 20 100 23 0.0597338
18 20 100 23 0.0773633
19 20 100 23 0.0592894
20 20 100 23 0.146585
21 20 100 23 0.167643
22 20 100 23 0.147005
23 20 100 23 0.255872
3 21 100 23 6.12117e-05
4 21 100 23 0.000148057
6 21 100 23 6.08496e-07
8 21 100 23 5.00247e-06
9 21 100 23 0.00808938
11 21 100 23 5.96304e-06
12 21 100 23 0.000109735
15 21 100 23 3.96123e-05
16 21 100 23 0.0998691
17 21 100 23 0.0508185
18 21 100 23 0.0950211
19 21 100 23 0.000115349
20 21 100 23 0.0497521
21 21 100 23 0.198971
22 21 100 23 0.248734
23 21 100 23 0.248259
7 22 100 23 1.83725e-05
9 22 100 23 0.00518006
10 22 100 23 2.93271e-06
11 22 100 23 1.67305e-06
13 22 100 23 2.34621e-05
15 22 100 23 4.689e-06
16 22 100 23 0.00241282
17 22 100 23 0.16939
18 22 100 23 0.000453019
19 22 100 23 4.54735e-05
21 22 100 23 1.17039e-06
22 22 100 23 0.182775
23 22 100 23 0.639691
7 23 100 23 0.000155498
10 23 100 23 8.51514e-06
13 23 100 23 3.61134e-06
16 23 100 23 0.000327787
18 23 100 23 0.164175
19 23 100 23 0.000211598
23 23 100 23 0.835118
18 24 100 23 0.00642822
19 24 100 23 0.99354
20 24 100 23 3.22689e-05
7 25 100 23 1.08565e-06
16 25 100 23 7.82942e-06
20 25 100 23 0.999978
21 25 100 23 1.32915e-05
3 26 100 23 1.04594e-05
7 26 100 23 5.92184e-06
12 26 100 23 2.30838e-05
21 26 100 23 0.999961
14 27 100 23 1.01598e-06
16 27 100 23 2.69525e-06
22 27 100 23 0.999996
3 28 100 23 1.0567e-06
7 28 100 23 9.80431e-06
23 28 100 23 0.999989
1 0 100 24 0.00064281
2 0 100 24 0.0384147
3 0 100 24 0.0465787
4 0 100 24 0.0222012
5 0 100 24 0.000580689
6 0 100 24 0.0451636
7 0 100 24 0.0598124
8 0 100 24 0.0191168
9 0 100 24 0.0641051
10 0 100 24 0.0728257
11 0 100 24 0.0703279
12 0 100 24 0.0646882
13 0 100 24 0.0538686
14 0 100 24 0.053657
15 0 100 24 0.0134634
16 0 100 24 0.019138
17 0 100 24 0.0630326
18 0 100 24 0.000331168
19 0 100 24 0.0647466
20 0 100 24 0.0362739
21 0 100 24 0.0580557
22 0 100 24 0.0992324
23 0 100 24 0.0337424
24 0 100 24 5.05421e-07
1 1 100 24 0.404419
2 1 100 24 0.143605
3 1 100 24 0.0862573
4 1 100 24 0.104734
5 1 100 24 0.0436935
6 1 100 24 0.0159674
7 1 100 24 0.0275267
8 1 100 24 0.0135418
9 1 100 24 0.0135144
10 1 100 24 0.0287797
11 1 100 24 0.0431423
12 1 100 24 0.0144966
13 1 100 24 4.15139e-05
14 1 100 24 7.46506e-06
15 1 100 24 0.0144838
16 1 100 24 0.0254733
17 1 100 24 0.000148176
18 1 100 24 0.00124054
19 1 100 24 0.0171309
21 1 100 24 1.70308e-05
22 1 100 24 0.00177898
1 2 100 24 0.115286
2 2 100 24 0.22224
3 2 100 24 0.126503
4 2 100 24 0.126742
5 2 100 24 0.0821837
6 2 100 24 0.0336501
7 2 100 24 0.0115709
8 2 100 24 0.0323127
9 2 100 24 0.021797
10 2 100 24 0.0106009
11 2 100 24 2.23859e-05
12 2 100 24 0.0308031
13 2 100 24 0.0106637
14 2 100 24 0.021191
15 2 100 24 0.0200796
16 2 100 24 0.0194632
17 2 100 24 0.021177
18 2 100 24 0.0211204
19 2 100 24 0.0214982
20 2 100 24 0.0188474
21 2 100 24 0.0105673
22 2 100 24 0.0108006
23 2 100 24 0.0108806
1 3 100 24 0.077843
2 3 100 24 0.108212
3 3 100 24 0.167655
4 3 100 24 0.113278
5 3 100 24 0.145767
6 3 100 24 0.111222
7 3 100 24 0.0381991
8 3 100 24 0.00238571
9 3 100 24 0.0644787
10 3 100 24 0.0264226
11 3 100 24 0.0242736
12 3 100 24 0.025881
13 3 100 24 0.0258839
14 3 100 24 3.72487e-07
15 3 100 24 0.00133249
16 3 100 24 0.00213336
17 3 100 24 0.0105021
18 3 100 24 3.74791e-05
19 3 100 24 0.0133697
20 3 100 24 0.012949
21 3 100 24 0.0129404
22 3 100 24 0.00229277
23 3 100 24 0.0129407
1 4 100 24 0.0927049
2 4 100 24 0.0809585
3 4 100 24 0.118022
4 4 100 24 0.105749
5 4 100 24 0.0826995
6 4 100 24 0.1453
7 4 100 24 0.0838804
8 4 100 24 0.0726637
9 4 100 24 0.0142548
10 4 100 24 0.0593709
11 4 100 24 3.01448e-05
12 4 100 24 0.0128738
13 4 100 24 0.0237789
14 4 100 24 0.0016612
15 4 100 24 0.0117712
16 4 100 24 0.000457155
17 4 100 24 0.0224785
18 4 100 24 0.000412294
19 4 100 24 0.0234164
20 4 100 24 0.0234595
21 4 100 24 0.012172
22 4 100 24 0.0118798
23 4 100 24 4.19905e-06
24 4 100 24 1.67208e-07
1 5 100 24 0.0172319
2 5 100 24 0.0324942
3 5 100 24 0.050656
4 5 100 24 0.0683035
5 5 100 24 0.0694503
6 5 100 24 0.0936668
7 5 100 24 0.0680509
8 5 100 24 0.0846422
9 5 100 24 0.0659489
10 5 100 24 0.0227201
11 5 100 24 0.134693
12 5 100 24 0.0673371
13 5 100 24 0.0453403
14 5 100 24 0.0372353
15 5 100 24 0.00519303
16 5 100 24 0.000200832
17 5 100 24 0.0338037
18 5 100 24 0.0504884
19 5 100 24 0.0178737
20 5 100 24 0.0168449
21 5 100 24 0.0168444
22 5 100 24 0.000975082
23 5 100 24 5.03397e-06
24 5 100 24 6.91328e-07
1 6 100 24 2.80288e-06
2 6 100 24 4.69055e-06
3 6 100 24 0.0313227
4 6 100 24 0.0461426
5 6 100 24 0.113139
6 6 100 24 0.0812775
7 6 100 24 0.127887
8 6 100 24 0.0800483
9 6 100 24 0.0925034
10 6 100 24 0.10502
11 6 100 24 0.0169324
12 6 100 24 0.0458747
13 6 100 24 0.0801557
14 6 100 24 0.077879
15 6 100 24 0.0579075
16 6 100 24 0.0134489
17 6 100 24 0.000123924
18 6 100 24 0.0143182
19 6 100 24 0.000254035
20 6 100 24 0.0156456
21 6 100 24 1.90731e-05
22 6 100 24 9.02387e-05
23 6 100 24 1.95109e-06
24 6 100 24 1.92197e-07
1 7 100 24 4.89928e-05
2 7 100 24 0.0171214
3 7 100 24 0.0425632
4 7 100 24 0.0476324
5 7 100 24 0.0604
6 7 100 24 0.129679
7 7 100 24 0.11595
8 7 100 24 0.155059
9 7 100 24 0.103151
10 7 100 24 0.0644081
11 7 100 24 0.0401932
12 7 100 24 0.0791683
13 7 100 24 0.00140508
14 7 100 24 0.0171484
15 7 100 24 0.0391363
16 7 100 24 0.0510525
17 7 100 24 0.00111963
19 7 100 24 0.0138241
20 7 100 24 0.00381723
21 7 100 24 0.0171181
22 7 100 24 2.53186e-06
23 7 100 24 9.95493e-07
24 7 100 24 7.60364e-07
1 8 100 24 2.25244e-05
2 8 100 24 1.30386e-05
3 8 100 24 0.000121275
4 8 100 24 0.0414708
5 8 100 24 0.0687808
6 8 100 24 0.0277492
7 8 100 24 0.109585
8 8 100 24 0.0853994
9 8 100 24 0.0276494
10 8 100 24 0.0563385
11 8 100 24 0.0823769
12 8 100 24 0.0699983
13 8 100 24 0.0850054
14 8 100 24 0.0692322
15 8 100 24 0.0556681
16 8 100 24 0.0694877
17 8 100 24 0.026955
18 8 100 24 0.0282345
19 8 100 24 0.0272464
20 8 100 24 0.000259614
21 8 100 24 0.0269745
22 8 100 24 0.0137982
23 8 100 24 0.0275409
24 8 100 24 9.22481e-05
1 9 100 24 6.59797e-05
2 9 100 24 2.63115e-07
3 9 100 24 0.0187829
4 9 100 24 0.000418102
5 9 100 24 5.2301e-06
6 9 100 24 0.0911016
7 9 100 24 0.0569913
8 9 100 24 0.0564718
9 9 100 24 0.112807
10 9 100 24 0.0777226
11 9 100 24 0.0752448
12 9 100 24 0.0191229
13 9 100 24 0.112116
14 9 100 24 0.094805
15 9 100 24 0.0376562
16 9 100 24 0.0736179
17 9 100 24 0.0576259
18 9 100 24 0.0377118
19 9 100 24 0.0197243
20 9 100 24 0.0378703
21 9 100 24 0.0012068
22 9 100 24 0.0187699
23 9 100 24 0.000158872
24 9 100 24 3.09335e-06
1 10 100 24 0.0160052
2 10 100 24 1.71368e-05
3 10 100 24 0.00141002
4 10 100 24 0.0464868
5 10 100 24 0.0290118
6 10 100 24 2.90864e-05
7 10 100 24 0.0160175
8 10 100 24 0.0644525
9 10 100 24 0.109082
10 10 100 24 0.0687436
11 10 100 24 0.0655463
12 10 100 24 0.125316
13 10 100 24 0.0486499
14 10 100 24 0.0690672
15 10 100 24 0.0645628
16 10 100 24 0.0514865
17 10 100 24 0.0792165
18 10 100 24 0.080099
19 10 100 24 0.0324089
20 10 100 24 0.0159735
21 10 100 24 0.000314249
22 10 100 24 0.0160208
23 10 100 24 3.05474e-06
24 10 100 24 7.98448e-05
1 11 100 24 0.0131396
2 11 100 24 1.00258e-06
3 11 100 24 0.0213198
4 11 100 24 0.0159562
5 11 100 24 0.0546053
6 11 100 24 0.012927
7 11 100 24 0.0138584
8 11 100 24 0.0463525
9 11 100 24 0.0515249
10 11 100 24 0.0694238
11 11 100 24 0.0661559
12 11 100 24 0.0535654
13 11 100 24 0.0657637
14 11 100 24 0.0840222
15 11 100 24 0.0771239
16 11 100 24 0.063621
17 11 100 24 0.013765
18 11 100 24 0.038523
19 11 100 24 0.0134861
20 11 100 24 0.0386977
21 11 100 24 0.0771572
22 11 100 24 0.0308399
23 11 100 24 0.0387909
24 11 100 24 0.0393796
1 12 100 24 2.96217e-05
2 12 100 24 0.0166445
4 12 100 24 4.00702e-05
5 12 100 24 0.000101039
6 12 100 24 0.0166638
7 12 100 24 0.0490242
8 12 100 24 0.0339947
9 12 100 24 0.017069
10 12 100 24 0.0813023
11 12 100 24 0.116454
12 12 100 24 0.0649308
13 12 100 24 0.0875327
14 12 100 24 0.0372133
15 12 100 24 0.0504092
16 12 100 24 0.0310729
17 12 100 24 0.0664316
18 12 100 24 0.0655424
19 12 100 24 0.0342145
20 12 100 24 0.0518599
21 12 100 24 0.016709
22 12 100 24 0.0806751
23 12 100 24 0.0654515
24 12 100 24 0.0166344
1 13 100 24 0.0140081
2 13 100 24 0.0412045
3 13 100 24 0.0279945
4 13 100 24 0.0140224
5 13 100 24 0.01399
6 13 100 24 0.0192813
7 13 100 24 0.028133
8 13 100 24 0.0654025
9 13 100 24 0.0702471
10 13 100 24 0.0281132
