0 2 6.58724e-06
0 3 0.615794
0 4 0.0869011
0 5 0.00298982
0 6 0.0105158
0 7 0.0237725
0 8 0.0908516
0 9 0.0365361
0 10 0.00813905
0 11 0.00187818
0 12 0.00873359
0 13 0.000350437
0 14 0.00368305
0 15 0.00195221
0 16 0.070788
0 17 0.00155956
0 18 0.00228909
0 19 5.64798e-06
0 20 0.00286551
0 21 0.00196565
0 22 6.01148e-07
0 23 1.21057e-06
0 24 6.36691e-06
0 26 0.000129973
0 27 9.22557e-05
0 28 3.88701e-05
0 29 0.0119405
0 30 1.11717e-06
0 31 9.44165e-07
0 32 2.80659e-07
0 33 3.07801e-05
0 36 0.00488687
0 37 0.00124709
0 40 0.00272804
0 41 8.7006e-05
0 44 1.94976e-07
0 45 6.11463e-07
0 46 1.83308e-07
0 49 1.38743e-05
0 52 2.80147e-06
0 53 1.92219e-07
0 54 6.92585e-06
0 58 0.00161944
0 62 0.00150473
0 71 9.86932e-07
0 73 2.64714e-07
0 81 2.47999e-06
0 89 4.05201e-07
0 113 1.33689e-05
0 123 1.48411e-07
0 125 0.000659768
0 139 0.000105468
0 159 0.000566935
0 192 1.40742e-07
0 196 1.52736e-07
0 197 3.26284e-07
0 243 4.84729e-06
0 276 1.01546e-07
0 306 7.97165e-07
0 358 2.27894e-07
0 401 0.00050177
0 426 2.95886e-06
0 475 1.92064e-07
0 522 0.000582581
0 526 3.14737e-06
0 675 8.35921e-07
0 748 3.19131e-07
0 903 0.000473001
0 1052 0.000585021
0 1168 1.06385e-07
0 1281 0.000573339
2 2 0.931734
2 3 4.00776e-05
2 4 0.00620706
2 5 0.00103637
2 6 0.00197555
2 7 0.00737246
2 8 2.98156e-06
2 9 5.99678e-06
2 10 0.0123417
2 11 1.67749e-06
2 12 0.000293605
2 13 0.000511867
2 15 2.77093e-07
2 16 5.92824e-07
2 20 2.55844e-07
2 28 0.00209428
2 29 6.06405e-06
2 32 0.0121068
2 33 0.00291763
2 36 0.000645437
2 38 3.51076e-07
2 43 0.000544716
2 49 0.00126705
2 58 1.05332e-06
2 62 0.00394048
2 68 0.000454118
2 69 0.00129917
2 71 0.00125671
2 74 8.16168e-06
2 95 4.90368e-07
2 124 0.00213522
2 133 0.00088358
2 151 0.000672019
2 219 0.00145584
2 249 0.000888188
2 309 1.27228e-07
2 330 0.000907413
2 331 3.10563e-06
2 379 0.000441064
2 386 0.000247626
2 426 9.62913e-06
2 455 0.000453625
2 501 0.00045376
2 526 1.8461e-07
2 541 0.00045376
2 675 0.000446401
2 685 7.29111e-05
2 744 0.000453761
2 753 1.27544e-07
2 754 0.000598375
2 757 0.000453761
2 782 0.000453755
2 1168 0.000447167
3 2 0.000328773
3 3 0.00555557
3 4 0.000132263
3 5 0.0409071
3 6 0.000646672
3 7 0.00158813
3 8 0.000118001
3 9 0.000356266
3 10 5.0469e-06
3 11 0.0095831
3 12 5.77487e-05
3 13 0.0147657
3 14 0.0228462
3 15 0.292152
3 16 0.00270494
3 17 0.00368119
3 18 0.0137927
3 19 0.00794375
3 20 2.79913e-07
3 21 0.0375908
3 22 0.0179854
3 23 0.0158187
3 24 0.0070481
3 25 0.00360813
3 26 0.182581
3 27 3.2074e-06
3 29 0.00141042
3 32 0.00189119
3 33 0.0517801
3 34 0.144858
3 35 2.20816e-07
3 36 0.0354751
3 37 2.21244e-06
3 40 1.91234e-06
3 41 0.00154534
3 45 1.01698e-05
3 46 0.00210579
3 47 0.00179643
3 52 0.0136468
3 53 4.13868e-07
3 54 0.0204505
3 55 0.00730868
3 58 0.0139749
3 62 0.00187938
3 63 3.87365e-05
3 66 0.00567609
3 70 0.00194952
3 71 1.13862e-07
3 77 0.00063509
3 78 0.00181684
3 86 0.00184883
3 88 0.00182999
3 98 1.52822e-05
3 100 1.27502e-06
3 112 1.51238e-07
3 120 8.35866e-06
3 123 3.21778e-07
3 138 1.19851e-07
3 146 0.00248117
3 167 2.03592e-07
3 170 1.04532e-07
3 197 1.50141e-07
3 215 3.50813e-07
3 218 0.00360176
3 228 0.000139441
3 306 2.87058e-06
3 438 2.46212e-07
3 622 4.57573e-06
3 675 3.82268e-06
3 741 2.41234e-06
3 1281 3.43337e-06
4 3 1.16925e-05
4 5 0.511716
4 6 5.37872e-07
4 7 3.88185e-06
4 8 3.96017e-06
4 12 0.0141282
4 14 9.95423e-07
4 15 0.131391
4 16 3.0846e-06
4 18 0.200637
4 21 0.0112163
4 24 2.7926e-06
4 26 0.0172263
4 27 0.0110833
4 29 3.44911e-06
4 32 2.23488e-07
4 33 0.00256744
4 34 0.0264436
4 37 0.000179456
4 49 2.59973e-06
4 55 1.33198e-06
4 58 4.84402e-07
4 61 1.14896e-06
4 63 0.0684098
4 76 0.00204356
4 79 1.83524e-07
4 82 5.83668e-07
4 91 0.000981325
4 142 1.29195e-07
4 147 1.65884e-05
4 154 1.56003e-06
4 159 1.8275e-07
4 226 0.000950553
4 311 1.06436e-05
4 333 0.000958812
4 466 3.97517e-07
5 3 0.000551867
5 4 0.789495
5 5 0.0294483
5 6 1.05939e-05
5 7 0.0204555
5 8 3.19296e-06
5 9 6.64228e-05
5 10 0.048665
5 11 1.40022e-06
5 13 0.00241857
5 16 0.000278096
5 18 0.00148241
5 20 0.00274138
5 29 2.55039e-05
5 32 0.000929577
5 34 0.0018419
5 36 0.00032556
5 54 1.07375e-06
5 58 0.00361
5 61 0.0912389
5 94 0.00172961
5 97 6.86555e-06
5 106 0.000923972
5 109 1.17365e-07
5 120 0.000933401
5 172 0.000960485
5 219 1.85559e-07
5 303 6.32983e-07
5 306 9.5398e-07
5 309 0.000922994
5 358 7.37941e-06
5 841 0.000922225
6 3 0.0547916
6 4 0.0299686
6 5 0.0100368
6 6 0.656809
6 7 2.07635e-05
6 8 0.000572886
6 9 1.92247e-05
6 10 0.0413874
6 11 0.170627
6 12 0.00347699
6 13 6.56587e-06
6 14 3.342e-06
6 15 0.00160684
6 16 5.97847e-05
6 17 1.82717e-05
6 18 0.000203124
6 19 9.10661e-05
6 21 8.95688e-07
6 24 0.000800407
6 29 0.00141543
6 30 5.17086e-07
6 33 1.70331e-07
6 36 1.20168e-06
6 37 4.32078e-05
6 39 3.46371e-07
6 40 8.11158e-06
6 41 2.43447e-06
6 45 1.38956e-07
6 48 0.00123078
6 52 1.06696e-07
6 53 3.64623e-07
6 54 1.80904e-07
6 58 0.00552604
6 59 0.00105319
6 61 1.28721e-07
6 62 3.24235e-07
6 63 0.00212216
6 65 1.01168e-07
6 71 0.00380527
6 80 0.00438477
6 82 0.00230236
6 89 0.00106263
6 101 0.0033553
6 105 0.00208111
6 139 1.12801e-05
6 156 0.00104739
6 159 1.30223e-06
6 169 6.82465e-07
6 191 1.04071e-07
6 197 1.34042e-06
6 243 3.08411e-06
6 244 5.13822e-07
6 522 4.36291e-07
6 526 3.57286e-05
7 3 2.39589e-05
7 4 0.0164303
7 5 4.62787e-05
7 6 8.6515e-05
7 7 6.48097e-05
7 8 0.00766527
7 9 0.000156532
7 10 0.00545628
7 11 1.26303e-05
7 12 0.747697
7 13 0.00475239
7 14 0.00230041
7 15 0.0230944
7 16 0.00317338
7 17 0.00209296
7 18 2.4762e-07
7 19 1.10412e-06
7 20 2.77124e-06
7 21 0.000158143
7 22 1.53935e-06
7 24 0.00475156
7 27 0.00328424
7 28 0.0167039
7 29 0.000653221
7 33 0.097915
7 34 1.47151e-05
7 35 0.00848251
7 36 0.00494466
7 41 0.00420067
7 58 0.00532606
7 59 0.00386315
7 62 2.18223e-06
7 70 0.0056942
7 71 7.22855e-06
7 74 0.00209756
7 84 0.00209611
7 86 3.21187e-06
7 87 0.00210115
7 93 0.0056472
7 110 1.05436e-06
7 112 1.23936e-05
7 122 0.00208676
7 148 4.54015e-07
7 174 0.0125841
7 219 2.0917e-07
7 232 0.00418655
7 239 1.1772e-07
7 245 6.55484e-06
7 377 0.000114219
7 385 1.7486e-07
7 404 9.03504e-07
7 426 1.03e-07
7 526 2.16371e-07
7 868 1.70479e-07
8 3 0.0128052
8 4 0.000657882
8 5 0.143318
8 6 0.0573971
8 7 0.0826179
8 8 0.000354145
8 9 0.0357864
8 10 4.92012e-05
8 11 0.0327798
8 12 2.90969e-05
8 14 6.41136e-07
8 15 0.0513387
8 16 0.0310215
8 17 7.83683e-07
8 18 1.22865e-07
8 21 0.0476052
8 22 0.00324666
8 23 0.00325672
8 24 0.00328816
8 25 7.23704e-07
8 26 2.11891e-06
8 29 0.0635645
8 30 0.00929118
8 32 6.23217e-06
8 33 0.00742157
8 34 0.000267096
8 36 0.0884911
8 37 6.31515e-07
8 41 0.00333552
8 46 0.012452
8 56 1.55951e-05
8 61 1.18516e-07
8 71 0.00381254
8 81 0.0316674
8 83 0.225841
8 85 0.00314372
8 86 0.00323745
8 115 9.66402e-06
8 120 2.92447e-05
8 135 0.0153123
8 138 2.27868e-06
8 145 0.00381963
8 154 0.00548558
8 157 0.00313595
8 159 1.95622e-05
8 170 2.50937e-07
8 172 0.00312291
8 194 0.00434691
8 203 5.066e-07
8 204 5.80025e-07
8 239 1.14536e-07
8 243 6.72294e-05
8 259 1.53946e-07
8 274 0.00340057
8 323 2.05678e-06
8 324 0.00311347
8 346 3.79279e-07
8 475 2.43207e-06
8 522 1.37104e-05
8 526 2.18565e-06
8 675 1.14675e-06
8 704 2.48332e-07
8 1256 5.70129e-07
8 1281 6.38393e-06
9 2 1.14941e-05
9 4 0.000433771
9 5 0.0106896
9 6 1.32107e-05
9 7 0.000647587
9 8 2.43612e-05
9 9 0.000736402
9 10 0.000395846
9 12 0.102277
9 13 0.0696484
9 14 2.69767e-06
9 15 1.7483e-05
9 16 4.55671e-05
9 17 1.26632e-06
9 18 8.7767e-05
9 20 0.0115344
9 21 3.32053e-06
9 24 2.23724e-06
9 27 0.477554
9 28 2.88174e-06
9 29 0.000206172
9 30 0.0234938
9 31 1.17017e-06
9 32 4.90876e-06
9 34 2.88823e-06
9 35 3.414e-06
9 36 3.85775e-06
9 38 7.94377e-05
9 40 0.000259717
9 41 2.00017e-05
9 44 0.00424544
9 51 0.0117638
9 52 1.71415e-07
9 54 0.0094757
9 55 2.74632e-05
9 56 3.87919e-06
9 57 0.011195
9 58 0.000107295
9 60 0.00196519
9 69 8.43467e-05
9 70 0.000117262
9 77 0.00376273
9 80 1.77899e-06
9 86 1.73164e-05
9 89 1.0305e-07
9 96 0.00389271
9 102 0.114465
9 110 0.00585883
9 130 1.05066e-07
9 131 3.52001e-07
9 135 3.24357e-07
9 139 1.42998e-06
9 141 0.00196995
9 142 0.00204305
9 163 0.056599
9 174 2.05339e-05
9 196 2.50749e-07
9 219 0.00397252
9 239 1.90645e-05
9 243 3.46759e-07
9 245 0.00590083
9 248 0.00737708
9 250 8.94286e-07
9 274 1.05628e-07
9 275 0.00583551
9 320 0.00243125
9 333 0.00962729
9 369 1.2957e-05
9 377 0.0135094
9 385 6.37633e-06
9 396 0.0136158
9 408 0.00414332
9 426 3.57093e-06
9 443 2.4571e-07
9 461 2.8596e-07
9 490 1.72236e-06
9 526 1.60455e-07
9 674 0.00583497
9 685 0.00185857
9 754 1.49529e-05
9 868 7.7457e-06
10 2 5.24465e-07
10 3 0.000171818
10 4 0.10752
10 5 0.00826213
10 6 0.00725261
10 7 0.0303189
10 8 0.000144681
10 9 8.16612e-06
10 10 0.754354
10 12 0.00188406
10 15 0.00385786
10 16 0.00611051
10 21 2.00841e-07
10 24 0.00186491
10 26 3.03604e-06
10 29 1.88834e-05
10 36 0.0246819
10 37 3.87242e-05
10 58 0.0123833
10 61 0.00186093
10 71 8.91253e-06
10 76 0.00158252
10 103 0.00187814
10 113 0.004096
10 134 2.9449e-07
10 258 0.00743148
10 274 0.00753475
10 275 0.0167295
10 362 5.70616e-07
10 401 2.62427e-07
11 2 0.0249409
11 3 4.99422e-06
11 4 0.00957076
11 6 8.77791e-07
11 7 0.928565
11 8 0.0170763
11 10 7.9734e-05
11 11 0.000454492
11 16 2.10988e-06
11 29 0.00739326
11 32 1.35628e-07
11 33 0.0112217
11 37 0.000551445
11 58 0.000126431
11 89 1.16111e-05
12 3 2.44369e-05
12 4 0.00034614
12 5 0.000761845
12 6 9.56724e-07
12 7 0.000917044
12 8 2.9531e-07
12 9 0.00471905
12 10 4.5587e-06
12 11 0.000116701
12 12 1.18746e-06
12 13 0.681608
12 15 1.63783e-06
12 16 8.96903e-07
12 18 0.00545243
12 19 0.00661147
12 21 0.00188904
12 23 0.00239567
12 25 0.25343
12 27 0.00721105
12 32 2.78297e-07
12 37 7.97309e-07
12 38 0.00676625
12 44 0.00277061
12 45 1.25093e-07
12 50 2.25848e-07
12 53 0.00452374
12 54 2.65654e-05
12 55 1.46159e-06
12 56 1.45075e-07
12 57 0.000384403
12 58 9.11488e-06
12 62 9.24436e-06
12 63 0.00206809
12 73 0.00930507
12 84 1.34466e-05
12 86 2.37228e-05
12 102 0.0022898
12 113 0.00227082
12 120 3.73777e-07
12 135 0.00359003
12 239 2.44557e-06
12 325 9.31941e-07
12 565 4.18135e-07
12 741 0.000449639
13 14 0.0113266
13 17 0.499239
13 25 0.0310553
13 38 0.455152
13 135 0.00301926
13 138 0.000207181
13 1294 3.01487e-07
14 2 0.0197397
14 6 0.000141978
14 7 2.14282e-05
14 10 2.82569e-06
14 11 5.98454e-06
14 12 3.17824e-06
14 14 0.663693
14 17 0.296734
14 20 0.00162688
14 25 0.00470078
14 33 2.17074e-07
14 38 0.00636279
14 39 1.70903e-07
14 40 4.60468e-06
14 41 2.48744e-05
14 45 3.36666e-07
14 49 2.35067e-07
14 52 2.06036e-05
14 58 0.00526885
14 62 7.68922e-06
14 69 8.47866e-07
14 84 1.11529e-06
14 86 7.24184e-07
14 89 9.45522e-06
14 91 1.60557e-07
14 92 6.80824e-06
14 125 3.07283e-05
14 135 1.07395e-06
14 198 3.91647e-06
14 426 1.11965e-07
14 574 0.0015577
14 675 5.6983e-07
14 741 2.03029e-06
14 1294 2.31055e-05
15 2 0.00397652
15 3 0.00138959
15 4 7.26282e-06
15 5 0.00475803
15 6 4.88882e-06
15 7 0.000302552
15 8 0.00469291
15 9 0.167193
15 10 1.93363e-06
15 12 4.89148e-07
15 13 0.280567
15 15 0.000994265
15 16 2.60478e-07
15 18 4.33451e-06
15 20 0.000403943
15 21 2.64971e-07
15 26 0.0345084
15 27 7.83952e-06
15 28 0.0141011
15 32 0.00760143
15 33 5.27267e-07
15 35 9.7717e-06
15 36 0.00770419
15 41 1.73664e-07
15 44 1.28718e-07
15 50 0.0105775
15 52 3.09913e-05
15 54 3.06676e-06
15 57 0.109163
15 60 3.02653e-07
15 73 0.0492207
15 98 0.156381
15 99 0.110464
15 102 1.02114e-07
15 103 0.00354605
15 108 0.0036822
15 116 0.0070939
15 120 1.01098e-07
15 124 0.00690418
15 126 0.00354926
15 139 3.56678e-07
15 147 0.00362964
15 174 3.91962e-05
15 183 0.00383469
15 219 3.4771e-07
15 258 0.00355103
15 275 3.00034e-07
15 622 9.71004e-05
16 3 0.000335048
16 4 2.5129e-05
16 5 4.15693e-06
16 8 0.000196975
16 9 0.874381
16 10 1.01305e-07
16 13 0.00158529
16 14 2.12906e-06
16 16 0.0250073
16 17 4.32902e-07
16 21 6.92812e-07
16 32 1.05699e-05
16 33 4.54379e-07
16 36 1.22375e-07
16 37 8.66996e-07
16 43 6.64295e-07
16 44 6.85464e-05
16 45 0.00551334
16 57 0.000803893
16 58 0.000167511
16 94 0.00274406
16 98 0.00548778
16 108 5.73633e-07
16 116 0.00806476
16 123 1.79514e-07
16 131 0.0167832
16 147 0.0063571
16 207 0.00287195
16 215 8.84783e-06
16 219 0.0352879
16 238 7.08919e-07
16 240 2.20941e-07
16 253 0.0139159
16 267 1.64503e-07
16 438 0.000364554
16 675 6.9422e-06
17 2 1.00671e-07
17 3 1.36562e-06
17 4 3.84134e-05
17 6 1.18053e-05
17 7 0.0270158
17 8 0.000789338
17 11 2.30909e-07
17 12 6.43196e-07
17 13 0.0559846
17 16 0.0765054
17 19 1.76155e-07
17 25 0.544989
17 26 5.43577e-07
17 27 0.008093
17 29 0.0162637
17 31 1.05137e-06
17 43 0.011649
17 45 0.000228273
17 52 0.00401915
17 54 0.0154531
17 73 0.0529676
17 76 0.113564
17 78 0.0205128
17 91 0.0124396
17 106 1.10152e-07
17 125 0.00402631
17 142 1.04004e-07
17 153 0.00447312
17 162 0.00405814
17 192 7.26434e-07
17 208 0.00403598
17 239 0.00405043
17 241 0.00407649
17 319 0.0107064
17 438 4.85819e-07
17 675 2.58825e-05
17 1117 0.0040166
17 1294 2.21788e-07
18 2 0.00535835
18 3 0.355071
18 5 1.90368e-05
18 6 0.0588758
18 7 5.72409e-05
18 9 2.84414e-07
18 11 0.551835
18 13 2.15234e-07
18 14 0.000440181
18 15 0.00342225
18 17 0.000598508
18 18 1.00902e-05
18 29 0.000133766
18 33 0.00836537
18 38 0.00179228
18 62 0.000142148
18 78 2.0884e-07
18 101 0.0100943
18 130 1.01631e-07
18 152 3.68317e-05
18 209 6.714e-05
18 215 0.00189082
18 506 0.00178847
19 3 6.68125e-05
19 4 0.0559187
19 5 2.02972e-06
19 6 0.0995199
19 7 1.02747e-05
19 8 0.0734879
19 10 0.0114028
19 11 2.0025e-05
19 13 2.31133e-07
19 14 0.0032956
19 15 1.42218e-06
19 16 1.19068e-07
19 17 0.0014889
19 19 4.59812e-05
19 20 0.00897698
19 22 0.00447551
19 23 0.00302248
19 24 0.00645692
19 25 0.00297106
19 29 0.0051489
19 31 0.385765
19 40 6.5945e-07
19 45 0.00148794
19 48 0.0328915
19 53 0.00297815
19 54 2.47226e-07
19 58 0.00675073
19 61 1.06961e-06
19 63 8.21142e-05
19 67 0.00300411
19 73 4.11976e-07
19 84 3.53956e-07
19 89 0.0939035
19 105 0.0610868
19 118 0.00367443
19 121 0.0120465
19 134 0.0327649
19 142 0.00936198
19 143 0.00149552
19 144 7.24672e-07
19 159 5.43075e-07
19 165 0.0152497
19 166 0.00328072
19 169 0.00148872
19 181 0.044701
19 188 2.34884e-07
19 191 1.15158e-07
19 198 0.00297485
19 232 1.44117e-07
19 243 1.59834e-07
19 244 0.00148968
19 293 1.37393e-07
19 306 1.71164e-05
19 316 0.00448405
19 358 0.00121551
19 390 0.00148696
19 522 6.74289e-07
20 11 4.29356e-05
20 19 0.489893
20 21 0.317592
20 45 2.32014e-05
20 62 0.0127832
20 65 0.155428
20 71 0.000376408
20 86 0.00665742
20 112 0.00685547
20 114 0.00207175
20 132 3.17106e-07
20 180 0.00343425
20 203 0.00168446
20 288 0.00169143
20 382 2.49985e-05
20 622 0.00144082
21 3 0.314061
21 5 0.00643546
21 22 0.0711519
21 23 0.333595
21 34 5.98554e-05
21 53 0.136418
21 63 0.0046911
21 66 0.132129
21 225 0.000278486
21 701 0.00118047
22 4 3.8188e-07
22 5 0.625098
22 6 2.73061e-06
22 8 1.28815e-05
22 9 0.0285069
22 10 6.62606e-06
22 11 2.49393e-06
22 12 0.0208749
22 14 1.20151e-05
22 17 2.45147e-07
22 18 0.0666596
22 20 0.00724457
22 21 0.0103886
22 26 0.00355259
22 32 0.00428215
22 33 1.03745e-07
22 34 0.00469061
22 56 8.11067e-07
22 58 5.4107e-05
22 61 1.83254e-07
22 63 0.189643
22 81 0.00346316
22 95 0.0143953
22 106 3.55937e-07
22 143 0.0100022
22 169 0.00765464
22 222 1.20715e-07
22 274 0.00344917
22 317 9.88669e-07
22 702 3.17242e-07
22 741 4.39805e-07
23 3 0.755721
23 4 4.008e-06
23 6 1.80556e-07
23 9 0.00486945
23 10 1.23e-07
23 12 6.66162e-06
23 15 1.59577e-06
23 36 2.2791e-05
23 37 0.00454034
23 41 0.0935442
23 45 5.44153e-07
23 46 0.114945
23 54 1.07995e-05
23 80 0.013472
23 87 0.00828283
23 133 1.00897e-06
23 250 6.75702e-05
23 396 0.00450759
23 401 2.31712e-06
23 642 1.24383e-07
24 2 7.97815e-06
24 3 0.00158574
24 6 3.56402e-06
24 8 1.23242e-06
24 13 3.47507e-07
24 15 0.0132196
24 18 0.200119
24 27 0.000363256
24 30 1.30423e-07
24 34 4.11844e-07
24 35 0.531022
24 36 5.13358e-05
24 42 6.46976e-07
24 44 1.56236e-07
24 58 8.67213e-07
24 67 3.49745e-06
24 70 0.102633
24 82 0.00650813
24 85 0.0954453
24 90 0.00467161
24 93 1.65482e-06
24 95 0.00433245
24 110 3.65772e-05
24 138 5.9922e-06
24 152 1.0656e-07
24 161 0.00707329
24 197 9.9033e-07
24 204 0.00698595
24 260 0.0116617
24 264 0.00489395
24 323 4.3514e-05
24 370 0.00698893
24 385 5.75506e-06
24 421 0.00233052
24 475 3.98395e-07
25 2 2.07382e-05
25 3 0.0445463
25 4 0.0223906
25 6 3.38802e-05
25 7 0.000362345
25 8 1.87425e-07
25 10 0.000216886
25 11 0.0484913
25 12 0.00380377
25 13 1.66815e-05
25 15 1.6056e-07
25 16 1.6738e-06
25 18 4.81992e-07
25 20 2.52126e-07
25 24 0.0104111
25 26 4.41214e-05
25 29 0.027241
25 31 6.31561e-07
25 34 5.15946e-07
25 37 0.00924596
25 39 0.025656
25 44 0.00674858
25 45 0.00222575
25 47 0.275247
25 51 0.0133269
25 58 4.18304e-07
25 61 1.40188e-07
25 62 0.0221922
25 64 0.00657185
25 65 0.00219316
25 69 2.39212e-07
25 71 0.0092845
25 72 0.0723193
25 74 3.75152e-07
25 75 0.00465747
25 77 0.0152281
25 82 0.0106678
25 92 0.181814
25 93 0.00261993
25 96 1.62133e-07
25 97 0.0065382
25 113 1.40774e-07
25 114 0.00449868
25 120 0.0110091
25 122 0.0109754
25 123 0.00225651
25 130 0.00858197
25 133 0.00439627
25 135 0.0001632
25 138 0.00203343
25 139 3.90555e-07
25 142 0.00225446
25 148 0.00440054
25 152 0.0128916
25 156 0.00439714
25 163 0.00889335
25 173 0.0176311
25 178 0.00219291
25 191 0.00657027
25 197 0.00435372
25 207 0.00435987
25 215 0.00237611
25 230 0.00429273
25 236 0.0153685
25 239 4.85531e-06
25 242 0.00447071
25 285 0.00219291
25 295 0.00440343
25 305 1.1098e-06
25 341 0.00444278
25 348 0.00461009
25 358 5.56879e-07
25 372 0.00438578
25 381 5.38504e-07
25 461 0.00657831
25 504 0.00219314
25 565 0.00219395
25 675 7.99297e-07
25 717 0.00650265
25 741 2.10489e-07
26 2 0.000850711
26 5 0.0812327
26 6 5.64351e-05
26 7 1.46494e-05
26 10 0.000276736
26 12 0.040483
26 13 9.48734e-06
26 14 2.60143e-07
26 16 2.95155e-07
26 27 0.0335392
26 28 5.70513e-05
26 29 0.00243016
26 30 0.607936
26 36 2.23988e-06
26 41 0.00238595
26 69 0.000234727
26 85 0.00796335
26 89 1.97038e-05
26 95 0.0373947
26 101 0.0446188
26 106 0.0091514
26 110 1.55387e-07
26 143 0.0192365
26 151 0.00665242
26 160 0.0205142
26 204 0.0048159
26 205 0.00240863
26 209 0.00479865
26 213 0.0289184
26 245 0.0239886
26 272 0.00481457
26 275 1.0471e-07
26 300 1.22175e-07
26 315 0.00322678
26 333 1.19248e-07
26 426 0.0023378
26 479 0.00481457
26 1070 0.00240728
26 1291 0.00240728
27 3 0.0411439
27 4 0.0159522
27 5 7.88019e-05
27 6 0.0117729
27 8 0.000295119
27 9 0.00130713
27 10 5.3869e-07
27 11 0.102666
27 13 0.0178134
27 14 0.0208869
27 16 2.46682e-05
27 17 0.019143
27 19 0.108986
27 21 0.0641322
27 24 0.00286485
27 25 3.64405e-07
27 26 3.41753e-07
27 28 1.51456e-07
27 29 2.00292e-06
27 34 1.42852e-07
27 36 0.0205915
27 37 0.0278675
27 38 0.0113015
27 39 0.0030803
27 55 0.0197372
27 58 9.58629e-07
27 62 0.00281162
27 64 0.0113332
27 65 0.0357593
27 67 0.00305821
27 71 0.0559888
27 72 0.0170418
27 73 4.47214e-07
27 75 7.56298e-06
27 80 2.91906e-07
27 82 0.00297544
27 83 0.00143251
27 86 0.0451072
27 92 8.52695e-07
27 93 4.53893e-06
27 97 0.0106826
27 105 0.00281503
27 109 7.24456e-07
27 114 0.0065068
27 115 0.0196733
27 125 1.50888e-06
27 135 0.0430185
27 138 0.016728
27 145 0.00734893
27 149 0.07004
27 152 0.00277036
27 157 0.0484791
27 159 1.12463e-06
27 170 5.47219e-06
27 188 0.0159819
27 194 0.0162284
27 197 3.52888e-05
27 207 0.00561039
27 220 0.0264096
27 239 1.13422e-07
27 246 0.00848017
27 262 0.00848017
27 276 1.31852e-05
27 278 0.0113704
27 295 0.00274107
27 303 7.4722e-07
27 345 0.00848098
27 352 0.00286434
27 475 3.45628e-06
27 481 6.88288e-06
27 522 7.59625e-07
27 1091 1.37596e-07
27 1281 4.8275e-05
28 3 0.00762454
28 16 1.33373e-07
28 22 0.898643
28 23 0.0117029
28 26 0.00431775
28 34 0.0021662
28 36 0.0194826
28 62 0.00365891
28 66 0.00683356
28 112 0.00736393
28 145 0.00894498
28 166 0.00366055
28 232 0.0256011
29 2 6.6177e-05
29 4 8.29437e-06
29 7 0.133691
29 16 1.7856e-05
29 21 2.54336e-06
29 32 0.85766
29 61 4.57587e-07
29 79 0.00426743
29 157 1.88778e-05
29 580 0.00426743
30 3 0.134165
30 4 9.182e-05
30 5 0.10243
30 6 0.0110222
30 7 0.024318
30 11 0.132006
30 13 0.0160334
30 14 2.94391e-06
30 15 0.108054
30 16 0.232661
30 18 0.0422031
30 26 1.39461e-06
30 29 4.35528e-07
30 32 0.0210128
30 33 5.05197e-07
30 34 0.0467469
30 36 6.79749e-07
30 45 2.16176e-07
30 61 4.07912e-06
30 81 0.057881
30 91 0.0182504
30 112 1.37502e-07
30 167 0.0421084
30 172 0.011006
31 3 2.01001e-05
31 4 7.30482e-05
31 5 0.0351837
31 7 1.45137e-06
31 10 5.7364e-06
31 11 0.00518905
31 15 8.82902e-06
31 16 2.2785e-05
31 26 1.04297e-06
31 29 6.83546e-06
31 32 1.64764e-07
31 36 1.02352e-06
31 39 0.622569
31 40 0.049417
31 46 0.174983
31 47 0.0164965
31 50 1.16943e-07
31 57 1.81083e-06
31 58 0.000103205
31 80 1.16829e-07
31 99 0.00448991
31 113 0.00903798
31 120 3.13424e-07
31 159 0.00439503
31 173 2.66441e-07
31 188 0.000672485
31 224 0.00447756
31 236 0.0227151
31 237 0.0315694
31 238 1.68342e-07
31 239 5.33089e-07
31 252 0.00440932
31 330 5.73647e-07
31 398 0.00533527
31 424 0.00881101
31 437 1.05115e-07
31 515 4.22969e-07
32 3 3.22649e-06
32 5 1.26909e-06
32 7 7.50398e-06
32 9 0.0023545
32 11 5.33746e-05
32 14 6.16067e-05
32 19 0.122534
32 21 0.047459
32 31 6.93718e-07
32 32 0.0112743
32 34 0.0108044
32 36 0.00785507
32 54 0.010222
32 62 0.0640863
32 65 0.12952
32 71 0.0443574
32 86 0.000201279
32 100 0.149513
32 112 0.104905
32 114 0.000968048
32 115 1.13026e-06
32 117 0.0107351
32 146 0.132967
32 180 0.0641655
32 187 0.0108521
32 220 0.0212517
32 256 0.0324002
32 295 0.0107202
32 394 7.34875e-07
32 629 0.0107244
33 2 0.000310072
33 3 1.78766e-05
33 4 1.11042e-06
33 6 1.9019e-07
33 10 0.0376949
33 11 1.64662e-07
33 12 4.15653e-07
33 14 4.29625e-07
33 16 0.000260453
33 17 0.000142365
33 20 1.04171e-06
33 28 0.642662
33 54 3.77038e-07
33 58 1.74069e-05
33 62 0.0636572
33 67 0.00417347
33 69 0.00407441
33 80 1.4658e-07
33 90 0.00500106
33 93 0.0079816
33 103 0.0149129
33 120 0.0511622
33 141 0.0682422
33 172 0.00855675
33 191 0.0168283
33 228 3.98793e-07
33 250 0.0307494
33 251 0.00855981
33 267 1.64687e-07
33 274 0.0118394
33 291 0.000934944
33 299 0.0136542
33 310 0.00854333
33 314 1.15593e-07
33 335 1.81642e-05
33 1280 4.39141e-07
34 4 4.41234e-07
34 5 1.48508e-06
34 7 3.83781e-06
34 8 2.32428e-05
34 14 0.00508971
34 20 4.34578e-06
34 26 0.0144599
34 30 0.0102812
34 33 0.00517648
34 44 0.939228
34 51 9.1348e-07
34 52 0.0101376
34 56 3.83143e-06
34 70 5.40132e-06
34 94 2.36805e-06
34 108 2.59972e-06
34 116 0.00545066
34 153 0.00505735
34 167 0.00507034
35 3 0.0201593
35 4 0.000216841
35 6 0.0950699
35 11 2.95354e-06
35 22 0.0200027
35 23 0.0194621
35 29 7.21528e-07
35 31 0.0155051
35 44 6.73986e-07
35 45 0.0078499
35 48 0.63558
35 52 1.12442e-07
35 53 2.85308e-07
35 62 3.55843e-06
35 65 0.00791323
35 66 0.0158272
35 89 2.20929e-07
35 97 0.00396998
35 113 0.00793314
35 120 0.00380792
35 144 0.0554094
35 145 0.00395779
35 191 0.011869
35 193 0.0158524
35 336 0.0279325
35 357 0.0158311
35 387 1.96078e-06
35 390 2.90332e-06
35 437 0.00395663
35 443 0.00395614
35 594 9.85521e-06
35 689 1.46356e-07
35 697 0.00395678
35 746 0.00395678
36 3 1.5645e-06
36 4 1.53447e-07
36 5 9.7471e-06
36 7 1.49186e-06
36 8 0.000540911
36 9 0.0529073
36 16 0.006725
36 24 0.473069
36 29 0.000219404
36 32 6.58362e-06
36 37 0.0158466
36 61 0.01267
36 75 0.0528421
36 79 0.00925673
36 85 0.00930145
36 97 0.028844
36 104 0.0139913
36 109 0.228998
36 114 0.00122508
36 138 7.30789e-05
36 148 0.00920567
36 190 0.0307756
36 212 0.0280087
36 227 0.00930745
36 239 8.87323e-07
36 259 0.00462597
36 267 0.00481213
36 276 0.00588379
36 296 7.55901e-07
36 303 0.000845967
36 496 3.56956e-06
37 4 3.25832e-07
37 27 0.00519551
37 43 0.958587
37 47 2.2956e-06
37 49 0.000258304
37 51 0.0103214
37 52 0.0152427
37 62 0.00520822
37 426 2.82198e-06
37 444 0.00518162
38 2 0.00329698
38 4 1.52623e-06
38 5 4.57316e-07
38 7 0.0188529
38 8 0.0880584
38 10 0.0286731
38 14 1.3341e-07
38 20 0.563328
38 21 6.02108e-06
38 29 4.91943e-07
38 41 0.174209
38 45 3.30433e-05
38 52 4.49764e-05
38 54 6.05002e-07
38 58 1.44333e-06
38 74 0.00673172
38 78 0.00624264
38 81 0.00311171
38 106 0.0189462
38 121 0.00301668
38 130 0.00656294
38 142 1.85806e-05
38 222 0.00933828
38 309 0.000430593
38 323 0.00311289
38 327 0.0373472
38 331 1.0915e-06
38 337 3.05278e-07
38 342 0.0122757
38 346 0.00666453
38 407 0.00637654
38 568 0.00331421
39 3 0.00095185
39 9 1.13702e-05
39 11 9.51782e-07
39 13 5.37576e-07
39 15 2.00372e-06
39 16 4.15933e-06
39 19 0.0155615
39 28 1.6119e-07
39 33 6.25651e-07
39 34 1.64665e-07
39 37 0.009282
39 62 6.35204e-07
39 70 1.21423e-05
39 71 0.457007
39 78 3.74711e-06
39 83 1.89772e-05
39 86 0.372114
39 97 0.00775413
39 115 1.11287e-06
39 135 6.89313e-06
39 145 0.0171456
39 149 0.0123928
39 157 1.03436e-06
39 176 0.00775288
39 203 5.38136e-05
39 220 0.0233295
39 243 0.00747615
39 258 0.0430492
39 345 0.0105443
39 654 0.015506
39 675 1.36267e-05
39 798 1.02503e-07
39 978 7.73765e-07
40 4 9.09253e-05
40 6 2.23157e-05
40 9 0.00702827
40 10 2.09941e-07
40 14 0.000376178
40 16 9.22447e-07
40 17 0.0220182
40 19 0.00548016
40 23 4.90229e-07
40 36 0.0057178
40 44 0.0109596
40 49 1.11765e-05
40 50 0.893321
40 52 0.0107481
40 57 0.0112871
40 60 0.0054814
40 78 0.00548662
40 93 1.12767e-07
40 94 6.04847e-07
40 139 0.0109691
40 141 3.82029e-07
40 194 3.11244e-07
40 207 0.00538783
40 272 1.66676e-07
40 336 0.00548121
40 1000 0.000129213
41 2 0.00165245
41 3 0.000112034
41 4 4.0202e-07
41 5 0.000456688
41 7 0.108064
41 8 7.27768e-07
41 9 2.34474e-06
41 10 0.0490614
41 11 2.06904e-06
41 12 0.0484046
41 13 3.58393e-07
41 14 3.49633e-05
41 16 6.57879e-06
41 18 0.00917748
41 31 1.06692e-06
41 32 0.0292312
41 33 0.0667087
41 36 3.57177e-06
41 42 0.019476
41 47 1.02442e-06
41 54 0.0205655
41 56 1.02937e-06
41 58 4.41158e-07
41 62 0.356369
41 81 0.0196302
41 114 2.96328e-05
41 120 0.164562
41 152 0.00973964
41 170 1.74537e-06
41 198 1.80533e-06
41 215 0.047378
41 231 0.0103687
41 265 6.52406e-07
41 328 9.48999e-06
41 381 0.00974869
41 456 0.0194597
41 480 0.00973598
42 5 1.21744e-07
42 10 2.1621e-07
42 14 0.00583273
42 25 0.00656359
42 28 1.18758e-07
42 29 3.09426e-05
42 33 1.01118e-07
42 36 2.97528e-05
42 37 1.0115e-06
42 38 4.97982e-06
42 40 0.00563646
42 49 0.921796
42 51 0.0165975
42 69 0.0063537
42 78 0.00534968
42 94 1.16947e-05
42 137 0.00549277
42 153 0.00508222
42 188 1.68993e-07
42 196 3.6742e-07
42 238 0.010697
42 248 2.6612e-07
42 249 1.433e-05
42 255 2.32133e-06
42 306 0.00551882
42 526 0.00498274
43 3 0.011977
43 4 1.22682e-07
43 9 4.65098e-05
43 10 2.19457e-07
43 18 0.00538436
43 19 0.140186
43 21 0.0785418
43 22 0.00536134
43 23 0.00550837
43 24 9.476e-07
43 31 0.00966585
43 34 0.0156909
43 36 0.0744296
43 40 6.25157e-05
43 62 0.00658316
43 65 0.0869392
43 66 0.00532123
43 71 2.45395e-07
43 76 0.0106198
43 88 0.0106195
43 100 0.0113079
43 110 4.00983e-07
43 112 0.0482637
43 113 0.0104646
43 117 0.0156948
43 119 1.26925e-07
43 120 0.000102576
43 125 7.38252e-07
43 130 0.0315745
43 136 0.00531363
43 139 0.00526838
43 143 0.00530174
43 145 0.00780695
43 154 0.0104519
43 159 0.0106178
43 166 0.0381728
43 176 0.00530934
43 180 0.0158506
43 187 0.00530925
43 193 0.00531056
43 214 0.0159289
43 220 0.0206171
43 221 0.0368261
43 225 0.089009
43 230 0.0801518
43 243 2.48075e-07
43 268 0.00530951
43 281 0.00530987
43 346 0.00530951
43 395 0.00530951
43 469 0.010619
43 518 0.00530951
43 522 0.00530998
43 611 0.00530951
43 690 1.30898e-07
43 770 0.00531009
43 1156 0.0053095
44 3 6.13518e-05
44 6 1.01834e-07
44 16 7.32667e-06
44 29 0.0173521
44 37 0.967627
44 61 0.00671094
44 64 1.03986e-07
44 132 0.0064482
44 138 0.000925745
44 215 0.000866707
45 3 0.036726
45 5 0.0589686
45 7 1.32882e-06
45 10 4.43644e-06
45 15 1.32433e-06
45 16 3.5139e-07
45 22 0.0803039
45 26 0.0298683
45 28 0.000140975
45 30 1.4404e-07
45 31 2.40317e-07
45 32 0.0391661
45 39 0.0314981
45 49 2.18518e-05
45 53 0.0336286
45 58 0.00699678
45 62 1.94031e-06
45 63 0.0130685
45 66 0.0188284
45 87 0.00133964
45 107 0.349944
45 109 0.00660972
45 113 0.0265831
45 115 0.0200597
45 125 0.000769372
45 145 1.2771e-07
45 171 0.0542136
45 210 0.0594932
45 228 0.0140056
45 235 9.35583e-07
45 308 0.0265882
45 318 0.0132186
45 362 0.0193153
45 389 0.0330445
45 396 2.96545e-07
45 466 6.51091e-07
45 477 0.0123697
45 545 0.0132173
46 4 1.60927e-07
46 5 5.77431e-06
46 7 1.05386e-05
46 8 5.5604e-07
46 9 2.3232e-05
46 13 0.164403
46 15 2.1714e-05
46 18 0.0123992
46 21 1.01625e-05
46 26 0.0727538
46 33 3.54486e-07
46 46 0.00852338
46 49 0.00425769
46 50 0.00426376
46 55 0.50954
46 57 1.69249e-07
46 73 0.00331565
46 80 1.77206e-07
46 98 0.0891887
46 99 3.07615e-07
46 115 0.0126363
46 116 2.28113e-07
46 134 1.53693e-07
46 143 1.78041e-07
46 153 0.00425845
46 199 0.0676305
46 202 2.17945e-06
46 221 0.00425833
46 242 0.00851116
46 256 0.0127695
46 306 0.00366752
46 399 0.00477106
46 437 0.00426114
46 588 0.00425765
46 825 0.00425765
47 3 0.107765
47 6 0.116647
47 7 6.31498e-06
47 8 0.049094
47 10 5.28109e-05
47 11 0.19477
47 13 0.0159861
47 14 0.0390675
47 17 0.0222868
47 18 5.2058e-06
47 22 0.0185034
47 23 0.0191248
47 25 0.00956006
47 26 5.51089e-07
47 27 0.00275737
47 29 0.00373791
47 33 2.73391e-05
47 34 0.0214464
47 36 0.000211994
47 38 0.0158682
47 45 7.48294e-07
47 46 2.93246e-06
47 56 1.11108e-07
47 58 3.88298e-06
47 62 0.00655877
47 66 0.00988887
47 83 0.0216675
47 89 2.40191e-06
47 100 0.00633453
47 115 1.25181e-05
47 118 0.0584458
47 120 0.0127095
47 126 0.00951965
47 127 0.0063463
47 135 0.00336131
47 142 0.00385365
47 144 0.00337092
47 159 8.85546e-05
47 165 0.0817415
47 194 0.0145734
47 198 0.0571047
47 205 0.00952305
47 209 0.00635237
47 215 0.00996981
47 248 0.00951829
47 293 0.00646331
47 306 3.24737e-07
47 348 0.00317315
47 358 3.63969e-06
47 420 0.01614
47 422 0.00317517
47 900 0.00317302
48 2 6.92697e-07
48 4 1.38882e-05
48 6 0.0158221
48 7 3.88404e-06
48 8 6.86943e-07
48 9 1.99914e-05
48 11 9.21798e-06
48 12 0.0255163
48 15 1.80579e-06
48 16 4.3852e-07
48 19 3.9076e-07
48 20 2.31276e-05
48 24 1.10242e-06
48 27 0.0148638
48 29 1.4847e-07
48 40 2.34615e-05
48 41 0.0164648
48 42 0.685047
48 47 0.0200201
48 54 0.000295643
48 58 0.0156997
48 74 0.00521857
48 76 0.0102992
48 95 3.93448e-06
48 101 0.0154053
48 102 0.0152286
48 106 0.026496
48 108 0.00504178
48 123 2.24685e-07
48 143 0.0362541
48 160 0.00504545
48 196 0.000332756
48 207 3.61107e-06
48 213 5.07079e-05
48 242 2.24984e-07
48 253 0.0248908
48 260 0.0151121
48 274 2.98909e-07
48 305 0.00477791
48 317 1.16799e-07
48 348 0.00452267
48 453 0.0151118
48 526 2.21953e-06
48 537 0.0161782
48 638 3.02588e-06
48 704 0.00503019
48 741 0.00116112
49 3 0.0135305
49 4 2.51226e-05
49 5 0.0312286
49 6 1.44548e-06
49 7 5.72611e-07
49 8 9.07885e-07
49 10 0.0153042
49 15 1.04051e-06
49 24 2.13355e-06
49 37 1.65473e-05
49 56 0.00544255
49 64 1.44783e-07
49 70 0.053263
49 79 0.000474878
49 82 0.00399041
49 84 0.538557
49 116 0.00550922
49 124 0.0054194
49 142 0.0103957
49 154 0.135458
49 162 0.0108818
49 167 0.00544046
49 168 0.13057
49 180 3.06234e-06
49 213 0.00543832
49 215 0.00402706
49 276 0.00868502
49 327 1.24633e-05
49 474 0.00544007
49 518 0.00544006
49 648 0.00544006
50 2 1.65361e-07
50 3 1.81121e-07
50 5 4.30156e-07
50 8 3.53504e-06
50 22 1.77354e-06
50 42 1.05554e-07
50 44 0.0273394
50 50 0.0117724
50 52 6.01936e-07
50 56 0.9257
50 92 0.00583158
50 98 0.000157184
50 99 0.0117305
50 108 2.76154e-07
50 265 0.011641
50 608 0.0058207
51 2 4.04123e-06
51 4 0.000115646
51 12 1.38984e-07
51 13 1.25212e-05
51 15 0.0125578
51 18 1.31638e-06
51 20 3.81851e-07
51 22 0.00599656
51 30 0.00597822
51 35 0.00541397
51 49 2.79589e-06
51 50 1.32519e-06
51 52 0.923809
51 74 0.00603706
51 80 6.07806e-07
51 98 0.0110446
51 139 0.00502288
51 160 0.00600926
51 250 0.00599608
51 272 7.10197e-07
51 292 0.00599684
51 390 1.73048e-06
51 505 0.00599655
52 7 1.2167e-06
52 12 1.1823e-07
52 16 1.28803e-06
52 19 0.00918386
52 21 0.0907821
52 22 2.18742e-07
52 23 0.000128207
52 29 2.36128e-06
52 30 0.0188368
52 34 1.60675e-05
52 36 4.19651e-06
52 37 0.0183742
52 44 3.26272e-07
52 45 0.0195695
52 54 9.23041e-05
52 55 1.26077e-06
52 61 0.00925455
52 69 0.008996
52 72 0.0171688
52 112 0.0826636
52 114 0.0924777
52 117 0.413078
52 130 0.000579229
52 276 0.0817773
52 303 1.83375e-05
52 358 0.00918429
52 370 0.00848459
52 373 0.0550354
52 410 0.04592
52 678 0.00918435
52 854 0.00918436
53 3 0.000766357
53 4 7.24799e-06
53 6 4.87754e-07
53 7 0.000464811
53 9 5.01032e-06
53 10 0.00161648
53 11 1.17182e-07
53 12 2.92261e-07
53 16 1.08528e-05
53 26 5.13224e-06
53 27 9.48993e-07
53 28 1.25294e-07
53 29 0.0225089
53 36 1.34832e-06
53 52 1.87944e-07
53 59 0.0199524
53 68 0.554234
53 72 0.00510818
53 73 0.00981614
53 87 0.00481927
53 91 0.0143888
53 94 0.0286146
53 133 0.0350371
53 137 0.0431172
53 139 0.020732
53 151 1.21827e-07
53 153 0.00478929
53 155 0.078056
53 172 0.0238589
53 211 0.0105508
53 229 0.00478035
53 239 0.000447562
53 271 3.64007e-07
53 300 0.0634522
53 331 0.00478703
53 359 2.34616e-07
53 391 0.00981389
53 454 0.0239021
53 456 0.00478563
53 509 0.00478672
53 683 0.00478036
54 3 1.47799e-05
54 7 0.00676754
54 8 2.45241e-05
54 15 2.88026e-06
54 16 7.43988e-06
54 26 2.25124e-06
54 29 0.0307812
54 32 0.00027775
54 37 1.2753e-05
54 47 1.57807e-06
54 56 0.020816
54 57 0.00462507
54 60 0.91232
54 64 2.49868e-06
54 92 1.79111e-06
54 97 4.32389e-07
54 108 0.0128711
54 123 0.00646672
54 129 8.38937e-07
54 151 3.16408e-07
54 180 1.00514e-07
54 183 1.26458e-07
54 219 0.000106347
54 243 1.73713e-05
54 320 0.00485493
54 358 1.4958e-05
54 704 7.97279e-06
55 2 6.99599e-07
55 3 0.000904423
55 4 6.50051e-06
55 5 7.39717e-06
55 6 0.0309084
55 7 0.0378896
55 9 0.016868
55 10 0.0424523
55 12 8.15184e-07
55 15 0.0284941
55 16 0.111663
55 18 0.016279
55 19 0.0218777
55 24 0.0113488
55 26 0.0164631
55 28 0.0114519
55 33 0.0230205
55 37 0.0169108
55 41 0.0509554
55 47 1.6491e-07
55 52 0.00568061
55 54 0.023555
55 64 0.0113022
55 92 0.00566739
55 97 0.00565142
55 103 0.0545132
55 104 0.0498881
55 110 0.0113675
55 123 0.00565228
55 125 0.00572142
55 130 2.10618e-07
55 133 0.0730248
55 135 0.0113267
55 139 0.105671
55 160 0.0112941
55 173 0.0113077
55 174 0.0169529
55 202 0.0057056
55 209 0.0113371
55 216 0.0169853
55 242 0.00546944
55 250 0.00575438
55 310 0.0169471
55 330 0.0113012
55 335 0.0183366
55 473 0.0226045
55 514 0.0168764
55 801 0.00565064
55 816 0.0113012
55 875 0.00565063
56 4 3.10753e-06
56 5 0.14244
56 7 1.69109e-06
56 8 0.0902996
56 18 4.50003e-07
56 26 0.00730101
56 29 4.40434e-07
56 33 0.00400699
56 34 1.05954e-05
56 36 5.84032e-05
56 37 0.00796788
56 39 1.51979e-07
56 40 0.358491
56 46 0.196134
56 61 0.0121333
56 71 0.00404697
56 73 0.00412343
56 78 0.00828954
56 80 0.00405643
56 81 6.36993e-07
56 83 0.0159409
56 95 0.0313449
56 106 1.50858e-07
56 120 1.3794e-07
56 125 0.0161043
56 143 0.0161408
56 160 0.0324122
56 170 0.00404254
56 195 0.0083186
56 209 0.00807802
56 222 0.0113306
56 248 0.000734444
56 256 0.00403809
56 259 1.59838e-06
56 309 8.59182e-07
56 317 1.66298e-06
56 352 0.00403809
56 424 4.94515e-06
56 484 0.0040575
56 490 5.53132e-06
56 638 0.0040381
57 7 4.81208e-06
57 8 5.16404e-05
57 9 0.0220549
57 16 0.00624015
57 24 0.000164077
57 34 1.03947e-07
57 41 3.98697e-05
57 56 2.25717e-06
57 61 9.23556e-07
57 67 0.160509
57 75 0.0230911
57 79 0.451405
57 104 2.91613e-07
57 111 0.00731901
57 114 0.0268747
57 129 0.00733871
57 148 0.00704443
57 149 0.0161582
57 154 0.00956163
57 157 0.00730993
57 170 0.0219049
57 180 0.00729333
57 186 0.175307
57 227 3.62191e-06
57 276 0.000788485
57 296 0.00730607
57 303 0.013669
57 313 0.0212516
57 357 0.00730488
58 3 7.24619e-05
58 4 0.0364985
58 6 5.88178e-07
58 7 0.0337956
58 9 4.46451e-07
58 10 0.00304753
58 16 1.3565e-07
58 27 2.67988e-07
58 29 0.0149503
58 30 0.00389148
58 36 0.000160529
58 37 0.00377947
58 40 0.00425851
58 52 0.00733404
58 54 0.084441
58 59 0.392464
58 60 0.0036701
58 68 0.0441723
58 73 0.0148329
58 76 1.60553e-07
58 87 0.00797638
58 91 0.0110427
58 94 0.0178602
58 137 0.00749346
58 151 0.00996106
58 153 0.00731517
58 155 0.08791
58 162 1.4942e-07
58 177 0.0257427
58 179 0.044061
58 218 0.0512686
58 240 0.00752491
58 271 0.0474701
58 359 0.00372865
58 366 0.00743348
58 370 0.00367693
58 391 0.00431181
58 401 0.000440228
58 456 3.67101e-07
58 513 0.00367172
58 531 6.83762e-05
58 542 3.14367e-07
58 762 0.00367099
59 8 0.138194
59 10 5.04494e-05
59 20 0.503265
59 40 1.5518e-06
59 41 0.282764
59 74 0.0406379
59 106 0.00445441
59 171 6.99504e-07
59 222 0.00512975
59 309 0.0127731
59 317 0.00423991
59 393 0.00424992
59 800 0.00423828
60 2 1.50693e-07
60 3 1.3376e-07
60 4 0.00073817
60 5 1.79181e-07
60 7 1.80765e-07
60 8 0.000423972
60 9 0.0704195
60 10 7.65216e-06
60 11 1.00979e-07
60 13 0.0467462
60 14 0.0249147
60 15 0.0357637
60 16 2.69877e-06
60 17 0.0131715
60 18 0.0468457
60 23 0.00786237
60 25 0.02304
60 26 1.60591e-07
60 28 0.0163779
60 29 0.00103866
60 35 1.07794e-07
60 36 0.00544796
60 37 0.0141479
60 39 0.103918
60 40 0.0196153
60 41 0.0272396
60 44 4.11218e-06
60 46 0.0314193
60 54 0.00780716
60 55 0.000122878
60 58 0.000178507
60 61 1.82784e-07
60 62 3.46066e-07
60 69 0.0117785
60 72 0.0155699
60 75 2.26441e-07
60 80 1.07249e-05
60 82 0.00700571
60 89 0.0117403
60 92 0.0370761
60 93 0.0429606
60 101 0.00763394
60 107 0.00784064
60 110 0.0116862
60 118 0.0334893
60 120 0.00394225
60 125 0.0468528
60 130 0.00392734
60 141 0.00678823
60 142 0.0547373
60 144 7.08361e-07
60 153 0.00390814
60 158 0.0916124
60 172 0.00781018
60 173 1.01864e-07
60 174 0.00392246
60 188 0.0156823
60 191 0.00377835
60 196 0.00702143
60 198 0.00391982
60 255 8.39494e-05
60 258 1.69324e-07
60 277 2.94173e-06
60 283 0.00400823
60 291 0.00658673
60 296 1.41634e-05
60 306 2.4308e-07
60 378 0.0117173
60 418 0.0121864
60 421 0.00392034
60 466 0.0156793
60 510 0.00392182
60 754 6.83026e-06
60 1089 0.00392019
61 7 3.24343e-06
61 8 1.06693e-07
61 10 9.58157e-07
61 13 0.00646376
61 14 0.0538083
61 15 1.94247e-05
61 17 0.0421636
61 25 2.24354e-07
61 28 1.88535e-07
61 33 8.55954e-07
61 46 0.0289851
61 47 0.0142337
61 50 0.00706506
61 51 0.769428
61 52 0.000130495
61 62 0.0141429
61 86 0.00706678
61 104 5.93866e-07
61 120 0.0211611
61 163 0.00706383
61 218 3.42558e-06
61 238 0.0141304
61 513 0.00706367
61 631 0.00706368
62 5 3.5454e-07
62 10 3.16244e-07
62 12 1.69511e-06
62 13 2.52292e-07
62 21 2.39257e-07
62 29 1.87836e-07
62 34 0.000654407
62 50 0.0371412
62 54 0.0227159
62 60 0.00753133
62 61 0.0147181
62 69 0.856679
62 108 0.0150359
62 143 1.3134e-05
62 218 2.27864e-07
62 385 0.0224657
62 400 0.00800503
62 671 0.0150367
63 3 9.17388e-07
63 4 0.00351948
63 7 0.00441527
63 15 0.00131578
63 16 0.501521
63 33 1.98255e-07
63 45 0.449381
63 50 0.00881234
63 57 0.0016896
63 70 1.74221e-06
63 98 0.0131836
63 100 4.89039e-06
63 119 0.00440074
63 140 1.24648e-07
63 197 1.93241e-07
63 239 0.00734359
63 451 0.00440963
63 810 2.48592e-07
64 3 6.95851e-05
64 4 0.000114278
64 5 0.00105569
64 8 2.76992e-05
64 9 0.276358
64 13 8.53214e-07
64 14 0.000226045
64 16 0.00632448
64 21 0.0180096
64 24 0.502426
64 29 0.0291754
64 36 1.80421e-07
64 37 0.000588231
64 58 5.41277e-05
64 62 1.79543e-05
64 65 1.20782e-06
64 86 0.00719293
64 97 0.000169557
64 114 0.00897469
64 132 9.10665e-06
64 149 5.60655e-06
64 154 0.0074553
64 180 0.0281478
64 228 7.86547e-07
64 257 0.0546289
64 285 0.0452963
64 296 0.0136693
65 2 1.95312e-07
65 4 4.94239e-05
65 6 5.3233e-06
65 7 1.05559e-07
65 8 1.75298e-06
65 9 1.16945e-06
65 10 0.160476
65 11 6.90944e-07
65 12 3.17395e-05
65 14 1.30877e-06
65 17 0.00848266
65 18 3.89775e-07
65 19 0.00830228
65 20 9.6165e-07
65 32 0.0285122
65 33 3.1182e-05
65 47 0.0218983
65 58 0.703657
65 81 1.00318e-05
65 91 9.61745e-06
65 113 0.0201136
65 124 0.0285192
65 242 0.00930324
65 253 1.7025e-05
65 259 7.28518e-07
65 291 0.0105739
65 306 5.77874e-07
65 396 1.3103e-07
66 7 0.0101488
66 8 9.90327e-07
66 9 4.73774e-05
66 36 5.57473e-07
66 45 0.00903096
66 54 0.0265285
66 73 0.000486387
66 79 0.0107649
66 111 0.485093
66 154 0.00937318
66 162 0.189114
66 170 3.8397e-07
66 179 0.125973
66 252 0.00899777
66 296 0.0449029
66 317 2.45706e-07
66 355 0.0254351
66 436 0.0181123
66 635 0.0359896
67 3 1.53408e-06
67 7 4.53653e-05
67 11 0.00663209
67 12 9.31862e-07
67 15 0.014577
67 16 5.0541e-07
67 17 0.00624379
67 27 0.00661081
67 29 0.00010766
67 30 0.0128166
67 32 0.00944002
67 36 0.000930171
67 37 0.0171371
67 38 0.00711895
67 44 0.0101949
67 47 2.72613e-05
67 61 0.0341068
67 72 0.406862
67 80 0.105132
67 83 0.00016369
67 93 0.00753631
67 104 0.00782046
67 114 0.00669033
67 115 0.0125916
67 148 0.210229
67 152 0.0290677
67 170 0.0197131
67 192 0.00657016
67 240 0.00624229
67 303 0.0422374
67 373 9.91768e-06
67 404 8.67958e-07
67 506 0.00657052
67 556 2.68488e-07
67 610 0.00657025
68 3 8.12081e-06
68 14 0.000136656
68 28 0.00714542
68 32 0.0161938
68 45 2.10444e-07
68 56 0.00641917
68 57 0.746169
68 99 0.0248753
68 122 5.82122e-05
68 137 0.00829092
68 183 0.0165907
68 240 0.17411
68 475 2.32095e-06
69 2 1.75675e-07
69 3 2.39649e-05
69 4 3.60141e-06
69 8 0.00015756
69 36 2.60315e-07
69 50 0.00616375
69 52 0.00580581
69 55 0.0228217
69 61 1.98129e-07
69 73 0.0241029
69 76 0.0185795
69 78 0.0174364
69 80 0.011636
69 88 0.0936201
69 91 0.100034
69 94 0.320668
69 131 0.139432
69 151 0.0116585
69 153 0.0400969
69 162 3.22173e-07
69 188 0.00547292
69 195 0.00581517
69 218 0.023345
69 253 2.65423e-05
69 268 0.0930108
69 319 0.0310152
69 355 0.00581374
69 586 0.00581356
69 641 0.0174406
69 675 4.45507e-06
70 3 7.8292e-07
70 4 1.2394e-05
70 5 1.61842e-06
70 6 5.10531e-05
70 7 0.0619772
70 10 0.0206863
70 15 3.10762e-07
70 16 0.000389372
70 18 0.000888963
70 28 0.142662
70 35 0.0163838
70 36 0.0271639
70 50 0.0128554
70 54 0.0506127
70 90 0.427721
70 93 0.0331738
70 98 0.0067668
70 110 0.0573178
70 111 0.0128533
70 116 0.0128271
70 132 0.00641088
70 141 1.54556e-05
70 147 0.0190106
70 161 0.00624466
70 177 0.00641644
70 197 1.36664e-06
70 270 0.00641873
70 271 0.020545
70 359 0.0192324
70 418 0.0249476
70 456 0.00641129
71 3 0.000400386
71 4 5.67885e-06
71 7 0.00183453
71 13 6.60352e-06
71 22 7.61637e-06
71 29 2.80439e-07
71 31 2.53488e-06
71 34 0.00668223
71 36 2.4212e-05
71 53 0.866836
71 63 0.0407419
71 100 0.000115244
71 158 0.0418729
71 343 0.0414698
72 3 0.0120904
72 8 2.39132e-07
72 16 7.71073e-05
72 29 5.00937e-06
72 37 0.0993834
72 61 8.96633e-06
72 64 0.544003
72 72 0.0003445
72 97 0.156849
72 104 0.0126861
72 115 2.32733e-05
72 123 0.008803
72 140 0.00877211
72 149 1.73195e-06
72 152 0.0436344
72 202 0.0350564
72 257 0.000988435
72 267 0.0682661
72 304 3.97371e-07
72 358 0.00900609
73 3 2.17409e-05
73 15 0.000106226
73 18 0.0264409
73 19 0.00873107
73 21 1.39337e-07
73 27 0.00874482
73 35 0.00885294
73 36 0.0268327
73 39 0.0242004
73 45 1.84267e-06
73 49 0.00868694
73 52 2.14139e-06
73 54 2.56053e-07
73 57 0.0172519
73 69 0.00877534
73 70 0.00880582
73 78 1.0151e-07
73 82 0.510643
73 85 0.00903443
73 95 0.0507205
73 103 0.058781
73 110 0.0348948
73 139 0.0261811
73 192 2.16986e-06
73 209 0.00873178
73 236 0.00873049
73 242 0.0174457
73 250 0.0087315
73 290 0.00873027
73 303 0.0224733
73 308 0.0087305
73 315 0.0147147
73 329 0.0087305
73 335 0.0174609
73 355 0.0087305
73 416 1.92898e-06
73 475 0.00870511
73 485 0.0116401
73 490 0.00873049
73 528 1.53405e-07
74 3 4.79929e-05
74 5 1.39278e-05
74 7 1.38537e-07
74 10 0.000264103
74 16 0.0331718
74 18 0.0100022
74 29 0.432975
74 34 0.0698195
74 37 0.071863
74 64 0.017877
74 73 0.00951394
74 104 0.0531251
74 138 0.0712171
74 173 0.168661
74 202 0.00890118
74 236 0.034748
74 372 0.00889897
74 874 0.00889897
74 1089 1.29486e-07
75 2 2.05294e-07
75 5 6.34224e-07
75 8 6.07262e-06
75 9 0.325353
75 16 7.18991e-06
75 21 1.56006e-05
75 24 2.60438e-05
75 39 6.65307e-07
75 62 0.000296932
75 65 4.22437e-07
75 67 0.318467
75 73 4.54147e-05
75 75 0.0104038
75 79 0.139389
75 81 0.0260123
75 92 0.00518883
75 109 1.06132e-07
75 111 0.0107795
75 114 0.0440166
75 129 0.00524318
75 149 1.53261e-06
75 180 0.000464211
75 186 0.0252615
75 190 0.00523887
75 257 0.0104419
75 269 0.0104373
75 276 0.00022937
75 292 0.00521313
75 295 0.000148472
75 296 0.000530786
75 399 0.00458462
75 413 0.00521313
75 481 0.00527736
75 482 0.0208525
75 488 0.00521313
75 508 0.0104262
75 602 0.00521298
76 3 1.62075e-06
76 8 1.42405e-07
76 15 1.44299e-07
76 16 0.247285
76 29 8.59048e-07
76 37 0.0384791
76 44 3.67141e-06
76 57 0.00917757
76 64 9.68039e-07
76 95 0.444321
76 104 0.141037
76 138 0.0184231
76 197 0.0091802
76 213 0.000296688
76 278 0.0461371
76 315 0.0364779
76 1231 0.0091776
77 4 0.16098
77 5 1.72456e-07
77 6 1.15437e-07
77 9 0.0127847
77 10 0.0669039
77 15 1.00298e-06
77 20 0.0228742
77 39 0.0229056
77 41 0.0114329
77 43 0.0457228
77 47 0.0267197
77 52 3.08417e-07
77 57 1.48359e-05
77 58 0.0462973
77 59 0.0230301
77 63 0.0114422
77 74 0.0228702
77 81 0.0114335
77 82 2.64543e-05
77 91 0.0114325
77 92 0.0123972
77 113 0.0441762
77 124 0.0120576
77 125 0.0114358
77 133 0.0228655
77 139 0.0573052
77 151 0.0228666
77 164 0.0457371
77 236 0.0332398
77 242 0.0342823
77 250 0.022917
77 256 0.0114421
77 274 0.0123531
77 277 0.0114326
77 335 0.0228654
77 348 0.0228636
77 361 0.0114326
77 378 0.0228614
77 393 0.0114326
77 458 0.0228661
77 550 0.0114326
77 634 1.98224e-07
77 763 0.0114324
77 1238 0.0114326
78 2 0.00775979
78 3 0.00468346
78 4 3.901e-06
78 7 2.54705e-05
78 26 0.0276295
78 36 1.22818e-05
78 49 0.0133343
78 57 0.0064309
78 61 0.0269819
78 91 0.0176303
78 94 0.066322
78 98 0.0332392
78 99 0.0581786
78 104 3.49242e-07
78 116 0.279528
78 131 0.0268624
78 147 0.211237
78 151 0.166464
78 199 0.0270229
78 300 0.00666253
78 319 1.092e-06
78 712 0.0133267
78 917 0.00666328
79 3 0.000784136
79 5 0.175627
79 15 0.000621699
79 37 1.59476e-07
79 55 1.00829e-07
79 70 0.00685085
79 82 0.00183234
79 83 0.000805183
79 85 0.240429
79 96 0.523578
79 110 1.6251e-07
79 116 7.68809e-07
79 124 1.84564e-06
79 147 0.0136723
79 213 1.36778e-05
79 269 0.00690197
79 349 0.00688943
79 363 0.00752084
79 370 0.00052709
79 444 0.00688943
79 999 0.000165923
79 1302 0.00688944
80 2 0.0798115
80 4 3.09437e-05
80 7 0.138796
80 8 4.7205e-06
80 12 0.000392687
80 13 0.0198172
80 14 3.23899e-06
80 15 1.17629e-05
80 18 2.05869e-05
80 29 0.0722902
80 32 0.0258787
80 33 4.7682e-07
80 36 0.0154867
80 44 0.00957297
80 57 2.58331e-06
80 58 0.0792916
80 61 1.0633e-07
80 72 0.0177222
80 73 7.9317e-07
80 82 1.66488e-07
80 93 9.80829e-06
80 104 5.46363e-07
80 106 0.0242249
80 124 0.35629
80 130 0.0361165
80 143 0.0265323
80 174 2.80731e-06
80 221 1.6982e-07
80 230 0.0092716
80 243 0.0353197
80 249 1.55346e-07
80 253 1.1214e-07
80 351 0.00884814
80 361 0.0088489
80 401 0.00884812
80 402 0.00884872
80 416 0.00884681
80 526 7.81606e-06
80 665 0.00884814
81 3 2.75551e-06
81 10 7.0676e-07
81 15 2.82554e-06
81 19 0.000661355
81 21 0.000694068
81 25 0.0109075
81 27 0.0109089
81 28 0.0767025
81 70 0.0110404
81 71 2.83833e-07
81 82 0.141809
81 103 0.492387
81 118 0.0107808
81 139 0.0438372
81 152 8.54486e-06
81 158 0.0111161
81 172 0.0213972
81 180 2.25648e-05
81 216 0.0549301
81 270 0.0333371
81 275 0.0109234
81 314 0.0111697
81 485 0.0182265
81 490 0.0282106
81 888 2.84645e-07
81 1167 0.0109222
82 3 0.138317
82 5 0.0203784
82 6 4.3841e-07
82 10 1.36963e-07
82 11 7.37467e-06
82 13 0.214701
82 15 0.184628
82 21 0.000481462
82 34 0.0178545
82 45 0.0102694
82 70 0.102629
82 85 5.23345e-07
82 88 0.03081
82 91 0.00247525
82 94 6.70092e-07
82 101 1.27474e-07
82 113 0.0307859
82 115 0.0206248
82 117 0.0102693
82 128 0.0308128
82 178 0.0102715
82 187 0.0102693
82 194 0.01027
82 195 0.0102693
82 202 0.0103324
82 209 0.0308099
82 290 0.0205772
82 363 0.0205387
82 380 0.0205386
82 432 0.0308073
82 886 0.0102693
83 3 1.08347e-07
83 4 0.0953727
83 10 4.3733e-07
83 16 0.387389
83 20 0.00151707
83 36 9.10624e-06
83 40 3.37802e-07
83 45 0.382961
83 52 2.86162e-06
83 55 0.0424968
83 94 0.0184363
83 131 0.0177359
83 230 0.0115671
83 256 0.0182363
83 259 0.00607882
83 369 0.0181956
84 2 0.000955573
84 4 0.00252091
84 6 0.00187428
84 7 0.0258191
84 8 0.284546
84 9 0.0995459
84 10 5.41851e-05
84 14 1.4295e-06
84 17 2.32953e-07
84 20 3.04464e-05
84 31 0.00627124
84 33 2.26932e-07
84 43 0.0187757
84 44 0.0187535
84 49 0.0126157
84 54 9.20138e-06
84 55 5.97531e-07
84 56 0.0187656
84 57 0.0183181
84 58 1.46984e-07
84 59 0.00716591
84 60 0.00625132
84 68 0.0125051
84 69 0.0246904
84 78 0.0244879
84 87 0.012488
84 91 0.0187554
84 103 0.00625296
84 107 0.00625247
84 108 0.200028
84 131 5.53145e-06
84 141 0.018939
84 150 0.0133149
84 164 0.0129948
84 196 0.000890731
84 222 0.00625798
84 244 2.99412e-07
84 272 0.0135299
84 277 0.0125001
84 306 4.59714e-07
84 412 0.00629483
84 426 0.0187572
84 449 0.0437673
84 593 0.0125055
84 614 0.00625394
84 1277 0.00625248
85 2 0.0164509
85 3 0.352923
85 12 9.71305e-06
85 20 4.56818e-05
85 23 0.00126835
85 26 0.125659
85 28 0.0163078
85 31 0.00561142
85 40 0.0059696
85 46 0.00618796
85 49 1.45919e-05
85 58 0.0224021
85 87 0.324057
85 107 0.0281638
85 122 0.00558152
85 133 0.0219963
85 142 0.00558107
85 208 1.3499e-06
85 259 1.67208e-05
85 291 0.0111105
85 335 0.0111414
85 362 0.00601068
85 396 6.46159e-07
85 601 0.00558145
85 628 0.00558145
85 642 0.0167441
85 893 0.00558146
86 9 0.0225505
86 21 0.113443
86 24 0.7485
86 97 2.31759e-07
86 114 0.0628958
86 123 0.0317043
86 180 1.75857e-06
86 420 0.0104563
86 517 0.0104488
87 4 1.2289e-06
87 5 1.40115e-07
87 7 3.0798e-07
87 9 2.22826e-06
87 12 3.88501e-05
87 15 1.20587e-07
87 31 5.03946e-07
87 34 0.0149266
87 36 0.00206897
87 64 0.0105759
87 76 0.0209201
87 100 0.0527598
87 101 1.10612e-05
87 115 0.010764
87 126 0.334713
87 127 0.334649
87 132 0.0310148
87 138 0.0104849
87 140 0.0308207
87 145 0.01032
87 193 0.0104567
87 298 0.0209152
87 314 7.39426e-07
87 381 0.0731897
87 420 0.0104491
87 1289 0.0104581
87 1301 0.0104581
88 4 3.58072e-06
88 10 2.14054e-06
88 13 3.65385e-07
88 14 7.7073e-07
88 15 0.327772
88 46 2.37258e-07
88 52 1.22828e-06
88 55 0.0133952
88 59 0.0134083
88 68 0.0134089
88 77 0.48272
88 87 0.00670596
88 131 0.00156831
88 153 0.0537994
88 193 2.34107e-06
88 236 5.29886e-05
88 372 0.00670449
88 445 0.0603405
88 739 0.0067045
88 836 0.0067045
88 933 0.0067045
89 4 0.000225896
89 6 8.98515e-06
89 8 0.00011634
89 9 0.0314694
89 10 0.0861357
89 13 0.0366801
89 15 4.08869e-06
89 17 9.19628e-05
89 18 0.00892279
89 21 3.00465e-05
89 26 2.45473e-05
89 28 0.0940115
89 29 1.86204e-07
89 35 0.0222784
89 36 1.67417e-07
89 38 0.0140382
89 41 1.7356e-07
89 50 0.0180878
89 54 0.00942809
89 55 0.00899524
89 59 0.00452656
89 60 0.00452239
89 62 0.0180839
89 67 0.000140703
89 69 9.88173e-07
89 70 0.00902232
89 72 0.000127814
89 73 0.0271022
89 74 0.00449026
89 78 0.0184269
89 84 0.00451995
89 85 0.0090969
89 90 0.0438312
89 93 0.112314
89 94 0.0186422
89 98 0.00453014
89 110 3.72196e-06
89 120 0.0137739
89 125 5.67078e-05
89 130 0.00921416
89 137 0.00560514
89 141 0.0823089
89 146 0.0135578
89 150 0.031368
89 151 2.9065e-06
89 152 0.00452419
89 153 0.00452106
89 161 0.0137291
89 191 0.00500485
89 193 0.00903856
89 204 0.0135625
89 221 0.0180771
89 230 0.0135572
89 235 0.0135578
89 249 5.8771e-06
89 251 0.0128536
89 258 0.0246781
89 296 0.00586988
89 305 0.00474968
89 307 0.00451927
89 379 0.000167613
89 386 0.0108762
89 489 0.00903855
89 510 0.0180753
89 512 0.0135578
89 526 7.10132e-05
89 685 0.00851231
89 754 0.00755554
89 779 0.00451927
89 842 0.00451928
89 1088 0.00451928
89 1215 0.00451928
90 5 0.00174215
90 7 0.000429158
90 8 0.362282
90 14 2.65509e-07
90 20 0.000109044
90 26 0.00815037
90 33 4.80345e-07
90 40 0.294689
90 42 0.0126402
90 46 0.0183369
90 64 0.00627217
90 100 3.15626e-05
90 106 5.36077e-05
90 119 0.00627217
90 121 0.0122724
90 132 0.00627217
90 140 0.00627217
90 143 0.0250765
90 149 0.0125443
90 160 0.0251118
90 167 2.77873e-07
90 186 0.00627217
90 187 0.00627235
90 201 0.00627254
90 222 0.081526
90 288 0.00627215
90 293 0.00617103
90 306 0.0128251
90 309 0.0256013
90 317 0.018815
90 323 0.00627217
90 325 0.00632863
90 352 0.006268
90 496 0.00627217
90 568 1.12208e-07
90 759 0.00627217
91 4 2.89799e-07
91 6 4.31152e-06
91 21 0.105245
91 76 0.235025
91 88 0.360069
91 128 0.28603
91 268 7.58437e-06
91 325 0.00680864
91 347 0.00681019
91 661 1.14806e-06
92 3 6.28392e-05
92 4 0.0187515
92 9 5.4821e-06
92 16 1.01255e-05
92 21 0.000234185
92 24 0.0797737
92 25 0.00670556
92 26 0.0533258
92 29 0.01972
92 34 0.0339451
92 37 0.111831
92 61 0.0200489
92 62 5.14089e-05
92 64 0.192744
92 72 0.0132954
92 86 2.12183e-07
92 97 0.149163
92 103 0.0133403
92 112 2.07066e-07
92 113 0.0618564
92 125 0.00118665
92 132 0.0132997
92 138 0.0664646
92 148 0.0087686
92 152 0.00871154
92 197 0.0265949
92 224 0.0265843
92 231 0.00621729
92 234 0.00664944
92 259 0.00665108
92 261 0.00708561
92 285 0.0136497
92 323 0.00667333
92 604 0.00664944
92 622 3.28314e-07
92 644 0.0132989
92 895 3.94012e-07
92 1259 0.00664944
93 4 3.55269e-07
93 5 0.136323
93 6 0.0326164
93 7 2.03155e-07
93 8 0.000495315
93 10 2.81354e-05
93 11 2.54807e-07
93 12 0.0709439
93 13 0.0133397
93 15 0.0543233
93 18 1.69409e-07
93 21 0.000270258
93 27 0.0509498
93 29 0.00381763
93 33 0.0306211
93 34 1.06434e-06
93 35 0.0201266
93 42 0.260713
93 43 9.51929e-07
93 46 0.0204883
93 57 1.13767e-07
93 58 2.78829e-05
93 66 0.00515763
93 70 0.0212175
93 78 2.05902e-06
93 93 0.0253307
93 95 0.00526493
93 98 0.0152338
93 101 0.0421859
93 102 0.0254572
93 106 0.00511051
93 108 0.00509714
93 117 0.00521492
93 143 4.59186e-05
93 153 0.00555907
93 161 0.0154152
93 209 0.0203828
93 253 0.0101847
93 260 0.0152931
93 272 0.00509743
93 306 2.34384e-07
93 317 0.0153199
93 340 0.00509694
93 378 0.0101933
93 384 0.0050969
93 437 0.0101925
93 453 0.0152898
93 531 0.00500188
93 605 0.005097
93 940 0.00509698
93 966 0.0012762
94 4 3.44916e-07
94 6 0.000315601
94 7 0.00168891
94 8 1.42445e-05
94 10 0.000839672
94 16 3.37319e-07
94 24 0.0160619
94 28 0.0168596
94 33 0.0831564
94 36 0.0988905
94 46 0.116935
94 99 0.0311273
94 103 0.01628
94 110 0.208177
94 120 1.09331e-06
94 123 0.0163692
94 126 0.0162599
94 157 0.00147846
94 164 0.0162964
94 183 0.0149341
94 199 0.0179407
94 214 0.0164508
94 238 1.39738e-06
94 248 0.0169696
94 270 0.162855
94 390 2.55034e-07
94 452 0.032524
94 486 0.0487856
94 664 0.016262
94 742 0.032524
95 3 0.00182823
95 11 5.17538e-06
95 21 0.0105236
95 34 0.00014505
95 47 5.49561e-07
95 59 0.0108377
95 75 0.0108145
95 80 0.659527
95 82 0.0216568
95 87 0.0216189
95 170 0.0540649
95 187 0.0108145
95 195 0.0858663
95 202 0.0109125
95 226 0.011872
95 239 0.0348468
95 242 0.000357161
95 266 0.0324435
95 443 0.0218647
96 3 0.00203668
96 5 0.0743797
96 6 2.72633e-05
96 7 7.23335e-06
96 11 6.24611e-05
96 15 0.00144111
96 34 0.0124099
96 36 0.134067
96 58 0.015728
96 71 3.65855e-07
96 81 0.0288142
96 95 0.0190201
96 110 0.0608019
96 113 2.67793e-06
96 115 0.075945
96 130 0.0305232
96 135 0.10426
96 149 0.047099
96 157 0.0907275
96 161 0.0903068
96 166 9.90174e-07
96 170 0.0302739
96 194 0.014781
96 203 0.015155
96 204 0.091204
96 215 3.84745e-07
96 317 0.0152569
96 372 6.085e-05
96 385 0.0152007
96 480 2.11884e-07
96 646 0.0152005
96 720 0.0152049
97 3 0.000340382
97 6 0.000772578
97 8 0.15652
97 11 0.0168223
97 19 0.00742608
97 31 0.0593588
97 54 4.89787e-05
97 89 0.170701
97 91 5.5309e-06
97 105 0.185526
97 121 0.00743833
97 134 0.163296
97 174 0.0135051
97 181 0.0445353
97 195 0.00742256
97 211 0.0149761
97 220 0.00580964
97 221 1.45367e-07
97 285 0.00742254
97 300 0.00742329
97 339 0.0148458
97 345 0.00266569
97 351 0.00742254
97 352 0.0221687
97 369 0.0148446
97 396 4.44239e-07
97 463 0.02969
97 472 0.00742256
97 480 0.00742256
97 481 0.0147453
97 602 0.00942101
98 8 7.66762e-06
98 9 5.02508e-06
98 26 0.376192
98 54 0.0559442
98 113 1.82733e-06
98 122 0.264398
98 156 0.100591
98 178 0.202819
98 250 4.03258e-05
98 1000 8.90446e-07
99 2 0.0100145
99 10 0.0290116
99 17 3.74109e-07
99 28 0.0556148
99 30 0.0119459
99 31 0.01192
99 32 0.0563598
99 38 0.0234301
99 47 0.0357189
99 54 0.0149145
99 61 0.0145861
99 68 0.0119773
99 73 0.0656641
99 76 0.0476345
99 91 0.0237577
99 93 1.36779e-07
99 129 0.0119091
99 133 0.011911
99 137 0.297834
99 155 0.015661
99 208 0.0119105
99 212 0.0119086
99 243 0.0833585
99 261 0.0119086
99 420 0.0119086
99 429 0.0357257
99 435 0.0119086
99 476 0.0119086
99 542 0.0238721
99 616 0.0119086
99 641 0.0119086
99 1105 0.0119076
100 2 8.04567e-06
100 4 0.000366741
100 6 6.42597e-06
100 7 0.0467448
100 8 7.2161e-07
100 10 0.0179907
100 16 0.43621
100 25 0.0846776
100 36 0.0962566
100 45 0.0170706
100 54 0.0979759
100 62 0.0482642
100 80 0.0170951
100 100 0.0170668
100 104 0.0347695
100 139 2.71143e-07
100 174 0.051198
100 193 0.0172146
100 306 1.11907e-06
100 352 1.13349e-05
100 368 0.0170716
101 8 0.189578
101 9 0.000139874
101 15 0.000817551
101 54 0.0509058
101 55 0.0221924
101 67 0.0501098
101 70 0.229137
101 71 1.33944e-07
101 80 1.44041e-05
101 93 0.0099711
101 94 0.00996143
101 100 0.0200023
101 112 0.0597859
101 119 0.0598537
101 136 0.0199452
101 146 0.0399111
101 153 0.00997483
101 185 0.0199497
101 195 0.00997487
101 232 0.0498741
101 258 2.11681e-05
101 279 0.00997503
101 283 0.0288776
101 435 0.0199493
101 452 0.00997487
101 468 0.0391785
101 475 0.0199744
101 526 2.62241e-07
101 827 0.00997487
101 844 0.00997487
102 3 5.07521e-05
102 7 0.0737036
102 8 0.001087
102 12 0.0423398
102 18 0.0262591
102 28 0.0896121
102 29 8.04628e-05
102 32 0.0129012
102 35 0.0128975
102 43 0.0257738
102 44 2.64675e-05
102 49 0.0386677
102 62 2.97943e-06
102 85 0.00978393
102 87 0.0128971
102 103 0.0129145
102 114 1.82351e-05
102 120 0.0128975
102 172 6.06224e-06
102 198 0.0128967
102 226 0.205081
102 243 7.93036e-05
102 265 0.206336
102 299 0.152101
102 355 0.0257935
102 361 0.0128956
102 371 0.0128967
103 4 3.04597e-06
103 5 0.133262
103 8 0.0544377
103 18 1.6821e-07
103 20 1.23412e-05
103 29 3.30439e-07
103 41 0.0512596
103 43 1.39948e-05
103 46 0.0102252
103 49 0.00975207
103 61 0.00120379
103 73 0.0292518
103 74 0.341622
103 84 0.00975107
103 96 0.00975086
103 106 0.0974568
103 110 0.00975077
103 141 0.0097499
103 143 0.0195004
103 160 0.00976359
103 162 0.00974973
103 170 0.00975
103 317 0.0389635
103 337 0.0585
103 346 0.019418
103 390 6.73818e-06
103 457 0.0180859
103 505 0.00975275
103 552 0.0292559
103 960 0.00975001
104 2 3.91228e-07
104 4 3.43341e-06
104 8 0.000524623
104 10 0.0639877
104 13 2.69491e-07
104 20 0.0320686
104 26 0.0705035
104 29 2.70177e-06
104 36 0.000129037
104 40 5.07494e-06
104 41 7.33237e-06
104 45 1.62755e-05
104 61 5.06442e-06
104 73 0.0321124
104 76 0.053528
104 78 0.0535229
104 86 2.15997e-05
104 88 0.0107035
104 113 0.0538514
104 115 0.161368
104 119 1.15689e-06
104 154 0.0107037
104 159 0.0321136
104 160 0.0107043
104 166 0.145747
104 176 0.0321137
104 197 0.032119
104 220 1.15068e-07
104 221 0.000756601
104 224 0.0107041
104 259 0.0107041
104 281 0.0321122
104 332 0.0107041
104 341 0.0107049
104 343 0.0107041
104 367 0.0428165
104 372 0.0321124
104 395 0.0107041
104 401 0.0107041
104 407 0.0107041
104 1208 0.0107041
105 8 2.8676e-05
105 16 0.0420378
105 75 2.86795e-05
105 83 0.00335473
105 84 0.011082
105 96 0.0110834
105 97 0.0577383
105 104 0.0556275
105 109 0.0122672
105 114 0.0188569
105 123 0.332126
105 125 0.011084
105 140 1.91592e-07
105 148 0.000536714
105 149 0.0223127
105 152 0.0228349
105 158 0.0111402
105 172 0.0110819
105 214 0.0110865
105 233 0.199477
105 239 0.011082
105 245 0.0110813
105 267 0.0443139
105 280 0.0110825
105 313 0.011082
105 348 0.0110818
105 398 0.0221651
105 466 0.0110819
105 515 0.0221629
105 1091 0.0110814
106 8 3.58727e-05
106 10 2.79155e-05
106 12 0.0100159
106 20 0.107269
106 27 0.00991283
106 29 0.00965254
106 33 0.0196241
106 36 1.50868e-06
106 40 0.0293107
106 41 0.0295256
106 44 0.00904438
106 45 0.00983194
106 48 0.00978887
106 55 2.81797e-05
106 74 0.0196873
106 80 0.00810419
106 81 0.00985049
106 101 5.58046e-07
106 106 0.0098345
106 109 0.00983215
106 110 2.44399e-07
106 121 0.353809
106 125 6.4804e-06
106 141 3.19308e-06
106 142 0.0688202
106 144 0.0190504
106 221 0.0196625
106 230 0.00983948
106 254 0.00983215
106 256 1.109e-07
106 267 0.00983215
106 325 0.0196647
106 342 0.0196643
106 358 0.0111128
106 369 0.00985193
106 385 1.06141e-06
106 390 0.0098321
106 398 0.019656
106 414 0.00983215
106 415 0.00983214
106 484 0.0294964
106 505 0.00983213
106 513 0.0196617
106 599 0.00983215
106 971 0.00983214
106 1263 0.00983215
106 1273 0.00983215
107 5 1.00747e-06
107 6 1.61757e-05
107 9 3.88677e-07
107 12 0.238557
107 13 2.10826e-05
107 15 2.198e-06
107 18 0.0100548
107 27 0.0797504
107 30 0.0200082
107 31 0.00998612
107 35 0.0399011
107 38 0.0285908
107 43 2.10133e-06
107 46 0.0200053
107 55 0.0208132
107 57 0.0599067
107 60 0.00998491
107 70 0.0199
107 80 0.0299088
107 91 0.00997458
107 95 0.0216874
107 102 0.130904
107 151 0.00997459
107 169 0.0299213
107 173 0.0100051
107 196 1.21143e-06
107 213 0.0198595
107 249 2.44955e-07
107 295 0.0198692
107 379 2.75226e-06
107 386 0.0104305
107 408 0.0299208
107 412 0.0199542
107 475 0.0199493
107 519 0.00997493
107 521 0.00997466
107 526 0.000335238
107 573 0.00997466
107 634 0.00997431
107 645 0.00997466
107 722 0.00997466
107 753 2.27446e-06
107 909 0.00997466
107 1240 0.00997466
108 8 0.492184
108 75 0.471476
108 109 0.00913801
108 186 0.00906711
108 587 0.0181353
109 5 1.29235e-05
109 9 0.0617542
109 12 2.96459e-06
109 19 0.015934
109 21 0.00633262
109 24 0.0381605
109 37 1.28047e-06
109 48 1.62989e-07
109 61 0.0155068
109 62 0.048312
109 66 1.75502e-05
109 79 0.0153373
109 97 1.55771e-06
109 122 0.0156299
109 156 0.0156245
109 157 4.05274e-05
109 180 0.0468867
109 207 0.203178
109 250 6.23808e-07
109 307 0.0156309
109 313 0.0170479
109 316 0.125098
109 351 0.0937774
109 392 0.109437
109 422 0.0781381
109 496 0.0312472
109 630 0.0156296
109 789 0.0156296
109 896 0.0156296
110 15 0.151594
110 26 0.000453434
110 33 0.0160578
110 43 0.000125384
110 46 0.0224942
110 51 0.314808
110 52 3.11596e-06
110 62 4.62468e-07
110 77 0.307418
110 117 0.00732466
110 120 0.00747525
110 153 0.0972962
110 174 0.00749814
110 248 0.0224929
110 306 4.54419e-07
110 356 0.00749815
110 380 0.00749814
110 451 0.0149648
110 527 0.00749813
110 533 0.00749814
111 3 0.000162574
111 8 4.04368e-06
111 13 5.60557e-07
111 22 2.78002e-05
111 23 0.00845231
111 33 0.123868
111 34 0.165352
111 36 0.0907572
111 58 3.4397e-06
111 110 0.0274858
111 117 0.00857537
111 122 0.00845294
111 124 0.00847262
111 127 0.00845394
111 131 0.0169061
111 156 0.00845233
111 167 6.87554e-06
111 175 0.00845232
111 193 0.0169047
111 223 0.0422929
111 264 0.0252633
111 283 0.0429728
111 290 0.0760353
111 292 0.00845196
111 294 0.00845232
111 323 0.0420851
111 329 0.0845233
111 378 0.00845318
111 383 0.0169706
111 406 0.00845872
111 458 0.00845233
111 486 0.0338095
111 492 0.0422615
111 617 0.0338093
111 734 0.00845233
111 845 0.00845232
111 1072 1.16658e-05
112 7 0.0126388
112 8 6.33688e-07
112 10 1.25906e-06
112 16 0.124476
112 28 0.047515
112 45 0.0434817
112 54 0.0780654
112 62 7.77451e-05
112 75 0.0461196
112 90 0.0463947
112 103 0.0474392
112 107 0.0461482
112 150 0.265302
112 171 0.0115366
112 172 0.034495
112 190 0.0115374
112 273 0.0693264
112 299 0.0347189
112 314 0.0230086
112 368 0.0115365
112 386 0.0230782
112 584 0.0115358
112 763 2.95761e-05
112 978 0.011535
112 1105 9.68311e-07
113 4 2.20809e-05
113 7 0.0224153
113 8 0.0808119
113 9 4.77482e-06
113 10 1.22546e-05
113 16 0.0413757
113 20 0.0128813
113 24 0.0454809
113 41 0.0128697
113 44 4.76447e-07
113 58 0.02464
113 63 0.0130039
113 67 0.0259858
113 73 0.0519624
113 74 0.0128336
113 75 0.0321528
113 78 0.0571523
113 79 0.0325191
113 84 0.0129596
113 104 0.0770745
113 111 0.0390285
113 113 0.0130531
113 114 0.00773701
113 129 0.0325102
113 154 0.00650746
113 157 0.00651969
113 170 0.0133686
113 200 0.0845676
113 215 5.39386e-07
113 229 0.00650173
113 244 0.130035
113 252 0.013004
113 358 4.99033e-07
113 372 0.012978
113 399 0.0130039
113 408 0.00566874
113 436 0.0325101
113 557 0.0268455
113 574 7.05716e-07
113 696 2.42801e-07
114 7 1.5816e-05
114 10 0.0165969
114 11 0.0807743
114 36 4.35948e-06
114 71 0.0221918
114 83 0.026697
114 88 0.0266843
114 110 0.186619
114 128 0.026684
114 203 0.587048
114 1265 0.026684
115 15 1.41594e-05
115 34 0.142242
115 67 0.143203
115 100 0.0905964
115 119 0.46947
115 130 0.0204131
115 132 0.0408293
115 223 0.0113583
115 357 0.010206
115 376 0.010206
115 476 0.0102086
115 477 0.0204095
115 537 0.0102056
115 709 0.010206
115 903 0.000263197
115 1052 2.24232e-07
115 1168 8.21313e-06
115 1234 0.0101573
115 1329 4.11254e-06
116 6 7.30015e-07
116 14 0.33081
116 25 0.111076
116 33 1.95582e-05
116 38 1.00153e-05
116 54 2.23867e-06
116 57 0.014747
116 58 0.00015793
116 60 0.029494
116 69 0.014747
116 102 0.0147531
116 185 0.014747
116 205 0.294926
116 215 0.0270622
116 248 0.0147333
116 290 0.0147632
116 292 0.0147475
116 408 0.0147208
116 438 0.014747
116 499 0.0147468
116 524 0.014747
116 552 0.014747
116 875 0.014747
116 1286 0.014747
117 16 3.73565e-07
117 34 0.0383496
117 36 9.77567e-05
117 65 0.0120075
117 67 0.013496
117 81 0.024036
117 83 0.0227687
117 100 0.28609
117 136 0.480162
117 163 6.40424e-07
117 230 1.58818e-05
117 232 0.0240081
117 294 0.0120041
117 302 0.0149257
117 318 0.012011
117 357 6.36566e-06
117 394 0.024008
117 690 0.0240078
117 709 0.0120041
117 1216 1.93546e-07
118 4 4.43083e-07
118 8 7.13938e-07
118 10 1.93954e-06
118 16 2.20628e-07
118 29 0.073559
118 31 0.0190927
118 40 0.340307
118 45 0.0161657
118 46 0.0494973
118 48 0.0161658
118 60 0.0161658
118 76 0.0161666
118 86 0.0323244
118 88 0.016381
118 95 2.62342e-06
118 114 2.09145e-05
118 136 0.0161665
118 143 0.0161695
118 152 0.0161428
118 154 0.0161748
118 160 0.032336
118 165 0.0161661
118 167 0.0161658
118 208 0.0323242
118 223 0.0161658
118 224 0.032329
118 254 0.0161658
118 274 0.0161644
118 279 0.0161658
118 283 0.0161658
118 309 2.13027e-07
118 484 0.0161662
118 504 0.0161658
118 518 0.0161658
118 584 0.0323316
118 618 0.0161848
118 773 0.0161658
118 1267 0.0161658
119 2 6.37659e-06
119 3 6.32832e-07
119 4 0.0167136
119 12 3.7888e-07
119 26 0.0752784
119 49 0.0366989
119 57 0.0121746
119 70 3.74237e-07
119 98 0.0123002
119 99 0.306866
119 116 0.0127396
119 147 0.0122737
119 151 0.0613629
119 163 0.0123222
119 173 0.0122814
119 183 0.331374
119 193 2.33416e-06
119 238 0.0245473
119 305 0.0499146
119 660 0.0231421
120 3 0.00142252
120 7 0.0686828
120 16 0.00111268
120 26 0.0703033
120 43 0.0350224
120 45 0.023397
120 52 0.00021203
120 57 0.0231782
120 58 1.61269e-07
120 76 0.0111805
120 88 0.0116789
120 91 0.115778
120 116 0.0235583
120 125 0.0464171
120 128 0.0116773
120 139 0.0116811
120 171 0.0795758
120 211 0.0117213
120 272 0.173243
120 296 8.94003e-07
120 305 0.0810603
120 335 0.0233545
120 339 0.116773
120 554 0.023647
120 562 0.0116773
120 740 0.0116773
120 969 0.0116773
120 1000 0.000290376
121 3 0.000567436
121 5 5.16772e-05
121 6 0.11425
121 7 3.83929e-07
121 11 0.0115507
121 15 0.0635365
121 18 0.0372636
121 26 1.24474e-07
121 34 0.0201159
121 46 0.0107476
121 47 0.0844274
121 51 0.0105388
121 62 0.0441113
121 65 2.18652e-07
121 70 0.0418287
121 72 0.0533424
121 80 0.0531718
121 83 0.0211514
121 93 0.179701
121 120 0.0219727
121 152 0.0316299
121 161 0.021082
121 191 0.0105608
121 210 0.0105396
121 229 0.0105428
121 238 0.0105429
121 242 0.0105238
121 255 0.0208496
121 281 0.0105395
121 371 0.0105395
121 406 0.0105392
121 462 0.0105396
121 582 0.0105396
121 592 0.0105393
121 679 0.0105439
121 749 0.0105394
121 866 0.0105395
121 1125 0.0105395
122 34 0.0293512
122 36 0.000167052
122 53 0.0716753
122 100 0.0679472
122 119 0.0508639
122 189 0.0171026
122 201 0.491684
122 214 0.0678118
122 341 0.0169546
122 407 0.0168881
122 419 0.101736
122 536 0.0678186
123 8 0.498816
123 61 0.0101446
123 75 0.0385257
123 78 0.439584
123 219 2.43773e-07
123 567 0.0129291
124 4 1.02366e-06
124 8 0.45237
124 28 2.77372e-06
124 31 0.0124757
124 73 2.90695e-06
124 78 0.424596
124 106 0.0124009
124 219 0.0106728
124 241 0.0375271
124 269 1.17972e-05
124 331 1.49061e-05
124 571 0.0249782
124 763 0.0124559
124 861 0.0124891
125 132 0.49999
125 140 0.500008
125 298 1.64905e-06
126 2 0.00130519
126 3 0.00100575
126 4 0.0460105
126 5 3.90076e-07
126 6 6.59975e-05
126 8 8.0582e-05
126 10 2.88859e-06
126 12 0.0137565
126 16 6.15389e-07
126 20 0.0191245
126 26 0.0592526
126 30 5.36156e-07
126 46 2.6995e-06
126 47 0.00960075
126 54 0.0191467
126 55 0.00958173
126 57 0.00958134
126 59 0.04712
126 72 0.0288437
126 74 0.0192273
126 76 0.00958157
126 77 1.05864e-07
126 87 0.160891
126 107 1.85115e-06
126 113 0.02846
126 131 0.00957888
126 133 0.0951968
126 139 0.0290909
126 163 0.00958052
126 173 0.00964403
126 174 0.0400435
126 185 0.019161
126 211 0.0265938
126 218 0.00966157
126 236 0.00993185
126 253 0.00958053
126 263 0.0095805
126 295 0.0191604
126 310 0.00958653
126 400 0.00958053
126 401 0.0193886
126 406 0.00957328
126 490 0.0191394
126 513 0.00958064
126 525 0.00958052
126 568 0.00958053
126 574 0.00958052
126 584 0.0191611
126 688 0.019161
126 729 0.00958053
126 748 0.0191558
126 792 0.00958053
126 802 0.00958026
126 997 0.00958035
126 1157 0.00958052
126 1243 0.00958019
127 2 1.4125e-07
127 5 1.33603e-05
127 8 0.088
127 9 0.0394304
127 14 0.0280396
127 15 0.0454195
127 16 3.40304e-07
127 17 0.0140825
127 19 0.0146012
127 21 0.0432915
127 26 3.03555e-06
127 34 3.70715e-07
127 47 9.85015e-07
127 50 0.0140286
127 51 0.0136872
127 55 0.0280694
127 67 0.0140284
127 73 0.0421161
127 78 0.0429276
127 81 0.0141754
127 83 0.0141377
127 84 0.0420859
127 85 0.028057
127 96 0.0701427
127 101 0.0420804
127 133 0.0140186
127 144 0.014026
127 150 0.0139374
127 164 0.0280574
127 169 0.0249341
127 193 0.0280566
127 222 0.0140226
127 253 0.0140286
127 289 0.0280571
127 320 0.014025
127 332 0.0140285
127 333 0.000652666
127 334 0.0140286
127 353 0.0280572
127 393 0.0274786
127 395 0.0280572
127 411 0.0140286
127 555 0.0140286
127 611 0.0140286
127 1241 0.0140286
128 15 0.00017141
128 26 3.41205e-07
128 29 0.0189931
128 53 9.36968e-07
128 131 0.0947034
128 146 0.167688
128 175 0.678443
128 228 2.04313e-05
128 622 7.15648e-05
128 834 0.0399084
129 3 2.48377e-07
129 5 8.5767e-07
129 8 0.00251657
129 73 0.0212032
129 75 1.18186e-06
129 79 0.042786
129 129 0.698558
129 133 0.0211777
129 164 0.0211806
129 200 0.0847223
129 229 0.0231373
129 275 0.0635332
129 698 0.0211806
129 1167 2.3554e-06
130 16 1.46728e-06
130 20 0.0157513
130 41 3.03568e-05
130 74 0.480218
130 81 0.0314025
130 106 0.200406
130 108 0.0314535
130 142 5.74004e-07
130 160 7.06931e-05
130 162 0.0358513
130 193 0.015677
130 274 2.42571e-06
130 337 0.000234066
130 347 0.0470291
130 378 0.000178406
130 393 0.0319573
130 442 0.0470291
130 710 0.0156763
130 800 0.0156777
130 927 0.0156762
130 1192 0.0156764
131 3 5.25153e-05
131 6 0.000143609
131 8 6.80323e-05
131 11 1.53953e-05
131 14 4.48784e-05
131 25 0.0321258
131 39 3.90161e-07
131 46 0.0315851
131 58 2.04218e-06
131 118 0.525455
131 119 0.0315797
131 179 0.031584
131 210 0.0315904
131 247 0.031584
131 251 0.0316068
131 293 0.0630589
131 389 0.031584
131 404 0.0631678
131 413 0.031584
131 428 0.031584
131 853 0.031584
132 10 0.0297586
132 28 0.35512
132 29 1.84682e-05
132 30 0.0153824
132 43 0.0289685
132 49 0.0172039
132 57 0.0154094
132 85 0.0307647
132 90 0.0305167
132 99 0.0307633
132 103 0.0154051
132 130 0.0307644
132 141 0.153806
132 142 0.0154129
132 158 0.0153948
132 161 0.0307647
132 164 0.0307647
132 165 0.0307647
132 183 0.0153823
132 204 0.0307647
132 240 0.0153824
132 411 0.0153823
132 473 0.0153826
132 507 0.0153398
132 553 0.0153823
133 3 0.000182531
133 5 7.02305e-06
133 7 0.117885
133 9 0.823605
133 25 0.058321
134 3 4.50354e-07
134 36 0.61668
134 82 0.021563
134 169 0.0212785
134 182 0.0425548
134 184 0.0425548
134 192 0.0425548
134 196 0.0425521
134 206 0.0425509
134 217 0.0213113
134 265 0.0212774
134 270 0.0212937
134 326 0.0212774
134 1256 0.0212735
134 1320 0.0212774
135 182 1
136 2 0.190489
136 44 5.08958e-07
136 184 0.80951
137 11 0.00935529
137 58 0.000612233
137 301 0.456921
137 338 0.533112
138 6 3.45585e-06
138 13 6.47615e-06
138 16 1.08728e-06
138 42 0.057828
138 51 0.0192671
138 72 0.0192849
138 77 0.0192001
138 94 0.0385801
138 95 0.0191106
138 125 0.0382924
138 130 0.0763104
138 131 0.0385411
138 157 0.0192854
138 213 0.211096
138 243 0.0192717
138 274 1.81062e-05
138 280 0.0192722
138 294 0.0192718
138 343 0.0192722
138 365 0.0192722
138 366 0.0192679
138 387 0.0578166
138 390 0.0192722
138 416 0.09636
138 548 0.0578165
138 722 0.0385444
138 868 0.0191929
138 1085 0.0192722
138 1170 0.0192722
139 3 0.375929
139 6 3.86237e-06
139 11 0.0165013
139 37 2.47668e-06
139 38 5.17475e-07
139 105 0.00023879
139 144 0.505445
139 145 0.000747648
139 215 0.00190217
139 239 0.0518422
139 309 1.86185e-06
139 806 0.0157951
139 895 0.0157952
139 1041 0.015795
140 8 0.000228796
140 10 0.0470762
140 14 1.08248e-06
140 54 0.645593
140 58 0.19504
140 75 0.0560936
140 139 0.0279389
140 576 0.0280274
140 1294 6.18306e-07
141 4 7.39655e-06
141 7 0.0114733
141 10 0.0231747
141 18 5.47788e-07
141 19 0.0178417
141 20 0.011701
141 24 0.0337831
141 36 5.49726e-06
141 41 0.0227629
141 61 0.0227436
141 63 0.0474259
141 65 0.0113541
141 67 0.0119314
141 74 0.0159375
141 78 0.0113538
141 79 0.0474335
141 101 0.0794756
141 106 0.0227311
141 129 0.144226
141 190 0.0112983
141 200 0.147604
141 212 0.0113541
141 229 0.0788415
141 244 0.0454161
141 252 0.113531
141 295 1.51695e-06
141 337 0.0225283
141 472 0.0113541
141 495 0.0113541
141 976 0.0113541
142 3 0.000183645
142 7 4.33129e-05
142 15 1.1279e-06
142 18 0.0628432
142 35 0.0207528
142 47 5.37176e-06
142 70 0.0414997
142 73 0.064848
142 78 0.0207519
142 104 0.000167148
142 133 0.122852
142 139 0.0415063
142 163 0.02075
142 169 0.0207514
142 173 2.46233e-07
142 174 0.0200864
142 188 0.0248538
142 208 0.0207515
142 216 0.124203
142 241 0.041503
142 248 0.0207617
142 254 0.0207515
142 269 0.0415031
142 333 0.12441
142 344 0.0207515
142 391 0.0404622
142 412 0.0207515
142 503 0.0207515
142 604 0.0207515
142 1050 0.0207515
143 5 8.55834e-05
143 9 0.0029482
143 21 2.70645e-06
143 23 0.012552
143 24 0.0325125
143 27 4.67028e-06
143 28 0.0967115
143 36 0.0573385
143 39 0.0351576
143 40 7.02368e-06
143 61 0.0304928
143 71 0.0324676
143 88 0.0162477
143 90 0.0625771
143 91 0.0162419
143 95 0.0162547
143 97 0.0162506
143 104 0.0324934
143 110 0.0162477
143 122 0.0323502
143 126 0.0324953
143 127 0.0324952
143 128 0.0162477
143 148 0.0162514
143 156 0.0324719
143 157 0.0162476
143 172 0.000177646
143 178 0.0324952
143 180 0.0162477
143 219 0.0175822
143 227 0.0324953
143 234 0.0162476
143 241 0.0162476
143 243 3.104e-05
143 248 0.03249
143 251 0.0186385
143 261 0.0162477
143 269 0.0162184
143 328 0.0162321
143 359 0.0322571
143 436 0.0162476
143 456 0.0324953
143 467 0.0162479
143 471 0.0162476
144 3 6.07804e-06
144 6 1.77173e-06
144 7 0.0823564
144 11 0.022232
144 31 0.0279511
144 36 7.09933e-07
144 48 0.0278882
144 61 7.03899e-07
144 71 0.277371
144 76 0.0278368
144 86 0.278354
144 122 0.00718722
144 135 3.02624e-07
144 145 0.0278315
144 149 0.0556425
144 156 0.0259729
144 178 0.028036
144 203 0.0278323
144 549 0.027833
144 838 0.027833
144 897 0.027833
145 4 9.94706e-05
145 8 0.0216546
145 9 0.0202354
145 10 3.04832e-07
145 12 1.03336e-06
145 15 2.40789e-05
145 16 2.24853e-06
145 26 0.0436849
145 28 0.0493028
145 29 0.062487
145 36 4.00455e-06
145 37 1.03963e-06
145 43 0.0217991
145 52 0.0257046
145 68 0.00035704
145 80 0.0219011
145 94 6.4903e-06
145 104 0.0218368
145 108 0.0209934
145 114 0.0218219
145 116 0.0218222
145 122 0.0218219
145 124 0.000617209
145 131 0.0218219
145 133 1.80756e-05
145 135 0.0218194
145 155 0.0535591
145 156 0.0218219
145 157 0.0198663
145 188 0.0301037
145 199 0.0217937
145 226 0.0218218
145 239 4.59642e-06
145 258 0.0217784
145 278 0.0218219
145 280 0.0218219
145 314 0.171769
145 366 0.0212882
145 484 0.021717
145 507 6.38139e-05
145 509 0.0218214
145 514 0.0218219
145 549 0.0218219
145 564 0.0436438
145 602 0.0218219
146 6 2.04154e-07
146 7 0.0425545
146 8 0.0409727
146 13 1.64359e-06
146 33 0.340682
146 36 3.90806e-07
146 42 0.0194703
146 62 2.93474e-07
146 101 0.0706849
146 114 2.3153e-05
146 143 0.019169
146 167 0.159877
146 350 0.153054
146 529 0.0382889
146 547 0.0960757
146 769 0.0191443
147 7 5.64419e-07
147 16 1.08023e-06
147 18 0.0285372
147 26 0.104734
147 113 0.0271425
147 187 0.0249447
147 189 0.759779
147 294 0.0271433
147 308 0.000572639
147 588 0.0271448
148 7 0.245801
148 15 0.0426027
148 18 0.0841607
148 36 0.0710119
148 81 0.135387
148 270 0.069019
148 371 0.0687332
148 400 0.0687342
148 462 0.0687332
148 516 0.0770841
148 637 0.0687332
149 3 1.42615e-05
149 6 3.65174e-07
149 19 0.0182272
149 23 0.0373368
149 24 8.70213e-07
149 26 2.16263e-07
149 36 0.0546892
149 44 0.0364262
149 63 0.0182231
149 76 0.0728884
149 97 0.000353977
149 110 2.22389e-05
149 112 0.0182221
149 113 0.0729089
149 123 0.0178319
149 130 0.0728483
149 156 0.0181501
149 159 0.0728884
149 176 0.0728861
149 180 0.0182221
149 213 0.0181991
149 221 0.0364385
149 249 0.000726581
149 289 0.0182221
149 367 0.0728885
149 390 0.109327
149 412 0.0909771
149 497 0.0182221
149 526 0.0182221
149 537 0.0146357
149 548 2.155e-07
150 8 1.59945e-05
150 18 0.0237665
150 24 0.0241163
150 34 0.0712874
150 55 0.0237729
150 98 3.35953e-07
150 115 0.0237798
150 123 0.0237748
150 130 0.42788
150 145 0.0238226
150 149 0.0237748
150 186 0.0237781
150 187 0.0473022
150 221 0.023829
150 226 0.0237849
150 256 0.0003496
150 276 0.0237748
150 362 0.048541
150 363 0.0237748
150 452 0.0237748
150 742 0.0237748
150 881 0.0237748
150 1121 0.0237747
150 1333 0.0237748
151 6 1.598e-05
151 7 0.0210186
151 8 0.000345724
151 26 0.0628209
151 29 0.158623
151 34 0.0473497
151 48 0.046017
151 64 0.0233477
151 66 0.0230131
151 73 0.204357
151 99 0.0267478
151 106 3.2138e-05
151 126 0.0230372
151 127 0.0230127
151 132 0.0230122
151 137 0.0641484
151 140 0.0230122
151 187 0.0230122
151 331 0.0690043
151 361 0.0230122
151 471 0.0230122
151 542 0.0230112
151 669 0.0230122
151 706 0.0230122
151 716 0.0230122
152 4 1.24975e-05
152 9 2.82523e-06
152 12 3.59139e-07
152 21 0.0363201
152 32 0.00749594
152 36 2.35977e-06
152 50 0.0179866
152 55 3.96187e-07
152 62 2.10455e-05
152 81 0.0357703
152 82 0.0358029
152 112 0.089079
152 114 0.26728
152 125 0.10221
152 139 0.0179718
152 171 0.0538135
152 180 0.0536025
152 211 0.0179716
152 224 0.0357006
152 246 0.0359426
152 262 0.0359426
152 335 0.0179713
152 398 0.0142295
152 415 0.0179712
152 558 0.0179713
152 702 0.0359408
152 823 0.0179713
152 895 0.0170443
152 953 0.0179713
153 3 0.000216779
153 10 2.51389e-05
153 31 0.0264825
153 113 0.0508875
153 159 0.028707
153 176 0.661664
153 211 0.0764353
153 281 0.155582
154 3 1.0285e-05
154 11 1.15635e-06
154 12 7.89512e-07
154 21 0.0338747
154 36 1.43218e-06
154 54 0.0323388
154 83 0.128828
154 133 0.0322508
154 142 0.0305741
154 145 0.387252
154 146 0.000254099
154 149 0.0322614
154 166 0.0645482
154 198 6.69122e-05
154 200 0.0322764
154 316 0.0640788
154 486 0.0322764
154 491 0.0322764
154 555 0.0322764
154 910 0.0322764
154 1098 0.0322764
155 22 0.0290182
155 29 0.0578793
155 84 0.0289494
155 100 1.24489e-06
155 107 0.000159484
155 122 0.0289852
155 136 0.0289496
155 156 0.0289496
155 178 0.0289496
155 231 0.462536
155 234 0.131922
155 235 0.0289496
155 286 0.0578991
155 363 0.0289496
155 497 0.0289496
155 732 0.0289521
156 192 1
157 76 0.0858128
157 88 0.0567513
157 159 0.79617
157 176 0.0294317
157 660 0.00327047
157 1040 0.0285635
158 3 1.96012e-05
158 4 0.000155689
158 5 0.0555511
158 7 4.6796e-07
158 10 0.00016131
158 15 0.000334642
158 17 0.0137402
158 18 4.52597e-07
158 22 0.0692089
158 23 0.0693183
158 31 0.0555111
158 34 0.0280735
158 35 0.0138662
158 38 0.0138651
158 46 1.6613e-07
158 48 0.0554143
158 58 0.0282309
158 66 0.0693134
158 85 0.0138656
158 89 0.0277308
158 105 0.110794
158 126 0.0138615
158 127 0.0138662
158 134 0.0970595
158 169 0.0138656
158 181 0.0275193
158 187 0.0277303
158 205 0.0138652
158 223 0.0277315
158 238 0.000690658
158 255 0.0138656
158 282 0.013865
158 357 0.0277313
158 412 0.0138656
158 432 0.0138656
158 463 0.0138656
158 622 0.0138656
158 884 0.0138656
158 930 0.0138639
159 3 1.71247e-05
159 7 0.0492621
159 11 0.0911469
159 16 1.56906e-06
159 29 0.138741
159 37 0.0503719
159 39 0.0824098
159 42 0.0230653
159 64 0.0691307
159 67 0.0230446
159 75 0.0262055
159 80 8.84397e-05
159 92 0.0125369
159 132 0.0230412
159 140 0.0230412
159 164 0.0423254
159 168 0.0230412
159 170 0.0449975
159 194 0.0460839
159 198 2.32095e-07
159 202 1.84971e-05
159 205 0.0230431
159 237 0.0470929
159 453 0.0230463
159 534 0.0230412
159 585 0.023041
159 624 0.0230412
159 696 0.0230412
159 726 0.0230412
159 1288 0.0230412
160 3 6.88234e-07
160 7 3.18934e-06
160 11 0.000584835
160 21 7.7818e-07
160 27 0.0221687
160 36 0.026024
160 55 0.0703119
160 61 2.84667e-07
160 81 0.023448
160 86 0.0234605
160 94 0.0234572
160 112 0.273474
160 122 0.023451
160 130 5.71469e-07
160 151 0.0234521
160 153 0.0234532
160 156 0.0234526
160 159 0.0468879
160 264 0.023435
160 281 0.0468954
160 373 0.0696337
160 374 0.023448
160 400 0.02193
160 460 0.023448
160 510 0.023448
160 522 0.046891
160 637 0.023448
160 677 0.023448
160 813 0.023448
160 865 0.0234479
160 942 0.023448
161 192 2.13568e-05
161 196 0.999969
161 250 9.46895e-06
162 4 1.706e-06
162 8 0.000129187
162 13 0.0826232
162 15 5.01677e-06
162 25 0.123424
162 26 5.5125e-07
162 31 0.041719
162 54 1.77116e-06
162 57 0.0824258
162 70 3.63707e-05
162 91 0.00567384
162 101 0.08302
162 108 0.0831708
162 116 0.123096
162 153 0.0418956
162 162 0.0415846
162 199 0.157825
162 248 6.15104e-07
162 306 0.00299235
162 339 0.0415866
162 355 0.0415846
162 412 0.0415846
162 638 1.73457e-06
162 660 2.45788e-06
162 780 0.00561451
163 3 2.46167e-05
163 196 0.477989
163 217 0.502199
163 340 0.0197873
164 206 1
165 3 1.23314e-06
165 9 5.44811e-05
165 15 0.000457666
165 25 0.0740051
165 26 5.99882e-07
165 36 9.61022e-06
165 39 0.0206612
165 82 0.0370058
165 109 0.0184984
165 115 0.0184964
165 125 0.295196
165 145 0.0366397
165 171 0.203055
165 211 0.0554527
165 231 0.0739866
165 234 0.0739859
165 258 3.19405e-07
165 267 0.0185068
165 276 0.036993
165 303 6.25489e-07
165 466 0.0184964
165 606 0.0184965
166 3 7.90411e-07
166 38 0.0500899
166 54 6.71445e-06
166 81 0.0751608
166 111 0.0503004
166 131 0.00204307
166 162 0.042911
166 192 0.0500979
166 196 0.0751384
166 206 0.0500983
166 249 0.0501698
166 251 0.278657
166 349 0.0500984
166 379 0.0498656
166 386 0.0501345
166 406 0.0500934
166 640 0.0250488
166 753 0.0500856
167 26 1.01289e-05
167 122 0.466169
167 156 0.430637
167 283 0.021497
167 503 0.0214967
167 516 0.0386931
167 1293 0.021497
168 7 4.22047e-07
168 29 4.07945e-07
168 32 0.0809422
168 37 0.0383656
168 130 0.0360745
168 142 3.67035e-06
168 197 0.404559
168 259 0.404996
168 438 0.0350578
169 3 5.60871e-06
169 5 8.84171e-07
169 26 0.0664139
169 34 0.136633
169 36 0.0231645
169 67 0.0227772
169 83 0.0457724
169 96 0.0455532
169 110 0.0683309
169 130 0.0227766
169 139 0.0227795
169 145 0.0227766
169 160 0.0224955
169 161 0.0453303
169 164 0.0227766
169 187 0.0455537
169 209 0.045211
169 210 0.0455541
169 256 0.0227766
169 292 0.0455523
169 300 0.0227766
169 315 0.0227766
169 371 0.0227766
169 375 0.0227766
169 385 0.0227766
169 448 0.0227766
169 603 0.0227766
169 680 0.0227766
169 683 0.0227766
169 1146 0.0227766
170 3 0.000553116
170 5 4.74768e-05
170 20 0.0531479
170 28 0.0357261
170 34 0.0193634
170 39 0.0367463
170 40 0.0709153
170 46 0.0355402
170 61 0.0355501
170 72 0.00298796
170 75 0.0355721
170 80 0.0353295
170 87 0.106498
170 103 0.0536515
170 107 1.86309e-06
170 135 0.017801
170 143 0.017765
170 172 0.0706816
170 195 0.0355293
170 216 0.124053
170 300 0.0177575
170 303 0.034816
170 304 0.0177646
170 359 0.0177478
170 361 0.0177646
170 385 0.000102883
170 454 0.0177634
170 505 0.0177646
170 528 0.0710579
171 30 0.0221889
171 37 1.23706e-06
171 106 0.841335
171 337 0.0682065
171 506 5.99669e-05
171 669 0.0682088
172 5 0.0790023
172 53 0.00237682
172 66 0.0262968
172 70 4.41559e-05
172 100 0.0509895
172 115 0.0509898
172 136 0.0509895
172 187 0.0254948
172 210 0.025539
172 225 0.203957
172 279 0.0254948
172 318 0.0509885
172 321 0.0254948
172 357 0.0254189
172 432 0.0254948
172 464 0.0254948
172 477 0.0254947
172 511 0.152969
172 658 0.0254948
172 699 0.0764843
172 770 0.0254917
173 8 0.000131605
173 16 2.24562e-06
173 26 0.0472084
173 108 0.0475964
173 185 0.618773
173 241 0.047598
173 254 0.047598
173 269 0.047598
173 402 0.0490169
173 458 0.047598
173 1294 0.0468794
174 6 2.57849e-06
174 15 0.0950575
174 169 0.765717
174 294 0.0348062
174 710 0.0348054
174 765 0.0348055
174 1086 0.0348055
175 2 1.03314e-06
175 4 2.1308e-07
175 7 0.0405514
175 8 7.28119e-06
175 9 2.56355e-07
175 11 1.59592e-07
175 16 0.0996476
175 18 0.028542
175 21 0.0172725
175 36 1.74952e-07
175 43 0.0285955
175 45 0.0285786
175 52 3.6033e-06
175 61 0.0283643
175 64 0.0142299
175 69 0.028578
175 74 0.0984206
175 81 0.0142907
175 94 0.0142895
175 104 0.0143069
175 112 7.14688e-07
175 114 0.014268
175 123 0.0142895
175 131 0.0285785
175 148 0.0142895
175 152 0.0142895
175 162 0.0285788
175 170 0.0142868
175 245 0.0428416
175 261 0.0142895
175 266 0.0142895
175 306 0.0142895
175 322 0.0142895
175 327 1.69601e-06
175 337 0.0175521
175 344 0.0142895
175 346 0.0695521
175 365 0.0142895
175 393 0.0142895
175 415 0.0142895
175 444 0.0142895
175 459 0.0142895
175 503 0.0142895
175 534 0.0142895
175 562 0.0142895
175 569 0.0142895
175 588 0.0142895
175 604 0.0142895
175 747 0.0142895
175 788 0.0142895
175 825 0.0142895
175 906 0.0142895
176 3 1.36201e-06
176 29 0.279046
176 34 0.0555255
176 37 0.07099
176 61 1.30058e-06
176 64 0.275156
176 72 0.0183517
176 97 7.86784e-05
176 109 0.00758494
176 138 0.109732
176 148 0.018409
176 170 0.018487
176 261 0.0364735
176 286 0.073447
176 410 0.0367166
177 3 2.11756e-06
177 20 8.44568e-06
177 29 0.317483
177 34 0.0422859
177 37 0.0814229
177 41 0.0214437
177 74 0.0214588
177 84 0.0214452
177 138 0.0202623
177 168 0.259341
177 202 0.0428888
177 266 0.107226
177 351 0.0216798
177 373 0.0216064
177 889 0.0214452
178 10 3.05843e-07
178 24 6.3225e-06
178 25 0.0219143
178 62 0.0220117
178 75 0.0438635
178 85 0.0219318
178 97 3.62822e-07
178 100 0.0219323
178 103 0.0194847
178 119 0.0219323
178 123 0.306449
178 140 0.0219323
178 145 0.0657927
178 148 0.0149437
178 149 5.46684e-07
178 186 0.0219323
178 231 0.0219323
178 233 0.0877292
178 234 0.0219323
178 298 0.0219323
178 304 0.0219323
178 310 0.0219344
178 323 0.0657511
178 334 0.0219325
178 362 0.0219325
178 459 0.0219323
178 655 0.0219328
178 666 0.0219323
178 728 3.42897e-06
178 810 0.0219323
178 895 0.00112995
179 3 4.49215e-07
179 6 0.000263042
179 18 0.000206611
179 20 0.00116036
179 23 0.00178781
179 26 0.0525316
179 28 0.138111
179 35 0.000480898
179 38 0.222207
179 70 0.0357017
179 73 0.00010077
179 90 0.140286
179 150 0.0369525
179 191 0.0736784
179 332 0.222243
179 379 0.0742892
180 2 1.25841e-05
180 8 8.77169e-06
180 52 0.0295628
180 57 0.0592108
180 58 3.39679e-06
180 70 0.0296089
180 76 0.0295978
180 88 0.0295825
180 117 0.0591724
180 122 0.0515362
180 128 0.029586
180 156 0.0315639
180 164 0.0569049
180 185 0.0295861
180 258 0.0587792
180 261 0.0295862
180 387 0.0295862
180 458 0.0591722
180 516 0.091083
180 535 0.118345
180 558 0.0295862
180 559 0.0591724
180 614 0.0591655
180 691 0.0295854
180 1303 1.93752e-06
181 20 0.0256076
181 29 5.51432e-05
181 30 0.026355
181 32 0.0263549
181 60 0.026355
181 73 0.342258
181 75 0.0268737
181 81 0.0263468
181 83 0.026355
181 95 0.026355
181 103 0.0263548
181 109 0.026355
181 115 0.0263524
181 180 0.0263072
181 186 0.0263549
181 228 0.0263549
181 256 0.026355
181 295 4.44264e-05
181 331 0.10542
181 415 0.026355
181 459 0.0263549
181 596 0.026355
181 776 0.0254114
181 989 0.026355
181 1039 0.026355
182 9 0.0240121
182 19 8.17368e-05
182 32 0.0247641
182 44 0.0247742
182 86 1.6334e-06
182 190 0.0559809
182 202 0.0247742
182 212 0.0740334
182 228 0.0739975
182 241 0.0247742
182 312 0.297291
182 321 0.0247752
182 373 0.000717371
182 448 0.17342
182 477 0.0527316
182 496 0.0247741
182 515 0.0247742
182 555 0.0247742
182 625 0.0247742
182 823 0.0247742
183 3 1.1282e-06
183 4 0.0167313
183 7 5.49134e-06
183 8 1.22684e-05
183 14 0.0369354
183 15 0.00135668
183 17 0.0184313
183 25 0.0369399
183 29 1.43954e-05
183 31 2.50744e-07
183 47 0.0181623
183 49 0.0184709
183 52 0.0211027
183 59 0.350672
183 68 0.0185822
183 73 0.00156362
183 81 0.0184337
183 89 0.0185906
183 110 0.0369056
183 118 0.0183059
183 120 7.13134e-05
183 133 0.0184865
183 155 0.0361027
183 164 0.0214428
183 195 0.0184659
183 205 0.0184605
183 218 0.0184631
183 222 0.0184703
183 223 0.0184703
183 236 0.0181476
183 263 0.0184703
183 271 0.07138
183 619 0.0184703
183 662 0.0184703
183 714 0.0184703
183 1009 0.0184702
183 1127 0.0184703
184 3 0.000733566
184 19 2.48298e-05
184 23 0.0567929
184 284 0.892846
184 982 0.0496023
185 8 6.62196e-07
185 16 0.00264237
185 29 1.07342e-06
185 32 0.00625664
185 45 0.0652933
185 72 0.0207177
185 85 4.88071e-05
185 96 0.0217657
185 109 0.0872491
185 118 0.0217804
185 142 0.0226769
185 169 0.0261631
185 190 0.0251197
185 212 0.0429253
185 230 0.0217657
185 241 0.0866409
185 254 0.17396
185 267 0.0479467
185 269 0.0872137
185 343 0.0439419
185 375 0.0217657
185 397 0.130594
185 415 0.0217657
185 524 0.0217657
186 16 0.00446405
186 20 3.96077e-07
186 29 0.0882263
186 61 0.0591931
186 73 0.465534
186 78 0.029437
186 137 0.117633
186 153 1.45939e-05
186 177 0.029437
186 188 0.0588742
186 278 0.029437
186 292 0.0294372
186 413 0.0588745
186 1292 0.0294372
187 22 0.00647032
187 26 0.0265476
187 36 0.74638
187 145 0.0367374
187 235 0.0735499
187 543 0.0735388
187 1014 0.0367755
188 4 0.0451127
188 7 0.115099
188 38 0.0231826
188 249 0.396766
188 273 0.116482
188 379 0.0699059
188 423 0.23345
188 578 1.34716e-06
189 29 6.16029e-07
189 36 0.0586596
189 45 0.0944442
189 54 0.217021
189 177 0.5037
189 251 0.0317226
189 444 0.0314845
189 531 0.031484
189 599 0.031484
190 18 0.0614639
190 26 0.000849858
190 71 4.48799e-07
190 112 4.00201e-07
190 117 0.0306932
190 122 0.0306928
190 146 0.320257
190 210 0.0613812
190 214 0.0613862
190 233 0.0306938
190 235 0.122777
190 310 0.0306932
190 318 0.0920749
190 354 5.66551e-05
190 356 0.0613863
190 381 0.0306932
190 530 0.0306932
190 622 0.00351414
190 652 0.0306932
191 34 0.0585879
191 38 0.0659086
191 41 0.0329542
191 81 0.032954
191 114 0.000105957
191 119 0.0329543
191 150 0.0329543
191 167 0.249485
191 193 0.0329427
191 249 0.0659086
191 288 0.0329577
191 294 0.0329543
191 386 0.0329546
191 401 0.0329543
191 464 0.0329543
191 526 0.0659086
191 620 0.0329543
191 707 0.0327435
191 757 0.0329543
191 826 0.0329543
191 1261 0.0329543
192 3 0.000154133
192 28 0.0350579
192 34 0.000599236
192 36 0.0554212
192 58 0.000116195
192 81 0.0701107
192 264 0.245357
192 283 0.0321073
192 307 0.0350539
192 333 0.0350561
192 383 0.139954
192 434 0.0350569
192 447 0.10562
192 497 0.0350569
192 728 0.105165
192 994 0.0350569
192 1169 0.0350569
193 62 0.138315
193 191 0.103422
193 263 0.241969
193 291 0.102665
193 307 0.379157
193 308 0.034473
194 28 0.0752571
194 32 0.131694
194 76 0.0330272
194 90 0.0334219
194 97 0.0330269
194 103 0.0330269
194 104 0.033027
194 113 0.0330352
194 149 0.0330268
194 159 0.0330269
194 174 0.0330269
194 176 0.0330269
194 188 0.0330268
194 223 0.0330273
194 246 0.0990806
194 262 0.0990806
194 403 0.0660537
194 492 0.0330269
194 574 0.0330269
194 595 0.0330269
194 1046 0.0330269
195 3 0.00352096
195 11 0.0667205
195 36 0.161427
195 71 0.0404378
195 86 0.0808748
195 160 2.18465e-06
195 166 0.0808775
195 220 0.283068
195 463 0.0808775
195 570 0.121316
195 818 0.0808775
196 7 0.210976
196 8 0.254561
196 29 3.39145e-07
196 75 0.0197233
196 83 0.0191401
196 85 0.0190437
196 208 0.171299
196 248 0.0190417
196 292 0.0380865
196 387 0.0190305
196 403 0.0761731
196 416 0.0190433
196 555 0.0190433
196 651 0.0190478
196 762 0.0190433
196 781 0.0196198
196 788 0.0190407
196 890 0.0190433
196 1116 0.0190433
197 8 0.000269603
197 11 0.00541228
197 26 0.0944731
197 34 2.03097e-06
197 149 0.000146762
197 214 0.0704929
197 360 0.651382
197 480 0.0592143
197 539 0.118433
197 1287 0.000174195
198 5 0.062818
198 20 0.0754293
198 29 0.168984
198 37 0.0237878
198 40 0.0502921
198 41 0.062864
198 42 0.0125726
198 59 0.0125727
198 68 0.0125726
198 78 0.0125684
198 99 0.0125725
198 101 0.0125726
198 103 0.0125727
198 105 0.0125727
198 109 0.0124611
198 121 0.0879847
198 135 0.0130395
198 137 0.0125727
198 138 0.0251504
198 143 0.0126271
198 172 0.0125733
198 183 0.0125722
198 188 0.0125727
198 190 0.0125826
198 197 0.0251422
198 198 0.0125727
198 212 0.0126358
198 218 0.0125726
198 238 0.0251453
198 286 0.0251577
198 309 0.0125726
198 358 0.0398747
198 410 0.0125754
198 413 0.0125727
198 461 0.0125727
198 596 0.0125725
198 681 0.0125727
198 995 0.0125727
199 11 0.042012
199 18 0.00082205
199 19 0.0823556
199 21 0.0839048
199 24 0.0210115
199 58 8.67896e-07
199 62 0.0419744
199 65 0.0419465
199 76 0.0209883
199 78 0.0209883
199 80 0.0419495
199 86 0.0209881
199 88 0.0419765
199 123 0.0211052
199 130 7.85756e-05
199 152 0.203074
199 180 0.0419765
199 188 0.0209883
199 226 0.104941
199 239 0.0209883
199 268 0.0419765
199 328 0.0209883
199 331 0.0209883
199 507 0.0209883
199 1100 0.0209883
200 16 0.000108203
200 54 9.01115e-05
200 81 0.0714321
200 112 0.0712605
200 130 0.0356658
200 220 0.0357053
200 279 0.535737
200 294 0.0357159
200 321 0.0357159
200 345 0.0357055
200 434 0.0357159
200 476 0.0357159
200 489 0.0357159
200 826 0.0357159
201 9 0.0835339
201 16 0.144784
201 39 0.0257674
201 55 0.0256683
201 67 0.33231
201 71 0.00190642
201 73 0.0257811
201 96 0.0514484
201 110 0.0257064
201 122 0.0257109
201 145 0.0257238
201 156 0.0257109
201 178 0.0257133
201 193 0.0257109
201 215 0.00141007
201 237 0.0760179
201 395 0.0257109
201 502 0.0257109
201 1072 0.0256745
202 12 0.0211976
202 17 1.52031e-05
202 22 0.0212732
202 54 0.0212639
202 88 0.0212609
202 91 0.276438
202 128 0.021255
202 157 0.0431545
202 214 0.0212646
202 277 0.276439
202 294 0.0212645
202 311 0.0637935
202 334 0.0637935
202 609 0.0212646
202 655 0.0637932
202 735 0.0212646
202 1108 0.0212646
203 7 0.0270396
203 8 0.0823863
203 16 3.16628e-06
203 75 0.0824235
203 114 0.0603383
203 157 0.133364
203 190 0.0551557
203 194 0.0076882
203 212 0.0551559
203 227 0.330852
203 285 0.0275844
203 399 0.0551684
203 487 0.0276783
203 720 0.0275773
203 848 0.0275844
204 36 0.0292893
204 100 0.142549
204 126 0.02855
204 127 0.0285789
204 225 0.02855
204 235 0.0285508
204 298 0.228316
204 321 0.19985
204 347 0.02855
204 441 0.0859151
204 498 0.0856501
204 700 0.0571
204 858 0.02855
205 9 1.1248e-06
205 16 1.38462e-05
205 29 0.0329853
205 37 0.0585111
205 64 0.0594827
205 83 2.32807e-05
205 97 0.106418
205 138 0.0298154
205 157 0.0297228
205 188 0.0297597
205 261 0.207622
205 267 0.0290088
205 400 0.0297597
205 414 0.208318
205 439 0.0595195
205 718 0.0297597
205 729 0.0297597
205 905 0.0297597
205 964 0.0297595
206 3 7.65209e-07
206 34 0.28957
206 41 0.0546967
206 117 0.0437072
206 187 0.349708
206 356 0.0437499
206 431 0.174854
206 550 0.0437136
207 15 0.265908
207 53 0.0299562
207 63 0.0298492
207 81 0.171475
207 201 0.0295661
207 417 0.029821
207 493 0.17737
207 575 0.118247
207 657 0.088685
207 719 0.0591232
208 24 0.162834
208 37 0.0916746
208 79 0.0437492
208 108 0.0440205
208 109 0.00046841
208 138 0.0440842
208 161 0.0440205
208 188 0.0440202
208 194 0.0440204
208 227 0.0440205
208 247 0.0440205
208 278 0.0440204
208 282 0.0440205
208 294 0.0440205
208 307 0.0440205
208 358 0.0849234
208 385 5.35377e-07
208 434 0.0440205
208 564 0.0440204
208 1297 0.0440205
209 9 2.50339e-06
209 14 0.125522
209 21 0.0911325
209 25 0.0900048
209 36 0.17066
209 81 0.0428232
209 246 0.0430553
209 247 0.0861118
209 262 0.0430553
209 282 0.0861107
209 405 0.0431316
209 417 0.0430622
209 583 0.0492174
209 734 0.0430553
209 987 0.0430553
210 4 1.2806e-06
210 8 2.76109e-05
210 11 0.0588939
210 12 0.0266718
210 34 0.0589206
210 36 0.147042
210 40 0.0289985
210 91 0.0294637
210 115 0.0589227
210 126 0.0294613
210 127 0.0294613
210 143 0.0294608
210 145 0.117555
210 166 0.176502
210 187 0.00238854
210 254 0.0294616
210 277 0.0294617
210 362 0.0294613
210 374 0.0294613
210 464 0.0294613
210 477 0.02946
210 586 0.0294613
211 3 0.000931733
211 8 0.0340761
211 10 0.0432858
211 129 0.139212
211 208 0.0460792
211 287 0.690389
211 837 0.0460263
212 19 0.0485018
212 21 0.3359
212 34 0.000229785
212 77 0.0373847
212 86 0.0542164
212 214 0.08724
212 336 0.0970061
212 540 0.291016
212 612 0.0485052
213 3 1.02786e-06
213 166 0.529407
213 548 0.058822
213 632 0.235297
213 670 0.176473
214 3 1.88978e-05
214 16 2.27658e-06
214 29 0.287324
214 61 3.89163e-06
214 64 0.343256
214 97 0.0528675
214 104 0.0264046
214 132 0.0262809
214 135 0.0264019
214 140 0.0264046
214 157 1.41253e-06
214 194 0.052842
214 202 0.105382
214 650 0.0264046
214 676 0.0264043
215 29 0.338509
215 34 0.00021226
215 37 1.56421e-06
215 43 0.0213788
215 45 0.0213788
215 53 0.0213788
215 61 1.94951e-06
215 135 0.0201962
215 138 0.0851312
215 187 0.0213788
215 194 6.76714e-05
215 197 0.235164
215 202 0.0214193
215 225 0.0213788
215 259 0.106888
215 306 0.0213788
215 598 0.0213788
215 899 0.0213788
215 1318 0.0213783
216 2 9.42548e-07
216 4 0.000650176
216 11 4.95672e-07
216 15 1.22339e-06
216 44 0.029392
216 59 0.0294189
216 68 0.0293921
216 91 0.0294799
216 94 0.0294377
216 101 0.029383
216 126 0.0587842
216 127 0.0587842
216 133 0.029392
216 151 0.0307367
216 155 0.0293965
216 164 0.0293921
216 263 0.0293921
216 282 0.0293921
216 325 0.20547
216 358 0.029391
216 387 0.0293921
216 407 0.175046
216 451 0.0294902
216 541 0.0293921
216 814 0.0293916
217 7 0.0556002
217 18 0.113784
217 33 0.113783
217 42 0.118866
217 80 0.0853403
217 101 0.0859338
217 143 0.14223
217 242 0.113785
217 248 0.0284466
217 411 0.0284466
217 576 0.0284466
217 593 0.0853374
218 6 7.74068e-07
218 8 3.55758e-07
218 20 0.0324692
218 29 1.3006e-06
218 40 0.0610121
218 41 0.0528899
218 54 0.395121
218 98 0.0609718
218 102 0.0305059
218 141 0.031462
218 143 0.0305059
218 185 0.0305059
218 207 0.0305059
218 239 0.0305052
218 265 0.0305059
218 458 0.0305034
218 487 0.0305059
218 526 3.9676e-06
218 535 0.0305059
218 661 0.0305057
218 695 0.0305058
218 985 0.0305059
219 8 1.35282e-06
219 33 0.0881577
219 100 0.0791234
219 119 0.0396311
219 140 0.0395825
219 178 0.0395837
219 235 0.0792912
219 298 0.0395836
219 354 0.0395837
219 374 0.0395837
219 378 0.0395832
219 384 0.118751
219 388 0.278379
219 764 0.0395837
219 810 0.0395814
220 8 0.00014682
220 11 1.03468e-05
220 33 0.0981937
220 36 6.19388e-07
220 48 0.050401
220 62 0.341557
220 191 0.340668
220 215 0.0554538
220 248 0.0567791
220 301 0.0567893
221 5 2.45364e-07
221 33 0.11917
221 46 0.110283
221 74 0.0240797
221 98 0.0240964
221 116 0.0240797
221 147 0.0240797
221 199 0.0481417
221 223 0.072239
221 238 0.0481534
221 253 0.0240797
221 255 0.192637
221 302 0.0481592
221 349 0.0240796
221 393 0.0240797
221 526 5.11829e-06
221 548 0.0240797
221 558 0.0240797
221 636 0.0240797
221 640 0.0240796
221 757 0.0240793
221 767 0.0240797
221 835 0.0240797
221 1331 0.0240796
222 47 1
223 7 1.12861e-05
223 20 1.12247e-05
223 21 1.01711e-05
223 22 0.0290435
223 23 0.029062
223 41 0.116012
223 47 0.0289415
223 52 0.0290939
223 74 0.301807
223 81 0.0580298
223 86 0.0580699
223 106 0.117405
223 226 8.52462e-06
223 274 0.0290614
223 344 0.0290621
223 556 0.0290609
223 705 0.029062
223 944 0.0290621
223 1019 0.029062
223 1123 0.0290621
223 1246 0.0290621
224 16 7.60893e-06
224 81 0.257376
224 404 4.83029e-05
224 405 0.318393
224 417 0.371092
224 719 1.92967e-06
224 1023 0.053081
225 13 0.0005675
225 15 1.3622e-06
225 19 0.0785031
225 21 0.0785005
225 22 0.0393507
225 23 0.0784996
225 48 4.034e-07
225 49 0.0394837
225 53 0.0784533
225 57 0.0387213
225 63 0.0783332
225 112 0.0865241
225 124 0.03925
225 148 0.0390554
225 157 0.0392491
225 230 0.0390196
225 232 0.0392494
225 345 0.0502722
225 504 0.0392437
225 565 0.0784726
225 605 0.0392493
226 7 1.19338e-05
226 10 0.0309007
